{"encoder.0.weight": [[[[0.2731303572654724, -0.015957780182361603, 0.012694459408521652], [0.31835103034973145, -0.0385127067565918, 0.2212780863046646], [0.26071619987487793, 0.28728026151657104, -0.010961740277707577]]], [[[0.05259529873728752, -0.19060897827148438, -0.14829012751579285], [-0.15756544470787048, -0.015582919120788574, 0.15258190035820007], [-0.04484860226511955, -0.1423894166946411, 0.0029532115440815687]]], [[[0.1131080910563469, -0.16494464874267578, 0.24184028804302216], [0.1453775316476822, 0.13842295110225677, 0.24446433782577515], [0.23534448444843292, 0.10796917229890823, 0.18227437138557434]]], [[[0.13765406608581543, 0.177635058760643, 0.32590940594673157], [0.15072263777256012, 0.033472854644060135, -0.144941046833992], [-0.08083214610815048, 0.05727173760533333, 0.24795521795749664]]], [[[-0.1816568523645401, 0.01827431097626686, -0.05685991421341896], [-0.02540312148630619, 0.12581685185432434, 0.20052248239517212], [0.2341344952583313, -0.2202741950750351, -0.31486666202545166]]], [[[-0.011498229578137398, 0.23602810502052307, 0.09089165180921555], [0.07011137902736664, 0.1306481957435608, -0.11640092730522156], [0.1480640321969986, -0.25584739446640015, 0.0629642978310585]]], [[[0.06052291393280029, -0.25817689299583435, 0.16901972889900208], [0.2724282145500183, 0.09813500195741653, -0.20103387534618378], [-0.2682134807109833, -0.14130812883377075, 0.11033009737730026]]], [[[-0.1667279601097107, -0.2252681404352188, 0.2751052975654602], [0.13138683140277863, 0.23804442584514618, 0.030383380129933357], [0.15600848197937012, -0.2862965166568756, -0.23572763800621033]]]], "encoder.0.bias": [0.09960557520389557, -0.09163956344127655, -0.12650619447231293, 0.038380153477191925, -0.08149483054876328, -0.26555654406547546, 0.1370198279619217, -0.2435939759016037], "encoder.2.weight": [[[[-0.11145706474781036, -0.01665426231920719, -0.029562165960669518], [-0.03099214658141136, -0.08201738446950912, -0.09693615138530731], [0.0571025125682354, 0.034995533525943756, -0.027927340939641]], [[-0.015817726030945778, 0.10337001830339432, -0.08825672417879105], [0.03698799014091492, -0.1021171361207962, 0.07959306985139847], [0.05213749408721924, 0.08311749249696732, 0.045311544090509415]], [[-0.08192615956068039, 0.05468970164656639, 0.025424713268876076], [-0.006085419561713934, -0.049589261412620544, 0.10773791372776031], [0.030017584562301636, 0.02309509739279747, -0.014870885759592056]], [[-0.018016453832387924, -0.02639852650463581, 0.09067880362272263], [-0.010096213780343533, -0.08925583213567734, 0.035239823162555695], [-0.044766996055841446, 0.06797268986701965, -0.09997330605983734]], [[-0.029961196705698967, 0.09128478914499283, 0.09838761389255524], [0.001531834714114666, 0.10831692814826965, -0.07506062835454941], [-0.0738874301314354, -0.08351454138755798, 0.10394633561372757]], [[-0.09131848812103271, 0.045782845467329025, 0.0005998584092594683], [0.06688118726015091, 0.02739867754280567, 0.07823243737220764], [-0.02852608636021614, 0.08073806017637253, -0.07713985443115234]], [[0.07332291454076767, -6.106458022259176e-05, 0.10825783759355545], [0.026009509339928627, 0.09879458695650101, -0.05937202274799347], [-0.050341811031103134, -0.0016988918650895357, -0.0654054582118988]], [[-0.09289491176605225, -0.06704919785261154, -0.013826179318130016], [-0.018884943798184395, -0.030526787042617798, -0.03745731711387634], [0.05322951823472977, 0.0055792927742004395, 0.02388242818415165]]], [[[-0.10798783600330353, 0.06782357394695282, -0.09135967493057251], [0.021812720224261284, 0.07975543290376663, 0.03607705608010292], [-0.08825989812612534, -0.11011509597301483, 0.09831909835338593]], [[0.10568034648895264, -0.08267293870449066, 0.05697888508439064], [-0.10966716706752777, 0.08355764299631119, -0.08056926727294922], [0.0043279617093503475, -0.009398241527378559, -0.05704861134290695]], [[0.004542249720543623, 0.04442589730024338, -0.10885343700647354], [-0.06254822760820389, 0.07449330389499664, 0.02270437963306904], [-0.019390704110264778, -0.08753960579633713, 0.0547998771071434]], [[-0.048034731298685074, -0.012566706165671349, -0.0887853279709816], [-0.10222980380058289, -0.09517251700162888, -0.10596133768558502], [0.05752470716834068, -0.09029264003038406, 0.0005216121207922697]], [[0.06926517188549042, -0.07029174268245697, -0.10765652358531952], [-0.017384441569447517, -0.06485474109649658, 0.06304364651441574], [0.0280617643147707, -0.08379513025283813, -0.09003773331642151]], [[0.04295874387025833, 0.028321504592895508, 0.006537524051964283], [0.05753255635499954, 0.10905669629573822, -0.09853901714086533], [-0.004137283656746149, 0.043416112661361694, 0.035149503499269485]], [[0.09051626920700073, -0.07304985821247101, -0.09642618894577026], [0.10978864878416061, -0.0007468634285032749, 0.03056986816227436], [0.0679878517985344, -0.0963764563202858, -0.08648402988910675]], [[-0.05339495837688446, -0.06826698035001755, -0.015468033961951733], [-0.11373566091060638, 0.09552162885665894, -0.07956794649362564], [0.010563756339251995, -0.009696430526673794, 0.021046534180641174]]], [[[-0.11226651817560196, -0.09657099097967148, 0.09332060068845749], [0.01613246463239193, 0.07987283170223236, -0.10855179280042648], [-0.05868612974882126, -0.05734564736485481, -0.10296966880559921]], [[0.06245645880699158, -0.01036726776510477, 0.06203374266624451], [-0.00935706403106451, 0.03206540644168854, 0.01636359840631485], [0.06306204199790955, -0.11355894058942795, 0.0981765165925026]], [[0.1082032099366188, -0.097074955701828, -0.011772584170103073], [0.046751223504543304, -0.10192293673753738, -0.030266761779785156], [-0.013908334076404572, -0.03634820133447647, 0.017267325893044472]], [[-0.04477706551551819, 0.07115320861339569, 0.0020045603159815073], [-0.08632759004831314, 0.04883819445967674, -0.0706620141863823], [0.025462443009018898, -0.06317663937807083, 0.008499628864228725]], [[0.026985052973031998, -0.0692317932844162, 0.11580842733383179], [-0.01783047802746296, 0.01788805052638054, -0.06728720664978027], [-0.05237959697842598, -0.02013346552848816, -0.04369747266173363]], [[0.045665252953767776, -0.11770940572023392, -0.06892312318086624], [0.02523944340646267, -0.04479663446545601, -0.07196268439292908], [0.04640495777130127, 0.00881792139261961, 0.008214954286813736]], [[0.06897871196269989, -0.05492526665329933, -0.09990734606981277], [-0.0792485773563385, 0.06613579392433167, 0.036528054624795914], [-0.11660510301589966, 0.11365066468715668, 0.04921264201402664]], [[0.11251989006996155, -0.09228627383708954, 0.10449541360139847], [-0.11266002804040909, 0.030026398599147797, 0.019690895453095436], [0.09231738746166229, 0.11293353140354156, 0.04639020562171936]]], [[[0.09917157888412476, -0.012296133674681187, -0.007672868203371763], [0.012085401453077793, -0.012062962166965008, 0.04510046914219856], [-0.10452552139759064, -0.006589426659047604, -0.1131688728928566]], [[-0.01920362189412117, 0.11261771619319916, 0.0766354352235794], [-0.10418172925710678, -0.004780717194080353, 0.032247453927993774], [-0.11142758280038834, -0.02301899343729019, 0.0498003214597702]], [[0.04116368666291237, 0.057295460253953934, -0.043703630566596985], [-0.10968799889087677, 0.06107209995388985, -0.035864099860191345], [-0.037947796285152435, 0.014063441194593906, -0.06581667810678482]], [[-0.07988929003477097, 0.09145918488502502, 0.08043471723794937], [0.07960905879735947, 0.029253020882606506, -0.00011843605898320675], [0.0977284163236618, 0.07585547119379044, -0.0028272175695747137]], [[-0.047739177942276, -0.08485586196184158, 0.046515315771102905], [-0.072964608669281, -0.03463629260659218, -0.11541591584682465], [-0.0472438745200634, -0.08301226049661636, 0.006816629320383072]], [[0.03466438129544258, 0.10019134730100632, 0.1031908169388771], [0.038111452013254166, -0.0745907574892044, 0.055296145379543304], [0.08934161067008972, 0.062376055866479874, 0.11143653094768524]], [[0.11318948864936829, 0.01357087679207325, -0.028487641364336014], [-0.06919299066066742, -0.018580157309770584, -0.04980552941560745], [0.04096013680100441, -0.07093321532011032, -0.05835696682333946]], [[-0.022205160930752754, 0.014561809599399567, 0.06653127074241638], [0.004221892450004816, 0.03121580369770527, 0.10617683082818985], [-0.02381144091486931, 0.019492894411087036, -0.04683109000325203]]], [[[-0.07805825024843216, 0.09415154904127121, 0.05984515696763992], [0.07620882987976074, -0.1149919405579567, 0.11100280284881592], [0.10756973922252655, 0.04177301377058029, -0.07088989019393921]], [[0.0591704398393631, -0.0843687355518341, -0.09792119264602661], [-0.005771462805569172, -0.07877448201179504, -0.02404909022152424], [0.10152338445186615, 0.030869390815496445, 0.05527328699827194]], [[0.010429436340928078, -0.09506534785032272, 0.037794098258018494], [-0.10859812051057816, -0.07087875157594681, -0.036019228398799896], [0.0942959263920784, 0.041073936969041824, 0.08399853110313416]], [[-0.10356034338474274, 0.10950732976198196, 0.05310308188199997], [0.04053866118192673, 0.10155407339334488, 0.10883881151676178], [0.07315663248300552, 0.05162009596824646, 0.07449935376644135]], [[-0.06360635161399841, -0.08469703048467636, 0.002672642469406128], [0.0012172107817605138, 0.04377651959657669, -0.03554573655128479], [0.10891246050596237, 0.09644206613302231, -0.05049657076597214]], [[-0.07278192043304443, -0.03835386782884598, 0.05651553347706795], [-0.021884948015213013, 0.1078173816204071, -0.10013586282730103], [0.04439261183142662, 0.0481790229678154, 0.0046732788905501366]], [[-0.0448874905705452, 0.1152908131480217, 0.08713310956954956], [-0.1164257824420929, 0.04109927639365196, -0.024122990667819977], [0.08001625537872314, 0.002643244108185172, 0.09606388211250305]], [[0.10245934128761292, -0.07239553332328796, 0.011879748664796352], [0.06507425010204315, 0.0723423957824707, 0.06954937428236008], [-0.09803342819213867, 0.07737205922603607, 0.07848143577575684]]], [[[0.01635044626891613, -0.10317858308553696, 0.10463877767324448], [0.07540822774171829, -0.009592168033123016, -0.05439847335219383], [0.03637685999274254, -0.0478101409971714, 0.05172208324074745]], [[0.05599992722272873, 0.05722915381193161, 0.0840350016951561], [-0.06029263883829117, -0.08897069096565247, -0.0683894008398056], [0.081930972635746, -0.0493115596473217, -0.01666444167494774]], [[-0.03683846443891525, 0.05945225805044174, -0.09264453500509262], [0.09138434380292892, -0.05625208467245102, 0.0024714565370231867], [-0.08256687223911285, -0.020755665376782417, -0.048706814646720886]], [[-0.06210172548890114, 0.11019634455442429, -0.08328287303447723], [-0.020128218457102776, -0.015771809965372086, -0.04129016771912575], [-0.029093172401189804, -0.007766474969685078, -0.0580424927175045]], [[-0.03652408346533775, 0.05048472434282303, -0.10537351667881012], [-0.09799303859472275, -0.104888416826725, -0.025707188993692398], [0.061319589614868164, -0.10798882693052292, -0.02221921645104885]], [[0.02021447941660881, 0.10531625151634216, -0.10132624208927155], [0.08377853035926819, 0.07547467201948166, 0.05481425300240517], [0.058064237236976624, -0.054159052670001984, -0.01955467276275158]], [[-0.022538868710398674, -0.0419720783829689, 0.04177619889378548], [0.052448954433202744, -0.11668437719345093, -0.021132808178663254], [-0.06971773505210876, -0.10177566111087799, 0.1142280325293541]], [[0.050854045897722244, -0.0893210917711258, -0.057987794280052185], [-0.046994369477033615, -0.09563609957695007, -0.11137181520462036], [-0.09105797857046127, -0.044815756380558014, -0.06625732034444809]]], [[[0.05124235898256302, 0.08213474601507187, -0.09343971312046051], [-0.042558856308460236, -0.00925498642027378, -0.004606972448527813], [-0.08322804421186447, -0.08285686373710632, 0.05149552971124649]], [[0.07223931699991226, 0.009624289348721504, 0.06923642754554749], [-0.06985621154308319, -0.09944751113653183, -0.010041599161922932], [-0.06850209087133408, 0.04535073786973953, -0.06568347662687302]], [[0.045902103185653687, -0.06633995473384857, -0.012532359920442104], [0.033399391919374466, 0.0015495024854317307, -0.0018240086501464248], [-0.06786885112524033, 0.02790789306163788, -0.1060747355222702]], [[0.058816105127334595, -0.053408414125442505, 0.047328535467386246], [0.060948263853788376, -0.0830773115158081, -0.06841732561588287], [-0.02471786178648472, 0.0994921550154686, 0.007374003995209932]], [[-0.08855253458023071, 0.10266304761171341, 0.09680816531181335], [-0.07468753308057785, 0.0560104064643383, -0.06772591173648834], [0.011048655956983566, 0.03663395717740059, -0.06262321770191193]], [[-0.0777328610420227, -0.11166828125715256, -0.03760727122426033], [-0.09602507203817368, -0.09451515227556229, -0.018379060551524162], [-0.043087903410196304, -0.027678320184350014, 0.01857864484190941]], [[-0.014621739275753498, -0.08240944892168045, -0.009161713533103466], [0.10447341203689575, -0.04597536474466324, 0.07538749277591705], [0.09193577617406845, -0.02537854202091694, 0.11609688401222229]], [[-0.012452553026378155, 0.09163573384284973, 0.08534935116767883], [0.05809128284454346, 0.08029559254646301, 0.039052147418260574], [-0.0032727872021496296, -0.06240029260516167, -0.07557331770658493]]], [[[-0.06469915807247162, 0.08256859332323074, 0.0799558237195015], [0.08975663036108017, -0.10169437527656555, 0.043552640825510025], [0.03118482604622841, -0.06547015905380249, 0.07549653947353363]], [[0.031540483236312866, 0.06674126535654068, -0.11518634110689163], [0.11523566395044327, -0.09947891533374786, 0.0652042105793953], [-0.09602955728769302, -0.1158115491271019, -0.02929665334522724]], [[0.0774577260017395, 0.0440845713019371, -0.01999582350254059], [0.10434360057115555, -0.11227524280548096, -0.004040473606437445], [-0.043678488582372665, 0.10492163151502609, -0.02011747658252716]], [[-0.011689816601574421, -0.0893716812133789, 0.0361940898001194], [-0.0945812240242958, -0.016886064782738686, 0.0020426076371222734], [-0.10808953642845154, 0.08368172496557236, 0.04458504542708397]], [[-0.07310289144515991, -0.07446085661649704, 0.11511849611997604], [-0.05625993013381958, -0.008434360846877098, -0.11240477114915848], [0.07452907413244247, -0.06152244284749031, 0.05954541638493538]], [[0.11619304120540619, -0.05169462785124779, -0.019175229594111443], [-0.05623145401477814, 0.042136047035455704, 0.05446537584066391], [-0.11410819739103317, -0.0058546788059175014, 0.09716005623340607]], [[0.032287467271089554, 0.01399828027933836, -0.047032978385686874], [0.0670923963189125, 0.02258572168648243, 0.06272214651107788], [0.08844901621341705, -0.08681881427764893, -0.0762265995144844]], [[-0.09207310527563095, -0.008005800656974316, 0.037275608628988266], [0.05199700966477394, 0.11199630051851273, -0.11520454287528992], [-0.04067172855138779, 0.013532555662095547, -0.10504269599914551]]]], "encoder.2.bias": [0.08228186517953873, -0.017942916601896286, -0.013996505178511143, -0.06665961444377899, 0.0437854528427124, -0.026214418932795525, 0.10089844465255737, -0.018803324550390244], "encoder.4.weight": [[[[-0.05590901896357536, 0.0036335743498057127, 0.0023586987517774105], [0.007678662892431021, 0.11664386838674545, 0.06825683265924454], [0.08787677437067032, -0.011720537208020687, 0.019822150468826294]], [[-0.0023727917578071356, 0.1000894159078598, 0.06515449285507202], [0.09485700726509094, 0.019569188356399536, -0.05406978353857994], [-0.027507450431585312, 0.06647656857967377, 0.05099400505423546]], [[0.008614759892225266, -0.022078191861510277, 0.05668801814317703], [0.10563415288925171, 0.034023310989141464, -0.02124636620283127], [0.015101763419806957, -0.007794244680553675, 0.08037714660167694]], [[0.01084408350288868, 0.07003965973854065, 0.041058316826820374], [-0.11172232776880264, 0.04392159730195999, 0.050846029072999954], [0.06378211081027985, -0.044993530958890915, -0.009445062838494778]], [[0.08539985865354538, 0.11349282413721085, -0.060813095420598984], [-0.08392807841300964, 0.04967820644378662, -0.08321749418973923], [-0.07442481815814972, 0.07508429139852524, 0.008816538378596306]], [[0.08005572855472565, -0.04531865194439888, 0.09893171489238739], [-0.1129806861281395, 0.09355786442756653, -0.07342340052127838], [-0.11482234299182892, 0.09487359970808029, -0.08804567903280258]], [[0.0773758515715599, 0.04618735611438751, -0.012747704982757568], [-0.05272955819964409, -0.008477766998112202, -0.055948030203580856], [0.08646198362112045, 0.09668125957250595, 0.02640414424240589]], [[-0.10006184875965118, -0.033846527338027954, -0.0479925237596035], [0.08547402173280716, 0.008571647107601166, -0.11548919975757599], [-0.019800279289484024, 0.0017798935296013951, 0.07404562085866928]]], [[[0.05516122654080391, -0.04221506789326668, -0.09549311548471451], [-0.08747514337301254, -0.10542597621679306, 0.033558644354343414], [0.0773313045501709, -0.013342310674488544, -0.04862120747566223]], [[-0.017696520313620567, 0.10159973800182343, 0.07908646762371063], [-0.034291476011276245, 0.011191080324351788, 0.1047762781381607], [0.0841355174779892, 0.08422292023897171, -0.09488819539546967]], [[0.07966145128011703, -0.10958951711654663, 0.060930099338293076], [-0.05695807933807373, 0.10389696806669235, 0.08697259426116943], [-0.10870485752820969, 0.042276788502931595, -0.08307258784770966]], [[-0.04243990406394005, 0.006283849477767944, 0.07895945012569427], [0.038354068994522095, 0.11001712083816528, -0.07199477404356003], [-0.11364372819662094, -0.10588259249925613, -0.06528789550065994]], [[-0.011529679410159588, 0.01172619964927435, -0.029467811807990074], [0.026261083781719208, -0.05965938791632652, -0.03219478204846382], [0.01675492152571678, -0.09086882323026657, -0.08604001998901367]], [[-0.10278681665658951, 0.004223173018544912, 0.060830581933259964], [-0.06366846710443497, -0.10920288413763046, -0.03893106430768967], [0.11697029322385788, 0.056532129645347595, 0.033283885568380356]], [[0.09171696752309799, 0.1059100329875946, 0.013631691224873066], [0.03381627798080444, -0.10398530960083008, 0.02392035908997059], [-0.006488647777587175, -0.06873515993356705, -0.08222097158432007]], [[0.09368756413459778, -0.04853930324316025, 0.07907874882221222], [0.0798536166548729, 0.10254237055778503, -0.042986173182725906], [0.09488420933485031, 0.057520508766174316, 0.025780733674764633]]], [[[0.008370603434741497, -0.013849063776433468, -0.09716787189245224], [-0.041389357298612595, 0.0410543754696846, -0.06962763518095016], [-0.11143789440393448, 0.0378514789044857, -0.02291886694729328]], [[-0.06738170981407166, -0.06769202649593353, -0.11535117775201797], [-0.10757307708263397, -0.10345745831727982, 0.03951285406947136], [0.07516580075025558, 0.06918514519929886, -0.06829634308815002]], [[-0.044773101806640625, 0.010094788856804371, -0.10247202962636948], [0.004154091700911522, 0.019694140180945396, -0.0243352260440588], [0.08844930678606033, 0.03658026084303856, -0.04101374372839928]], [[0.014772456139326096, -0.023189350962638855, -0.03479712828993797], [-0.09350225329399109, -0.10380623489618301, -0.09204937517642975], [0.05160880461335182, -0.10841721296310425, 0.10425370931625366]], [[0.03242412209510803, 0.04549717158079147, 0.03823813796043396], [-0.03182964771986008, -0.033004797995090485, -0.06571510434150696], [0.05414031818509102, -0.10688868910074234, -0.03289560601115227]], [[0.0023036624770611525, 0.11401625722646713, -0.06675057858228683], [0.04951465129852295, 0.07952350378036499, 0.06391903758049011], [-0.06214386969804764, 0.04916076734662056, 0.06694447994232178]], [[-0.04441099241375923, -0.029196541756391525, -0.1052410751581192], [0.0962253138422966, -0.015845684334635735, 0.01794418878853321], [-0.05592673271894455, -0.10986059159040451, 0.0480792410671711]], [[-0.006339286454021931, -0.11302461475133896, -0.11502507328987122], [0.015798835083842278, -0.05521630868315697, 0.06197667866945267], [0.045793317258358, -0.07589960098266602, -0.0329844132065773]]], [[[0.0838107094168663, -0.09612763673067093, 0.02512405999004841], [-0.04249675199389458, -0.0821196660399437, -0.05615980550646782], [0.11226018518209457, -0.11469943076372147, 0.0989331379532814]], [[-0.03763481602072716, -0.011234115809202194, -0.06848930567502975], [-0.08706698566675186, 0.0025119520723819733, -0.06622001528739929], [0.10635557770729065, 0.023401714861392975, 0.001106818439438939]], [[0.11126096546649933, 0.023039560765028, -0.07072310149669647], [0.08598779141902924, -0.027755161747336388, -0.0034222258254885674], [0.009894211776554585, -0.031038668006658554, -0.11080557107925415]], [[-0.05846848338842392, 0.01559486798942089, -0.0442727766931057], [0.0838349461555481, -0.11523178964853287, -0.10961510986089706], [-0.10745653510093689, -0.0051379818469285965, 0.059352315962314606]], [[-0.060193222016096115, 0.04056543856859207, 0.09622903168201447], [0.022608032450079918, -0.05317562445998192, -0.11444329470396042], [-0.0756419450044632, -0.0445161908864975, -0.011624915525317192]], [[-0.04509337618947029, -0.06158231943845749, 0.027979297563433647], [-0.10673298686742783, -0.10777181386947632, -0.11513394862413406], [-0.04648958891630173, -0.06038224324584007, 0.10671570897102356]], [[-0.08673261106014252, 0.1050090417265892, -0.06605560332536697], [0.0738154724240303, 0.06833168864250183, 0.10690164566040039], [0.07219483703374863, -0.1030864268541336, -0.1137445792555809]], [[-0.0012977879960089922, -0.0900472104549408, 0.03296200931072235], [-0.0752636045217514, 0.1164652481675148, 0.019049014896154404], [0.059163328260183334, -0.03205426409840584, -0.06266973912715912]]], [[[-0.0062990072183310986, 0.03742896765470505, 0.08613140881061554], [-0.11657492071390152, -0.06613221764564514, 0.10825195908546448], [-0.02394588477909565, -0.07619821280241013, -0.10095596313476562]], [[-0.024516021832823753, 0.07873888313770294, 0.04030705615878105], [0.07396555691957474, 0.06062360480427742, -0.07756107300519943], [0.060059454292058945, -0.06511915475130081, 0.03754722326993942]], [[0.026190895587205887, -0.007229617331176996, -0.05392780527472496], [-0.04211752861738205, 0.043539661914110184, 0.053788792341947556], [-0.05892921984195709, -0.08916626870632172, -0.09174520522356033]], [[-0.08039326220750809, 0.0135450204834342, -0.1139393150806427], [-0.018828723579645157, -0.02087990567088127, -0.04229481890797615], [0.032065100967884064, 0.008876035921275616, -0.047595079988241196]], [[0.04390238597989082, -0.11259397119283676, 0.04636030271649361], [0.01935797557234764, -0.08273815363645554, 0.0475940965116024], [0.1096884086728096, -0.07126731425523758, -0.10741103440523148]], [[-0.029125984758138657, -0.10731401294469833, 0.03303775191307068], [0.046942565590143204, 0.0006080268649384379, 0.07616240531206131], [0.11450383067131042, 0.04632531851530075, -0.07032585889101028]], [[-0.10445264726877213, 0.05290773883461952, 0.036109521985054016], [-0.008910504169762135, 0.030968155711889267, 0.028634048998355865], [-0.09626682847738266, 0.10236554592847824, 0.024745678529143333]], [[0.0035582256969064474, 0.035245586186647415, -0.09681757539510727], [-0.10826193541288376, 0.1046934723854065, -0.017876924946904182], [0.022494271397590637, 0.08171042054891586, -0.019589295610785484]]], [[[0.005267249885946512, 0.089571014046669, 0.09515711665153503], [0.014391872100532055, 0.11046337336301804, 0.06146761775016785], [-0.09350375831127167, -0.10832014679908752, -0.06688624620437622]], [[0.007788273971527815, -0.10096436738967896, 0.07808379828929901], [-0.10884784907102585, 0.062205418944358826, -0.01988600753247738], [-0.09777668863534927, -0.0989493653178215, 0.050167422741651535]], [[-0.010477481409907341, -0.04470333456993103, -0.009083586744964123], [0.043575726449489594, 0.013906127773225307, 0.07704997807741165], [0.018575984984636307, -0.058830201625823975, -0.10403290390968323]], [[-0.013005108572542667, 0.05797173082828522, 0.07761583477258682], [0.05663333833217621, -0.0909108966588974, 0.06794359534978867], [-0.051329948008060455, -0.11026787012815475, 0.07582058757543564]], [[-0.03050869330763817, 0.01447251532226801, 0.08435852080583572], [-0.04174215346574783, -0.09212975949048996, 0.0030495247337967157], [0.02182098850607872, 0.004425283055752516, -0.00032117555383592844]], [[-0.008235209621489048, 0.11058073490858078, -0.07171379029750824], [0.0750824585556984, -0.020617472007870674, -0.10138306021690369], [-0.08379972726106644, -0.035516202449798584, 0.11602643132209778]], [[0.10877340286970139, -0.03197605535387993, -0.0674586147069931], [0.056648995727300644, -0.03783984109759331, -0.012647079303860664], [0.07263574004173279, -0.0030262982472777367, 0.06419970840215683]], [[-0.01814095675945282, 0.03493521735072136, -0.01587788760662079], [-0.0528138093650341, 0.08882683515548706, -0.028363920748233795], [-0.013714456930756569, 0.08269712328910828, -0.11198849231004715]]], [[[-0.10342512279748917, -0.09903421998023987, 0.08373699337244034], [-0.042127229273319244, 0.11729702353477478, -0.05719510093331337], [0.017662057653069496, -0.021959664300084114, 0.07221594452857971]], [[0.003960872069001198, -0.07559237629175186, 0.05139552056789398], [-0.11163118481636047, -0.03291381895542145, 0.09695960581302643], [0.0032400249037891626, 0.007763075176626444, -0.05873914808034897]], [[-0.04534116014838219, 0.013395406305789948, 0.10827194154262543], [0.060424335300922394, 0.017532076686620712, -0.015025562606751919], [0.10451100766658783, -0.04955068603157997, -0.09488115459680557]], [[0.09192486107349396, 0.10089769959449768, -0.046703413128852844], [0.07974143326282501, 0.016159724444150925, -0.11518438905477524], [-0.11652418226003647, 0.030497200787067413, 0.030911650508642197]], [[0.09092751890420914, -0.03597483038902283, -0.073512963950634], [-0.03205283358693123, 0.052982646971940994, -0.0506046861410141], [0.09335775673389435, -0.02044355496764183, 0.0595339834690094]], [[0.0016509286360815167, 0.007302446290850639, 0.0425766296684742], [0.005401615984737873, 0.009860952384769917, 0.03644118085503578], [-0.04178342595696449, -0.0906272605061531, 0.11444476991891861]], [[0.026178311556577682, 0.012786990962922573, 0.09096572548151016], [0.061568599194288254, -0.060761645436286926, 0.11322800070047379], [0.025643248111009598, -0.06674733012914658, 0.040704287588596344]], [[0.06995825469493866, 0.09021008014678955, -0.0013856051955372095], [0.07770484685897827, 0.03646223247051239, -0.07418467849493027], [0.0049001798033714294, 0.012483985163271427, -0.05622304603457451]]], [[[0.005778149701654911, 0.055663250386714935, -0.10180441290140152], [0.09295791387557983, -0.07457175850868225, 0.03203265741467476], [-0.08693786710500717, 0.01052416954189539, 0.042631953954696655]], [[0.08545289188623428, 0.04442862421274185, 0.10525651276111603], [-0.10501500219106674, -0.058388303965330124, -0.0989745631814003], [-0.08944158256053925, -0.020912008360028267, 0.05344512686133385]], [[-0.06937559694051743, -0.059626564383506775, 0.09356009215116501], [-0.051956526935100555, -0.08151967823505402, 0.11627577990293503], [0.11379662901163101, -0.05859094858169556, 0.11684778332710266]], [[-0.003663304029032588, 0.0582113042473793, 0.04793786630034447], [0.08816809207201004, 0.0375085324048996, -0.028961744159460068], [-0.0947202667593956, -0.04062984138727188, -0.09841258078813553]], [[-0.040557339787483215, -0.11097060143947601, 0.04646305367350578], [0.08318821340799332, -0.0527164526283741, -0.03421996533870697], [0.11095072329044342, 0.08165129274129868, -0.055270545184612274]], [[-0.09587754309177399, -0.07802150398492813, 0.052922219038009644], [-0.0908006951212883, -0.029969172552227974, -0.04612275958061218], [-0.10272001475095749, 0.05411545932292938, -0.07277616113424301]], [[-0.06012854725122452, -0.08280260860919952, -0.01258853543549776], [0.028087826445698738, 0.025676673278212547, 0.07546882331371307], [0.09503646194934845, 0.11225404590368271, 0.0017301141051575541]], [[0.061785295605659485, -0.08493315428495407, -0.02256600186228752], [-0.04843122884631157, -0.060635361820459366, 0.018073659390211105], [0.002938148332759738, 0.009789985604584217, -0.06984561681747437]]], [[[-0.03201714903116226, -0.06393459439277649, -0.01523321121931076], [0.04290350526571274, 0.012394254095852375, -0.06027967855334282], [0.08559728413820267, 0.034026309847831726, -0.006070167291909456]], [[0.09198117256164551, 0.0721450001001358, -0.01315346546471119], [-0.0454423651099205, 0.05447973683476448, -0.07743704319000244], [-0.022057553753256798, -0.10834694653749466, 0.01893641985952854]], [[0.02594994194805622, -0.07194051146507263, 0.07906725257635117], [0.0600912906229496, -0.06935218721628189, 0.06979285180568695], [-0.005292337853461504, 0.06762555986642838, -0.08234159648418427]], [[0.04230399802327156, 0.03342767432332039, 0.06849405169487], [0.04208213463425636, -0.03888077661395073, 0.01111419778317213], [-0.06658633798360825, -0.04699287191033363, -0.10063102841377258]], [[-0.016193846240639687, -0.09036228805780411, 0.05737953260540962], [-0.01441578846424818, 0.03414752706885338, 0.07789120078086853], [0.014426302164793015, 0.10043255239725113, 0.0740552544593811]], [[0.025130534544587135, -0.06807062774896622, 0.005408991128206253], [-0.08164586871862411, 0.045875053852796555, 0.060836128890514374], [-0.013398545794188976, 0.029813449829816818, 0.021169764921069145]], [[0.09617824107408524, 0.05099812150001526, 0.03885990008711815], [-0.10105157643556595, 0.04767025262117386, -0.03531428426504135], [0.07348543405532837, 0.034334227442741394, 0.014195311814546585]], [[-0.08868703991174698, 0.10440366715192795, 0.09013265371322632], [0.01948062889277935, 0.04112362489104271, 0.025211013853549957], [0.032711006700992584, 0.08148160576820374, -0.04833659529685974]]], [[[-0.0087965102866292, 0.034740909934043884, 0.033049557358026505], [0.11204573512077332, -0.08676585555076599, -0.03306692838668823], [-0.06502963602542877, 0.015302689746022224, -0.10398431122303009]], [[-0.07279349863529205, 0.01271206233650446, -0.014749737456440926], [-0.08499020338058472, 0.094361811876297, -0.027150919660925865], [0.08472239971160889, 0.0911760926246643, 0.10889037698507309]], [[-0.045431170612573624, -0.09468913078308105, 0.08065631240606308], [0.04505572468042374, 0.09542333334684372, -0.0025495330337435007], [-0.10839517414569855, -0.03980710729956627, 0.10595845431089401]], [[0.10470373928546906, -0.013729829341173172, -0.0379350446164608], [0.025225356221199036, 0.0836864709854126, -0.08923836052417755], [-0.03634648025035858, 0.07926470041275024, -0.090191550552845]], [[-0.1132359728217125, 0.07004190236330032, 0.02159355953335762], [0.04022122919559479, 0.0935061052441597, 0.02926543913781643], [-0.10762051492929459, 0.030688228085637093, 0.0878317803144455]], [[0.05893373116850853, -0.005126703064888716, -0.020605066791176796], [-0.11490493267774582, 0.10399430990219116, 0.00917998980730772], [-0.07951366901397705, -0.06514979153871536, -0.061069291085004807]], [[-0.045952752232551575, 0.08682438731193542, 0.019540276378393173], [0.07509360462427139, 0.053958047181367874, 0.023365654051303864], [-0.059210196137428284, 0.10481755435466766, 0.11356768757104874]], [[0.09048648923635483, -0.049726370722055435, 0.04459382966160774], [-0.0897788256406784, 0.0592966191470623, 0.09034383296966553], [-0.09746842831373215, -0.08072754740715027, -0.02567976899445057]]], [[[0.05034893751144409, 0.11236245185136795, 0.06930705159902573], [0.07512200623750687, -0.03922950103878975, 0.08414550870656967], [-0.05931228771805763, -0.09412490576505661, 0.1071861982345581]], [[-8.2155573181808e-05, -0.10683978348970413, 0.01841585524380207], [-0.030825521796941757, 0.003895329777151346, -0.09951747953891754], [0.09265320003032684, -0.052691750228405, 0.04681872949004173]], [[0.03586505725979805, -0.010425697080790997, 0.041983433067798615], [-0.0478767566382885, -0.05301656201481819, -0.10625171661376953], [-0.08754899352788925, -0.07176315784454346, 0.008895794861018658]], [[0.10040739923715591, 0.04053580015897751, 0.05771370604634285], [0.09099175035953522, 0.06636764854192734, -0.029066849499940872], [0.11101582646369934, -0.007030828855931759, -0.1029796376824379]], [[0.06599301099777222, 0.10476459562778473, -0.1202523410320282], [0.06953560560941696, 0.10844114422798157, -0.07953839004039764], [0.06110280752182007, 0.0455118827521801, -0.07902859151363373]], [[0.10463088005781174, -0.09579110145568848, -0.04972188547253609], [-0.061948880553245544, -0.09097392857074738, -0.10194723308086395], [-0.07962179183959961, 0.0004674454394262284, 0.060442570596933365]], [[-0.04698346555233002, -0.10464296489953995, 0.08549225330352783], [0.10268501192331314, 0.1016763225197792, 0.11228033155202866], [0.0063843256793916225, -0.03183821216225624, 0.015677422285079956]], [[-0.0246769767254591, -0.030798615887761116, -0.005705025512725115], [-0.08216648548841476, -0.030389519408345222, -0.062175169587135315], [-0.08537758141756058, -0.08884939551353455, -0.012494640424847603]]], [[[-0.10994715988636017, -0.04763421043753624, 0.10352746397256851], [-0.09378910809755325, 0.11663737148046494, 0.023916779085993767], [0.08382616192102432, 0.09935418516397476, 0.11458469182252884]], [[-0.07051219791173935, 0.10653570294380188, 0.08836864680051804], [-0.0027404935099184513, 0.006692647933959961, -0.036297813057899475], [0.11225751042366028, -0.10769618302583694, -0.05523282662034035]], [[0.10567722469568253, 0.08310993015766144, -0.025483375415205956], [-0.10363006591796875, 0.0045222025364637375, 0.10523848980665207], [0.04880085214972496, -0.07725939899682999, -0.008121262304484844]], [[-0.059659793972969055, 0.02947818674147129, 0.04793289676308632], [0.07372767478227615, 0.015893906354904175, 0.09838833659887314], [-0.04298609495162964, -0.023769479244947433, -0.03099159337580204]], [[0.028910789638757706, 0.03928563371300697, 0.03853059187531471], [0.0777147188782692, -0.07514505833387375, 0.11788196116685867], [-0.036756645888090134, 0.0923958420753479, 0.10578175634145737]], [[0.08002731949090958, -0.009815863333642483, -0.02704078145325184], [-0.08581219613552094, -0.08756835758686066, -0.09953992068767548], [0.062181100249290466, 0.026486538350582123, 0.08576859533786774]], [[-0.0016682229470461607, 0.023589156568050385, 0.03246070072054863], [-0.0017548714531585574, -0.06814312189817429, 0.09469904005527496], [-0.023071207106113434, -0.05522402748465538, 0.07445944845676422]], [[-0.05248241871595383, -0.08313051611185074, -0.07102231681346893], [0.038054004311561584, 0.06833884865045547, -0.0871204361319542], [0.05451638996601105, -0.036505721509456635, -0.0829831063747406]]], [[[0.1102093979716301, 0.01802551932632923, 0.08394047617912292], [0.11519843339920044, -0.0749695673584938, -0.0726233497262001], [0.01972079463303089, 0.022172236815094948, -0.044483356177806854]], [[0.0567304864525795, 0.014814378693699837, -0.09298282116651535], [-0.0002004082634812221, 0.03788053244352341, 0.06124256178736687], [0.08510451763868332, -0.042090948671102524, 0.07633919268846512]], [[0.01886667124927044, -0.049124665558338165, 0.008038653992116451], [-0.033934254199266434, 0.022759130224585533, -0.0754409208893776], [-0.02303413860499859, -0.04065404832363129, 0.036459919065237045]], [[-0.0400162972509861, -0.08731761574745178, -0.11490498483181], [0.11657361686229706, -0.02787923812866211, -0.06297160685062408], [-0.03348815068602562, 0.06645114719867706, 0.09920989722013474]], [[0.0494726300239563, -0.10315627604722977, -0.056741274893283844], [-0.055927447974681854, -0.08860564231872559, -0.0904066190123558], [0.03683386370539665, 0.09067543596029282, -0.07077643275260925]], [[0.06923619657754898, 0.027011994272470474, -0.10286810994148254], [0.09850122779607773, 0.0478602834045887, -0.0870010033249855], [-0.09279582649469376, 0.0709824413061142, 0.07869748026132584]], [[0.05441221222281456, -0.043285079300403595, -0.016860775649547577], [-0.02978714369237423, 0.09477093815803528, 0.017157644033432007], [-0.01628231070935726, -0.09350241720676422, -0.09945425391197205]], [[0.056938156485557556, 0.04386388137936592, 0.08818947523832321], [-0.05169853940606117, 0.10327298194169998, 0.01751893386244774], [-0.06282435357570648, -0.02733549475669861, -0.04080478474497795]]], [[[-0.11079033464193344, 0.015433057211339474, -0.0352175310254097], [-0.0002953328366857022, -0.07981105893850327, 0.11384465545415878], [-0.016374273225665092, 0.09802614152431488, 0.008081076666712761]], [[-0.11315999180078506, 0.05908362194895744, -0.013613242655992508], [-0.028645671904087067, 0.09369365870952606, 0.04581902176141739], [-0.03962094709277153, -0.025594616308808327, 0.0933593288064003]], [[0.11264059692621231, -0.08852963894605637, -0.07610997557640076], [0.10360663384199142, -0.07384335994720459, -0.03662385419011116], [-0.04765014350414276, -0.004320234525948763, -0.01998673751950264]], [[-0.051438502967357635, 0.10300532728433609, 0.10633852332830429], [0.11797098815441132, -0.05162467435002327, -0.0567016527056694], [-0.09093504399061203, 0.06440574675798416, 0.005251479800790548]], [[-0.06502728909254074, 0.1144346296787262, 0.11090867966413498], [-0.06517355144023895, 0.035383958369493484, -0.07440312951803207], [0.051806434988975525, -0.11472824960947037, 0.11627485603094101]], [[-0.1109747514128685, -0.034872867166996, -0.04317052289843559], [-0.100365050137043, 0.04867607727646828, 0.04012706130743027], [-0.047763992100954056, 0.10812848061323166, 0.04546210914850235]], [[-0.10980159044265747, -0.06418292224407196, 0.054182518273591995], [-0.0488746240735054, -0.10679981857538223, 0.0036545933689922094], [0.032423753291368484, 0.08650989085435867, 0.04169362783432007]], [[0.08847064524888992, 0.07814452052116394, 0.09246547520160675], [0.05402437224984169, -0.03022468462586403, -0.0995861068367958], [0.05628294497728348, -0.034663036465644836, 0.06231321766972542]]], [[[0.09537345170974731, -0.052122317254543304, -0.06484404951334], [0.016617238521575928, -0.109461709856987, -0.1176275759935379], [-0.07235303521156311, -0.04878653585910797, 0.05578717961907387]], [[0.03831829875707626, -0.04113692417740822, 0.10924221575260162], [-0.03979825600981712, -0.10410427302122116, 0.0037288775201886892], [0.010947306640446186, 0.06043442338705063, -0.10528798401355743]], [[0.03030220791697502, -0.09822253882884979, -0.005867754574865103], [-0.0027111521922051907, 0.10742088407278061, -0.03978509455919266], [0.06673869490623474, 0.10213888436555862, 0.018374044448137283]], [[0.036247801035642624, 0.09351970255374908, 0.06417245417833328], [-0.02812104858458042, 1.2557359696074855e-05, 0.08945310860872269], [-0.11172916740179062, -0.06305375695228577, 0.09104231745004654]], [[-0.0025658519007265568, -0.0641995444893837, 0.07676335424184799], [0.04815253987908363, -0.08659869432449341, -0.05303134396672249], [-0.0576760470867157, -0.0038884447421878576, -0.06925025582313538]], [[-0.09254568815231323, -0.07860282063484192, 0.0035304464399814606], [0.07238904386758804, -0.011256151832640171, -0.048806607723236084], [0.0940156802535057, -0.051531046628952026, 0.019001400098204613]], [[0.10705523192882538, 0.012430563569068909, 0.09503597021102905], [-0.03290018066763878, 0.02654801867902279, 0.0019741239957511425], [0.002013087971135974, -0.061495091766119, 0.015045680105686188]], [[-0.09413791447877884, 0.06289443373680115, 0.09400700777769089], [-0.0942220613360405, -0.01394409779459238, -0.040819939225912094], [0.0691530853509903, 0.020262859761714935, -0.020617347210645676]]], [[[0.048075031489133835, -0.08754628151655197, -0.08782597631216049], [0.06325194984674454, 0.0035795783624053, 0.08235861361026764], [-0.051213327795267105, 0.08510550856590271, -0.013271861709654331]], [[-0.004760909825563431, 0.07400230318307877, -0.02405339479446411], [-0.02959742769598961, 0.10363668203353882, 0.08777198195457458], [0.02835843712091446, 0.07906286418437958, 0.042102567851543427]], [[-0.11683504283428192, -0.11435873061418533, 0.07228384166955948], [-0.11781124770641327, 0.05937166139483452, 0.10988779366016388], [-0.03537974879145622, 0.042535413056612015, -0.025996092706918716]], [[-0.04459953308105469, 0.007710746955126524, -0.07838644087314606], [0.07783880084753036, 0.1011909693479538, -0.1114092692732811], [-0.11505191028118134, -0.055312011390924454, -0.038181375712156296]], [[0.09175261855125427, 0.08225331455469131, 0.0496673658490181], [0.04899873957037926, 0.06791264563798904, -0.05768312141299248], [0.01334335096180439, -0.07729756087064743, 0.010286713019013405]], [[-0.10345198214054108, -0.0062700072303414345, 0.08548689633607864], [0.02191687375307083, 0.10552879422903061, 0.08506108820438385], [0.11364129185676575, 0.0712202787399292, 0.07921014726161957]], [[0.0382092222571373, -0.09807519614696503, -0.11172451078891754], [-0.020162267610430717, -0.06177531182765961, -0.004926430527120829], [0.11722809076309204, -0.04482809081673622, -0.09019487351179123]], [[-0.033888109028339386, 0.10708454996347427, 0.07954642921686172], [0.06683709472417831, -0.03635219857096672, -0.08181843161582947], [0.03146032989025116, 0.062365323305130005, -0.09491976350545883]]]], "encoder.4.bias": [0.07935874909162521, 0.1058478057384491, -0.07296685874462128, 0.04034210741519928, -0.02255423553287983, -0.0036396807990968227, 0.02292426861822605, 0.061626385897397995, 0.015443290583789349, -0.07735864073038101, 0.024288667365908623, 0.1083749458193779, 0.07707091420888901, 0.044937439262866974, 0.07179288566112518, 0.06332792341709137], "encoder.6.weight": [[[[0.034756891429424286, 0.08154308050870895, 0.019858859479427338], [0.08178021758794785, 0.053855348378419876, -0.04336262121796608], [0.01627536304295063, -0.027802184224128723, -0.009330346249043941]], [[0.05690382793545723, -0.07662833482027054, -0.05108915641903877], [0.0627124011516571, -0.055000659078359604, -0.023889509961009026], [0.06663763523101807, 0.009929715655744076, -0.07076822966337204]], [[0.01702151820063591, -0.03665711730718613, 0.0695323571562767], [-0.058320581912994385, -0.04144158959388733, 0.06849821656942368], [0.027498703449964523, -0.04700475186109543, -0.029218843206763268]], [[0.026686739176511765, -0.0666428729891777, -0.050862859934568405], [-0.06672720611095428, 0.038763366639614105, -0.015159627422690392], [-0.02037065289914608, -0.00849202275276184, 0.0613064169883728]], [[-0.03463001549243927, -0.04052744805812836, 0.055569108575582504], [0.05149723216891289, 0.00104439165443182, -0.026969777420163155], [-0.05450430512428284, 0.03831053897738457, -0.009278154000639915]], [[0.054609257727861404, -0.01603684574365616, -0.05383606627583504], [0.0367678701877594, 0.00976741686463356, 0.013488603755831718], [-0.07718569040298462, 0.009363602846860886, 0.024407263845205307]], [[-0.02644534222781658, -0.011835754849016666, -0.054313719272613525], [0.08535744249820709, -0.0013023209758102894, 0.050064705312252045], [-0.039696209132671356, 0.07122152298688889, 0.027549156919121742]], [[0.04574214294552803, 0.037963610142469406, -0.006221839226782322], [-0.052706602960824966, 0.033475928008556366, 0.02545813098549843], [0.02463037706911564, -0.04266718029975891, -0.0006885885377414525]], [[-0.07374350726604462, -0.02637946605682373, 0.0334860123693943], [-0.021140621975064278, 0.07346320897340775, -0.0421186201274395], [0.04522863030433655, -0.07533525675535202, -0.06301365047693253]], [[-0.023694349452853203, 0.03441932052373886, -0.03333648666739464], [0.0717361643910408, -0.02709362655878067, -0.06095748767256737], [0.05225140601396561, 0.03341742977499962, -0.010186352767050266]], [[0.03672417253255844, -0.043834708631038666, 0.029618732631206512], [0.0629182755947113, 0.06676509231328964, -0.08551488071680069], [0.00863063894212246, 0.0011250722454860806, -0.054069217294454575]], [[0.03633422404527664, -0.038974713534116745, 0.026035970076918602], [0.03933486342430115, 0.05032865330576897, 0.07409603893756866], [0.032120805233716965, -0.012528227642178535, 0.07301965355873108]], [[-0.07151367515325546, -0.0599476657807827, -0.019272614270448685], [-0.0036381578538566828, 0.04763680323958397, 0.0628540962934494], [-0.0322837196290493, 0.04693424701690674, -0.05332011356949806]], [[0.06728137284517288, -0.06957653909921646, 0.07391135394573212], [-0.02192728966474533, 0.06876672804355621, 0.05602475628256798], [-0.05666864663362503, 0.009484190493822098, 0.002205989323556423]], [[0.05825802683830261, 0.06874093413352966, 0.05531653016805649], [-0.05642508342862129, -0.06851416826248169, 0.0772186666727066], [0.04902360588312149, 0.050269924104213715, -0.044202715158462524]], [[0.0007352015236392617, -0.028706055134534836, -0.03106398694217205], [-0.030745049938559532, -0.045846983790397644, -0.06983477622270584], [0.03849947825074196, -0.03561333194375038, -0.03959199786186218]]], [[[0.006159691605716944, 0.053097181022167206, -0.008402892388403416], [0.051087770611047745, 0.04992929473519325, 0.06785164773464203], [0.05732239410281181, 0.0788646936416626, 0.027573294937610626]], [[0.00537298247218132, 0.04788680747151375, 0.06973746418952942], [0.01097844447940588, 0.06261496990919113, 0.06829257309436798], [0.06708594411611557, -0.026916097849607468, 0.02821085788309574]], [[-0.0244608037173748, -0.08202728629112244, 0.02053595706820488], [0.033502064645290375, -0.0267249196767807, -0.04811165854334831], [0.04076983779668808, -0.04560833424329758, 0.027274033054709435]], [[-0.05684497952461243, 0.0708320289850235, -0.042259931564331055], [-0.021884411573410034, -0.06228801608085632, 0.06253919005393982], [-0.025455482304096222, 0.036242641508579254, -0.05742443725466728]], [[0.042022623121738434, -0.03820917755365372, -0.06681196391582489], [-0.03631914407014847, 0.0682264193892479, 0.026585806161165237], [0.05167490616440773, 0.060747113078832626, -0.029780808836221695]], [[-0.015320250764489174, -0.033001381903886795, -0.0003102592600043863], [0.05940316244959831, 0.05798235163092613, -0.0319008007645607], [-0.05876842886209488, 0.06883648782968521, -0.06117329001426697]], [[0.066019706428051, -0.019604414701461792, 0.059337515383958817], [0.027946026995778084, -0.02396886795759201, 0.015481825917959213], [-0.03586125746369362, -0.07172344624996185, -0.05711299553513527]], [[0.005625269841402769, 0.08106426149606705, -0.05699482932686806], [0.0337136834859848, 0.052436769008636475, 0.012178344652056694], [-0.012368743307888508, 0.0049120220355689526, -0.02063724584877491]], [[-0.028848474845290184, -0.065846748650074, 0.0030058682896196842], [-0.065637968480587, 0.019361112266778946, -0.06620912998914719], [0.02917887642979622, 0.05253147333860397, 0.007145138923078775]], [[-0.051587384194135666, -0.022269356995821, 0.022769073024392128], [0.017210397869348526, -0.06280447542667389, 0.031044920906424522], [-0.009707840159535408, -0.05512949451804161, -0.033991649746894836]], [[0.04408790543675423, -0.05982658639550209, 0.040990300476551056], [-0.07871605455875397, 0.018513983115553856, -0.002384224208071828], [0.07008226960897446, -0.06154358386993408, -5.325161691871472e-05]], [[0.05480347201228142, -0.0010205262806266546, 0.018984783440828323], [0.003936861176043749, -0.009028317406773567, -0.07820237427949905], [0.016412852331995964, -0.04710764437913895, -0.0605333149433136]], [[0.024763446301221848, 0.03187137469649315, -0.017084555700421333], [-0.0445169098675251, -0.0394599512219429, -0.028750838711857796], [-0.0735059529542923, 0.004644743166863918, 0.06043323501944542]], [[-0.07031227648258209, -0.013620929792523384, -0.015013810247182846], [0.045265622437000275, -0.07427922636270523, 0.07347404211759567], [0.01209824625402689, 0.0826428085565567, -0.018069716170430183]], [[-0.03877894580364227, -0.03681652247905731, 0.05985046178102493], [-0.062395382672548294, 0.06935255974531174, 0.011751268990337849], [-0.024488579481840134, -0.07629260420799255, -0.02895721234381199]], [[0.05362933874130249, -0.01320961955934763, 0.08167827129364014], [0.010375618934631348, 0.014337233267724514, 0.0249130018055439], [-0.030261145904660225, -0.047475095838308334, 0.06929124146699905]]], [[[-0.01015591248869896, -0.01206543855369091, -0.002352028386667371], [0.07551676034927368, -0.06400948017835617, -0.044096071273088455], [-0.03487144038081169, -0.07900611311197281, 0.006743759382516146]], [[-0.06726765632629395, 0.008191104978322983, -0.0804888904094696], [0.03519538417458534, -0.06910770386457443, 0.06807117164134979], [0.0007005759398452938, 0.05717003718018532, 0.07604648172855377]], [[0.07500623166561127, -0.03583164140582085, -0.03173404932022095], [-0.020776093006134033, -0.0795477032661438, -0.04807562753558159], [0.011936157941818237, -0.06210507079958916, 0.06360103189945221]], [[0.015436729416251183, 0.039591193199157715, 0.06005033850669861], [0.022679060697555542, -0.036483198404312134, 0.08155041933059692], [0.0035913586616516113, 0.06784795224666595, 0.06280588358640671]], [[0.018061775714159012, 0.04951101541519165, -0.06229840964078903], [0.0008112997165881097, 0.07641473412513733, 0.003524753963574767], [-0.0021282401867210865, -0.00703994557261467, 0.03851676359772682]], [[-0.014803114347159863, 0.011843628250062466, -0.03372751176357269], [0.07187027484178543, -0.0746421366930008, -0.052633557468652725], [-0.028060179203748703, 0.08085206151008606, -0.04072302579879761]], [[0.04873797670006752, 0.0061896308325231075, 0.04263592138886452], [0.02429634891450405, -0.04075861722230911, -0.0710596889257431], [0.03634025529026985, 0.030932359397411346, 0.019463930279016495]], [[0.06226538121700287, -0.044848885387182236, 0.026935981586575508], [-0.051663219928741455, -0.050584156066179276, -0.05024546757340431], [0.030416404828429222, -0.022082624956965446, 0.016415372490882874]], [[0.05496760830283165, 0.06266942620277405, -0.018596403300762177], [-0.05578169226646423, -0.002110757166519761, -0.04212484508752823], [0.05725657567381859, 0.01938716135919094, -0.043177079409360886]], [[0.014071662910282612, 0.032836366444826126, -0.05424736812710762], [-0.03274688869714737, 0.04929789528250694, -0.012259225361049175], [-0.04330768063664436, -0.06926444917917252, 0.08011370897293091]], [[-0.05042949691414833, -0.06854230910539627, -0.08409994095563889], [-0.011151551268994808, 0.010696306824684143, 0.07434247434139252], [0.04831800237298012, -0.036459315568208694, -0.005285841878503561]], [[-0.07161600887775421, -0.008434837684035301, -0.06897763162851334], [0.04682476818561554, -0.009554784744977951, 0.07765022665262222], [-0.00687570683658123, 0.05631950870156288, -0.024500641971826553]], [[0.030786022543907166, -0.025849753990769386, -0.03603598475456238], [-0.07065935432910919, -0.04372598975896835, -0.06680544465780258], [-0.08173330873250961, 0.038183342665433884, -0.07710489630699158]], [[0.05747101455926895, 0.01667359285056591, 0.054083216935396194], [0.009489486925303936, -0.05965114012360573, 0.0671687126159668], [0.04496392980217934, -0.010484484024345875, 0.01859574392437935]], [[0.007053063716739416, 0.027783391997218132, 0.05009758472442627], [-0.003173693548887968, -0.0028830443043261766, 0.021536914631724358], [-0.03591166436672211, 0.05585569143295288, 0.05357713997364044]], [[0.035379234701395035, 0.01739613711833954, -0.037114717066287994], [-0.05369017645716667, -0.06498254835605621, -0.055849384516477585], [-0.07328689098358154, -0.014162513427436352, -0.061313409358263016]]], [[[-0.020736949518322945, 0.07425273209810257, -0.05083126202225685], [0.0740811750292778, 0.0016670782351866364, 0.04898468777537346], [0.06978105753660202, -0.06837134063243866, 0.008082815445959568]], [[-0.05230037495493889, -0.06052025035023689, 0.0580303929746151], [-0.0011012377217411995, -0.036520086228847504, -0.04624038189649582], [-0.003343673190101981, 0.031218575313687325, -0.0343824177980423]], [[0.007532189600169659, -0.03571455925703049, 0.040643565356731415], [-0.04215526580810547, 0.0017958085518330336, 0.05890621989965439], [0.00508029293268919, -0.026187092065811157, 0.06605345010757446]], [[0.04674941301345825, 0.012334158644080162, 0.07594313472509384], [0.010250350460410118, -0.006559878587722778, -0.04150811955332756], [-0.04112952947616577, 0.06399165838956833, -0.002086073160171509]], [[-0.07463724911212921, 0.06885331124067307, -0.07875698059797287], [-0.029260179027915, -0.04260755702853203, 0.07416930049657822], [0.02565627731382847, -0.04968317225575447, -0.0027854088693857193]], [[0.08178737014532089, 0.08293215185403824, 0.058170463889837265], [-0.028036590665578842, 0.060054317116737366, 0.033366039395332336], [-0.015672851353883743, 0.02535882219672203, -0.06426946073770523]], [[-0.07577990740537643, 0.06486826390028, 0.048279620707035065], [-0.016489343717694283, 0.06631343811750412, 0.018397726118564606], [-0.07395868748426437, -0.008357059210538864, 0.004423753824084997]], [[-0.04592624679207802, -0.0816076397895813, -0.08135482668876648], [-0.07502715289592743, 0.07395968586206436, -0.05827012285590172], [0.017019543796777725, -0.015743546187877655, -0.058753468096256256]], [[0.03842020407319069, 0.049646444618701935, -0.06148044392466545], [-0.05829231068491936, -0.01760253868997097, -0.026489825919270515], [-0.0814109742641449, -0.06396512687206268, 0.08315214514732361]], [[-0.02982417121529579, -0.06054450199007988, 0.0222528837621212], [-0.029070397838950157, -0.019792240113019943, -0.0553663969039917], [0.06365600973367691, 0.04330768808722496, -0.005486900918185711]], [[-0.011795108206570148, 0.016133826225996017, 0.0037509563844650984], [0.008146136999130249, 0.05547657236456871, 0.038941144943237305], [0.019704680889844894, 0.02464209496974945, 0.0016014412976801395]], [[0.018376806750893593, 0.0705798789858818, 0.04318995401263237], [-0.06867823004722595, 0.04300021752715111, -0.026961730793118477], [-0.06377189606428146, 0.009638852439820766, -0.010017684660851955]], [[0.042538415640592575, -0.027264080941677094, 0.02628994733095169], [0.01952311396598816, -0.03831455111503601, -0.024998217821121216], [-0.06778054684400558, 0.024770626798272133, 0.043087176978588104]], [[0.021045973524451256, 0.06776294857263565, 0.03856999799609184], [0.05246373638510704, 0.030758582055568695, 0.004427508916705847], [0.01313971821218729, -0.0281757153570652, 0.006325993221253157]], [[0.012575889006257057, 0.07597953081130981, 0.00027335534105077386], [0.055184271186590195, 0.04707454890012741, 0.0668921247124672], [-0.02467775158584118, -0.02429608441889286, 0.0615251362323761]], [[-0.009812753647565842, -0.06038007512688637, -0.00511712534353137], [-0.0767817348241806, -0.01047224085777998, -0.028978731483221054], [-0.039021458476781845, -0.0030686003156006336, -0.07929723709821701]]], [[[0.03511619195342064, 0.03831866383552551, -0.05575653165578842], [0.03902874514460564, 0.07931533455848694, 0.023785922676324844], [-0.004122061189264059, -0.04101978614926338, 0.04215671122074127]], [[-0.013583102263510227, -0.05922698974609375, -0.06741129606962204], [-0.003755664685741067, 0.0517086386680603, 0.00386162125505507], [0.01637660712003708, 0.05186428502202034, 0.005558917764574289]], [[-0.047121286392211914, -0.022685598582029343, 0.02935199998319149], [-0.015268951654434204, -0.051198810338974, 0.021852781996130943], [0.0074938395991921425, -0.08324115723371506, -0.01709657907485962]], [[0.033420663326978683, 0.0169374942779541, 0.038998037576675415], [0.07777919620275497, -0.008563101291656494, 0.002607156988233328], [0.024877846240997314, -0.04461267590522766, 0.01868259906768799]], [[-0.050331179052591324, 0.0118505684658885, -0.031189527362585068], [-0.0569436214864254, 0.020546969026327133, -0.03687654435634613], [0.04014347493648529, 0.008328728377819061, 0.07439878582954407]], [[-0.04483531042933464, 6.588222458958626e-05, -0.056999627500772476], [-0.014337574131786823, -0.007494174875319004, -0.054979827255010605], [0.028249463066458702, -0.039198923856019974, 0.0334237702190876]], [[0.03000822849571705, 0.0005228208610787988, 0.028464224189519882], [0.04537994787096977, -0.04830416291952133, -0.05250877887010574], [0.011602487415075302, 0.040175776928663254, -0.05260849371552467]], [[0.05001061037182808, 0.004692446906119585, -0.02035384438931942], [0.055858101695775986, -0.02745971828699112, -0.05659743398427963], [0.07280518859624863, -0.06829912960529327, -0.05835781991481781]], [[-0.07558543980121613, -0.06339725852012634, -0.013111477717757225], [0.0526912622153759, -0.002609367249533534, 0.04394598305225372], [-0.04550141468644142, 0.024927856400609016, 0.07106169313192368]], [[-0.019329356029629707, -0.03843880072236061, -0.005800968036055565], [-0.07725783437490463, 0.022483021020889282, 0.014158454723656178], [-0.05349640175700188, -0.08145176619291306, 0.06037908419966698]], [[0.039292216300964355, 0.06823857873678207, -0.07703988999128342], [0.014624005183577538, 0.04240400344133377, -0.04561247676610947], [0.04818447679281235, 0.016189783811569214, -0.0020034112967550755]], [[-0.015372161753475666, 0.07805471122264862, 0.03770213946700096], [0.07595837861299515, -0.04885934293270111, -0.07674428820610046], [0.009849024005234241, -0.006601780652999878, 0.0615118108689785]], [[-0.0007906144601292908, -0.01673617586493492, 0.029651284217834473], [0.014826643280684948, 0.06351815909147263, 0.022448642179369926], [0.009922143071889877, -0.05587809160351753, 0.006935265380889177]], [[0.02272133156657219, 0.05071980878710747, -0.055828195065259933], [-0.057082489132881165, 0.0031094166915863752, -0.04341104254126549], [-0.0481666661798954, 0.007556438446044922, 0.004467938560992479]], [[0.05627430975437164, -0.017930306494235992, -0.06429202854633331], [0.00707651162520051, 0.004175031092017889, -0.0695810317993164], [0.015046268701553345, 0.037864796817302704, -0.011394917033612728]], [[-0.025796864181756973, 0.008436270989477634, -0.005845075473189354], [-0.00859813392162323, 0.06764108687639236, -0.024079032242298126], [-0.0634571984410286, 0.040681350976228714, 0.027546357363462448]]], [[[-0.06952041387557983, 0.030857503414154053, 0.061891209334135056], [0.031034572049975395, 0.0678265392780304, 0.06614278256893158], [-0.050856996327638626, -0.05465663969516754, -0.036764442920684814]], [[0.064000204205513, 0.031148208305239677, -0.0426318496465683], [0.05676416680216789, 0.07724731415510178, -0.005937622860074043], [-0.04170849546790123, -0.04823075607419014, -0.03857548162341118]], [[-0.012217502109706402, -0.07731368392705917, -0.06150191277265549], [-0.0072523457929492, 0.07891295850276947, 0.04477088898420334], [0.01618497632443905, -0.04344242811203003, 0.07086899131536484]], [[-0.02420172095298767, 0.08033811300992966, -0.08318807184696198], [-0.0515475869178772, -0.021426290273666382, -0.06482746452093124], [-0.020656585693359375, 0.01783447526395321, -0.016561847180128098]], [[-0.010929551906883717, -0.04968949779868126, 0.05133593827486038], [-0.03899167478084564, 0.05620000883936882, 0.061757538467645645], [-0.005313782952725887, 0.03656010702252388, -0.05123436450958252]], [[-0.025902945548295975, -0.05725416541099548, -0.013245281763374805], [0.04219227284193039, 0.06030762195587158, -0.031996700912714005], [0.0775095745921135, 0.042458899319171906, -0.0455758199095726]], [[0.04906375706195831, -0.017655376344919205, -0.005111499689519405], [0.056836631149053574, -0.05562538653612137, 0.04922674596309662], [-0.009250062517821789, -0.03955872356891632, -0.008501676842570305]], [[-0.042649105191230774, 0.04912411421537399, -0.060283929109573364], [-0.044374629855155945, 0.010889416560530663, 0.019247991964221], [0.01551202591508627, 0.04139324277639389, -0.04523357376456261]], [[-0.02506570890545845, 0.015145243145525455, 0.03751188516616821], [0.022166026756167412, -0.06833918392658234, 0.01757090352475643], [0.023217318579554558, -0.05738483741879463, -0.04158927500247955]], [[-0.05538450554013252, -0.027528373524546623, 0.05434497818350792], [-0.03520721569657326, -0.05346604809165001, -0.001712618861347437], [-0.08422485738992691, 0.06944108754396439, -0.08098351210355759]], [[-0.0696951225399971, 0.019433481618762016, 0.06970550864934921], [0.05973122641444206, -0.06112917140126228, -0.01793142966926098], [0.07356875389814377, 0.015866920351982117, 0.06072553992271423]], [[0.01442194264382124, 0.053062085062265396, -0.03312525153160095], [-0.054595157504081726, 0.034735579043626785, 0.042927421629428864], [0.04877372831106186, 0.041971538215875626, 0.008207661099731922]], [[0.07799002528190613, -0.06228063628077507, 0.08204423636198044], [0.020017271861433983, -0.03481149673461914, -0.04403584450483322], [0.004288002382963896, -0.06174705922603607, 0.05811724066734314]], [[-0.04995366558432579, -0.04310737922787666, -0.018475569784641266], [-0.026867957785725594, 0.0358932726085186, 0.08340457081794739], [0.020918427035212517, -0.0260260421782732, 0.07245378941297531]], [[0.05778371915221214, -0.0610525980591774, -0.04248131811618805], [-0.0023481077514588833, -0.008585378527641296, -0.07468535751104355], [0.01827901601791382, -0.0778404176235199, 0.008480159565806389]], [[-0.059599895030260086, -0.0288145262748003, 0.010337396524846554], [-0.04830271750688553, 0.04195420444011688, 0.04273039102554321], [-0.038682229816913605, -0.06938862055540085, -0.006904251873493195]]], [[[-0.06559780240058899, -0.014689735136926174, 0.0021168850362300873], [0.017192352563142776, 0.040054261684417725, -0.055791717022657394], [-0.03521377593278885, 0.060228120535612106, 0.05059610679745674]], [[-0.07861915230751038, 0.02468450367450714, -0.02382330410182476], [0.038030438125133514, -0.046834442764520645, -0.06607681512832642], [0.029408900067210197, -0.051670875400304794, 0.025092218071222305]], [[-0.03861305117607117, 0.0635075494647026, -0.02616754174232483], [0.018879851326346397, -0.030015259981155396, 0.01674097776412964], [-0.07762592285871506, 0.05477844923734665, -0.003276397939771414]], [[0.040372274816036224, 0.07156990468502045, -0.004152934066951275], [-0.07416784763336182, -0.06774108856916428, 0.054637253284454346], [0.054627638310194016, -0.0394367091357708, -0.04335682839155197]], [[-0.04019914194941521, 0.038320403546094894, -0.08175846934318542], [0.03585170954465866, 0.02192993089556694, 0.04052424430847168], [-0.007643140386790037, -0.03225257992744446, 0.009855588898062706]], [[0.0010971068404614925, 0.0829094871878624, 0.05138765648007393], [-0.07825859636068344, 0.000910800532437861, 0.03232404962182045], [-0.00040027935756370425, 0.027035774663090706, 0.03336891531944275]], [[-0.02629755064845085, -0.08182088285684586, 0.055846236646175385], [0.03626566380262375, -0.07239347696304321, -0.05904754623770714], [-0.03320249542593956, 0.026232540607452393, -0.02884838730096817]], [[-0.020225413143634796, 0.059562694281339645, 0.06370026618242264], [0.015090730041265488, -0.07505295425653458, -0.03220810741186142], [0.04527335986495018, -0.06511686742305756, -0.019423428922891617]], [[0.0786723792552948, 0.0017897306242957711, -0.05943284183740616], [-0.04142257198691368, -0.026325250044465065, 0.019521968439221382], [-0.03007413074374199, 0.026533106341958046, -0.06906722486019135]], [[0.04517074301838875, -0.07588466256856918, -0.03970280662178993], [-0.02694629319012165, 0.06277716904878616, 0.07889845222234726], [0.05275506153702736, 0.043518807739019394, -0.04633417725563049]], [[0.08174837380647659, -0.038169149309396744, -0.036446601152420044], [-0.04050236567854881, 0.011585807427763939, -0.018910031765699387], [-0.05376393347978592, -0.08110911399126053, 0.0710701048374176]], [[0.01997467130422592, 0.030632486566901207, 0.04134819656610489], [-0.03084978088736534, -0.041558362543582916, -0.043430108577013016], [0.022077025845646858, 0.021083367988467216, 0.032706379890441895]], [[0.03302183002233505, 0.0696105808019638, 0.011346451006829739], [-0.05365803837776184, -0.030327530577778816, 0.05217842385172844], [-0.006297244690358639, 0.003010910004377365, 0.05147024989128113]], [[0.02423042245209217, -0.02818801999092102, 0.016992196440696716], [0.01620708778500557, -0.01288169901818037, 0.05209660530090332], [0.009740810841321945, -0.01317271962761879, -0.07185690104961395]], [[0.05324506014585495, -0.012861129827797413, 0.03296694904565811], [0.02063172310590744, -0.0019699856638908386, -0.07981129735708237], [-0.032209254801273346, 0.04815904051065445, 0.06439580768346786]], [[0.04398457705974579, -0.02228943258523941, 0.06030114367604256], [0.07334406673908234, -0.027656128630042076, -0.05137985944747925], [0.07274200022220612, -0.041040271520614624, -0.06059560552239418]]], [[[0.03373335301876068, 0.024135325103998184, 0.07225538790225983], [0.011196795850992203, 0.0017045096028596163, -0.06042537838220596], [-0.04540363326668739, 0.014081902801990509, 0.05107204243540764]], [[0.040766943246126175, 0.07701577991247177, -0.013241682201623917], [0.05477222427725792, -0.062046974897384644, -0.00887235440313816], [-0.056618742644786835, 0.07092569768428802, 0.01662706583738327]], [[-0.06152840703725815, 0.05664573237299919, 0.009885609149932861], [-0.07229501008987427, -0.040007904171943665, 0.06017289683222771], [0.040985070168972015, -0.016083192080259323, 0.06848753988742828]], [[-0.0792471393942833, -0.07470472902059555, -0.025153180584311485], [-0.021712761372327805, -0.05232590436935425, -0.04160473868250847], [-0.0807560533285141, 0.04256024211645126, -0.06175355240702629]], [[-0.05153767764568329, 0.06707518547773361, -0.023244893178343773], [-0.05619548633694649, 0.06376177817583084, 0.00381782790645957], [-0.06439197808504105, 0.057611070573329926, 0.06882141530513763]], [[0.06005071476101875, 0.0469629280269146, 0.03749161213636398], [0.06389553844928741, 0.06773913651704788, -0.0006269162986427546], [0.061004314571619034, -0.05929012596607208, 0.04219479858875275]], [[-0.037640079855918884, -0.02683979831635952, 0.055744923651218414], [0.05638212710618973, 0.06589224934577942, 0.01080765575170517], [-0.01566101238131523, -0.043768417090177536, 0.07312320172786713]], [[-0.0033846907317638397, 0.0380239337682724, 0.0339728482067585], [0.015255343168973923, -0.024118969216942787, -0.07633338868618011], [-0.05199893191456795, -0.010760103352367878, 0.030642246827483177]], [[-0.06320458650588989, 0.011434897780418396, -0.06903434544801712], [-0.0841459333896637, -0.0027299250941723585, 0.04749462753534317], [0.033749595284461975, -0.011868372559547424, -0.07936190068721771]], [[0.00671040965244174, 0.037959106266498566, 0.042088523507118225], [0.03954201936721802, 0.025427192449569702, -0.00819126795977354], [0.05933209881186485, 0.07165583223104477, 0.03829534351825714]], [[-0.06481625884771347, 0.02658245712518692, 0.07885779440402985], [0.003439762629568577, -0.0435415618121624, -0.0023080052342265844], [0.06156960874795914, 0.043054595589637756, 0.05126990005373955]], [[-0.05908716097474098, -0.038906898349523544, -0.028902651742100716], [-0.012750618159770966, -0.026733048260211945, 0.015760425478219986], [-0.06388258934020996, -0.0736125260591507, 0.06060192361474037]], [[0.06188441440463066, 0.0640949234366417, -0.026252292096614838], [-0.01711522415280342, -0.022175559774041176, 0.006598961539566517], [0.03867050260305405, 0.06195656582713127, -0.020054254680871964]], [[-0.0017116174567490816, -0.003050165483728051, -0.00018507090862840414], [-0.001176262740045786, 0.05100025609135628, -0.04998490959405899], [0.034781329333782196, -0.07734932005405426, 0.08050571382045746]], [[-0.07968983054161072, -0.05690740421414375, 0.019334331154823303], [-0.038545578718185425, -0.05449138954281807, -0.02905631624162197], [0.03627752140164375, 0.06291979551315308, 0.004565366543829441]], [[0.07110559195280075, 0.0712130144238472, 0.07289839535951614], [0.007710771635174751, 0.06977381557226181, 0.012929072603583336], [-0.01584818586707115, 0.0033483875449746847, -0.02308213710784912]]], [[[0.059319086372852325, 0.07581554353237152, -0.08415018767118454], [0.0027741945814341307, -0.04997464641928673, -0.03708994761109352], [0.027076121419668198, -0.015395702794194221, 0.02538214810192585]], [[-0.03706803917884827, -0.03761884570121765, 0.017966248095035553], [-0.04412585869431496, 0.05858534201979637, -0.05273309722542763], [0.010843666270375252, 0.06449009478092194, 0.03131929412484169]], [[0.03138568252325058, 0.015659799799323082, -0.0472998321056366], [0.06237393617630005, -0.081192247569561, 0.032192230224609375], [0.05854060500860214, -0.019251346588134766, 0.03530275821685791]], [[0.042029969394207, -0.022966712713241577, -0.03482692688703537], [-0.05376685783267021, -0.04476740211248398, 0.07917878031730652], [0.010173873975872993, -0.03890073671936989, -0.023505784571170807]], [[-0.06572166830301285, -0.036277174949645996, 0.06585695594549179], [0.07579245418310165, -0.05975813791155815, -0.05735895037651062], [-0.00954244565218687, -0.0558239221572876, 0.04287947714328766]], [[0.0481918640434742, 0.08096383512020111, -0.08147554099559784], [0.019459325820207596, 0.06448887288570404, -0.020738588646054268], [0.020706679672002792, -0.07305881381034851, -0.08138226717710495]], [[-0.06455401331186295, 0.01655464805662632, -0.04006781801581383], [0.06623225659132004, 0.06868769228458405, 0.053088076412677765], [0.029399340972304344, -0.08107476681470871, -0.04966811463236809]], [[0.003333157626911998, 0.07606973499059677, -0.043610427528619766], [-0.06680943071842194, 0.0023749724496155977, 0.07253528386354446], [0.03824511542916298, -0.03822251409292221, -0.028665874153375626]], [[-0.05734341964125633, 0.017946163192391396, 0.055271588265895844], [-0.034045226871967316, -0.042145028710365295, 0.08151977509260178], [0.0214371457695961, 0.04804804176092148, 0.05046083778142929]], [[-0.041800860315561295, -0.06831769645214081, 0.04417167603969574], [0.058187779039144516, 0.06241074204444885, -0.01833769865334034], [0.0038151408080011606, -0.07328851521015167, 0.06521108001470566]], [[0.06452110409736633, 0.051034312695264816, 0.012293929234147072], [0.035294875502586365, -0.08493529260158539, 0.07442393153905869], [0.042848486453294754, 0.05606412887573242, 0.006778731942176819]], [[0.06449709832668304, 0.07353532314300537, 0.013227837160229683], [0.02893863245844841, -0.04730382189154625, 0.07289966940879822], [0.0304438304156065, 0.04727433621883392, -0.007399120833724737]], [[-0.07681941241025925, -0.0641598254442215, 0.0752875879406929], [0.036871254444122314, 0.024026794359087944, -0.024912940338253975], [-0.008373621851205826, -0.018124325200915337, -0.014381836168467999]], [[-0.044805098325014114, 0.013989506289362907, 0.026039697229862213], [-0.063975989818573, 0.007400584872812033, 0.049074072390794754], [-0.06642806529998779, 0.06694120913743973, -0.00788183230906725]], [[-0.016731446608901024, -0.0034189296420663595, 0.06215296685695648], [-0.01536618173122406, -0.045975424349308014, -0.027097221463918686], [-0.04790471866726875, 0.05894828960299492, 0.002928463974967599]], [[-0.07309000939130783, -0.026673641055822372, 0.004084476735442877], [-0.0001782303734216839, 0.05453357845544815, 0.039233896881341934], [0.03677923604846001, -0.06602808833122253, -0.06027955189347267]]], [[[0.06667935848236084, 0.06150834262371063, -0.001713013043627143], [-0.025197524577379227, 0.02044721692800522, 0.04367148503661156], [0.037337906658649445, 0.023997070267796516, 0.035293422639369965]], [[0.01813945733010769, 0.07434983551502228, 0.05850447341799736], [0.009538119658827782, -0.01763983629643917, 0.03773780167102814], [-0.04139174520969391, -0.018176525831222534, 0.06164689362049103]], [[0.024923544377088547, 0.006932586431503296, -0.06400591135025024], [0.03330583497881889, 0.08112893998622894, 0.021623224020004272], [0.027062913402915, 0.02639118954539299, 0.08022131770849228]], [[-0.04918406531214714, -0.01683708094060421, -0.05286858603358269], [0.012398282997310162, 0.060953788459300995, -0.07290543615818024], [0.06772910803556442, -0.006070399656891823, 0.03056987002491951]], [[-0.06998161971569061, -0.028265412896871567, -0.07487605512142181], [-0.04374806955456734, 0.07133260369300842, 0.06820351630449295], [-0.06425791233778, -0.019735286012291908, -0.04704334959387779]], [[-0.03299686685204506, 0.04144734516739845, -0.01724989525973797], [0.07617755979299545, 0.004897364880889654, 0.06726223230361938], [0.029467497020959854, 0.04276984930038452, 0.06827186048030853]], [[-0.061939675360918045, -0.03162059560418129, -0.07091159373521805], [-0.05582484230399132, 0.0613786019384861, 0.047226548194885254], [-0.04150967672467232, 0.08365859091281891, 0.08726144582033157]], [[0.04759645462036133, 0.043549418449401855, 0.03515981137752533], [-0.05897124856710434, 0.07973016798496246, -0.047025613486766815], [-0.019710954278707504, -0.0656341165304184, -0.050379905849695206]], [[-0.016864769160747528, 0.05626688152551651, 0.04777123034000397], [-0.0031090688426047564, -0.07175865769386292, 0.05200084298849106], [-0.026033563539385796, 0.0029992852360010147, 0.055551059544086456]], [[-0.06998984515666962, -0.069909006357193, 0.03524055331945419], [-0.06830540299415588, 0.07226007431745529, 0.005685539450496435], [-0.007305954582989216, -0.06326617300510406, -0.06077438220381737]], [[-0.03822747990489006, -0.022188130766153336, 0.0545051209628582], [-0.005589975044131279, 0.03591448441147804, -0.030389901250600815], [-0.07390175759792328, 0.057655882090330124, 0.07399055361747742]], [[0.06627548485994339, 0.05564527213573456, -0.06377670168876648], [0.06930702179670334, -0.06461642682552338, -0.05807226151227951], [0.05067533627152443, 0.028845788910984993, -0.061383821070194244]], [[0.0562138631939888, -0.01036255992949009, 0.027552705258131027], [-0.0067644184455275536, 0.017622025683522224, 0.04789047688245773], [0.013048483058810234, -0.002218726323917508, 0.05242525041103363]], [[-0.08264371752738953, 0.08129460364580154, -0.006241229362785816], [0.028660861775279045, -0.06644220650196075, 0.07637568563222885], [-0.02022283338010311, 0.060896776616573334, -0.0030720022041350603]], [[-0.049277566373348236, 0.049678247421979904, 0.05354937165975571], [0.026993248611688614, -0.07050259411334991, 0.049693409353494644], [-0.02532796375453472, 0.06208490580320358, -0.018502546474337578]], [[-0.039359331130981445, 0.01022050715982914, -0.014994669705629349], [0.0075373174622654915, -0.01561800017952919, -0.04395680874586105], [-0.05908920243382454, 0.02092282846570015, -0.059507112950086594]]], [[[0.05748981237411499, 0.07548642158508301, -0.02062234841287136], [-0.034112606197595596, -0.04139427840709686, 0.03875682130455971], [-0.0718781128525734, 0.07032913714647293, -0.027124248445034027]], [[-0.055340588092803955, 0.06485496461391449, 0.07601054757833481], [-0.015502890571951866, -0.06096487492322922, -0.06973161548376083], [-0.00447508692741394, 0.048067234456539154, -0.05690203979611397]], [[0.057109784334897995, -0.017736416310071945, -0.033984504640102386], [-0.04504285380244255, -0.013065993785858154, -0.051652759313583374], [0.036510251462459564, 0.06833197176456451, 0.014282554388046265]], [[-0.05965396761894226, 0.06754117459058762, 0.028490018099546432], [-0.019835304468870163, -0.026717763394117355, 0.0026965539436787367], [-0.0021614234428852797, -0.026437979191541672, 0.0323634147644043]], [[-0.01806984469294548, 0.0819896012544632, 0.06110157445073128], [-0.023783113807439804, 0.05642547830939293, 0.017498377710580826], [0.02775382064282894, -0.017637182027101517, 0.0434943288564682]], [[0.009147107601165771, 0.0704420655965805, -0.0016996952472254634], [0.011105647310614586, -0.021563705056905746, -0.012679102830588818], [-0.05065983533859253, 0.06118982657790184, -0.04437007009983063]], [[-0.07941963523626328, -0.0005497559905052185, -0.07607129961252213], [0.07916759699583054, 0.07367022335529327, -0.07473943382501602], [0.059311192482709885, 0.04361976310610771, 0.05680392310023308]], [[-0.012085380963981152, -0.0768405944108963, 0.038840584456920624], [0.0778326690196991, 0.05632844939827919, 0.07468471676111221], [-0.07137121260166168, -0.0469723716378212, 0.0022096848115324974]], [[-0.007240725215524435, -0.07686059921979904, 0.04851703718304634], [-0.04828283563256264, 0.053770750761032104, -0.027823230251669884], [-0.07742290198802948, -0.0626731887459755, -0.05903921648859978]], [[-0.019622551277279854, -0.06123321130871773, -0.0038147838786244392], [-0.0669039860367775, 0.021075362339615822, -0.01825658790767193], [-0.047060418874025345, -0.036867208778858185, 0.024031007662415504]], [[-0.01602133922278881, -0.0572531595826149, -0.04229145497083664], [-0.0411006435751915, 0.04824976995587349, -0.03564215078949928], [0.05415026843547821, 0.06492607295513153, 0.0666743814945221]], [[-0.05930102616548538, -0.03926390781998634, 0.05895509570837021], [0.04756777361035347, -0.05549796670675278, -0.060198646038770676], [-0.05447433143854141, -0.06810072064399719, 0.0753755122423172]], [[-0.022099515423178673, 0.03445498272776604, -0.07782828062772751], [-0.04245110601186752, 0.010845611803233624, -0.04849046468734741], [0.0691504180431366, 0.01319929026067257, -0.04959441348910332]], [[-0.01101042702794075, -0.04536205157637596, 0.002845009323209524], [0.008765473030507565, 0.07848942279815674, 0.020376594737172127], [0.0038725407794117928, 0.06704068183898926, 0.01323190052062273]], [[-0.013042420148849487, -0.007389195263385773, -0.012971341609954834], [0.06141187995672226, -0.070175901055336, 0.07182660698890686], [-0.04219783470034599, -0.004612425807863474, -0.004575353115797043]], [[0.05646681785583496, -0.05940663069486618, 0.008935591205954552], [-0.012295247986912727, -0.033200811594724655, -0.022213103249669075], [0.0372660867869854, -0.046138059347867966, -0.011995214968919754]]], [[[0.006700649857521057, 0.0779430940747261, 0.07163361459970474], [0.017948780208826065, -0.06838720291852951, -0.045368585735559464], [-0.028043190017342567, 0.06123148277401924, 0.04068456590175629]], [[-0.06532520055770874, -0.005488841328769922, -0.01891394518315792], [-0.0764300674200058, -0.06383392214775085, -0.01672840118408203], [-0.0336250364780426, -0.06715500354766846, 0.04722138121724129]], [[0.059947043657302856, -0.03768255561590195, 0.0815470814704895], [-0.017920544371008873, -0.0020084113348275423, -0.08007209748029709], [0.020140409469604492, -0.062050025910139084, 0.055026303976774216]], [[-0.003176589962095022, 0.0646325945854187, 0.03484528511762619], [-0.08130338788032532, 0.00963660143315792, 0.021047543734312057], [0.06410245597362518, 0.007245173212140799, -0.022360295057296753]], [[-0.002606085268780589, 0.049116622656583786, -0.041061680763959885], [0.07440971583127975, -0.002145991660654545, -0.05042317509651184], [0.05555848404765129, 0.0578557550907135, -0.022165818139910698]], [[-0.048111721873283386, 0.07459402084350586, 0.03361809253692627], [0.07856826484203339, 0.0672701895236969, -0.076134592294693], [-0.032763149589300156, 0.07025951892137527, -0.03192204236984253]], [[-0.03617057576775551, -0.04508252441883087, 0.07161135226488113], [0.03668258711695671, -0.035281140357255936, 0.07166734337806702], [0.03317626193165779, -0.01950278878211975, -0.06261400878429413]], [[-0.041494809091091156, 0.05831686407327652, 0.010203097946941853], [0.07228981703519821, -0.06204378604888916, -0.04067559540271759], [0.006131717469543219, 0.02292926050722599, -0.03785909339785576]], [[0.058074358850717545, -0.012216152623295784, -0.03878513723611832], [0.05408799275755882, -0.03126203268766403, -0.045460015535354614], [-0.0025711378548294306, -0.029419559985399246, -0.02298356220126152]], [[-0.06886643171310425, 0.038425981998443604, -0.05037131905555725], [-0.017381230369210243, -0.07750140875577927, -0.06906720250844955], [-0.021617969498038292, -0.0546848326921463, 0.07488171756267548]], [[0.08032643795013428, -0.0610186792910099, -0.06994957476854324], [0.07402277737855911, -0.032998185604810715, -0.03837508708238602], [0.01074817031621933, -0.027780821546912193, 0.02293110452592373]], [[-0.08194023370742798, 0.07157260179519653, -0.034945063292980194], [0.020513813942670822, 0.0669868215918541, -0.08248589187860489], [-0.031977780163288116, 0.06571216136217117, -0.08161966502666473]], [[-0.018965447321534157, -0.06299778819084167, -0.01973700523376465], [-0.06454890221357346, -0.07912929356098175, 0.046030543744564056], [0.06287235021591187, -0.06831441074609756, 0.05395820736885071]], [[-0.03840000182390213, 0.017960408702492714, 0.03286955878138542], [-0.04146725311875343, -0.05270609259605408, -0.040414825081825256], [0.026254573836922646, 0.06132715940475464, 0.00483226403594017]], [[0.019240152090787888, -0.003438462968915701, 0.01439512986689806], [-0.009729087352752686, -0.03446146100759506, 0.07472962141036987], [0.026358287781476974, -0.041399385780096054, 0.0157490074634552]], [[-0.06305134296417236, -0.035886865109205246, -0.07053602486848831], [-0.05184667930006981, 0.08135327696800232, 0.019412459805607796], [0.03131820634007454, 0.06427247077226639, 0.010595932602882385]]], [[[0.007252783048897982, -0.02116175927221775, 0.045839712023735046], [0.04608137160539627, -0.059733796864748, 0.04961124435067177], [-0.08007635176181793, 0.010422267019748688, 0.06448894739151001]], [[-0.03994482755661011, -0.05612269043922424, 0.05225616693496704], [0.07500594854354858, -0.054341137409210205, -0.038896284997463226], [-0.030185401439666748, -0.048096101731061935, -0.04870688170194626]], [[0.009912103414535522, 0.07895903289318085, -0.026389112696051598], [-0.04218124598264694, 0.01597452163696289, 0.04311300441622734], [-0.0501236617565155, 0.031055252999067307, -0.042616695165634155]], [[-0.07445969432592392, -0.03686296194791794, 0.024963131174445152], [0.06639682501554489, -0.0719994455575943, 0.06502997130155563], [-0.0221690833568573, 0.07547317445278168, 0.027880024164915085]], [[0.03993554040789604, 0.08143498748540878, -0.02296435832977295], [0.028103988617658615, -0.047942422330379486, 0.03591325134038925], [0.007141709327697754, -0.0635060966014862, -0.042736202478408813]], [[-0.07125098258256912, -0.062136564403772354, 0.0719158872961998], [-0.00964005384594202, -0.03870471194386482, 0.008075662888586521], [0.021332792937755585, 0.0649811178445816, -0.01951402984559536]], [[0.04769812151789665, 0.012512801215052605, -0.01294625923037529], [0.05809781327843666, -0.07456626743078232, 0.05663459002971649], [-0.025363657623529434, 0.03437058627605438, 0.03296112269163132]], [[-0.03903675824403763, -0.07069982588291168, 0.05810384452342987], [0.04102274775505066, -0.05552873760461807, 0.02594037726521492], [-0.06785169988870621, 0.01420359592884779, -0.03167789429426193]], [[0.05437339469790459, -0.06635445356369019, 0.08112430572509766], [0.026619337499141693, 0.011611351743340492, -0.0337991788983345], [-0.02269468456506729, -0.025291424244642258, -0.03148842975497246]], [[-0.004594969097524881, -0.021108774468302727, -0.06612882763147354], [-0.06428097933530807, 0.02721346728503704, -0.07936318218708038], [-0.01662263832986355, 0.007812718860805035, -0.034617286175489426]], [[0.04345220327377319, 0.01504738163203001, 0.028040233999490738], [-0.045218195766210556, 0.005070293787866831, -0.04495535045862198], [0.039560623466968536, 0.04717467725276947, -0.061813823878765106]], [[-0.05377708375453949, 0.007075079251080751, -0.01704329065978527], [-0.026034748181700706, -0.06733740121126175, 0.06523647904396057], [-0.02018347568809986, -0.009269379079341888, 0.06389831751585007]], [[0.06527689099311829, 0.0016570588340982795, -0.024882566183805466], [-0.00877600908279419, -0.07447992265224457, -0.07203474640846252], [0.01342762541025877, 0.05201011896133423, 0.006608407013118267]], [[0.002759587252512574, 0.031041404232382774, -0.030747827142477036], [0.04716889187693596, 0.02238968200981617, -0.06004156172275543], [0.045201245695352554, 0.05545097216963768, -0.05718114599585533]], [[0.008704924955964088, 0.004594295285642147, 0.024826684966683388], [0.02365008369088173, 0.02960440330207348, 0.048464756458997726], [0.042211420834064484, -0.04765404015779495, -0.07663969695568085]], [[-0.05856361612677574, 0.0066483523696660995, -0.07997609674930573], [-0.08329742401838303, -0.04619864746928215, -0.056789811700582504], [-0.0800790786743164, -0.05835803225636482, -0.047382861375808716]]], [[[-0.008435267023742199, 0.006750430446118116, -0.06482913345098495], [0.07611963152885437, -0.011247276328504086, 0.031413912773132324], [-0.007226261310279369, -0.08043328672647476, 0.060534294694662094]], [[-0.016793513670563698, 0.04146432504057884, -0.014886821620166302], [-0.03810526803135872, -0.07477089017629623, -0.03411902114748955], [-0.024149514734745026, 0.07232643663883209, 0.010310989804565907]], [[-0.019243132323026657, -0.06311601400375366, 0.08232133090496063], [0.00523047661408782, -0.012158030644059181, 0.021801114082336426], [0.03667557239532471, 0.016874155029654503, -0.07789235562086105]], [[0.01698017120361328, -0.040774427354335785, 0.03330377861857414], [0.018746357411146164, 0.06340315192937851, 0.07177870720624924], [0.05783480405807495, -0.00560801662504673, -0.02192772552371025]], [[-0.02520585060119629, -0.016161346808075905, -0.07159009575843811], [-0.07060102373361588, -0.026703236624598503, 0.02211945131421089], [-0.03825036436319351, 0.023471560329198837, -0.08171919733285904]], [[-0.07979343086481094, -0.07645341753959656, -0.0522921085357666], [0.011198479682207108, 0.07599139958620071, 0.06353134661912918], [0.025730077177286148, 0.007105895783752203, 0.036098696291446686]], [[0.04552435502409935, -0.015930743888020515, 0.01259054709225893], [-0.06552167981863022, 0.06775934994220734, 0.01383464690297842], [0.06453093141317368, 0.02129816636443138, -0.05045096576213837]], [[0.05904531478881836, -0.07431183755397797, 0.03941996023058891], [-0.018469199538230896, -0.04961901530623436, -0.0020917351357638836], [0.023446042090654373, 0.018335647881031036, 0.06937221437692642]], [[0.07622722536325455, 0.004313101060688496, -0.0004890881828032434], [0.047310516238212585, 0.021636199206113815, -0.013574454933404922], [-0.00010833147825906053, -0.02571343258023262, 0.052968498319387436]], [[0.06633727252483368, 0.024310756474733353, 0.022176824510097504], [0.004341471008956432, 0.017113864421844482, -0.001546121435239911], [0.05448475107550621, -0.06865756213665009, -0.046823274344205856]], [[-0.07640861719846725, 0.03868326172232628, 0.039914295077323914], [-0.035198137164115906, 0.011642721481621265, -0.08224589377641678], [-0.08364739269018173, -0.043114107102155685, -0.001351287355646491]], [[0.010260466486215591, -0.059606894850730896, 0.05246945843100548], [0.006422888021916151, 0.016462232917547226, 0.08074194937944412], [0.020443594083189964, 0.011717792600393295, -0.060535285621881485]], [[-0.0027356697246432304, -0.07453351467847824, 0.0313166081905365], [0.07737123221158981, -0.07524369657039642, 0.054274700582027435], [0.05465292930603027, -0.055910199880599976, -0.04109093174338341]], [[0.0699019804596901, -0.03406139090657234, 0.006972724571824074], [0.07675153762102127, 0.0099707692861557, -0.07810212671756744], [-0.026044011116027832, 0.017396539449691772, 0.07373233139514923]], [[-0.06447295099496841, -0.03637685254216194, -0.03153115138411522], [-0.07929571717977524, -0.06953004747629166, -0.05589114502072334], [0.04901515319943428, -0.05692128837108612, 0.07750152796506882]], [[0.012493286281824112, 0.06324361264705658, 0.0008563189185224473], [-0.004189659375697374, -0.06853463500738144, 0.0027684136293828487], [-0.03677831590175629, 0.0533866211771965, 0.039292093366384506]]], [[[0.039463724941015244, -0.06476873904466629, -0.02882494404911995], [-0.07153890281915665, -0.013048634864389896, -0.05810445919632912], [-0.08049368113279343, 0.05079307034611702, -0.048859044909477234]], [[-0.07449854165315628, -0.024127481505274773, 0.0532258003950119], [0.02877107262611389, 0.04960153251886368, -0.02135825715959072], [-0.023441864177584648, -0.015773411840200424, 0.07978601008653641]], [[0.017716577276587486, -0.029540270566940308, 0.04027600213885307], [0.017093490809202194, -0.04827794060111046, -0.04117465019226074], [-0.07609327137470245, -0.018912702798843384, 0.036691807210445404]], [[0.06580021232366562, 0.04666166752576828, 0.01301640272140503], [-0.06017463654279709, -0.029213329777121544, 0.06274530291557312], [-0.03842293471097946, -0.027040164917707443, 0.019046854227781296]], [[-0.011991330422461033, 0.026337943971157074, 0.004115238320082426], [-0.061650775372982025, 0.028758855536580086, -0.07166892290115356], [0.07315753400325775, -0.027020754292607307, 0.056755613535642624]], [[-0.006503462791442871, -0.04932580888271332, -0.06723490357398987], [-0.0673738643527031, -0.08145096153020859, -0.07292483001947403], [0.05946892499923706, 0.02809324860572815, 0.013652538880705833]], [[0.02180824615061283, -0.03702554851770401, -0.05856103450059891], [-0.044222839176654816, 0.02186635509133339, 0.0390419103205204], [-0.02003328688442707, -0.04849866032600403, 0.050599854439496994]], [[-0.07261860370635986, -0.018721599131822586, 0.026863837614655495], [-0.005151038058102131, 0.05964832752943039, 0.03860331326723099], [-0.05409504473209381, -0.04240241274237633, -0.06956695020198822]], [[0.027972649782896042, 0.062349870800971985, -0.019697079434990883], [0.05114449933171272, -0.026570264250040054, -0.03696823865175247], [0.05095849558711052, -0.027031777426600456, 0.05237488076090813]], [[0.04733335226774216, -0.0031789750792086124, 0.033344533294439316], [-0.03551841154694557, 0.023869263008236885, -0.06976071745157242], [0.06640353053808212, 0.07835744321346283, 0.022964144125580788]], [[-0.05936283990740776, 0.013589783571660519, 0.004676428157836199], [0.07997645437717438, -0.07417135685682297, -0.016309073194861412], [0.0831381306052208, -0.014502188190817833, 0.005354324355721474]], [[0.014481600373983383, -0.03307301551103592, -0.017398390918970108], [0.05889767408370972, 0.03440752252936363, 0.037334784865379333], [0.002997187664732337, 0.07956421375274658, 0.07842244952917099]], [[-0.013526289723813534, -0.06690198928117752, -0.04592590034008026], [0.041939590126276016, -0.06076803058385849, 0.002080711768940091], [0.07679500430822372, -0.054836660623550415, 0.04832616448402405]], [[-0.04070344567298889, 0.03845676779747009, -0.0007257348042912781], [-0.053499966859817505, 0.058748044073581696, 0.021251074969768524], [-0.07707084715366364, 0.0037728759925812483, -0.04634702950716019]], [[0.08053862303495407, -0.060013607144355774, -0.0069594066590070724], [0.004995323717594147, 0.05262221023440361, 0.0707569420337677], [0.020890822634100914, 0.022679852321743965, -0.022329648956656456]], [[0.06486921012401581, 0.04058516398072243, 0.028418026864528656], [0.03611331805586815, 0.03458115831017494, 0.031207768246531487], [-0.06145545467734337, 0.031164759770035744, -0.08236247301101685]]], [[[-0.03653603419661522, 0.005378865171223879, -0.08172289282083511], [0.07145337015390396, -0.03474119305610657, 0.04911109060049057], [0.06990601122379303, -0.06504146009683609, -0.07103624194860458]], [[0.03565587103366852, -0.008431917987763882, -0.006903072819113731], [-0.062047168612480164, 0.033299848437309265, 0.00916407909244299], [-0.06663554161787033, -0.052328526973724365, -0.03553227707743645]], [[0.010918518528342247, 0.02297593280673027, 0.06598703563213348], [0.059358399361371994, 0.07144425809383392, 0.05558469146490097], [0.03875923156738281, 0.011601448059082031, -0.08081232011318207]], [[0.01452575158327818, 0.07930634915828705, -0.06180240958929062], [0.07746246457099915, -0.0030711195431649685, 0.03764799237251282], [0.06213344261050224, -0.013511449098587036, -0.06936164200305939]], [[-0.05414886772632599, -0.051454730331897736, -0.0010372084798291326], [-0.034158140420913696, -0.07685244828462601, -0.03717872500419617], [-0.0667317807674408, -0.062421929091215134, -0.08193395286798477]], [[-0.053262535482645035, -0.03820379823446274, -0.07077357918024063], [-0.059463199228048325, -0.05375203862786293, -0.03680078685283661], [0.005347400438040495, 0.010770305059850216, -0.04281117394566536]], [[0.06114403158426285, 0.04556850716471672, -0.016760513186454773], [0.007887504994869232, -0.07565956562757492, -0.009677245281636715], [0.03617794066667557, 0.02226438745856285, -0.07476774603128433]], [[-0.03628682345151901, 0.010196603834629059, -0.0024557197466492653], [0.03803287073969841, -0.0630788654088974, 0.08078046888113022], [-0.03835767135024071, 0.07293088734149933, 0.060286398977041245]], [[0.018144166097044945, -0.042429376393556595, 0.004941738676279783], [-0.008252152241766453, -0.015443172305822372, 0.04021069407463074], [-0.05382675677537918, -0.04999050125479698, 0.027426771819591522]], [[0.01691911555826664, 0.013506649062037468, -0.019845105707645416], [-0.05976627767086029, 0.03869715332984924, 0.0566619373857975], [-0.02245160937309265, -0.015309554524719715, 0.0360235795378685]], [[-0.025348447263240814, -0.03695863485336304, 0.025008512660861015], [0.05668878182768822, 0.048199571669101715, -0.0014247969957068563], [-0.0710505023598671, 0.012683890759944916, -0.0057623847387731075]], [[-0.06691993772983551, 0.012879209592938423, 0.04700229689478874], [-0.021628890186548233, -0.01625305786728859, 0.012427202425897121], [0.07717253267765045, -0.00463625555858016, 0.0483032651245594]], [[0.026445668190717697, -0.014504482969641685, -0.07808317989110947], [0.016012778505682945, 0.06421539187431335, -0.020357459783554077], [0.023522373288869858, -0.07856778800487518, -0.021541601046919823]], [[0.06527148187160492, 0.03340146318078041, -0.06539908796548843], [-0.009118229150772095, -0.051086582243442535, -0.057952284812927246], [-0.01556351501494646, 0.047074709087610245, -0.012906530871987343]], [[0.067696213722229, -0.06875097006559372, -0.010252099484205246], [-0.024416625499725342, -0.0007207551971077919, -0.008997639641165733], [-0.06894593685865402, 0.0049956440925598145, -0.07300978153944016]], [[-0.046367913484573364, -0.018460247665643692, 0.03033464029431343], [-0.022239014506340027, 0.06786502152681351, -0.061779674142599106], [0.007533106487244368, -0.025852851569652557, 0.019955245777964592]]]], "encoder.6.bias": [-0.037027791142463684, 0.03454259783029556, 0.07334870845079422, -0.03432512655854225, -0.022585337981581688, -0.08211512863636017, -0.07562454044818878, -0.07305505871772766, -0.037018176168203354, -0.020018205046653748, -0.0535205602645874, -0.070439413189888, 0.08284661918878555, -0.008569189347326756, -0.03476855903863907, -0.014738114550709724], "encoder.8.weight": [[[[-0.06047375500202179, -0.007166631985455751, 0.05561584234237671], [0.06147985905408859, 0.009824543260037899, 0.07576638460159302], [0.019986243918538094, 0.042474113404750824, 0.069248266518116]], [[-0.0729522779583931, 0.018866434693336487, -0.028227124363183975], [0.021502697840332985, 0.014824151061475277, -0.07061275839805603], [-0.02050694264471531, 0.021627556532621384, -0.05865452438592911]], [[0.05185529962182045, 0.07149150967597961, 0.07184917479753494], [0.020896531641483307, 0.0058246031403541565, -0.061880964785814285], [-0.029152458533644676, 0.055467355996370316, 0.021984372287988663]], [[0.044248636811971664, -0.02221345342695713, -0.028861215338110924], [-0.016274256631731987, 0.04777369275689125, -0.04897962138056755], [0.0066566308960318565, -0.036003291606903076, 0.05000198259949684]], [[-0.0036346297711133957, -0.018502186983823776, -0.06261196732521057], [0.06609658151865005, -0.00827301200479269, -0.03925734758377075], [-0.020465198904275894, -0.04574382305145264, 0.058842163532972336]], [[0.002431766828522086, -0.005369839258491993, -0.056059904396533966], [-0.06083042919635773, 0.048974499106407166, -0.07195769250392914], [0.04426950961351395, 0.064925916492939, 0.050009921193122864]], [[-0.050669267773628235, 0.047680750489234924, -0.07842861115932465], [0.04510369151830673, -0.01848152093589306, 0.017293386161327362], [-0.07078977674245834, -0.05050835758447647, 0.050181545317173004]], [[-0.04971729964017868, 0.03236584737896919, 0.009369448758661747], [-0.038691844791173935, -0.08077981323003769, -0.018708525225520134], [0.046809565275907516, -0.025597063824534416, 0.03311746194958687]], [[0.08286621421575546, -0.022395886480808258, 0.00968096498399973], [0.0623357854783535, 0.006626029498875141, -0.0070711178705096245], [-0.0492948554456234, -0.05409317463636398, -0.03299486264586449]], [[0.07356993854045868, 0.012730572372674942, -0.07672186195850372], [-0.042453814297914505, -0.07018613070249557, 0.023367028683423996], [0.023602422326803207, -0.021211162209510803, 0.021824555471539497]], [[-0.06899945437908173, 0.03396368771791458, -0.077560655772686], [-0.05143740028142929, 0.08272599428892136, 0.013533282093703747], [-0.0641200989484787, 0.03862373158335686, -0.05193321034312248]], [[-0.013080017641186714, 0.020754612982273102, -0.03630782663822174], [-0.030420880764722824, -0.05796029791235924, 0.007743154186755419], [-0.08019538223743439, 0.05615498870611191, -0.06338679045438766]], [[-0.04324248805642128, -0.06909827888011932, 0.06946301460266113], [-0.07152795791625977, -0.04476376622915268, 0.052957683801651], [-0.07399465888738632, 0.03178933262825012, -0.026700353249907494]], [[0.006625615060329437, 0.05558096244931221, 0.002636459656059742], [-0.04413339123129845, 0.013668917119503021, 0.044093433767557144], [-0.06447269022464752, 0.020628182217478752, 0.023534847423434258]], [[0.011626973748207092, -0.02335207909345627, 0.08035504817962646], [0.05721960961818695, 0.06364782899618149, 0.005601797718554735], [-0.008470659144222736, 0.013834662735462189, -0.046511247754096985]], [[-0.05611909180879593, 0.0013070455752313137, 0.039158742874860764], [0.06512997299432755, 0.024503683671355247, -0.02816995419561863], [-0.058026332408189774, -0.06322573125362396, -0.028183860704302788]]], [[[-0.04009697213768959, -0.01673455722630024, -0.003030676394701004], [0.040389854460954666, -0.0008794877212494612, 0.03713623434305191], [0.044875308871269226, 0.029768891632556915, -0.04702748358249664]], [[-0.006195534020662308, 0.04880914464592934, 0.013079296797513962], [0.023565633222460747, 0.03230894356966019, 0.056387759745121], [-0.02857743576169014, 0.08328208327293396, -0.00022850805544294417]], [[-0.06351709365844727, -0.06592413038015366, 0.03142525628209114], [0.018107546493411064, -0.06484618037939072, -0.06511122733354568], [-0.006196614354848862, 0.0471951998770237, 0.06374942511320114]], [[0.004828380886465311, -0.003827761160209775, 0.01709436997771263], [-0.019363852217793465, 0.009134946390986443, 0.05307421088218689], [-0.025079313665628433, -0.061120450496673584, 0.07646754384040833]], [[-0.026196148246526718, -0.07214074581861496, 0.06827796250581741], [0.012091051787137985, 0.047355640679597855, -0.027092643082141876], [-0.07118363678455353, -0.047461237758398056, 0.018771151080727577]], [[0.04885639250278473, 0.01673070900142193, -0.017722316086292267], [-0.021031884476542473, 0.010166438296437263, 0.0075292885303497314], [-0.023703258484601974, -0.04045504704117775, -0.05964091047644615]], [[0.024959806352853775, -0.062187884002923965, -0.08067702502012253], [0.0038757852744311094, -0.07125259190797806, -0.03057105280458927], [-0.011338476091623306, 0.040989674627780914, 0.05109615623950958]], [[0.025379089638590813, 0.06344042718410492, -0.0009702518000267446], [0.006211691536009312, -0.04783990606665611, -0.030502572655677795], [-0.015155898407101631, 0.04583289101719856, -0.004928593523800373]], [[-0.07219459861516953, 0.08078233897686005, -0.042436350136995316], [0.04945105314254761, -0.0555962473154068, -0.04064164683222771], [-0.07826775312423706, 0.04315198212862015, -0.032351285219192505]], [[-0.004796696826815605, -0.05245698243379593, 0.07273659110069275], [0.0459892563521862, 0.03767048567533493, -0.05287305265665054], [-0.042346976697444916, 0.045718200504779816, 0.07121901959180832]], [[0.0043165008537471294, -0.07131105661392212, -0.03510016202926636], [-0.015303820371627808, -0.03483973816037178, -0.05698126554489136], [-0.040217578411102295, 0.02144424244761467, -0.060920052230358124]], [[-0.07058383524417877, -0.0684632882475853, -0.013451586477458477], 