{"encoder.0.weight": [[[[-0.2583845257759094, -0.015454513020813465, -0.04176109656691551], [0.023986853659152985, 0.195602685213089, -0.1989392191171646], [0.32541361451148987, -0.026060864329338074, 0.2923983931541443]]], [[[0.10085499286651611, -0.003290642984211445, -0.3276676535606384], [0.06673677265644073, -0.05078614875674248, 0.18860314786434174], [-0.1487112045288086, -0.10075555741786957, 0.32015037536621094]]], [[[-0.3017745018005371, -0.09711112827062607, 0.01973237469792366], [0.24248558282852173, -0.12283964455127716, -0.03706154599785805], [0.03379025310277939, -0.09237987548112869, -0.10660132765769958]]], [[[0.1627453714609146, -0.1543547660112381, 0.10657798498868942], [0.1280793845653534, 0.03968483954668045, -0.20740897953510284], [0.2894732654094696, -0.2820603847503662, 0.26513320207595825]]], [[[0.14796356856822968, 0.32696354389190674, -0.17317532002925873], [-0.004965104162693024, -0.2783035337924957, -0.24676558375358582], [-0.2007141262292862, 0.19340914487838745, -0.04742275923490524]]], [[[-0.042442839592695236, -0.22583289444446564, -0.07114953547716141], [0.08968376368284225, -0.11046700179576874, -0.05916271731257439], [0.32249215245246887, 0.002727972809225321, -0.12657800316810608]]], [[[-0.0507054477930069, 0.18496018648147583, -0.22923122346401215], [-0.1175118088722229, -0.21473172307014465, -0.31981682777404785], [0.18368743360042572, 0.1760505735874176, -0.07018286734819412]]], [[[-0.02618216909468174, -0.015460167080163956, -0.04251294955611229], [-0.1964462250471115, -0.1092151403427124, -0.07378014922142029], [-0.21421535313129425, 0.3023671507835388, 0.26262012124061584]]]], "encoder.0.bias": [0.31629836559295654, -0.15337498486042023, 0.004640703089535236, 0.24414801597595215, 0.028411412611603737, -0.06458986550569534, 0.21272101998329163, -0.12028815597295761], "encoder.2.weight": [[[[0.01694764383137226, 0.09202833473682404, 0.1111382395029068], [-0.08370226621627808, -0.1082049012184143, -0.10198149085044861], [-0.11064392328262329, -0.03809034451842308, -0.02411210909485817]], [[-0.05736279860138893, -0.08291947841644287, 0.0906280130147934], [0.08816010504961014, -0.08000023663043976, 0.05817098915576935], [-0.05515498295426369, -0.11203742772340775, 0.007889846339821815]], [[0.10263869911432266, -0.07969730347394943, 0.1021697074174881], [0.01609629951417446, -0.008004004135727882, -0.040628522634506226], [0.025537941604852676, 0.10440899431705475, -0.09197977930307388]], [[0.00865511316806078, 0.08298451453447342, -0.037970203906297684], [0.1090584397315979, -0.013979949057102203, -0.08035863190889359], [-0.08633211255073547, 0.016611330211162567, 0.0036258609034121037]], [[-0.05790846422314644, -0.08500944823026657, -0.10500315576791763], [0.008354059420526028, 0.07142820954322815, 0.046074025332927704], [0.01919502392411232, -0.02062804438173771, -0.0665239691734314]], [[0.006668782327324152, -0.10938980430364609, -0.11248423159122467], [0.08353900164365768, -0.07302181422710419, 0.08328133821487427], [-0.025763478130102158, 0.10550533980131149, 0.024319665506482124]], [[-0.10999026149511337, -0.06909772753715515, 0.069070965051651], [0.008845246396958828, 0.06533646583557129, 0.04790354520082474], [-0.11708935350179672, 0.0607924647629261, -0.01598687283694744]], [[-0.05730075761675835, 0.061394013464450836, 0.02739926241338253], [0.027170758694410324, -0.11205824464559555, 0.01177967805415392], [-0.05650888755917549, 0.036380585283041, -0.06356742233037949]]], [[[0.1110076978802681, 0.06024356931447983, 0.08718733489513397], [0.07514256983995438, -0.09339752048254013, -0.01753300055861473], [0.10190865397453308, 0.0032907293643802404, -0.09692736715078354]], [[-0.016133882105350494, 0.000715693982783705, 0.0409695990383625], [0.11729274690151215, -0.005442426539957523, -0.07964569330215454], [-0.09929968416690826, -0.007426336873322725, -0.09158480912446976]], [[-0.03894617035984993, -0.028752611950039864, 0.05844968184828758], [-0.006408369168639183, 0.09806381911039352, -0.025649992749094963], [-0.07575976103544235, -0.033385682851076126, -0.060174256563186646]], [[-0.030569646507501602, -0.08380142599344254, -0.07445663958787918], [0.0067314752377569675, -0.01650330238044262, -0.10585220158100128], [-0.034232426434755325, 0.05951642245054245, -0.05994289740920067]], [[0.012148887850344181, -0.016581038013100624, -0.042426176369190216], [0.08487289398908615, -0.05901428684592247, 0.09281633049249649], [-0.08676934242248535, 0.1117795780301094, 0.08962284028530121]], [[-0.04040968418121338, -0.027872910723090172, 0.11418552696704865], [0.07167395204305649, 0.08591752499341965, -0.08692214637994766], [-0.09601517021656036, -0.11169051378965378, -0.0011086693266406655]], [[-0.0969783365726471, -0.08817357569932938, -0.11430925130844116], [0.02988504432141781, 0.0522138737142086, -0.06878940761089325], [-0.04439160227775574, 0.10022202879190445, -0.04044362157583237]], [[0.04891953989863396, -0.03772248700261116, 0.09874539077281952], [0.08632522076368332, 0.007343407720327377, 0.06247532740235329], [0.10898206382989883, 0.10113367438316345, 0.10093289613723755]]], [[[0.021184757351875305, -0.029115531593561172, 0.08264845609664917], [-0.10090232640504837, 0.08835003525018692, -0.08223225921392441], [-0.0063605643808841705, -0.11288349330425262, 0.0016152352327480912]], [[0.07256323844194412, 0.058514319360256195, -0.026171764358878136], [0.01428929902613163, 0.1004042997956276, -0.1168343722820282], [-0.060850925743579865, -0.10830038785934448, -0.03884550556540489]], [[-0.016962220892310143, 0.0037798022385686636, 0.09431492537260056], [-0.11132759600877762, -0.08823852986097336, -0.11285452544689178], [0.008208743296563625, -0.0062348926439881325, -0.03726118430495262]], [[-0.013381049036979675, -0.06935140490531921, -0.07275786250829697], [0.06949249655008316, -0.10526929050683975, -0.006605315487831831], [-0.02731280028820038, -0.015602325089275837, -0.047904495149850845]], [[-0.08917632699012756, 0.007519214414060116, 0.0844503790140152], [0.06745642423629761, -0.06765197962522507, 0.025960586965084076], [0.11623978614807129, 0.1061091274023056, -0.11584873497486115]], [[0.11000290513038635, 0.02247873693704605, -0.01985456794500351], [-0.06471140682697296, 0.08216056227684021, 0.11717645823955536], [-0.08572489023208618, 0.0317067950963974, -0.0955820307135582]], [[0.06581832468509674, -0.002252059755846858, 0.0647534653544426], [-0.06496459990739822, 0.07356900721788406, -0.0457189716398716], [-0.003424865659326315, -0.04960351437330246, -0.11088094860315323]], [[0.024470031261444092, -0.11475370824337006, -0.008085200563073158], [-0.084465891122818, -0.0030498437117785215, -0.08173152804374695], [-0.09932564198970795, -0.008400981314480305, 0.10984943807125092]]], [[[-0.043214086443185806, 0.09053437411785126, 0.013422819785773754], [0.03202540799975395, -0.08820408582687378, -0.0973939523100853], [-0.05145416408777237, 0.006091604940593243, 0.08103109151124954]], [[0.1088651493191719, -0.06683717668056488, 0.04563698545098305], [0.05146310478448868, 0.10134614259004593, -0.05206826329231262], [0.09294413775205612, -0.07072049379348755, -0.08791487663984299]], [[0.07456131279468536, 0.07432150095701218, 0.009655625559389591], [0.10376976430416107, 0.0632992759346962, 0.01184004731476307], [0.07378364354372025, -0.0933065339922905, 0.06385970860719681]], [[-0.10340175777673721, 0.07412774860858917, -0.08795344829559326], [0.01137773972004652, -0.058996643871068954, -0.10571698099374771], [0.11041094362735748, 0.08214020729064941, -0.11620941758155823]], [[-0.006064730696380138, -0.004481528420001268, 0.014125710353255272], [0.11548738181591034, -0.042402420192956924, -0.03159557655453682], [-0.05683375149965286, 0.08999776095151901, -0.0471334308385849]], [[0.11717718839645386, 0.04575517028570175, 0.1043800637125969], [-0.09852772951126099, 0.03815546631813049, -0.03125547245144844], [-0.029547816142439842, -0.03710862249135971, -0.08765208721160889]], [[-0.0487176850438118, -0.007308227941393852, -0.04370059445500374], [-0.06215924397110939, -0.05576135590672493, 0.007178605068475008], [0.09242042154073715, -0.007596347015351057, 0.10883322358131409]], [[-0.10392078012228012, -0.021291077136993408, 0.08813648670911789], [-0.018433237448334694, 0.02211185358464718, -0.1023232713341713], [0.09688737243413925, -0.08289333432912827, -0.11191867291927338]]], [[[-0.08436740189790726, -0.03597640246152878, -0.03747059404850006], [-0.04667745158076286, 0.07015354186296463, -0.09086907655000687], [0.1106271743774414, -0.10877791792154312, -0.10406435281038284]], [[-0.07639836519956589, 0.017524536699056625, -0.017572496086359024], [-0.07631788402795792, 0.07326571643352509, -0.01919460855424404], [0.013706903904676437, 0.005952179431915283, -0.095955491065979]], [[-0.05147219076752663, -0.03605450689792633, -0.005437940824776888], [-0.0017025162233039737, 0.06708407402038574, -0.08267901837825775], [-0.075314000248909, -0.0157566387206316, 0.0409274697303772]], [[-0.11711727827787399, -0.108550064265728, 0.02185758762061596], [0.07421786338090897, 0.03802892193198204, -0.06886632740497589], [-0.07701482623815536, 0.07247676700353622, -0.05562148615717888]], [[-0.008847996592521667, -0.004315504338592291, -0.06875547766685486], [-0.04242107272148132, 0.03626854345202446, 0.08009232580661774], [0.05599086731672287, -0.10344453155994415, 0.013865441083908081]], [[-0.06341090798377991, -0.04190554842352867, -0.01106465607881546], [-0.042632799595594406, 0.021138746291399002, 0.11316728591918945], [-0.01606188714504242, 0.07785342633724213, -0.048823460936546326]], [[-0.0243519376963377, 0.013699972070753574, 0.03255227208137512], [0.09552525728940964, -0.08309856802225113, -0.1012071892619133], [0.04566017910838127, -0.03782949969172478, -0.08239726722240448]], [[0.0673476979136467, 0.047349072992801666, -0.10633478313684464], [0.036938492208719254, -0.0008012163452804089, 0.03153662383556366], [-0.049813978374004364, -0.08734844624996185, 0.035131193697452545]]], [[[0.01654394529759884, 0.024855773895978928, 0.06161334738135338], [0.09090574085712433, -0.03245449811220169, -0.007418921682983637], [-0.09399143606424332, 0.028442956507205963, -0.13509777188301086]], [[0.09841689467430115, -0.07026084512472153, 0.10203327238559723], [-0.027526594698429108, 0.07787001878023148, 0.07595902681350708], [-0.08008933067321777, 0.03680901229381561, -0.11188984662294388]], [[-0.04536060616374016, 0.09014908969402313, -0.014448948204517365], [0.00628786301240325, 0.09199235588312149, 0.02426592819392681], [-0.0031531222630292177, -0.07406946271657944, -0.07304143160581589]], [[0.0005810267757624388, -0.10023903101682663, -0.12127816677093506], [0.07401522248983383, 0.09157168865203857, -0.041718173772096634], [0.014170938171446323, -0.08395534008741379, -0.04290280491113663]], [[-0.08165464550256729, -0.04473114386200905, 0.0600099042057991], [0.06892216205596924, 0.09641199558973312, 0.042649779468774796], [0.0435701422393322, -0.09242568165063858, 0.07540222257375717]], [[0.018755458295345306, -0.09491079300642014, 0.05501030758023262], [-0.040692150592803955, 0.057986147701740265, -0.07601858675479889], [-0.07169948518276215, 0.093440480530262, 0.1145450696349144]], [[0.018758444115519524, -0.04617459699511528, 0.09352333098649979], [-0.050329241901636124, -0.051880791783332825, -0.0819387212395668], [0.07366402447223663, 0.03860105946660042, 0.04257545992732048]], [[0.09496742486953735, 0.045298147946596146, -0.05980861186981201], [-0.08516346663236618, -0.02082362398505211, -0.041387517005205154], [-0.11392055451869965, 0.11353713274002075, -0.009138830937445164]]], [[[-0.02961828000843525, -0.032916367053985596, -0.042904265224933624], [-0.056738801300525665, -0.026325229555368423, 0.016606424003839493], [0.10742723941802979, 0.04241462051868439, 0.044223856180906296]], [[-0.06271155923604965, 0.01870797947049141, -0.04947439208626747], [-0.007653112523257732, 0.00035465607652440667, -0.056684717535972595], [-0.09984060376882553, -0.002600561361759901, -0.07680779695510864]], [[0.09527145326137543, 0.004829208832234144, -0.006321829743683338], [-0.06947997957468033, 0.1033337414264679, 0.10836519300937653], [-0.08193464577198029, -0.10271956771612167, 0.1153026670217514]], [[0.010467217303812504, -0.05883398652076721, -0.09636268764734268], [-0.10528463870286942, 0.08618642389774323, -0.07906664162874222], [0.01864173635840416, -0.006519055459648371, -0.07609659433364868]], [[0.06399998068809509, 0.1110067367553711, -0.11053290218114853], [-0.10014346987009048, 0.08646773546934128, 0.0660431757569313], [0.11264015734195709, 0.013987744227051735, 0.06992083787918091]], [[0.04477125033736229, 0.03511274233460426, 0.03684743121266365], [-0.09194055944681168, 0.020071787759661674, 0.07441120594739914], [-0.035387150943279266, -0.05597671493887901, -0.030987761914730072]], [[0.0763818621635437, 0.047617968171834946, -0.10506537556648254], [0.11241252720355988, -0.0497116781771183, 0.05705156922340393], [-0.02878347411751747, 0.03864883631467819, -0.03161671385169029]], [[-0.08767988532781601, 0.001491766655817628, 0.06085267663002014], [0.04246935248374939, -0.10015206784009933, 0.024124985560774803], [-0.04519537463784218, -0.06798765808343887, 0.020164255052804947]]], [[[-0.035171132534742355, 0.05691990256309509, -0.04229923337697983], [0.002344879088923335, -0.08196836709976196, -0.052306607365608215], [0.0577012300491333, 0.01058296486735344, -0.10919293761253357]], [[-0.04453248530626297, -0.05814531818032265, 0.0025219819508492947], [0.04824349284172058, -0.10492576658725739, 0.052090998739004135], [0.053612858057022095, -0.031777795404195786, 0.01624325104057789]], [[-0.09675339609384537, -0.07871370762586594, 0.1159403994679451], [0.06133098527789116, 0.09222044795751572, 0.005173444747924805], [0.07166747748851776, 0.03971579298377037, -0.0077311075292527676]], [[-0.06410977989435196, 0.06642276793718338, 0.06053757295012474], [-0.05581245198845863, -0.04058969393372536, -0.08993121236562729], [0.1021091416478157, 0.030428865924477577, -0.053136903792619705]], [[0.019964417442679405, -0.08154452592134476, 0.044641368091106415], [-0.10612335801124573, -0.11289775371551514, -0.03586664795875549], [-0.005007649771869183, 0.09628517180681229, -0.10531584173440933]], [[-0.015597589313983917, -0.11756329983472824, -0.031910452991724014], [-0.04737989977002144, 0.06848964095115662, 0.0846652090549469], [0.036303695291280746, 0.08007629215717316, -0.08206352591514587]], [[0.06246349960565567, 0.09287640452384949, 0.03653310611844063], [-0.027197672054171562, -0.06044970080256462, -0.03258749097585678], [0.10520362854003906, -0.10534432530403137, 0.10369579493999481]], [[0.040385305881500244, -0.009328898042440414, 0.010894060134887695], [-0.09544282406568527, 0.00870558526366949, 0.07382212579250336], [-0.050198305398225784, -0.07464151829481125, -0.009800458326935768]]]], "encoder.2.bias": [-0.07963325828313828, -0.005743785761296749, 0.0009624010999687016, -0.03608177602291107, -0.09167634695768356, -0.04207387939095497, -0.012166648171842098, 0.10666020959615707], "encoder.4.weight": [[[[0.10358719527721405, 0.10531732439994812, 0.07842148840427399], [-0.044457122683525085, 0.03474219888448715, -0.11320465058088303], [0.10077706724405289, 0.006916233338415623, 0.05197025090456009]], [[0.10896360129117966, -0.10195394605398178, -0.048404261469841], [0.033905286341905594, -0.1113625168800354, -0.020547859370708466], [-0.08609087765216827, 0.01005758810788393, -0.05182269588112831]], [[0.038055531680583954, 0.0019269920885562897, 0.016444573178887367], [0.10884679108858109, -0.05954400449991226, -0.056255485862493515], [-0.08883042633533478, -0.04750915244221687, 0.07852929830551147]], [[-0.01984035223722458, 0.02748512104153633, -0.030049243941903114], [-0.08858313411474228, -0.09183602780103683, 0.08515886962413788], [0.06980378180742264, 0.11390958726406097, -0.07377061247825623]], [[0.07496640831232071, 0.09577341377735138, 0.00427717762067914], [-0.10418948531150818, -0.0376603901386261, -0.06116083636879921], [0.0401165634393692, 0.036241672933101654, -0.09819957613945007]], [[0.06473749876022339, 0.011778716929256916, -0.033069904893636703], [0.09744206815958023, -0.01884881593286991, 0.09268951416015625], [0.06006366387009621, -0.053990308195352554, -0.022736143320798874]], [[-0.05512547865509987, -0.09300574660301208, 0.022735459730029106], [0.08775756508111954, 0.07816817611455917, 0.003095620544627309], [-0.06835335493087769, -0.09619937092065811, 0.03426375612616539]], [[-0.06782068312168121, -0.07789633423089981, 0.030561525374650955], [-0.0364207960665226, -0.07024132460355759, 0.026446230709552765], [0.07749804109334946, -0.10380508750677109, 0.029686065390706062]]], [[[-0.02341088280081749, -0.03727097436785698, -0.002938562771305442], [-0.0906892865896225, -0.0624135285615921, -0.006825404707342386], [-0.05276358500123024, 0.03441397845745087, 0.005618669558316469]], [[-0.04110676795244217, -0.09900926053524017, -0.04774867743253708], [-0.08834045380353928, -0.005472042132169008, 0.07895824313163757], [-0.03869304060935974, 0.04800209775567055, 0.09297303110361099]], [[-0.009364768862724304, 0.05403473973274231, -0.07198022305965424], [-0.06964103877544403, -0.0570683591067791, -0.07110263407230377], [-0.040158968418836594, 0.015571223571896553, -0.004482008051127195]], [[-0.05519804731011391, 0.05813325196504593, 0.04972047358751297], [-0.05177605524659157, -0.09989608079195023, 0.06802289932966232], [-0.08865274488925934, -0.017231980338692665, 0.06469164043664932]], [[-0.083358034491539, -0.08609209209680557, 0.020017625764012337], [-0.03660039231181145, 0.09026874601840973, -0.008233700878918171], [-0.018085353076457977, -0.01924012042582035, -0.03586689755320549]], [[-0.0013492570724338293, -0.0916103795170784, 0.02745043858885765], [0.08920744806528091, -0.1030968725681305, -0.11604373902082443], [0.056504443287849426, -0.09613769501447678, 0.07276545464992523]], [[-0.03491692990064621, 0.03764491528272629, 0.052041321992874146], [0.027314744889736176, 0.09932400286197662, 0.021138232201337814], [-0.06025458499789238, -0.1087893694639206, 0.09720930457115173]], [[-0.017465217038989067, -0.033372778445482254, 0.00862165167927742], [-0.09347169101238251, -0.05681857094168663, -0.07288680225610733], [-0.027916165068745613, -0.0978003665804863, -0.11109453439712524]]], [[[0.02880200743675232, -0.08927038311958313, -0.08513321727514267], [-0.09968772530555725, 0.03764202073216438, 0.07621430605649948], [-0.11611659079790115, 0.05834567919373512, -0.014303726144134998]], [[-0.07106229662895203, -0.0991748794913292, -0.10637100785970688], [-0.005391474813222885, -0.09195303171873093, 0.05088919773697853], [0.11525674164295197, 0.10106509923934937, 0.11737485975027084]], [[0.09629182517528534, -0.11131757497787476, -0.013116487301886082], [-0.013245549984276295, -0.04652268812060356, 0.0034049954265356064], [-0.07700750231742859, -0.11329173296689987, -0.040375545620918274]], [[-0.04486139491200447, -0.08953666687011719, -0.016715386882424355], [-0.11083056032657623, -0.01204882375895977, -0.11641944199800491], [0.010660163126885891, 0.07320962101221085, -0.08559983968734741]], [[-0.07530375570058823, -0.05761310085654259, 0.06211447715759277], [0.07249356806278229, 0.04313723370432854, 0.05439988896250725], [0.004023758228868246, -0.0903535708785057, 0.04194040969014168]], [[0.0855444148182869, -0.03496282920241356, -0.037734925746917725], [0.10248779505491257, 0.05929989367723465, -0.11263102293014526], [-0.012697547674179077, 0.005770067684352398, -0.09098213911056519]], [[-0.05894528701901436, -0.02083059772849083, 0.05846494436264038], [-0.0882071927189827, 0.007399457972496748, -0.03143955022096634], [-0.07648208737373352, -0.11622736603021622, 0.1143307238817215]], [[0.07851007580757141, 0.040654513984918594, -0.019921574741601944], [-0.05691368132829666, -0.07601277530193329, -0.048814840614795685], [-0.10159848630428314, -0.01244489848613739, 0.03439643979072571]]], [[[0.0691450908780098, -0.05568026006221771, -0.11656037718057632], [-0.03643903136253357, 0.08168704807758331, 0.049897823482751846], [-0.030595766380429268, 0.02447032928466797, -0.032890886068344116]], [[-0.01813059113919735, -0.00693365465849638, 0.05621447041630745], [0.028790127485990524, -0.03452124819159508, 0.006783691700547934], [-0.10619252920150757, -0.004392290487885475, 0.07373283058404922]], [[0.03529657796025276, 0.03383513540029526, -0.026669282466173172], [-0.08415847271680832, 0.00755948293954134, 0.10068755596876144], [-0.03127731755375862, -0.03583528473973274, -0.05831611901521683]], [[-0.11394122987985611, 0.005529630929231644, 0.03414245694875717], [0.030960245057940483, -0.08500796556472778, -0.1142282634973526], [-0.04638820141553879, -0.0756603553891182, 0.1030958965420723]], [[-0.07538603246212006, 0.09400084614753723, -0.0010262323776260018], [0.02892053686082363, -0.05453961342573166, 0.04475061967968941], [0.08439791202545166, -0.05204438418149948, 0.11309603601694107]], [[0.019564660266041756, 0.029749257490038872, -0.10251417756080627], [0.10304215550422668, -0.028898563235998154, -0.11384432017803192], [0.1021619662642479, -0.018956944346427917, -0.004894803743809462]], [[-0.11501869559288025, -0.02139093540608883, -0.10308080911636353], [-0.015455109998583794, -0.06480494886636734, 0.029844410717487335], [0.058601316064596176, -0.029036065563559532, 0.10441090911626816]], [[0.0760018453001976, 0.08647485077381134, -0.09016988426446915], [-0.05567243695259094, -0.0017952244961634278, 0.02310440130531788], [-0.11599601805210114, -0.053308721631765366, -0.08979079127311707]]], [[[0.048457663506269455, 0.06700961291790009, 0.11677830666303635], [-0.09904913604259491, 0.055545829236507416, -0.014645209535956383], [0.11344831436872482, 0.08568237721920013, 0.04026263207197189]], [[-0.06901932507753372, 0.1051928922533989, -0.002612512791529298], [0.10220833122730255, 0.05418528988957405, -0.05696436017751694], [0.025574402883648872, -0.037230923771858215, -0.017412088811397552]], [[0.0393441803753376, -0.024855509400367737, 0.10483615100383759], [0.11238409578800201, -0.04791655391454697, 0.04100211709737778], [0.008262819610536098, 0.02938256971538067, -0.11588450521230698]], [[-0.07932566851377487, 0.08903218060731888, -0.003256225725635886], [-0.029625657945871353, -0.10511917620897293, -0.08723882585763931], [0.07755541801452637, -0.0407973974943161, -0.029144641011953354]], [[0.08140537142753601, -0.056460537016391754, -0.10951265692710876], [-0.049423299729824066, 0.059163279831409454, 0.010714350268244743], [-0.06881795078516006, 0.11759010702371597, -0.07147174328565598]], [[-0.09087572246789932, 0.06498623639345169, 0.08388232439756393], [0.04354178160429001, -0.08576547354459763, 0.0678272619843483], [-0.016177773475646973, -0.06958232074975967, 0.1036003977060318]], [[-0.09534744918346405, -0.08181969076395035, 0.03409962356090546], [-0.03091680072247982, 0.022679345682263374, 0.054036326706409454], [0.04748602584004402, -0.09580791741609573, 0.10664811730384827]], [[0.10686268657445908, -0.08019627630710602, 0.0748651996254921], [0.11620254069566727, -0.06792161613702774, 0.022073853760957718], [-0.10382598638534546, -0.007853813469409943, -0.05180538818240166]]], [[[0.10031266510486603, 0.0800747200846672, -0.03759964928030968], [-0.07349572330713272, 0.023463578894734383, -0.045567672699689865], [0.02000303938984871, -0.017185594886541367, -0.034899018704891205]], [[0.025777973234653473, -0.010182496160268784, -0.01719360612332821], [0.07363098114728928, 0.09608124196529388, -0.049537625163793564], [-0.08874733000993729, -0.02484995685517788, -0.10419722646474838]], [[0.08502817898988724, -0.053821224719285965, -0.054580289870500565], [0.01398344524204731, 0.04158144071698189, 0.01728583686053753], [0.08973377197980881, -0.10983379185199738, -0.07006120681762695]], [[-0.040434934198856354, 0.10952069610357285, 0.11288464814424515], [-0.11105406284332275, 0.057752400636672974, 0.036091048270463943], [-0.09551073610782623, -0.012588605284690857, 0.006115917582064867]], [[-0.04749143123626709, 0.09043187648057938, -0.007237887941300869], [0.07949242740869522, 0.08779606968164444, -0.028474563732743263], [0.021956471726298332, 0.0322626531124115, 0.10047977417707443]], [[0.0706852525472641, -0.09692968428134918, 0.012134144082665443], [-0.0992414727807045, 0.09600366652011871, -0.11045469343662262], [0.09949547052383423, 0.06896530836820602, -0.09739372134208679]], [[0.0748860239982605, 0.028016500174999237, -0.026480363681912422], [0.020434940233826637, -0.08191163092851639, -0.003506913548335433], [-0.07130218297243118, 0.02655109390616417, 0.05256621167063713]], [[0.06602810323238373, -0.03428518399596214, -0.09262672811746597], [-0.05027133971452713, -0.047311827540397644, 0.11144997924566269], [-0.06276733428239822, -0.024555856361985207, -0.0485413484275341]]], [[[0.03413005918264389, 0.07904808223247528, -0.055470097810029984], [0.08233759552240372, 0.09354596585035324, 0.030800994485616684], [0.02129855379462242, -0.09780997037887573, 0.03891228139400482]], [[-0.014195725321769714, 0.0016097548650577664, -0.09351671487092972], [0.09376306086778641, -0.03931529074907303, -0.07928579300642014], [-0.023424269631505013, 0.01059747114777565, -0.08142635971307755]], [[0.050862208008766174, -0.06361047923564911, 0.11284885555505753], [-0.10920678824186325, 0.005478183273226023, -0.052818674594163895], [0.09762988984584808, -0.08484447747468948, -0.03899924457073212]], [[-0.06128033250570297, -0.04771078750491142, 0.041049037128686905], [-0.07165846228599548, -0.003825605846941471, 0.0957023873925209], [0.01897338218986988, 0.012877427972853184, -0.03849481791257858]], [[-0.05749598145484924, 0.11700059473514557, -0.09204626083374023], [0.082343690097332, 0.09866522252559662, 0.09619694203138351], [0.03407886624336243, -0.04544740170240402, -0.008531027473509312]], [[0.09820247441530228, -0.047910675406455994, -0.03926675766706467], [-0.05274560675024986, 0.0343342162668705, -0.05437234416604042], [0.0726887509226799, -0.044309101998806, 0.05732081085443497]], [[-0.0739152729511261, 0.033849410712718964, -0.07444780319929123], [0.10238476097583771, -0.03918829560279846, -0.013458697125315666], [0.10524183511734009, 0.006245018914341927, -0.01840212568640709]], [[-0.08443327993154526, 0.11774327605962753, -0.10980765521526337], [0.0016109725693240762, -0.07492143660783768, -0.06325135380029678], [0.04303327202796936, -0.07134447246789932, 0.08323013782501221]]], [[[-0.10424865782260895, 0.1005520299077034, -0.0252507496625185], [0.09496492147445679, -0.0951947495341301, 0.02317325957119465], [0.11457687616348267, -0.08936896175146103, 0.010954254306852818]], [[0.0060007767751812935, -0.10420314967632294, 0.06467033177614212], [-0.01879779063165188, -0.08403363078832626, -0.0007363276672549546], [-0.10910952091217041, 0.02606086991727352, 0.004791222512722015]], [[-0.044897474348545074, -0.07870351523160934, -0.029990538954734802], [0.041068218648433685, -0.0766017809510231, -0.05681651085615158], [0.1063968688249588, -0.03901387378573418, -0.06869564205408096]], [[-0.04351695254445076, 0.02208731882274151, 0.00531345047056675], [0.09819210320711136, -0.10195332765579224, -0.06738261133432388], [0.08416236191987991, -0.07183489948511124, 0.06060153618454933]], [[0.004078563768416643, -0.11325282603502274, 0.09460682421922684], [0.014342372305691242, -0.006504585966467857, 0.047069355845451355], [-0.08897719532251358, -0.034476932138204575, -0.010319966822862625]], [[-0.06424245983362198, -0.01123904436826706, -0.08061867952346802], [0.07166661322116852, 0.013790983706712723, 0.014706453308463097], [0.03146766126155853, -0.0354122556746006, 0.06292905658483505]], [[-0.06107734888792038, -0.07486164569854736, -0.034169308841228485], [0.09798293560743332, -0.1120268777012825, 0.02106448821723461], [0.10478147864341736, 0.10974294692277908, 0.01981191150844097]], [[0.09058616310358047, 0.09486658126115799, -0.01696630008518696], [0.04573844000697136, 0.09748099744319916, -0.029446318745613098], [-0.11282278597354889, -0.07579764723777771, 0.009862633422017097]]], [[[-0.10590843856334686, -0.033809222280979156, -0.04702535271644592], [0.042238008230924606, -0.0661718025803566, -0.048110127449035645], [0.08424684405326843, 0.0510731115937233, -0.0040770163759589195]], [[0.08612462133169174, 0.0234221201390028, -0.022197367623448372], [-0.0930294319987297, -0.007845032028853893, -0.04996517300605774], [0.006531631574034691, 0.07924715429544449, 0.04107409343123436]], [[-0.11772624403238297, 0.07073105126619339, 0.08269327133893967], [0.058230746537446976, -0.08474224805831909, 0.09874013066291809], [-0.08166113495826721, -0.025756502524018288, 0.06317134201526642]], [[-0.031060755252838135, -0.11401041597127914, 0.047451552003622055], [-0.09157045930624008, 0.0755978673696518, -0.052997980266809464], [0.0883188396692276, 0.07296542078256607, 0.029285216704010963]], [[0.11363295465707779, -0.015109047293663025, -0.0682801827788353], [0.10248719900846481, -0.040758032351732254, 0.05227777734398842], [-0.06148915737867355, 0.09280987083911896, 0.019962932914495468]], [[0.08912581950426102, 0.07339107990264893, -0.0782831683754921], [0.026336604729294777, 0.09451807290315628, 0.07487738877534866], [-0.030203653499484062, -0.03363101929426193, 0.0377688929438591]], [[-0.07224085181951523, 0.06873755902051926, 0.028766468167304993], [-0.0047161816619336605, 0.03290886804461479, -0.056253641843795776], [0.026602396741509438, -0.007719023153185844, -0.01891353912651539]], [[-0.1072860136628151, 0.047714151442050934, -0.0739729106426239], [0.10064968466758728, -0.11102154850959778, 0.03496900200843811], [0.01259496808052063, 0.09497059881687164, 0.009492090903222561]]], [[[0.10427051037549973, 0.09716923534870148, -0.0951743870973587], [0.040612224489450455, -0.07977775484323502, -0.09079225361347198], [0.023012183606624603, 0.08456762135028839, 0.05846203863620758]], [[0.0064858137629926205, 0.04892644286155701, -0.03569173812866211], [0.01668199896812439, 0.02451344020664692, -0.025874121114611626], [0.08658862113952637, 0.024136260151863098, 0.04927030950784683]], [[-0.10012499243021011, 0.11224130541086197, 0.023304807022213936], [-0.0989689975976944, -0.1040482148528099, 0.01911206915974617], [-0.015621949918568134, -0.060738712549209595, -0.11426148563623428]], [[0.005183105822652578, 0.1041916012763977, -0.09019841253757477], [-0.07383127510547638, -0.019823970273137093, 0.03189432621002197], [-0.03604021295905113, 0.040192611515522, 0.07606346905231476]], [[0.05334964394569397, 0.0654379203915596, -0.0679742768406868], [0.015733817592263222, 0.1043003723025322, -0.054871492087841034], [0.1001988872885704, -0.04306897893548012, -0.11455833911895752]], [[0.07133625447750092, -0.07256798446178436, 0.1115482822060585], [-0.02008138597011566, -0.053905632346868515, 0.048351794481277466], [-0.09261949360370636, -0.04689335450530052, -0.058648254722356796]], [[0.03692333772778511, 0.04006262123584747, 0.07302413880825043], [0.05192483961582184, 0.10374155640602112, -0.04635018855333328], [0.11539316177368164, -0.11086295545101166, -0.08661677688360214]], [[-0.09060537815093994, 0.038238052278757095, 0.09382066875696182], [0.10366807132959366, -0.10588157176971436, 0.0011351265711709857], [-0.07377370446920395, -0.04560023173689842, -0.026588747277855873]]], [[[-0.06722425669431686, -0.049949128180742264, 0.017878003418445587], [0.058096613734960556, -0.10992775857448578, 0.03543874993920326], [-0.0393407940864563, -0.11339472979307175, 0.08390479534864426]], [[0.08306556195020676, 0.07618347555398941, -0.09754393249750137], [-0.10965396463871002, 0.07162325829267502, 0.062011074274778366], [0.012120069935917854, -0.09106544405221939, 0.10093719512224197]], [[0.05808272957801819, 0.08677109330892563, -0.05093921348452568], [0.05832331255078316, -0.07149183750152588, -0.10362673550844193], [0.08270283043384552, -0.018030347302556038, -0.08087722957134247]], [[0.08210168778896332, -0.11267950385808945, 0.06641403585672379], [0.08685743808746338, 0.05579251050949097, 0.08351646363735199], [-0.003777056001126766, 0.09526337683200836, 0.08472465723752975]], [[0.052193351089954376, -0.080986887216568, 0.05336352810263634], [-0.07984878867864609, -0.00025514562730677426, 0.023246075958013535], [-0.03409057483077049, 0.0808570608496666, -0.07232136279344559]], [[0.10131365060806274, 0.11312466114759445, -0.007952350191771984], [0.04327092319726944, -0.03320588916540146, 0.1114235520362854], [0.07775856554508209, -0.0005186938215047121, -0.011274896562099457]], [[-0.007486326154321432, 0.03963698446750641, -0.08036132156848907], [0.01244228333234787, 0.10051939636468887, -0.04976644739508629], [-0.08044390380382538, -0.04030769690871239, 0.061077967286109924]], [[0.019737839698791504, 0.06786622852087021, -0.06066909804940224], [-0.02438325434923172, 0.04362238198518753, 0.08163708448410034], [0.10445631295442581, -0.08886813372373581, 0.036260414868593216]]], [[[-0.005420420318841934, 0.062452975660562515, -0.06901039183139801], [0.05352463200688362, -0.08149595558643341, 0.11476899683475494], [-0.07611632347106934, -0.10604513436555862, 0.10926448553800583]], [[0.06897388398647308, -0.02984948642551899, 0.11057157069444656], [0.10705235600471497, -0.0740760862827301, 0.09511227905750275], [0.015077189542353153, -0.012655611149966717, -0.032994918525218964]], [[-0.006426927633583546, 0.08961164206266403, -0.03874198719859123], [-0.06405317783355713, 0.06020329147577286, -0.0015896586701273918], [0.05018854886293411, 0.05599119886755943, 0.04908286780118942]], [[-0.11594409495592117, -0.027610620483756065, -0.07496283203363419], [0.08498290181159973, 0.0025539265479892492, -0.044722460210323334], [0.0584021732211113, -0.030625391751527786, -0.10584918409585953]], [[-0.054823137819767, 0.09562887251377106, -0.07278983294963837], [0.03679266199469566, -0.01704839989542961, -0.015337303280830383], [0.03799979388713837, 0.04355853423476219, -0.10321028530597687]], [[-0.054516203701496124, -0.08679729700088501, -0.07052382081747055], [-0.020092755556106567, -0.02931661158800125, 0.09925126284360886], [0.10059268772602081, 0.06511742621660233, 0.06551630795001984]], [[-0.011031458154320717, 0.09511183947324753, 0.07175487279891968], [-0.08801651000976562, 0.07469464838504791, -0.05954969674348831], [-0.025693247094750404, 0.03944437950849533, 0.023750800639390945]], [[0.028047403320670128, 0.09438913315534592, -0.11636818945407867], [-0.014262529090046883, 0.002127125859260559, -0.058967918157577515], [0.01913885772228241, -0.0237316582351923, 0.08672252297401428]]], [[[0.09513276815414429, 0.04135846346616745, -0.023560885339975357], [-0.10557502508163452, -0.016397664323449135, -0.05782611295580864], [-0.06520548462867737, -0.03914911672472954, -0.04800320416688919]], [[0.013756472617387772, 0.10180646181106567, -0.06989695131778717], [-0.08678697049617767, -0.0003625949611887336, 0.09051867574453354], [0.09070487320423126, -0.07140597701072693, 0.09211037307977676]], [[0.024820946156978607, -0.06737792491912842, 0.004870988894253969], [-0.03455323353409767, 0.007765776012092829, 0.005352217238396406], [0.09464550763368607, 0.05967627838253975, 0.024702830240130424]], [[-0.10883777588605881, -0.04569726064801216, -0.019299181178212166], [-0.10074164718389511, 0.028447577729821205, 0.022863345220685005], [-0.01871979609131813, 0.1119205579161644, 0.11266598105430603]], [[-0.017557669430971146, 0.05696704611182213, 0.11465483903884888], [0.00570002431049943, 0.09622612595558167, 0.10887406766414642], [0.05910624563694, 0.03135136514902115, 0.01763542741537094]], [[0.0641937404870987, -0.09553375840187073, -0.059053096920251846], [-0.006768424529582262, -0.013772629201412201, 0.10608577728271484], [-0.0491190031170845, -0.07994978874921799, 0.002532148966565728]], [[-0.07068659365177155, 0.06591463834047318, -0.044441476464271545], [-0.004972047172486782, -0.0574730820953846, 0.07051043212413788], [0.057982929050922394, 0.1013985127210617, 0.07537776231765747]], [[0.07528429478406906, -0.0028655575588345528, -0.009931572712957859], [0.09553027153015137, -0.03643877059221268, -0.02445988915860653], [-0.021421922370791435, -0.016523700207471848, -0.10251820832490921]]], [[[-0.0011200447333976626, 0.0645737424492836, 0.0576154999434948], [0.012727639637887478, 0.0727870762348175, -0.07457694411277771], [-0.10744370520114899, 0.02552659995853901, -0.09874676167964935]], [[0.04089820384979248, 0.06468606740236282, -0.10520613193511963], [-0.08224258571863174, 0.047962479293346405, -0.05883622542023659], [0.03870527446269989, 0.08320081233978271, -0.06747988611459732]], [[-0.059951964765787125, 0.11602771282196045, -0.020413639023900032], [-0.06241579353809357, -0.03612843528389931, -0.027546033263206482], [0.025735795497894287, 0.08912978321313858, -0.0758344754576683]], [[0.11219265311956406, -0.06925193965435028, 0.051480092108249664], [0.11773984134197235, -0.055719029158353806, -0.09174372255802155], [0.015330309048295021, -0.11080197989940643, 0.02274578996002674]], [[-0.01638152077794075, -0.09802277386188507, -0.10404609888792038], [0.0013999168295413256, 0.08485256135463715, -0.015378057956695557], [0.004306951072067022, -0.08433157205581665, 0.005071448162198067]], [[0.07453504949808121, 0.06690385937690735, -0.023090001195669174], [0.056762371212244034, 0.09616023302078247, 0.10597643256187439], [-0.052787043154239655, 0.09004303067922592, -0.0875837579369545]], [[0.05836805701255798, -0.09395342320203781, 0.05937453359365463], [0.11645280569791794, -0.0347115658223629, 0.0008113885414786637], [-0.02571542002260685, 0.038219936192035675, -0.09272829443216324]], [[0.043915245682001114, 0.021451758220791817, -0.022473737597465515], [-0.041971102356910706, 0.07383053749799728, 0.01331009529531002], [0.074837826192379, -0.028424661606550217, -0.11102244257926941]]], [[[-0.10846984386444092, -0.0411728210747242, -0.015609274618327618], [-0.06735599040985107, 0.08385808765888214, -0.050134334713220596], [-0.0035578387323766947, 0.06426306813955307, 0.10880956798791885]], [[-0.030736885964870453, 0.05824044719338417, -0.0009849310154095292], [-0.0775027647614479, -0.026405464857816696, 0.08366648852825165], [0.06390805542469025, -0.030542664229869843, -0.055924318730831146]], [[-0.11645720154047012, -0.010613267309963703, 0.02905874140560627], [-0.08146955072879791, -0.033409666270017624, 0.08834896236658096], [-0.029533667489886284, -0.0753084272146225, 0.11500479280948639]], [[0.014384378679096699, 0.00026105361757799983, -0.035151347517967224], [0.058187149465084076, -0.10455017536878586, 0.03526448458433151], [-0.09673622995615005, -0.08769237250089645, -0.09154465794563293]], [[-0.0713944062590599, -0.04080045223236084, 0.05905064940452576], [-0.11688528209924698, 0.08874808996915817, 0.021456114947795868], [-0.05412023514509201, -0.02105562575161457, 0.010491699911653996]], [[-0.032861094921827316, 0.006881366483867168, 0.028996074572205544], [0.07846864312887192, 0.07889097929000854, -0.06570576131343842], [0.09057760238647461, -0.1048554927110672, 0.09351392090320587]], [[0.02362966351211071, -0.05879272520542145, -0.06554704904556274], [-0.021984616294503212, -0.06127927824854851, 0.0042740474455058575], [-0.012037698179483414, 0.07112805545330048, -0.10967227071523666]], [[-0.02750326506793499, -0.07709962874650955, 0.03208496421575546], [-0.07114603370428085, 0.0671411007642746, 0.08305154740810394], [-0.0849074050784111, -0.08587740361690521, 0.1026453971862793]]], [[[0.07322746515274048, -0.0886920690536499, 0.10964883118867874], [-0.11595825850963593, -0.08631038665771484, -0.04612297564744949], [-0.0995517447590828, -0.009197677485644817, 0.10926211625337601]], [[-0.0023226370103657246, 0.03319160267710686, -0.07532688230276108], [0.009799829684197903, -0.05192713439464569, 0.08070573210716248], [0.032071493566036224, -0.07653194665908813, 0.05910457298159599]], [[0.10584954172372818, -0.07261180132627487, -0.005927437916398048], [-0.09852199256420135, 0.075912706553936, -0.03191787376999855], [-0.09536334127187729, -0.10559967905282974, -0.03979982063174248]], [[0.055035024881362915, -0.10246250033378601, 0.05206655338406563], [0.07650244235992432, 0.09009002149105072, 0.11589614301919937], [-0.038930751383304596, -0.01363110076636076, -0.013757825829088688]], [[-0.01681697554886341, 0.056135326623916626, -0.039090923964977264], [-0.0004792213730979711, 0.07979245483875275, 0.1138991042971611], [0.061183203011751175, -0.09337429702281952, -0.027732130140066147]], [[-0.03549908101558685, -0.09770200401544571, 0.07631571590900421], [-0.08160737156867981, 0.042547255754470825, -0.021173179149627686], [0.06480766832828522, -0.08181948959827423, 0.041640505194664]], [[-0.07657764852046967, 0.027592303231358528, 0.07493143528699875], [0.02466150000691414, -0.016164066269993782, -0.004581935238093138], [0.05814121291041374, -0.04624159261584282, 0.0632994994521141]], [[-0.024024009704589844, 0.07159843295812607, 0.07712382078170776], [0.05778881907463074, 0.03437650948762894, 0.10675323754549026], [0.07811980694532394, 0.043411195278167725, -0.05137333273887634]]]], "encoder.4.bias": [0.1042787954211235, 0.0705132782459259, 0.006703522987663746, 0.028766462579369545, 0.010957811959087849, 0.08633362501859665, 0.0522482804954052, -0.01850864849984646, -0.10238337516784668, -0.05801757797598839, 0.07465893030166626, -0.010311171412467957, 0.02104996144771576, -0.00780512997880578, -0.11665007472038269, 0.05897075682878494], "encoder.6.weight": [[[[-4.3726697185775265e-05, 0.03914027661085129, 0.04635826125741005], [0.02342061884701252, 0.02141009271144867, 0.05043864995241165], [-0.07227564603090286, 0.051988936960697174, 0.07187224179506302]], [[-0.07896498590707779, -0.055356815457344055, 0.04848264530301094], [0.06409773975610733, 0.027811842039227486, -0.024352768436074257], [-0.025049861520528793, 0.004498342052102089, -0.06916282325983047]], [[-0.08134027570486069, 0.061541736125946045, 0.047257065773010254], [0.03307662159204483, -0.06957243382930756, -0.05064171925187111], [-0.07877456396818161, 0.0014559656847268343, -0.06461342424154282]], [[0.08155325055122375, -0.04330829158425331, 0.004060879349708557], [0.0445062555372715, -0.04042529687285423, -0.060488615185022354], [-0.0611346997320652, 0.07884906232357025, 0.05763677880167961]], [[0.016654422506690025, -0.026599891483783722, 0.07689361274242401], [0.04832228273153305, 0.03038613125681877, -0.07724077999591827], [0.04716029763221741, 0.05310634523630142, 0.0458824522793293]], [[0.05381232500076294, 0.0207387562841177, 0.04346565157175064], [0.005184813868254423, 0.024136653169989586, 0.048351917415857315], [-0.059531956911087036, -0.06939347088336945, -0.04193609952926636]], [[0.0749991312623024, 0.03239695355296135, 0.021398868411779404], [0.07487062364816666, 0.02705143205821514, 0.04787546768784523], [-0.022036710754036903, 0.0624382346868515, 0.07118582725524902]], [[0.007513061165809631, 0.010441223159432411, 0.0026843103114515543], [-0.03633534163236618, -0.02342786081135273, -0.06630256772041321], [-0.03332971781492233, 0.004295701161026955, -0.006760819349437952]], [[0.08291004598140717, -0.03593561798334122, 0.07351438701152802], [-0.04598001763224602, 0.07590393722057343, 0.05797785893082619], [0.06671277433633804, -0.038253746926784515, 0.04284166172146797]], [[0.025915035977959633, -0.03486977517604828, -0.03260334953665733], [0.047146640717983246, 0.013121784664690495, 0.061076339334249496], [0.007710212841629982, 0.02486518956720829, 0.027383115142583847]], [[-0.053225498646497726, 0.05329735577106476, 0.025788020342588425], [-0.014373495243489742, -0.004412165377289057, -0.059050049632787704], [-0.07975999265909195, 0.04338163882493973, -0.07287424802780151]], [[-0.002711645793169737, 0.06558898091316223, -0.0651651993393898], [0.012886221520602703, -0.05449511483311653, -0.0529823936522007], [0.07048268616199493, 0.014991451986134052, -0.07329738885164261]], [[-0.03946087881922722, 0.07081101834774017, 0.02822166308760643], [-0.07039684057235718, -0.04806770756840706, -0.02005980722606182], [0.04741103947162628, 0.07325997203588486, -0.05663017928600311]], [[0.03219471871852875, -0.02605162188410759, -0.07947385311126709], [0.04247727245092392, 0.06487502157688141, -0.013418608345091343], [0.011231751181185246, -0.02983137033879757, 0.012787709012627602]], [[-0.060517411679029465, -0.005245463456958532, 0.020854979753494263], [-0.0008614828111603856, 0.043138906359672546, -0.03956462815403938], [-0.01539110578596592, 0.0562824010848999, -0.012449976056814194]], [[0.059598810970783234, 0.046129390597343445, -0.05301056429743767], [-0.008037173189222813, -0.002264326671138406, 0.0470501184463501], [0.032471273094415665, -0.034666869789361954, 0.06406191736459732]]], [[[0.052231743931770325, 0.016604814678430557, -0.07064217329025269], [-0.05441170185804367, -0.010577131994068623, 0.002297954633831978], [-0.027194395661354065, -0.06761682033538818, -0.02886616624891758]], [[0.07668671756982803, -0.007672593463212252, -0.026997145265340805], [0.08196437358856201, -0.0753713846206665, -0.04498904198408127], [0.028942685574293137, -0.0529288649559021, -0.06056857854127884]], [[0.0612541139125824, -0.03934183344244957, 0.0518655925989151], [0.004155220463871956, -0.0633532851934433, -0.04905728995800018], [-0.05860895663499832, 0.05417114868760109, -0.032490964978933334]], [[0.05898695066571236, 0.007389992941170931, 0.021676594391465187], [0.04424283280968666, -0.06901441514492035, 0.03413056209683418], [0.016953524202108383, 0.035675060003995895, -0.07274673879146576]], [[0.008638236671686172, 0.02833874151110649, -0.016047967597842216], [0.060896195471286774, 0.03367292881011963, 0.06044955179095268], [0.04912963882088661, -0.06904267519712448, 0.028944673016667366]], [[0.057833317667245865, 0.07101409137248993, -0.05036015808582306], [0.052368827164173126, -0.019961321726441383, 0.05317094177007675], [-0.0005183726316317916, 0.056322161108255386, 0.000549072225112468]], [[0.01615234650671482, 0.05987846106290817, -0.024452397599816322], [0.06817561388015747, 0.052596189081668854, 0.008946009911596775], [0.07313072681427002, -0.0008688891539350152, -0.0353306382894516]], [[-0.07463615387678146, 0.025858160108327866, 0.002864592242985964], [-0.00804267916828394, 0.02650630660355091, 0.04626761004328728], [0.0027749245055019855, 0.07410253584384918, -0.03832599148154259]], [[0.027807118371129036, -0.08077944815158844, 0.05379265546798706], [-0.018617810681462288, 0.05112556368112564, 0.07633297145366669], [0.07317836582660675, -0.0669184997677803, 0.0030609252862632275]], [[-0.024031752720475197, -0.028738340362906456, -0.026549678295850754], [-0.07415755838155746, -0.0060707335360348225, 0.06763706356287003], [0.020031874999403954, -0.07341960072517395, 0.03901940584182739]], [[0.005018332041800022, 0.06369353085756302, -0.07923008501529694], [0.05999304726719856, 0.07390891015529633, 0.01863071881234646], [0.018185783177614212, 0.07458383589982986, 0.06374674290418625]], [[-0.07308018207550049, -0.05783319100737572, 0.005079495254904032], [-0.027175942435860634, -0.035952888429164886, 0.006374422926455736], [0.07254807651042938, -0.07695460319519043, -0.018378833308815956]], [[0.021716972813010216, -0.059049926698207855, -0.05885875225067139], [-0.036614127457141876, 0.015616834163665771, -0.03385966643691063], [-0.059666164219379425, -0.016672896221280098, -0.01817767322063446]], [[-0.04456678405404091, -0.07744050770998001, 0.06974188983440399], [-0.00992337241768837, -0.07716687023639679, 0.04037226364016533], [0.031888097524642944, -0.006240852642804384, -0.07024455070495605]], [[0.017649948596954346, -0.04236708953976631, 0.03596916049718857], [-0.0004359000304248184, 0.06693297624588013, 0.016958115622401237], [0.0742853507399559, 0.022664600983262062, -0.06459051370620728]], [[-0.07653464376926422, -0.015164423733949661, -0.06641454249620438], [-0.0012402978027239442, 0.04806556552648544, 0.057478953152894974], [0.038414422422647476, -0.025112539529800415, 0.003122420981526375]]], [[[0.031527962535619736, 0.04504035785794258, -0.008564765565097332], [-0.02980441227555275, -0.0471687912940979, 0.0453769825398922], [-0.06896262615919113, 0.026545746251940727, 0.06096727028489113]], [[-0.07062307000160217, -0.05392419174313545, 0.07816007733345032], [0.01954483427107334, -0.05910415202379227, -0.07616885006427765], [-0.07759645581245422, -0.0025623710826039314, -0.050764117389917374]], [[-0.002650809707120061, -0.06618589907884598, 0.005428078584372997], [0.028804350644350052, -0.07926783710718155, 0.05736261606216431], [0.07678819447755814, 0.04125996306538582, -0.017057957127690315]], [[0.05279917269945145, -0.0625629797577858, 0.07709681987762451], [-0.0033888311590999365, 0.07599224150180817, 0.03984146565198898], [0.02733534574508667, 0.07214673608541489, 0.017013728618621826]], [[0.03416283056139946, 0.04031330347061157, -0.042378898710012436], [-0.0603819340467453, -0.009382683783769608, -0.03610241785645485], [-0.0032829362899065018, 0.018249722197651863, -0.06944029033184052]], [[0.016750693321228027, 0.0503234900534153, -0.01272023469209671], [0.01431229803711176, 0.007141259033232927, -0.06468197703361511], [0.010635478422045708, 0.015057219192385674, -0.07982920855283737]], [[0.04819749668240547, -0.03208567202091217, 0.03958540037274361], [0.04828612133860588, -0.0029014612082391977, -0.023951221257448196], [0.011295851320028305, -0.037234216928482056, -0.04201600328087807]], [[-0.04647178202867508, 0.016197893768548965, 0.056039754301309586], [-0.015522944740951061, -0.04313463345170021, -0.07595178484916687], [0.08018185943365097, 0.010277620516717434, -0.01136286836117506]], [[-0.002395899035036564, 0.067672960460186, -0.03169991075992584], [-0.08060980588197708, -0.06667172163724899, 0.01203208975493908], [-0.02604801207780838, 0.015651436522603035, -0.0010334585094824433]], [[-0.06404105573892593, -0.07870075851678848, 0.011913950555026531], [-0.033977724611759186, -0.05103972926735878, -0.07202295958995819], [-0.013418513350188732, 0.05698598921298981, 0.020392362028360367]], [[-0.0015115508576855063, 0.022856878116726875, 0.06493286788463593], [-0.011233128607273102, 0.01569630205631256, 0.0835319235920906], [0.018976792693138123, 0.000589850707910955, 0.020181793719530106]], [[0.004967991728335619, 0.027730606496334076, -0.024078821763396263], [0.06606505066156387, -0.028923040255904198, -0.032734233886003494], [0.07888045161962509, -0.060339637100696564, 0.04694853723049164]], [[-0.041736602783203125, 0.010079708881676197, -0.025647014379501343], [0.012217361479997635, -0.02994479425251484, 0.04117012396454811], [0.003728392068296671, -0.07575512677431107, 0.06459067016839981]], [[-0.04919290170073509, 0.07833977043628693, -0.02996128238737583], [-0.06736872345209122, 0.03569325804710388, 0.07553471624851227], [0.001912168925628066, 0.06097615137696266, 0.06542915105819702]], [[0.010982253588736057, 0.07406388968229294, -0.08280882239341736], [-0.04161049798130989, -0.0536394938826561, 0.001187737099826336], [-0.019230276346206665, -0.08162935078144073, -0.03338244557380676]], [[0.042928244918584824, -0.03172645345330238, -0.021664613857865334], [0.07147789001464844, 0.07595592737197876, 0.07589471340179443], [0.02997816540300846, 0.02888122759759426, -0.06986244767904282]]], [[[0.060445453971624374, -0.07297461479902267, 0.0697241723537445], [-0.08091170340776443, 0.030659843236207962, 0.05956616625189781], [-0.01054832711815834, -0.01962549239397049, 0.01756424643099308]], [[0.077205590903759, 0.035009000450372696, 0.07447092980146408], [-0.00441289646551013, -0.03265054523944855, 0.013520369306206703], [0.061506178230047226, 0.06951552629470825, -0.03521108254790306]], [[0.006045513786375523, 0.048734016716480255, -0.08100825548171997], [-0.020768560469150543, 0.046612318605184555, 0.04457218572497368], [-0.03343231976032257, 0.043607402592897415, 0.030015908181667328]], [[0.06724511831998825, -0.014775330200791359, 0.07084878534078598], [0.020333437249064445, -0.04811209440231323, -0.048602525144815445], [0.025489242747426033, 0.020482858642935753, 0.06608107686042786]], [[0.006885378155857325, -0.0471431240439415, -0.010625515133142471], [-0.001781127299182117, 0.07021607458591461, 0.00041203631553798914], [-0.05338591709733009, -0.08202043175697327, -0.05507897958159447]], [[-0.05799562856554985, -0.05266428738832474, 0.006733852904289961], [-0.058168888092041016, 0.01966669410467148, 0.051347799599170685], [0.07560768723487854, -0.03656264394521713, 0.06809138506650925]], [[0.03031664527952671, 0.023548612371087074, -0.003390820696949959], [-0.04070700705051422, -0.06098916009068489, 0.07955501973628998], [0.04455703869462013, 0.019359195604920387, 0.001272423891350627]], [[-0.05275435745716095, 0.021099228411912918, 0.016875160858035088], [-0.01956801488995552, 0.05671580880880356, 0.07063763588666916], [0.03550764545798302, 0.019030548632144928, 0.03008352220058441]], [[-0.011464540846645832, 0.07915021479129791, -0.007048658560961485], [-0.04213062301278114, -0.03648681938648224, -0.023642167448997498], [0.07861977815628052, 0.01126259844750166, -0.003658285364508629]], [[0.07664713263511658, 0.005959733389317989, -0.049583740532398224], [0.06562446057796478, -0.05628359690308571, -0.032288555055856705], [-0.01772281713783741, 0.05873008444905281, -0.02374163828790188]], [[-0.06730768829584122, 0.028500773012638092, -0.011364123784005642], [-0.07797650247812271, -0.07050937414169312, 0.026146449148654938], [-0.03582436963915825, -0.04746166989207268, -0.006429255474358797]], [[-0.024811213836073875, 0.03921283036470413, -0.06802555918693542], [-0.018896492198109627, -0.059850145131349564, -0.012072413228452206], [-0.02415216714143753, 0.023225650191307068, -0.05359712243080139]], [[-0.0039016196969896555, -0.031078606843948364, 0.04023519530892372], [0.027454493567347527, 0.05209774151444435, 0.01578555442392826], [0.059541359543800354, -0.011927375569939613, -0.03262445330619812]], [[0.05176965519785881, 0.039860162883996964, 0.060719482600688934], [0.07438822835683823, 0.05599910020828247, 0.0780758261680603], [-0.033681903034448624, 0.08057358860969543, -0.04490361362695694]], [[0.04538862779736519, -0.026300985366106033, 0.04822976887226105], [0.013899522833526134, -0.05116495490074158, -0.055401790887117386], [0.02021658979356289, -0.008816707879304886, 0.043824680149555206]], [[0.04148107394576073, 0.06229836493730545, -0.05549927428364754], [-0.05948528274893761, -0.03340675309300423, -0.029610149562358856], [0.039484862238168716, -0.05346263200044632, -0.07499749958515167]]], [[[-0.07998599857091904, -0.049726102501153946, -0.08289183676242828], [-0.01796077750623226, -0.0025607605930417776, 0.04302040860056877], [-0.05318259820342064, -0.04762108623981476, -0.04461458697915077]], [[0.07316024601459503, -0.07703375816345215, -0.042659882456064224], [-0.07735878974199295, 0.018477508798241615, -0.06740374863147736], [-0.0034033453557640314, -0.08112408220767975, -0.03418470174074173]], [[-0.07848277688026428, 0.0571492463350296, -0.031278934329748154], [-0.04446748271584511, -0.06047012284398079, 0.04911927133798599], [-0.08213845640420914, -0.05095807462930679, 0.0752253457903862]], [[0.02964736521244049, 0.053665488958358765, 0.05763964727520943], [-0.029190152883529663, -0.04872061684727669, 0.015554136596620083], [-0.006872022990137339, -0.018540846183896065, 0.01169450394809246]], [[-0.037066347897052765, 0.04488406702876091, -0.009723241440951824], [0.07366051524877548, 0.06165262311697006, -0.042060889303684235], [0.033426761627197266, 0.006458642892539501, -0.040265828371047974]], [[0.053012195974588394, -0.009086502715945244, -0.03579140454530716], [-0.07657727599143982, 0.03720763325691223, -0.06823409348726273], [-0.03050229325890541, 0.021071000024676323, 0.055532943457365036]], [[0.08111840486526489, 0.017558058723807335, 0.04992889612913132], [0.05035604164004326, 0.06954246759414673, 0.02589968405663967], [-0.023615697398781776, -0.03576138615608215, -0.06886401772499084]], [[0.008732837624847889, 0.07781313359737396, -0.06777696311473846], [0.021901093423366547, 0.06903624534606934, 0.033520594239234924], [-0.01988930255174637, -0.061294034123420715, 0.026526624336838722]], [[-0.057024575769901276, 0.06721426546573639, -0.04110386595129967], [-0.06918636709451675, 0.03497496247291565, 0.06858079880475998], [0.045668430626392365, 0.002004329115152359, -0.07862237095832825]], [[0.03060179576277733, -0.041769880801439285, -0.039663128554821014], [0.07803142070770264, 0.05147591233253479, -0.009740421548485756], [0.07966495305299759, -0.006850638892501593, -0.029010696336627007]], [[0.038904473185539246, -0.011093605309724808, 0.03329194337129593], [0.07190732657909393, 0.004064589738845825, -0.04372338205575943], [0.06685695052146912, -0.051132846623659134, 0.01621331460773945]], [[0.07863718271255493, 0.05692337080836296, 0.0033435216173529625], [-0.022637851536273956, 0.014254075475037098, 0.02862156182527542], [0.01055594626814127, 0.08169928193092346, 0.04523659124970436]], [[0.004931702744215727, 0.023548468947410583, 0.07263104617595673], [-0.006831739563494921, -0.07843312621116638, 0.030829688534140587], [-0.06310264021158218, 0.0016043884679675102, 0.0037847645580768585]], [[-0.02132118120789528, -0.05343024432659149, 0.016415471211075783], [0.07200174033641815, 0.04308900982141495, 0.023974889889359474], [0.0534779317677021, -0.058059919625520706, 0.05666074901819229]], [[0.021257884800434113, 0.028556952252984047, -0.009488488547503948], [-0.03759978339076042, -0.07844435423612595, 0.07353515177965164], [0.029148422181606293, -0.029865961521863937, -0.042355719953775406]], [[0.05927775800228119, -0.027979111298918724, 0.020995285362005234], [-0.035189189016819, 0.035930972546339035, -0.017735732719302177], [-0.06837020814418793, 0.02888074517250061, 0.037187810987234116]]], [[[0.036654308438301086, 0.05803390219807625, 0.06357284635305405], [-0.044290538877248764, 0.06993293017148972, -0.07337474077939987], [0.0760362446308136, 0.02353478968143463, -0.00985035765916109]], [[-0.009800377301871777, 0.009956225752830505, -0.06416763365268707], [0.06444474309682846, -0.03878834843635559, 0.0806395560503006], [0.04974997043609619, -0.02593306079506874, 0.041393838822841644]], [[0.04170497879385948, -0.07840130478143692, -0.0434541180729866], [0.07635371387004852, -0.0016888759564608335, -0.036595895886421204], [-0.020387083292007446, -0.054498910903930664, 0.08237388730049133]], [[0.01650889590382576, 0.06098049134016037, 0.049185238778591156], [0.02710886485874653, -0.07690204679965973, 0.041278500109910965], [0.06330666691064835, 0.005762680899351835, 0.019193662330508232]], [[0.06618884205818176, -0.053801584988832474, 0.03758229315280914], [0.007573142647743225, 0.04537644982337952, 0.011712869629263878], [0.013284564018249512, -0.03262249380350113, 0.0265023373067379]], [[-0.008073138073086739, 0.0803443044424057, 0.062318913638591766], [-0.058976300060749054, -0.04851016402244568, -0.022515540942549706], [-0.06668277829885483, 0.0314689539372921, 0.05114106088876724]], [[0.023731952533125877, -0.0671267881989479, 0.049021899700164795], [-0.07501243054866791, 0.015028931200504303, 0.03871586173772812], [0.009167599491775036, -0.05847500264644623, -0.0680520236492157]], [[0.06358214467763901, -0.016187991946935654, 0.07456326484680176], [-0.01006575208157301, -0.054765038192272186, -0.07951150834560394], [-0.06574404239654541, -0.009799504652619362, -0.03328966349363327]], [[0.026392608880996704, -0.0703788623213768, -0.04829097539186478], [0.0431697778403759, 0.06460045278072357, -0.01810108870267868], [0.047149088233709335, 0.03448597714304924, -0.058912087231874466]], [[0.014401297084987164, 0.01182534173130989, -0.016210593283176422], [0.0072436402551829815, 0.030141398310661316, 0.009229917079210281], [-0.033616770058870316, -0.032240524888038635, 0.05333130806684494]], [[0.055893946439027786, -0.04939492046833038, -0.023944435641169548], [0.08033327758312225, 0.001195317949168384, 0.06519138813018799], [0.057527076452970505, 0.07298387587070465, -0.01516633853316307]], [[0.027943260967731476, 0.012606346048414707, -0.03542710095643997], [-0.016105089336633682, -0.024515539407730103, -0.06702520698308945], [0.0721471980214119, 0.03683342784643173, 0.04428784176707268]], [[0.00016261858399957418, 0.07106193900108337, -0.08329394459724426], [-0.034900836646556854, -0.06574814021587372, 0.020074177533388138], [-0.06482076644897461, -0.07308415323495865, -0.03154288977384567]], [[0.027549991384148598, -0.025715621188282967, 0.06098856031894684], [0.059456825256347656, 0.02679995261132717, 0.047169219702482224], [0.01496034860610962, -0.038286954164505005, -0.06784028559923172]], [[-0.027708690613508224, 0.030295398086309433, -0.04014512896537781], [-0.005924617871642113, -0.04177609831094742, 0.04912041872739792], [0.043637026101350784, -0.07276452332735062, -0.014108133502304554]], [[-0.0073074097745120525, -0.02486477419734001, -0.021280018612742424], [0.027743235230445862, 0.027198342606425285, 0.010510244406759739], [-0.07354068011045456, 0.03276020660996437, 0.0293477401137352]]], [[[0.010924121364951134, 0.03926088660955429, -0.02839413657784462], [-0.06229381263256073, -0.0683092400431633, -0.071494460105896], [-0.030390778556466103, -0.04455382749438286, 0.06900820136070251]], [[0.049350325018167496, -0.06426194310188293, 0.04282333329319954], [-0.0510290190577507, 0.05540145933628082, 0.06781382858753204], [-0.08240549266338348, -0.06800372153520584, 0.05890465900301933]], [[-0.05499805882573128, -0.07983776926994324, 0.07320639491081238], [0.03560126945376396, 0.031451448798179626, 0.03897148743271828], [-0.047951556742191315, 0.07113771140575409, -0.046276193112134933]], [[0.08281408250331879, 0.06731976568698883, -0.023489080369472504], [-0.03946790099143982, 0.07777590304613113, -0.0650172010064125], [0.082628034055233, -0.012402012944221497, -0.07020474225282669]], [[0.004593370016664267, -0.035373300313949585, 0.01122171338647604], [0.008694387972354889, -0.007199565880000591, -0.008325501345098019], [-0.01359820831567049, -0.05681721493601799, -0.07918544113636017]], [[-0.035268545150756836, 0.03268154710531235, 0.06238601729273796], [-0.024897320196032524, -0.04634198173880577, -0.053871359676122665], [0.05053555965423584, 0.023122841492295265, -0.0641673356294632]], [[0.01672811061143875, 0.06779903173446655, -0.0830860435962677], [-0.0709809809923172, -0.038914214819669724, -0.03722256422042847], [0.016612466424703598, -0.07116492092609406, -0.0033778746146708727]], [[-0.04415810480713844, -0.03456714749336243, 0.005434481892734766], [0.0809851586818695, -0.010502555407583714, 0.05290454626083374], [-0.0031567567493766546, -0.07593290507793427, -0.01648251712322235]], [[0.02520490065217018, -0.03215145319700241, 0.028480565175414085], [0.01242029294371605, -0.021322470158338547, 0.0015203398652374744], [-0.016114000231027603, 0.07422950118780136, -0.05385907366871834]], [[0.034913837909698486, -0.03508502244949341, 0.020462648943066597], [0.05472878739237785, 0.002981287892907858, -0.018949056044220924], [0.04505268484354019, -0.040015365928411484, 0.02387373149394989]], [[-0.07313927263021469, -0.060374803841114044, -0.05562170594930649], [-0.06659652292728424, 0.07499326765537262, 0.0023629178758710623], [-0.050611428916454315, -0.04636142775416374, -0.008420456200838089]], [[0.06603428721427917, 0.016196371987462044, 0.01917986571788788], [0.037653084844350815, 0.03741804510354996, 0.05610929802060127], [0.05928197130560875, 0.03235321491956711, -0.03874001279473305]], [[0.06527775526046753, 0.03674722835421562, -0.020405501127243042], [-0.058800991624593735, -0.031529683619737625, -0.0043987100943923], [-0.04793679714202881, -0.0069553363136947155, -0.0037193745374679565]], [[-0.009300775825977325, 0.03431709110736847, -0.006588327698409557], [-0.08030671626329422, -0.0474201999604702, -0.0013612925540655851], [-0.005508277099579573, 0.030354687944054604, 0.011465543881058693]], [[0.002456147689372301, -0.07885565608739853, -0.07353419810533524], [0.0589752234518528, 0.05300447344779968, 0.07436179369688034], [-0.07155555486679077, -0.06892704218626022, -0.04232364520430565]], [[0.04825759306550026, -0.0031723687425255775, -0.06437045335769653], [0.08121196925640106, 0.029272181913256645, 0.0021409261971712112], [0.01262341532856226, -0.05614732950925827, 0.06686224043369293]]], [[[-0.0332535095512867, 0.07154292613267899, 0.020129214972257614], [-0.06476419419050217, 0.03409168869256973, 0.06013554707169533], [-0.06500167399644852, -0.011213407851755619, 0.027749473229050636]], [[-0.037135444581508636, -0.03530675917863846, 0.00047410750994458795], [0.06209054961800575, -0.030456651002168655, 0.014735013246536255], [0.014174816198647022, 0.004033369477838278, -0.0014243507757782936]], [[-0.04259805753827095, -0.017801985144615173, -0.0032871775329113007], [-0.004565113224089146, -0.08146385848522186, -0.011437310837209225], [-0.00011966031161136925, -0.053879860788583755, -0.03372018784284592]], [[0.005724003072828054, 0.015073711052536964, -0.059298161417245865], [0.04187648370862007, -0.024461261928081512, 0.055997930467128754], [0.043736983090639114, -0.0015387455932796001, 0.04571319743990898]], [[-0.040022801607847214, 0.03998102247714996, 0.050489120185375214], [0.01144349854439497, 0.061137598007917404, 0.05305330827832222], [-0.000258809159277007, -0.013999536633491516, -0.08274995535612106]], [[-0.07544641941785812, -0.014875841327011585, 0.02925117127597332], [-0.08095559477806091, -0.07303234934806824, -0.060688141733407974], [0.06523308157920837, -0.01877453736960888, 0.010088092647492886]], [[0.04162921756505966, 0.05874170735478401, -0.04538968577980995], [-0.0036176443099975586, 0.05390956997871399, 0.006283903028815985], [-0.05182082578539848, 0.06285534799098969, 0.020855365321040154]], [[-0.0335439033806324, 0.07962170988321304, 0.03688017651438713], [-0.0075437515042722225, -0.009982844814658165, 0.05207761749625206], [0.027783507481217384, -0.030002202838659286, -0.044767219573259354]], [[0.018300943076610565, -0.08172981441020966, -0.07305175065994263], [-0.061885908246040344, -0.007814864628016949, -0.0072166756726801395], [0.06645211577415466, -0.033822957426309586, -0.07463257014751434]], [[-0.0375639833509922, 0.02377980202436447, 0.04570974409580231], [-0.05569659546017647, -0.05497511848807335, 0.04359737038612366], [0.0649406760931015, 0.056173741817474365, 0.00551435025408864]], [[0.028907930478453636, -0.03767557442188263, -0.004153403453528881], [-0.06481758505105972, -0.08190563321113586, 0.017487190663814545], [-0.0011685231002047658, -0.06962470710277557, 0.03416808322072029]], [[-0.05672052875161171, -0.04815024137496948, -0.03298075124621391], [-0.023768045008182526, 0.0690808892250061, 0.04220297560095787], [-0.06310442090034485, -0.06344399601221085, -0.06625458598136902]], [[-0.015235742554068565, 0.03408336639404297, 0.013963151723146439], [0.027375541627407074, -0.010385415516793728, -0.03340861201286316], [0.06450259685516357, -0.018333984538912773, -0.00176634406670928]], [[-0.01970827393233776, -0.059173833578825, 0.04528452455997467], [0.06799806654453278, 0.07234480232000351, 0.0763932317495346], [-0.06285595893859863, 0.031055506318807602, 0.011016017757356167]], [[0.03430267795920372, 0.07188259810209274, -0.07670679688453674], [0.08108123391866684, 0.05689350515604019, 0.07813668251037598], [-0.07293194532394409, -0.027881721034646034, 0.03577962517738342]], [[0.0763690248131752, 0.0037621892988681793, 0.06563213467597961], [0.044988758862018585, 0.005119135603308678, -0.07120800763368607], [0.04414820671081543, -0.07747934013605118, 0.06445585191249847]]], [[[0.036507654935121536, 0.07073274254798889, -0.01383970770984888], [-0.06823775917291641, 0.012915220111608505, -0.031191740185022354], [-0.071803517639637, 0.08114665746688843, 0.04654873162508011]], [[0.04198339208960533, 0.06507669389247894, -0.07638269662857056], [0.019118694588541985, 0.06259217858314514, -0.01685195602476597], [0.07457119971513748, -0.008455291390419006, 0.04607789218425751]], [[-0.04557301476597786, 0.07200194150209427, -0.05859607458114624], [0.03394404053688049, -0.022196143865585327, -0.00903580617159605], [0.028547588735818863, -0.07113336771726608, 0.04207170009613037]], [[0.022906716912984848, 0.0007110834121704102, -0.026176931336522102], [0.05980132892727852, 0.023841841146349907, -0.0824977234005928], [-0.027403706684708595, 0.07091125100851059, -0.036390483379364014]], [[0.03763130307197571, -0.029634850099682808, 0.08064494282007217], [-0.02337365783751011, -0.07531699538230896, -0.006603935733437538], [-0.022091349586844444, -0.07750222831964493, -0.05516672879457474]], [[-0.049485523253679276, 0.04409369081258774, 0.02851051650941372], [-0.04758870229125023, 0.008672693744301796, 0.03713845834136009], [0.07835318893194199, 0.01614774949848652, 0.05790899321436882]], [[-0.04253009706735611, -0.0024700018111616373, -0.08294801414012909], [0.05708414316177368, 0.07645207643508911, 0.003932767082005739], [-0.05378112196922302, 0.05262022092938423, -0.08243928849697113]], [[-0.003171524265781045, -0.07883381843566895, -0.06432076543569565], [-0.03219033032655716, -0.0759306475520134, -0.06978987157344818], [-0.05064466595649719, -0.05544041842222214, 0.03030969761312008]], [[0.06957802176475525, -0.0018395180813968182, -0.0666009783744812], [0.06396027654409409, 0.013490055687725544, 0.03757309168577194], [-0.07719963788986206, -0.05485105514526367, 0.009965397417545319]], [[-0.07083480805158615, -0.0003855024988297373, 0.049256332218647], [0.012071842327713966, -0.03621910884976387, 0.05037346109747887], [0.08052098751068115, -0.045319195836782455, -0.004108928609639406]], [[-0.051089636981487274, 0.01686142571270466, -0.023410217836499214], [0.013189594261348248, 0.06731072068214417, -0.08266568928956985], [-0.04003363475203514, -0.06576621532440186, -0.006448681466281414]], [[0.050064556300640106, 0.07698379456996918, -0.07900580018758774], [-0.0005122458678670228, 0.00638280576094985, 0.07470041513442993], [-0.028880443423986435, 0.03318037837743759, -0.07938157021999359]], [[0.009501256980001926, 0.04998057708144188, -0.05710775777697563], [-0.013113122433423996, 0.05033697560429573, -0.06457319110631943], [0.03450484201312065, -0.008175450377166271, 0.057213444262742996]], [[0.0332043319940567, 0.04654495790600777, 0.0329839363694191], [-0.029585951939225197, 0.008124186657369137, -0.009899928234517574], [0.07675490528345108, -0.05209443345665932, -0.008537620306015015]], [[0.010142937302589417, -0.06702388823032379, 0.009838282130658627], [0.01789800636470318, 0.04642604663968086, 0.06569430232048035], [-0.05030421167612076, -0.04610311612486839, 0.037127502262592316]], [[0.04338651895523071, -0.07237859070301056, 0.003918034490197897], [0.06952227652072906, -0.06699766218662262, -0.038482632488012314], [-0.05800138786435127, -0.050521716475486755, 0.06478668749332428]]], [[[-0.0812428668141365, 0.07799063622951508, 0.06983771920204163], [0.024383917450904846, 0.0696064680814743, 0.010174970142543316], [-0.025622285902500153, -0.06524732708930969, -0.022501757368445396]], [[0.022878672927618027, 0.00401614885777235, 0.05253336578607559], [-0.04157960042357445, -0.0636301338672638, 0.04152031987905502], [0.06376709043979645, -0.07769165188074112, -0.02078590728342533]], [[0.07073904573917389, 0.07092753052711487, 0.01329666655510664], [0.029917916283011436, -0.038656335324048996, -0.015565193258225918], [0.014717094600200653, -0.023647813126444817, 0.04564981535077095]], [[-0.06469565629959106, 0.03377385810017586, -0.07626928389072418], [-0.04173829033970833, 0.005257141776382923, 0.031325701624155045], [-0.06365153938531876, -0.05225233733654022, 0.009631657972931862]], [[-0.04187021404504776, -0.06717434525489807, -0.08112969994544983], [-0.04865226894617081, 0.0006306986324489117, -0.06475129723548889], [0.030316008254885674, -0.03927815705537796, -0.083103708922863]], [[-0.012964772060513496, -0.04519684985280037, 0.01613214798271656], [-0.04047973081469536, -0.0450715608894825, -0.08203120529651642], [0.08165182173252106, -0.05777546390891075, 0.0803145319223404]], [[-0.04622891545295715, -0.0463457815349102, 0.009282231330871582], [0.029322519898414612, 0.024657946079969406, 0.06859295070171356], [0.040886957198381424, -0.07009042799472809, 0.08101487904787064]], [[0.002031118841841817, -0.00412026047706604, 0.059174057096242905], [-0.016201483085751534, 0.010716482996940613, -0.04291471466422081], [0.017734911292791367, -0.06589345633983612, 0.07643502950668335]], [[-0.060660190880298615, 0.04954176023602486, 0.04914059117436409], [-0.0305341687053442, 0.07664068043231964, -0.043993204832077026], [0.026170266792178154, -0.019991930574178696, 0.04141886904835701]], [[0.06591004878282547, -0.00516516761854291, -0.06785797327756882], [-0.011026808992028236, 0.04763201251626015, -0.04526136443018913], [-0.06837406009435654, 0.026561563834547997, 0.05020834505558014]], [[-0.027008429169654846, -0.0038590177427977324, 0.059799838811159134], [-0.06296627223491669, -0.04370759427547455, 0.06645441055297852], [0.001899275928735733, -0.054208483546972275, -0.007180056069046259]], [[0.006641868036240339, -0.017808133736252785, 0.023933496326208115], [-0.0564664788544178, -0.060725580900907516, 0.004844307899475098], [0.011547703295946121, 0.007384727243334055, -0.020970681682229042]], [[0.07891543954610825, 0.07349004596471786, 0.07867064327001572], [0.04422925040125847, -0.061412513256073, -0.08212968707084656], [0.04930584505200386, 0.04375377297401428, 0.005698040593415499]], [[-0.06466741114854813, 0.03833005949854851, 0.0523645281791687], [0.04227454587817192, -0.06962765753269196, -0.07843351364135742], [-0.04218745976686478, 0.06553269922733307, 0.040933530777692795]], [[-0.08274327963590622, 0.006059400737285614, 0.005376491229981184], [-0.006652807351201773, 0.024266181513667107, -0.019121980294585228], [-0.06687087565660477, 0.02445545233786106, 0.011350706219673157]], [[0.08114119619131088, 0.07949244976043701, -0.07424578815698624], [0.014727724716067314, -0.0643494576215744, -0.023630592972040176], [0.04456222057342529, 0.007282731123268604, -0.03929489850997925]]], [[[0.018431957811117172, -0.04758590832352638, 0.029218267649412155], [-0.0168230589479208, 0.02312156744301319, 0.06938546150922775], [0.005211109761148691, 0.02860940806567669, 0.04996170848608017]], [[-0.03627331182360649, 0.05555018410086632, -0.016595054417848587], [0.02909509837627411, 0.07332109659910202, -0.01685565523803234], [0.06999561190605164, 0.005877156741917133, -0.030134830623865128]], [[-0.009429940022528172, 0.06116098538041115, -0.0435350276529789], [0.0031633407343178988, 0.05398622900247574, 0.07028661668300629], [-0.03496036306023598, -0.0316423624753952, 0.011271947994828224]], [[0.05865556374192238, 0.07193725556135178, -0.06266999244689941], [-0.06724952161312103, -0.0670371949672699, -0.005617854185402393], [0.03161708265542984, -0.023840615525841713, 0.06129307299852371]], [[0.02221083827316761, 0.059457551687955856, -0.06117391213774681], [-0.039046965539455414, 0.07987146824598312, 0.03035808727145195], [0.07991732656955719, 0.013783110305666924, -0.07370630651712418]], [[-0.038864947855472565, 0.06184116005897522, 0.009793798439204693], [-0.022127261385321617, -0.06582758575677872, 0.08175551146268845], [-0.0012411391362547874, 0.07022877782583237, 0.02493739314377308]], [[0.04929295554757118, -0.01460291724652052, -0.013989847153425217], [-0.06727980822324753, 0.04665805771946907, 0.08038884401321411], [-0.05251983553171158, 0.026122815907001495, 0.021566931158304214]], [[-0.02466694824397564, -0.007513237651437521, -0.07728313654661179], [0.01035816129297018, -0.06822378933429718, -0.03309415653347969], [0.0789850577712059, 0.008625506423413754, 0.0001431492855772376]], [[-0.08127469569444656, 0.05610942468047142, 0.014724534004926682], [0.08033079653978348, -0.07239288836717606, 0.010573364794254303], [0.014781774021685123, -0.06981358677148819, 0.0320327952504158]], [[0.05120960623025894, 0.0577181912958622, -0.07155901938676834], [0.060731299221515656, -0.054710134863853455, 0.04910873994231224], [0.010066072456538677, 0.007077673450112343, 0.01721804589033127]], [[0.04966508597135544, -0.054080571979284286, -0.03865848481655121], [-0.052484627813100815, 0.006280890665948391, 0.04722566157579422], [0.07843287289142609, 0.03159404173493385, -0.032192934304475784]], [[0.04489707574248314, 0.03247595205903053, -0.02259250357747078], [0.06716550141572952, 0.032727599143981934, -0.02129483036696911], [-0.002855370519682765, -0.019626539200544357, 0.07766137272119522]], [[-0.031771302223205566, -0.038820698857307434, -0.07307081669569016], [-0.06275224685668945, 0.03643692284822464, -0.05267192795872688], [-0.06122409924864769, 0.0061736456118524075, -0.005378874018788338]], [[-0.013524939306080341, 0.0592665933072567, 0.022252902388572693], [0.05542431399226189, -0.08371143788099289, -0.009586244821548462], [0.026295095682144165, 0.07726218551397324, 0.015714218840003014]], [[-0.075940802693367, 0.073009192943573, 0.07773959636688232], [-0.01811363361775875, -0.06243117153644562, -0.07727710902690887], [0.05551476404070854, 0.037802278995513916, -0.04122486338019371]], [[-0.004008138552308083, -0.07139182835817337, -0.0693044364452362], [-0.05642049014568329, -0.05758093670010567, 0.032709892839193344], [-0.01590687967836857, -0.01692192442715168, -0.0016445897053927183]]], [[[-0.032529961317777634, -0.029484231024980545, -0.03738752380013466], [0.024657253175973892, -0.05487428605556488, -0.007054023444652557], [0.04315193369984627, 0.07977984845638275, -0.004273067694157362]], [[-0.05124721676111221, 0.06707806140184402, -0.01283271238207817], [0.06838496029376984, 0.06011057645082474, 0.06694895029067993], [-0.017811806872487068, -0.02381194941699505, -0.007621007040143013]], [[0.020753879100084305, -0.053876690566539764, 0.02657410129904747], [0.04995076730847359, -0.015490520745515823, -0.07839352637529373], [-0.061504777520895004, -0.01720132678747177, -0.058820758014917374]], [[-0.06713145971298218, 0.08234192430973053, 0.059345636516809464], [0.054128967225551605, 0.05205697938799858, 0.02956840768456459], [0.0035045300610363483, 0.0709291622042656, -0.05090349540114403]], [[-0.064841128885746, -0.07206004858016968, 0.036730844527482986], [-0.0692238137125969, -0.03433704748749733, 0.06086042523384094], [-0.06717764586210251, 0.03975701704621315, 0.07311955094337463]], [[-0.07042108476161957, 0.014442511834204197, -0.059118084609508514], [0.06197214126586914, 0.0477994903922081, 0.02226886712014675], [0.06292209029197693, -0.07698871940374374, -0.06998375803232193]], [[-0.0030333667527884245, 0.038867831230163574, -0.023868806660175323], [0.01264388021081686, 0.05041138827800751, -0.06454949826002121], [-0.008210567757487297, -0.00260075181722641, -0.05667363107204437]], [[-0.07795403897762299, 0.04802229627966881, 0.021271415054798126], [0.023808006197214127, -0.0762057676911354, -0.016883734613656998], [-0.07452928274869919, -0.07904525846242905, 0.036902185529470444]], [[0.021058449521660805, 0.00481457868590951, -0.06820017099380493], [0.01666930317878723, -0.02201944775879383, 0.03976133465766907], [0.0679243728518486, -0.07276010513305664, 0.035200588405132294]], [[-0.06269196420907974, 0.04725732281804085, -0.011455833911895752], [0.03710092976689339, 0.0071897441521286964, 0.06749377399682999], [0.017589759081602097, -0.0449322909116745, -0.02688143029808998]], [[-0.05017602816224098, 0.0014232757966965437, -0.046831484884023666], [-0.05140163376927376, -0.0544380322098732, -0.07349430024623871], [-0.0035806684754788876, 0.0789601132273674, 0.07293354719877243]], [[-0.04201660677790642, 0.06642992049455643, -0.019075971096754074], [0.02970264106988907, -0.07153457403182983, -0.019065720960497856], [0.04634258896112442, 0.039613109081983566, 0.03641543164849281]], [[0.004858752246946096, -0.02830336056649685, -0.06537531316280365], [0.05913575366139412, 0.07933539897203445, 0.060335204005241394], [-0.023189442232251167, -0.005572676658630371, -0.05209383741021156]], [[0.07985767722129822, -0.024870017543435097, -0.028909705579280853], [-0.0017377936746925116, 0.03124748170375824, -0.04078807309269905], [0.04634374752640724, -0.07277393341064453, 0.048774827271699905]], [[0.0427202433347702, -0.06707058846950531, -0.01603662595152855], [-0.04003874957561493, 0.019139539450407028, 0.03087984211742878], [-0.05577443167567253, 0.0006542664486914873, 0.0670875534415245]], [[-0.012582777068018913, -0.015497531741857529, 0.07013864815235138], [-0.011566710658371449, -0.0012525190832093358, -0.026263125240802765], [-0.06815054267644882, 0.003881995566189289, 0.06031573563814163]]], [[[-0.06808356940746307, -0.004595306236296892, -0.00668619479984045], [0.013814717531204224, -0.06235773488879204, -0.020602356642484665], [0.055986225605010986, -0.02313440665602684, 0.02718268893659115]], [[0.03838939592242241, 0.005762279964983463, 0.006136782001703978], [-0.025426341220736504, 0.009104563854634762, 0.04932822659611702], [0.05536589026451111, -0.07000666111707687, 0.036877818405628204]], [[-0.00983290746808052, -0.05101913586258888, 0.02003275789320469], [-0.0076812803745269775, 0.07338908314704895, -0.03007449582219124], [0.0675986185669899, 0.06729656457901001, -0.02523469366133213]], [[-0.04219004139304161, 0.004093514755368233, 0.06624437123537064], [0.04413427785038948, 0.08185781538486481, 0.07429056614637375], [0.012446122244000435, -0.04127567261457443, -0.06846246868371964]], [[0.06453285366296768, 0.030874839052557945, -0.07257536798715591], [-0.037695758044719696, -0.06647831201553345, 0.08256685733795166], [-0.06607482582330704, -0.04146916791796684, 0.049415748566389084]], [[-0.012527824379503727, -0.011472496204078197, -0.05384966358542442], [0.054204098880290985, 0.004755186848342419, 0.030073367059230804], [0.0030705402605235577, 0.004000770393759012, 0.024334199726581573]], [[0.07923010736703873, 0.00609217956662178, 0.024574806913733482], [-0.02117815800011158, -0.044109880924224854, -0.01662689819931984], [0.052984222769737244, 0.048280831426382065, -0.07815265655517578]], [[-0.06082931533455849, 0.05557795241475105, 0.07095380127429962], [0.0256693996489048, -0.07444747537374496, 0.04882911220192909], [-0.05303328484296799, -0.031400855630636215, 0.03404760733246803]], [[-0.06014297157526016, -0.01812567561864853, -0.013376523740589619], [0.014384711161255836, -0.004888663999736309, -0.04985509440302849], [0.03250247612595558, 0.005842620972543955, -0.01062325295060873]], [[-0.010251197032630444, 0.06044945493340492, -0.023056499660015106], [-0.07367419451475143, -0.019200405105948448, 0.08157997578382492], [-0.059630490839481354, -0.0771317258477211, 0.026005038991570473]], [[0.0028020369354635477, 0.06001399829983711, 0.03842439875006676], [-0.01960809715092182, 0.006148710381239653, 0.08539074659347534], [0.012590544298291206, 0.06815431267023087, 0.02009987272322178]], [[0.017045704647898674, -0.009257721714675426, 0.02533656172454357], [0.028780577704310417, -0.0789182186126709, 0.07963967323303223], [-0.03645272180438042, 0.01578540727496147, 0.0495060458779335]], [[-0.06260662525892258, 0.007405085489153862, 0.044525448232889175], [-0.014318064786493778, -0.0211661197245121, 0.08272229135036469], [0.07628077268600464, -0.014109867624938488, 0.039560649544000626]], [[-0.030844807624816895, -0.03509106859564781, -0.02569366991519928], [0.0619424469769001, 0.040240898728370667, -0.07063225656747818], [-0.03823424503207207, 0.04697142913937569, 0.005920871626585722]], [[-0.06975715607404709, -0.002689961576834321, -0.03479335084557533], [0.05147916078567505, 0.001985926181077957, 0.02425265870988369], [-0.008630508556962013, 0.034532345831394196, 0.07027243077754974]], [[-0.03937262296676636, 0.08275957405567169, 0.07859499007463455], [-0.037793487310409546, -0.07830718159675598, -0.05207901820540428], [0.01977958157658577, -0.04067099094390869, 0.022399626672267914]]], [[[-0.025502773001790047, 0.03231808915734291, 0.023513657972216606], [-0.05903637036681175, 0.018721124157309532, 0.058583956211805344], [-0.07106338441371918, -0.018527064472436905, 0.006486442871391773]], [[-0.011422078125178814, 0.03550731763243675, 0.013144386932253838], [-0.028564808890223503, 0.01457234937697649, 0.07352441549301147], [-0.02219979465007782, -0.004495661705732346, 0.07612989842891693]], [[-0.00026832029107026756, -0.022974371910095215, -0.005537400487810373], [0.025415200740098953, 0.03262486681342125, 0.007399680558592081], [-0.008516456931829453, -0.030591079965233803, -0.002587624592706561]], [[0.03775405138731003, -0.07326396554708481, -0.08262521773576736], [0.010657464154064655, -0.01284345705062151, 0.03855394944548607], [-0.025836726650595665, 0.021416500210762024, -0.04453212395310402]], [[-0.07957656681537628, 0.05553900822997093, -0.06222730502486229], [0.03780030459165573, 0.07074561715126038, -0.02576235868036747], [-0.056369442492723465, 0.02850121259689331, -0.039913471788167953]], [[-0.07602173089981079, -0.04682358726859093, -0.0613304041326046], [-0.0575396753847599, -0.006752221379429102, 0.00807141326367855], [-0.030265599489212036, 0.06699476391077042, -0.06811309605836868]], [[0.013322983868420124, -0.033221710473299026, -0.04519796743988991], [0.0247348602861166, -0.04535288363695145, -0.015045186504721642], [0.003394920378923416, -0.05296040698885918, -0.04911784827709198]], [[0.07256637513637543, -0.06257224828004837, 0.06047361344099045], [-0.07764076441526413, 0.07627959549427032, 0.041804734617471695], [-0.0794946625828743, -0.07304660975933075, 0.07217772305011749]], [[0.07855664938688278, -0.06687687337398529, 0.03341130167245865], [-0.006079610902816057, -0.022070806473493576, 0.05714830383658409], [0.006660012993961573, -0.07642800360918045, -0.029504427686333656]], [[0.0743715688586235, 0.013091478496789932, -0.0742536336183548], [-0.016809862107038498, 0.04388689622282982, -0.03809758275747299], [0.0735873430967331, 0.0036916546523571014, 0.053421638906002045]], [[-0.029964277520775795, -0.0023006650153547525, -0.03069336712360382], [0.04813425987958908, -0.061680037528276443, 0.03320660442113876], [-0.0022703749127686024, 0.052463043481111526, 0.06087932363152504]], [[-0.001576165552251041, 0.049918051809072495, 0.02755001187324524], [-0.015042465180158615, 0.0818362608551979, 0.02742951549589634], [-0.07385735213756561, 0.0024405228905379772, 0.03240545466542244]], [[0.07390660792589188, -0.07663126289844513, 0.07208316028118134], [0.01617535948753357, -0.03707591071724892, -0.07335163652896881], [-0.03745265305042267, -0.08256453275680542, 0.04989708587527275]], [[0.05324044078588486, -0.02355029806494713, 0.010790328495204449], [-0.005601531360298395, -0.024892738088965416, 0.07396190613508224], [-0.06828192621469498, -0.06045062467455864, 0.06008201092481613]], [[-0.02617611549794674, 0.02443586476147175, 0.05997065082192421], [0.02452055737376213, -0.006039601285010576, 0.04854748770594597], [0.032355763018131256, 0.056708645075559616, -0.041308220475912094]], [[-0.015025129541754723, 0.06293821334838867, 0.06022412329912186], [-0.05864493176341057, -0.04003500938415527, -0.02576935663819313], [-0.07712936401367188, -0.03581959381699562, -0.04872040078043938]]], [[[-0.012644411996006966, -0.00540167884901166, -0.027623213827610016], [0.042173705995082855, 0.028986241668462753, -0.019071444869041443], [0.024031328037381172, -0.02271893247961998, 0.06819156557321548]], [[0.02410823665559292, -0.02091192826628685, -0.0819733738899231], [-0.004943453706800938, -0.04192143678665161, -0.024698203429579735], [0.07043721526861191, 0.044614277780056, 0.07049532979726791]], [[0.01609787531197071, -0.001506382948718965, -0.058976851403713226], [-0.0006337330560199916, 0.0383874736726284, 0.023043399676680565], [-0.024863917380571365, -0.07125969976186752, 0.041971493512392044]], [[-0.06654427200555801, 0.018311267718672752, -0.048970356583595276], [0.00838202890008688, -0.07347281277179718, 0.06323043256998062], [-0.025809068232774734, -0.028690751641988754, -0.03309377655386925]], [[0.06459537148475647, 0.035948965698480606, 0.029151078313589096], [-0.039566054940223694, -0.048516564071178436, -0.07580230385065079], [0.04800557345151901, -0.025529496371746063, 0.08194875717163086]], [[0.07694610208272934, 0.020155170932412148, 0.06604073941707611], [0.060794632881879807, -0.0770396962761879, -0.03235863521695137], [0.02170807309448719, -0.0458596907556057, 0.02169651910662651]], [[-0.07494157552719116, -0.027919286862015724, -0.006414332427084446], [0.021625906229019165, -0.04144768789410591, 0.02055230922996998], [-0.04500223323702812, 0.02347048744559288, 0.07230723649263382]], [[0.07033535838127136, 0.07308360189199448, -0.06174011901021004], [-0.04336175695061684, -0.044996798038482666, 0.025355929508805275], [-0.02102864906191826, -0.0019184524426236749, 0.045525602996349335]], [[-0.05609549209475517, 0.04425157234072685, 0.0469953827559948], [0.048567675054073334, 0.07864320278167725, 0.005574319511651993], [-0.06809231638908386, -0.046066079288721085, -0.03812834993004799]], [[-0.047742653638124466, 0.03990328684449196, 0.06466410309076309], [0.04855439439415932, 0.04082917794585228, 0.012444360181689262], [0.04283636435866356, 0.040253955870866776, 0.024772757664322853]], [[0.0013827824732288718, 0.07111901789903641, -0.03341411054134369], [0.07680568844079971, 0.03039652667939663, 0.025361938402056694], [-0.03480079025030136, -0.015677444636821747, -0.026030568405985832]], [[-0.006986189633607864, 0.05735164135694504, 0.019781609997153282], [-0.06560105830430984, 0.05469103157520294, 0.07586069405078888], [-0.0031749827321618795, 0.08235020935535431, -0.037836648523807526]], [[0.042891014367341995, -0.050544723868370056, 0.020666437223553658], [-0.02018888294696808, -0.07262539118528366, -0.03995586931705475], [-0.03836951032280922, -0.07764139026403427, -0.08183937519788742]], [[-0.047286611050367355, 0.025444479659199715, 0.051054488867521286], [-0.012828505598008633, 0.0157496128231287, 0.05062341317534447], [-0.07275839895009995, -0.08103592693805695, 0.06997895240783691]], [[0.009883307851850986, -0.0634131133556366, 0.03479137644171715], [-0.078301802277565, -0.0019775410182774067, 0.06248411163687706], [-0.021270940080285072, 0.02194327302277088, 0.01762719638645649]], [[-0.015835793688893318, 0.03527030348777771, -0.07200727611780167], [0.0038687940686941147, -0.043625663965940475, 0.008272510953247547], [0.006144319195300341, -0.005322704557329416, 0.06320125609636307]]], [[[0.01365029439330101, -0.0037790988571941853, 0.0029307855293154716], [0.05574598163366318, 0.03291188180446625, -0.054505202919244766], [0.07083403319120407, 0.025984691455960274, -0.007056024391204119]], [[0.060453981161117554, 0.08070605993270874, -0.05181381106376648], [0.07774362713098526, -0.05963804945349693, 0.08262648433446884], [0.04983675479888916, -0.05974242463707924, 0.040619224309921265]], [[-0.012783183716237545, 0.032092057168483734, -0.06131523475050926], [0.06563805043697357, -0.038400616496801376, 0.038846299052238464], [0.011301733553409576, 0.05941828340291977, -0.048898614943027496]], [[-0.05250423029065132, -0.011826359666883945, 0.011649168096482754], [-0.0012538079172372818, 0.002570179058238864, -0.06001386418938637], [0.042787667363882065, 0.052592597901821136, -0.06518146395683289]], [[0.06261124461889267, 0.04921094700694084, -0.06459778547286987], [-0.06532292068004608, -0.0689903274178505, -0.05830930918455124], [0.02194698341190815, 0.0712125301361084, 0.018581002950668335]], [[0.050955213606357574, 0.04312346130609512, 0.0756615698337555], [-0.03126779943704605, 0.0056519825011491776, -0.007109348196536303], [0.020064998418092728, 0.07807575166225433, 0.07705245912075043]], [[-0.06954402476549149, 0.0010936962207779288, -0.055663201957941055], [-0.058860670775175095, -0.06753424555063248, 0.05036523938179016], [-0.00550389988347888, -0.01161519531160593, -0.05397718772292137]], [[-0.04197438433766365, -0.05816762149333954, 0.04379183426499367], [-0.062140386551618576, 0.01675347611308098, 0.0433121994137764], [0.08332362025976181, -0.06111745163798332, 0.024386515840888023]], [[-0.027750138193368912, -0.012638277374207973, -0.05093324929475784], [-0.023907361552119255, -0.025623617693781853, 0.07502071559429169], [-0.07482944428920746, 0.005462766624987125, 0.07485059648752213]], [[-0.005746397189795971, 0.005463670939207077, -0.07551184296607971], [-0.05332465097308159, 0.0013193015474826097, 0.0032294276170432568], [0.07677150517702103, -0.05729975551366806, 0.017851604148745537]], [[0.057009633630514145, -0.026188073679804802, -0.04336933791637421], [-0.05198421701788902, 0.016973145306110382, 0.01351665984839201], [0.04993130639195442, -0.06984664499759674, -0.01936836913228035]], [[-0.06950219720602036, 0.027182307094335556, -0.028910648077726364], [0.08266525715589523, -0.03917788714170456, 0.08092201501131058], [0.07737422734498978, -0.009905366227030754, -0.03762707859277725]], [[0.03960490599274635, -0.032685503363609314, -0.026152754202485085], [-0.048294346779584885, -0.011496637016534805, -0.03610776737332344], [-0.008238295093178749, 0.015309061855077744, -0.038524873554706573]], [[0.03862732648849487, -0.030122607946395874, 0.02967040427029133], [-0.07438550889492035, 0.06942518800497055, -0.022354483604431152], [0.0022634349297732115, 0.0016334119718521833, -0.06254284083843231]], [[0.03304778411984444, 0.04211318865418434, 0.046002347022295], [-0.03255739063024521, 0.07722488045692444, -0.04141462221741676], [-0.036645304411649704, -0.06435978412628174, 0.04249779134988785]], [[0.05674652010202408, 0.02496263012290001, -0.02129492163658142], [0.07407498359680176, -0.04444113001227379, 0.01861158199608326], [0.06982909888029099, 0.05093219876289368, -0.009335304610431194]]]], "encoder.6.bias": [0.010322779417037964, 0.060230448842048645, -0.05841691792011261, 0.07453187555074692, -0.02406744845211506, 0.0054471720941364765, -0.006601565983146429, 0.04551766812801361, -0.01575850136578083, 0.013516082428395748, -0.08388407528400421, 0.02870461903512478, 0.027598747983574867, -0.0012196090538054705, 0.04005773365497589, -0.047539111226797104], "encoder.8.weight": [[[[0.02681730128824711, -0.03514254093170166, 0.06967509537935257], [0.04855717718601227, -0.035795971751213074, -0.014388114213943481], [-0.022390147671103477, 0.0013651885092258453, -0.041820596903562546]], [[0.054887525737285614, -0.031612224876880646, 0.05106765776872635], [0.07835331559181213, 0.06785622984170914, -0.008397324942052364], [0.062408048659563065, 0.06736689805984497, 0.0577256977558136]], [[0.04792426526546478, -0.03927429020404816, -0.009207368828356266], [-0.014233589172363281, -0.0800333321094513, 0.010014764033257961], [-0.027387084439396858, -0.06538036465644836, -0.012125654146075249]], [[0.07417280972003937, 0.0641474574804306, -0.03397837653756142], [0.06388627737760544, -0.029338451102375984, 0.07153370976448059], [-0.027744315564632416, -0.00679735466837883, -0.08344695717096329]], [[-0.03128848224878311, 0.05730249732732773, -0.025402437895536423], [0.05566359683871269, -0.001498732133768499, -0.05879974365234375], [-0.06812442094087601, 0.014102249406278133, -0.08220017701387405]], [[-0.04038973152637482, -0.034853193908929825, 0.07904944568872452], [0.07404813915491104, -0.025504255667328835, 0.032734110951423645], [-0.029037028551101685, 0.003378980327397585, -0.0031148919370025396]], [[-0.06690430641174316, 0.0653284564614296, -0.015013139694929123], [-0.012369656004011631, 0.009767812676727772, -0.07673100382089615], [0.012870404869318008, -0.05895126983523369, 0.07203762978315353]], [[-0.08299583941698074, 0.008422808721661568, 0.004058611113578081], [-0.05198930576443672, 0.04283187538385391, -0.07902925461530685], [0.0621098168194294, -0.028792420402169228, -0.07862312346696854]], [[-0.04470888525247574, -0.00928796362131834, 0.0066536227241158485], [0.002614708850160241, -0.08047839254140854, 0.021577320992946625], [0.07929378747940063, 0.011862539686262608, 0.07614335417747498]], [[0.01661316119134426, -0.01979261450469494, -0.014592061750590801], [-0.001747526228427887, -0.0593622662127018, 0.06341805309057236], [0.05025293305516243, -0.06640869379043579, -0.01407627947628498]], [[-0.02426031045615673, 0.08030882477760315, -0.00998597126454115], [0.05324685201048851, 0.0684422105550766, 0.023709595203399658], [-0.06736984103918076, 0.0166298970580101, 0.06479422003030777]], [[0.0165546964854002, 0.013458137400448322, 0.04304449260234833], [-0.03965694084763527, 0.034548643976449966, 0.011010544374585152], [0.008182818070054054, 0.04983412101864815, 0.03819655254483223]], [[0.07006935030221939, 0.036906465888023376, -0.043024517595767975], [0.02692985162138939, -0.07826506346464157, -0.016550982370972633], [-0.020847830921411514, -0.005629389081150293, 0.07094694674015045]], [[-0.027827974408864975, -0.009915598668158054, 0.05280756950378418], [0.058328431099653244, 0.07734505832195282, -0.08300993591547012], [0.04509216547012329, 0.035047441720962524, -0.04807843640446663]], [[0.01204761490225792, 0.002343657659366727, -0.08275055885314941], [-0.05802900344133377, 0.08079800009727478, -0.05545566603541374], [-0.06192886456847191, 0.06406230479478836, -0.03554941713809967]], [[-0.015179256908595562, 0.06545019894838333, -0.008573711849749088], [0.08069783449172974, 0.07411886006593704, -0.08279497176408768], [0.077842116355896, 0.015955977141857147, -0.016758613288402557]]], [[[0.08308292180299759, -0.05853664502501488, -0.07931554317474365], [-0.07752825319766998, -0.030453519895672798, 0.031062260270118713], [0.015230968594551086, -0.06167657673358917, -0.06608830392360687]], [[-0.057778824120759964, -0.016600653529167175, 0.042970482259988785], [-0.0012634877348318696, 0.06763418018817902, 0.03947299346327782], [0.07223893702030182, -0.03198899328708649, 0.0754619911313057]], [[-0.005649849306792021, 0.0014944805298000574, -0.051315002143383026], [-0.019493477419018745, 0.056526828557252884, 0.05192631110548973], [-0.002299743238836527, -0.029291639104485512, 0.03130028396844864]], [[-0.06148071587085724, -0.06823316961526871, -0.060773517936468124], [-0.012307551689445972, 0.07966136187314987, -0.01224847324192524], [-0.000663159997202456, -0.03412856161594391, 0.003099542809650302]], [[0.0715281069278717, 0.03317377343773842, 0.052482206374406815], [-0.019120285287499428, -0.03318358585238457, -0.0615854449570179], [0.01368326973170042, 0.01343025267124176, -0.04807544872164726]], [[-0.05558677390217781, 0.07925649732351303, -0.012469157576560974], [-0.005391044542193413, 0.054488491266965866, -0.02237951196730137], [0.03181932866573334, 0.018213771283626556, -4.967774293618277e-05]], [[-0.0027360517997294664, -0.031045367941260338, 0.07985018938779831], [0.043196748942136765, 0.03082144819200039, -0.0502924919128418], [0.018462779000401497, 0.06815734505653381, -0.07224498689174652]], [[-0.08131343126296997, -0.0804508775472641, -0.0706641748547554], [0.01966283470392227, -0.01696229726076126, -0.024785324931144714], [-0.034742385149002075, 0.03914620354771614, 0.07715257257223129]], [[0.08288388699293137, 0.044175051152706146, 0.08006561547517776], [-0.07962525635957718, 0.049655891954898834, -0.06768187135457993], [-0.047932177782058716, 0.029190408065915108, 0.05068108066916466]], [[-0.034176718443632126, -0.027864506468176842, 0.04129979759454727], [0.022568201646208763, 0.03190403804183006, -0.002446125727146864], [-0.058244869112968445, 0.03778810799121857, -0.05263346806168556]], [[0.004300516098737717, -0.06301480531692505, 0.04924771934747696], [0.015693847090005875, 0.04666997119784355, -0.05329792946577072], [0.07098349183797836, -0.04095814749598503, 0.0022908267565071583]], [[0.0273909792304039, 