{"encoder.0.weight": [[[[-0.1755801886320114, -0.25458866357803345, 0.024413149803876877], [-0.02726570889353752, 0.25144273042678833, -0.06781673431396484], [-0.10507544130086899, -0.19380293786525726, -0.009721091017127037]]], [[[0.0287157092243433, -0.12847550213336945, -0.18798081576824188], [0.19347679615020752, 0.02652319334447384, 0.02322636917233467], [0.25393375754356384, -0.20807576179504395, 0.11925604194402695]]], [[[-0.059741392731666565, -0.089191734790802, -0.03663468360900879], [0.1811634600162506, 0.09743372350931168, 0.0030861105769872665], [-0.28866592049598694, -0.08948608487844467, 0.2751026451587677]]], [[[0.14486105740070343, -0.31918513774871826, 0.09035884588956833], [-0.21519286930561066, 0.13848930597305298, 0.1949448585510254], [-0.022387435659766197, 0.09386797994375229, 0.06212392821907997]]], [[[0.23407991230487823, -0.27892664074897766, 0.16891875863075256], [-0.09576627612113953, -0.06588482111692429, 0.25139492750167847], [0.13354721665382385, -0.2886693775653839, 0.10418123751878738]]], [[[-0.2503575086593628, -0.31254449486732483, 0.1357431858778], [-0.21857517957687378, 0.017537688836455345, 0.18313942849636078], [-0.08897217363119125, -0.21110540628433228, 0.17358459532260895]]], [[[0.08338364213705063, 0.22358432412147522, -0.26478198170661926], [0.20943394303321838, 0.2729839086532593, 0.10416315495967865], [-0.2825121283531189, -0.2606251537799835, 0.075110524892807]]], [[[-0.10418615490198135, 0.07242754846811295, -0.20226718485355377], [-0.22807006537914276, -0.022358614951372147, -0.11520615965127945], [0.25899916887283325, 0.27425023913383484, -0.02951749414205551]]]], "encoder.0.bias": [-0.10042150318622589, 0.22664721310138702, 0.23818282783031464, -0.331028014421463, 0.25861620903015137, -0.22110949456691742, -0.3029618561267853, -0.01679043471813202], "encoder.2.weight": [[[[0.048198480159044266, -0.09255723655223846, 0.07119598984718323], [0.0033420880790799856, -0.026930363848805428, 0.11639005690813065], [0.11077717691659927, -0.10060709714889526, -0.00936609786003828]], [[0.019513478502631187, 0.004937084391713142, -0.017034808173775673], [-0.039529986679553986, 0.04265962168574333, 0.011833700351417065], [0.08794506639242172, 0.014614161103963852, 0.07444063574075699]], [[-0.08430573344230652, -0.013058438897132874, -0.06876179575920105], [-0.012109752744436264, 0.022772666066884995, 0.010422205552458763], [-0.047561854124069214, -0.014270096085965633, -0.022734733298420906]], [[0.04984395205974579, 0.008069134317338467, 0.0307375006377697], [-0.09136893600225449, -0.04910045489668846, -0.05418283864855766], [0.018166860565543175, 0.08351851999759674, 0.09746772795915604]], [[-0.07827185839414597, -0.10497527569532394, -0.011387979611754417], [0.006944697815924883, 0.0491144135594368, 0.04021461680531502], [-0.08758436888456345, -0.031318020075559616, -0.024371793493628502]], [[-0.13520389795303345, -0.047130972146987915, 0.09329262375831604], [0.06964466720819473, 0.00346478633582592, -0.01960582472383976], [0.04056098312139511, 0.021612197160720825, -0.11645378917455673]], [[0.06408713012933731, -0.023977644741535187, 0.08447229862213135], [0.08127123862504959, -0.03852143511176109, 0.06827932596206665], [0.0011882755206897855, 0.0516180694103241, 0.1207728385925293]], [[-0.12458962947130203, 0.0006398771074600518, -0.048024989664554596], [-0.06602959334850311, -0.042314499616622925, -0.023516204208135605], [-0.028926655650138855, -0.06443290412425995, -0.0615682527422905]]], [[[-0.023456519469618797, -0.08790568262338638, -0.10352194309234619], [-0.10850069671869278, 0.06988860666751862, 0.11522062122821808], [0.04773726314306259, 0.06169268861413002, 0.06141756847500801]], [[-0.10452648997306824, 0.047924891114234924, 0.08329113572835922], [0.08124034851789474, 0.04547662287950516, 0.05243601277470589], [-0.04739176854491234, 0.06013984978199005, 0.030145209282636642]], [[0.025105096399784088, -0.014278878457844257, 0.04818353056907654], [-0.12421810626983643, 0.020064175128936768, -0.049021415412425995], [0.029497597366571426, -0.0450255312025547, 0.10400334000587463]], [[0.11625555902719498, 0.031394824385643005, -0.009278046898543835], [-0.048814162611961365, -0.04078952968120575, -0.048099085688591], [0.04091791808605194, -0.014834054745733738, 0.06980352103710175]], [[-0.07087977230548859, -0.004295559599995613, 0.053374338895082474], [0.031826067715883255, -0.042844679206609726, -0.07816657423973083], [0.0004104619147256017, 0.0883956253528595, -0.0006397581892088056]], [[0.11694849282503128, 0.024931414052844048, 0.10018430650234222], [-0.050520967692136765, -0.09519696235656738, -0.10710907727479935], [-0.08677225559949875, -0.046591199934482574, 0.08442440629005432]], [[-0.004979371093213558, -0.043330736458301544, 0.0006818842375651002], [-0.019182905554771423, 0.050881508737802505, -0.09233788400888443], [-0.02395514026284218, -0.11800660192966461, -0.0006734951748512685]], [[0.0762137919664383, -0.03280780836939812, 0.015774503350257874], [-0.10312965512275696, -0.09848867356777191, 0.052924249321222305], [0.006318173836916685, -0.12412486225366592, -0.13554181158542633]]], [[[-0.005403296090662479, -0.08835820108652115, 0.1046881228685379], [0.06358306109905243, -0.021880017593503, -0.10634560137987137], [0.09582864493131638, 0.06418917328119278, 0.07629193365573883]], [[-0.08797023445367813, -0.12265823036432266, 0.026835812255740166], [0.06393054872751236, -0.08314511924982071, -0.058277953416109085], [0.0634181872010231, -0.045690517872571945, -0.0595577135682106]], [[-0.015688586980104446, 0.026722360402345657, -0.030050886794924736], [-0.0672876313328743, -0.03180684521794319, -0.06501706689596176], [-0.10076496005058289, 0.08721031993627548, -0.10396526008844376]], [[0.07905018329620361, -0.03140052407979965, -0.04271046817302704], [0.06956947594881058, -0.06283462792634964, -0.10881353914737701], [-0.09019055962562561, 0.0636153370141983, 0.01104382798075676]], [[0.0007545393309555948, -0.012309789657592773, -0.06171487271785736], [0.017384909093379974, 0.023728040978312492, -0.10747718065977097], [-0.1270902454853058, 0.0430595688521862, 0.08527866005897522]], [[-0.11553371697664261, 0.07811734825372696, -0.027449483051896095], [-0.030664611607789993, 0.0015096081187948585, -0.0982881635427475], [-0.06505464762449265, -0.11683632433414459, -0.01765395887196064]], [[-0.02818780578672886, -0.1221601665019989, -0.08163560181856155], [0.0751001238822937, 0.022240780293941498, 0.026343777775764465], [-0.02997857891023159, -0.08158550411462784, 0.08018890023231506]], [[-0.07649219036102295, -0.13637779653072357, -0.043930090963840485], [0.11721507459878922, -0.11124870181083679, -0.049261145293712616], [0.05595256760716438, 0.010464857332408428, 0.13371078670024872]]], [[[0.045437369495630264, -0.041954413056373596, -0.09703236073255539], [0.05989836901426315, -0.11034701019525528, 0.07514925301074982], [-0.10957115888595581, -0.0985378697514534, 0.013352838344871998]], [[-0.1086927056312561, 0.03166646137833595, -0.046365655958652496], [-0.10118528455495834, 0.10400503128767014, -0.054267894476652145], [-0.02960946597158909, 0.07403713464736938, 0.07661297172307968]], [[0.0933508351445198, -0.08458493649959564, -0.01842070370912552], [-0.06534363329410553, 0.04201196879148483, 0.09370946139097214], [0.06913075596094131, 0.02331417053937912, -0.08312923461198807]], [[0.08663327991962433, 0.060536034405231476, -0.001604400691576302], [0.08420582115650177, -0.08130184561014175, -0.10953469574451447], [-0.08195025473833084, -0.05543191358447075, 0.06184161826968193]], [[-0.013306883163750172, -0.015071778558194637, -0.09760996699333191], [-0.055382441729307175, -0.1004156693816185, 0.08465620130300522], [-0.0476849265396595, 0.024415938183665276, 0.035821348428726196]], [[-0.05641433224081993, -0.05653156712651253, 0.005139580927789211], [0.020772723481059074, 0.010351025499403477, -0.06740693002939224], [0.05490843579173088, -0.009774105623364449, 0.03257123380899429]], [[0.09319684654474258, 0.0728008821606636, 0.06840889900922775], [0.09632180631160736, 0.0633169561624527, 0.041008539497852325], [0.06929384171962738, -0.10442149639129639, 0.09525327384471893]], [[0.10416412353515625, 0.05645168945193291, 0.08736559003591537], [0.08178772032260895, 0.08231711387634277, 0.05242447927594185], [0.05964667722582817, -0.01702139526605606, 0.11305899918079376]]], [[[-0.06823300570249557, -0.08081833273172379, 0.0603032186627388], [-0.020830882713198662, 0.09526856988668442, 0.08677097409963608], [-0.08782220631837845, 0.04023343697190285, 0.07846147567033768]], [[-0.03487994894385338, 0.04187101870775223, 0.01221869233995676], [0.05925928056240082, -0.05598941817879677, 0.027479426935315132], [-0.02693241648375988, -0.0014471643371507525, 0.0076787229627370834]], [[0.01829148270189762, -0.08716946095228195, -0.05787903815507889], [0.014590424485504627, 0.12436660379171371, -0.1118796244263649], [0.10466545820236206, 0.06419987231492996, -0.06403163075447083]], [[-0.08871429413557053, 0.06556262075901031, -0.04672211781144142], [-0.0908522680401802, -0.050203610211610794, 0.018731730058789253], [-0.075672447681427, 0.0995749831199646, 0.00037173074088059366]], [[-0.058039527386426926, 0.0036393748596310616, -0.08723146468400955], [0.01193847693502903, 0.12263675779104233, -0.11493422836065292], [0.11979988217353821, 0.09124930202960968, -0.0642944723367691]], [[0.03086024709045887, 0.00752258813008666, 0.021216219291090965], [0.032653652131557465, -0.09166266769170761, -0.03946010395884514], [0.01205387245863676, -0.12258777022361755, -0.09594357013702393]], [[-0.09967789798974991, 0.009258439764380455, -0.05873245373368263], [0.05647862330079079, 0.09895412623882294, 0.02525397203862667], [0.05690961703658104, -0.10604989528656006, -0.004913580138236284]], [[-0.08857713639736176, -0.09656266123056412, -0.024800555780529976], [-0.04748736321926117, 0.0931580439209938, -0.07214967906475067], [0.08641337603330612, 0.06290099769830704, -0.0343758799135685]]], [[[-0.047997213900089264, -0.11182227730751038, -0.06353022158145905], [-0.08993777632713318, 0.0763571485877037, 0.08364176750183105], [0.024889694526791573, -0.006684462074190378, -0.08183295279741287]], [[-0.05219736695289612, 0.10899610817432404, -0.0016371175879612565], [0.11111754924058914, 0.03626478090882301, 0.0036557898856699467], [-0.11241483688354492, -0.09465758502483368, -0.10164765268564224]], [[-0.06912284344434738, -0.04845133796334267, -0.0277241263538599], [0.13868819177150726, 0.005683430004864931, -0.04864859580993652], [0.0047666155733168125, -0.035768963396549225, 0.005636331159621477]], [[-0.009072561748325825, 0.045843981206417084, 0.08682316541671753], [-0.0839296355843544, -0.021482860669493675, 0.007588357664644718], [0.09829701483249664, -0.06213803589344025, -0.07018432766199112]], [[0.11311890184879303, -0.018409570679068565, -0.08645882457494736], [0.1055634394288063, 0.10326625406742096, -0.052647676318883896], [0.03650416433811188, 0.056311704218387604, -0.05268969014286995]], [[-0.10219009965658188, -0.11488109081983566, 0.08183939009904861], [0.014872339554131031, -0.011135164648294449, 0.06704272329807281], [0.06472998857498169, 0.06839009374380112, 5.195251651457511e-05]], [[0.0618131123483181, 0.04999396577477455, -0.08743654936552048], [0.08082215487957001, 0.04334079846739769, -0.06535181403160095], [-0.0857609212398529, 0.06060740724205971, 0.05156887322664261]], [[-0.03894210234284401, -0.022011877968907356, 0.04437137395143509], [0.0011319979093968868, 0.06931879371404648, -0.06773199886083603], [0.0830056294798851, -0.07062382251024246, 0.09878777712583542]]], [[[-0.10232601314783096, -0.1011778935790062, -0.021150538697838783], [-0.057674016803503036, -0.0036098496057093143, -0.04866206273436546], [0.07243446260690689, -0.09255088120698929, -0.01967759057879448]], [[0.026930859312415123, 0.006453139707446098, 0.05703496187925339], [-0.034099921584129333, 0.001258145784959197, -0.045660678297281265], [-0.014951690100133419, 0.11360581964254379, 0.05840357020497322]], [[-0.029469788074493408, 0.09198357909917831, -0.06495804339647293], [-0.1260877549648285, -0.06195422261953354, -0.11226010322570801], [-0.07474446296691895, 0.023276984691619873, -0.12072552740573883]], [[0.038176242262125015, 0.04966041445732117, 0.006174135487526655], [0.09887291491031647, 0.032977886497974396, 0.021904412657022476], [-0.010492019355297089, -0.06102011725306511, -0.12120228260755539]], [[0.013207675889134407, 0.017201248556375504, -0.11817300319671631], [-0.01875242590904236, 0.10845167934894562, -0.10063503682613373], [0.10850869119167328, 0.06404180079698563, -0.004084398970007896]], [[-0.11287929117679596, -0.04431860148906708, -0.056681398302316666], [0.031980209052562714, 0.1204296424984932, 0.00507474085316062], [0.06924764066934586, 0.08248529583215714, 0.08378133177757263]], [[-0.10842978954315186, 0.025799710303544998, 0.07352244108915329], [0.0732596144080162, 0.048526469618082047, -0.008055126294493675], [0.015129214152693748, 0.04951654002070427, 0.05905171111226082]], [[-0.01896522007882595, -0.0030825240537524223, 0.003923225682228804], [0.1526353657245636, 0.1665397584438324, 0.10763876140117645], [0.10573466122150421, 0.11711635440587997, 0.1257868856191635]]], [[[0.03434950113296509, 0.09417006373405457, -0.025800587609410286], [0.005919558461755514, -0.06690821796655655, -0.05761941894888878], [0.06533649563789368, 0.0668417289853096, -0.08265166729688644]], [[-0.04480397328734398, 0.03683974966406822, 0.11172257363796234], [-0.00038400126504711807, -0.09789040684700012, 0.025511426851153374], [0.03221975639462471, 0.11184963583946228, 0.017742227762937546]], [[0.13655796647071838, -0.12597666680812836, -0.08203078806400299], [-0.0013631210895255208, -0.08950300514698029, 0.10913363844156265], [0.01355411484837532, -0.07171273231506348, 0.0850074514746666]], [[0.008939522318542004, -0.02775801531970501, -0.058036793023347855], [0.09675245732069016, -0.016583791002631187, -0.04884111508727074], [0.08637040108442307, -0.09022046625614166, 0.02530263550579548]], [[0.015346894972026348, 0.054573118686676025, -0.04031016305088997], [-0.11637765169143677, 0.09147290140390396, -0.10867045074701309], [0.07947001606225967, -0.052699875086545944, 0.05396856367588043]], [[-0.07015445083379745, 0.03512978553771973, 0.09453298151493073], [0.14286412298679352, -0.11714509129524231, 0.08785321563482285], [-0.05345366150140762, -0.07341234385967255, -0.08483375608921051]], [[0.022909479215741158, 0.05607661232352257, 0.06549821048974991], [-0.052572548389434814, -0.07563072443008423, 0.002838642569258809], [0.04651441052556038, -0.09077420085668564, -0.09131678193807602]], [[-0.15516529977321625, -0.06517017632722855, 0.02150501310825348], [-0.016336534172296524, -0.0283052921295166, 0.003058904316276312], [0.11929994076490402, -0.09534146636724472, -0.048673029989004135]]]], "encoder.2.bias": [0.043128110468387604, 0.07961846143007278, 0.0015897273551672697, -0.03902483358979225, 0.1142921894788742, 0.13135908544063568, 0.01964239403605461, -0.0504784919321537], "encoder.4.weight": [[[[-0.1090090349316597, 0.08240900188684464, -0.03219163045287132], [-0.061680831015110016, -0.006761033087968826, 0.10178793966770172], [0.03833901137113571, 0.11128368228673935, 0.025912655517458916]], [[0.04954548552632332, -0.09394458681344986, 0.007885069586336613], [0.01980813592672348, -0.04590445011854172, 0.02532067894935608], [-0.1131909191608429, 0.0832073837518692, 0.08634359389543533]], [[0.04622491076588631, 0.0004066893015988171, 0.010947922244668007], [-0.04352923855185509, 0.016064893454313278, 0.08955827355384827], [0.02693968079984188, -0.12947769463062286, 0.007445446215569973]], [[-0.08320142328739166, 0.051650017499923706, -0.08414243906736374], [-0.010512668639421463, 0.0006945885834284127, -0.031625330448150635], [-0.07185768336057663, 0.04897615686058998, -0.06837797909975052]], [[0.021831979975104332, 0.0649636909365654, 0.01954774744808674], [0.0764506533741951, -0.1697351336479187, 0.038685351610183716], [-0.012201990000903606, 0.035227470099925995, 0.054166633635759354]], [[-0.02130121737718582, 0.007340633776038885, -0.020210200920701027], [-0.03834054246544838, 0.08813689649105072, -0.022115128114819527], [0.08906055986881256, 0.10770684480667114, 0.032300397753715515]], [[0.015342162922024727, -0.018558785319328308, 0.05484945327043533], [-0.005338115151971579, -0.09753353893756866, -0.027458567172288895], [0.06820528209209442, -0.032366130501031876, 0.059809621423482895]], [[0.054248735308647156, 0.0766780823469162, -0.11315262317657471], [-0.0939411073923111, -0.12382286787033081, -0.08159362524747849], [-0.028720371425151825, 0.04984896630048752, -0.10593245923519135]]], [[[0.10066146403551102, -0.05400921031832695, 0.04448223114013672], [0.10641255229711533, -0.052548471838235855, -0.044193342328071594], [0.011189473792910576, -0.005559367593377829, -0.09655813127756119]], [[-0.08947712928056717, 0.08696635067462921, -0.05978580191731453], [-6.353745902742958e-07, -0.05429904907941818, 0.05692174658179283], [0.0178318303078413, 0.042673442512750626, 0.07166893780231476]], [[0.06395303457975388, 0.09348534792661667, 0.059323400259017944], [-0.022042689844965935, 0.07596354186534882, -0.038759734481573105], [-0.004762318916618824, -0.1021958664059639, -0.09343824535608292]], [[0.09332957863807678, -0.08646371960639954, -0.022033680230379105], [0.031074585393071175, -0.00961843691766262, 0.07855224609375], [-0.0789133682847023, -0.030591808259487152, -0.0938040167093277]], [[0.0739770159125328, -0.07155502587556839, 0.06127548962831497], [-0.07457496225833893, 0.12022348493337631, 0.02939554862678051], [-0.04792396351695061, 0.08894498646259308, 0.0673670768737793]], [[-0.08986592292785645, 0.11478855460882187, -0.0026498520746827126], [0.1328841745853424, -0.003926609642803669, -0.01465537864714861], [0.10405430197715759, -0.04106011241674423, 0.0433083213865757]], [[-0.038310565054416656, -0.09846555441617966, -0.08038174360990524], [0.0520748607814312, 0.09791939705610275, -0.09043754637241364], [0.020730286836624146, -0.0020595621317625046, -0.009094306267797947]], [[0.11090502142906189, 0.02075524628162384, 0.010749333538115025], [-0.06712158024311066, 0.11685872822999954, 0.06755044311285019], [0.0202468428760767, 0.044472772628068924, 0.08573095500469208]]], [[[-0.09084401279687881, 0.017637213692069054, -0.04304829612374306], [-0.0982591062784195, -0.04078079015016556, 0.11260753870010376], [0.06813814491033554, 0.1066526249051094, -0.1010037511587143]], [[0.0016272453358396888, 0.07379260659217834, 0.050584353506565094], [0.09648015350103378, 0.07602435350418091, -0.07650408148765564], [0.07550901919603348, 0.09300082176923752, -0.019107671454548836]], [[-0.06781672686338425, -0.05698152631521225, -0.09395270049571991], [-0.04709329083561897, 0.04040198773145676, 0.01609116420149803], [-0.07102864235639572, -0.0720229223370552, 0.06914741545915604]], [[-0.02666734904050827, -0.02322305552661419, 0.0017486358992755413], [-0.058438509702682495, 0.001467189285904169, -0.031764570623636246], [0.01753692887723446, 0.026509419083595276, 0.11345268785953522]], [[0.08339832723140717, -0.005237627308815718, 0.1140802800655365], [0.04559851065278053, 0.002941970946267247, 0.04552100971341133], [-0.09111692756414413, 0.0727899819612503, -0.011826359666883945]], [[0.03937811404466629, -0.009783752262592316, 0.028507208451628685], [-0.09732759743928909, 0.0673992931842804, 0.058324333280324936], [-0.06765784323215485, -0.06810525059700012, 0.0017081142868846655]], [[-0.016773078590631485, 0.040689095854759216, -0.08035224676132202], [0.09439899772405624, -0.1084032952785492, 0.1179949939250946], [-0.01348133571445942, 0.05025671049952507, 0.02086053043603897]], [[-0.06831812858581543, 0.05332993343472481, 0.08917853236198425], [-0.08194131404161453, 0.022637419402599335, -0.07004236429929733], [-0.014164572581648827, 0.027341431006789207, 0.052927132695913315]]], [[[0.034430984407663345, 0.04382755607366562, 0.07694066315889359], [-0.04289671778678894, 0.05302118510007858, 0.006716859061270952], [0.013064900413155556, 0.09308105707168579, 0.06746485829353333]], [[-0.05374230816960335, -0.10627976804971695, 0.03224821016192436], [-0.0009025005856528878, 0.03934644162654877, -0.07723768055438995], [0.014907965436577797, 0.0893254354596138, -0.046272046864032745]], [[-0.01594800129532814, -0.09258189052343369, -0.12344520539045334], [0.0776498094201088, -0.10704431682825089, -0.11340396106243134], [-0.12451480329036713, -0.03519921749830246, 0.11178789287805557]], [[0.045821063220500946, -0.1191491112112999, 0.0945877656340599], [0.0989447757601738, -0.0803677961230278, -0.07674788683652878], [-0.10303039103746414, -0.0020332972053438425, -0.07480213046073914]], [[-0.06895900517702103, -0.07363053411245346, -0.1145646870136261], [-0.008183088153600693, -0.07192288339138031, -0.02402443252503872], [-0.06866508722305298, 0.020848888903856277, -0.027073286473751068]], [[0.02171688713133335, -0.0035540147218853235, 0.07905497401952744], [0.05926140025258064, -0.12101593613624573, 0.009403910487890244], [0.1012105643749237, -0.06253146380186081, 0.08092304319143295]], [[-0.07126104086637497, 0.03040512464940548, -0.11228400468826294], [-0.09131337702274323, -0.048963140696287155, -0.09865440428256989], [-0.055053163319826126, 0.08116915076971054, 0.0622098483145237]], [[0.08626337349414825, 0.03485480323433876, -0.08029802143573761], [-0.07786983996629715, -0.017846640199422836, 0.05974626541137695], [0.041799210011959076, -0.10096292197704315, 0.06991419941186905]]], [[[-0.0879574865102768, 0.013886276632547379, 0.037374697625637054], [0.06355460733175278, -0.067274309694767, -0.06871015578508377], [0.001357179949991405, 0.11689524352550507, 0.0666455626487732]], [[0.042942535132169724, 0.10642240941524506, -0.07735228538513184], [-0.10433732718229294, -0.0343065969645977, 0.02396406978368759], [0.04849847033619881, 0.10011027753353119, -0.08811774849891663]], [[0.0216172244399786, -0.10811777412891388, -0.11624263972043991], [0.0971776619553566, -0.060010310262441635, -0.020187215879559517], [0.11212361603975296, -0.0958748534321785, 0.006427989341318607]], [[-0.044660456478595734, 0.10556986927986145, -0.07653918862342834], [-0.015049789100885391, 0.05131983757019043, 0.11277545988559723], [-0.07592622190713882, 0.06779956072568893, 0.005397362168878317]], [[0.04856928810477257, -0.04078332334756851, 0.07742519676685333], [-0.04118000343441963, -0.020316829904913902, 0.08074910938739777], [-0.07925274968147278, -0.03750050440430641, -0.0014167686458677053]], [[-0.1197817474603653, -0.059034548699855804, -0.035245444625616074], [0.01955832913517952, 0.011694862507283688, -0.0838436558842659], [-0.009874075651168823, 0.019132182002067566, 0.011589115485548973]], [[-0.022493191063404083, -0.06763747334480286, 0.08435238152742386], [-0.08807554095983505, 0.06227552518248558, 0.0894719585776329], [-0.06070908531546593, 0.07409856468439102, 0.03108062595129013]], [[0.026797788217663765, 0.013958302326500416, 0.03495212644338608], [-0.0002933233918156475, 0.05820910260081291, -0.011677093803882599], [-0.0777238979935646, 0.07947632670402527, -0.06308383494615555]]], [[[0.028357364237308502, -0.024238182231783867, -0.05327152460813522], [0.0007045198581181467, 0.08747541904449463, -0.03253680095076561], [-0.02537388540804386, -0.08530110120773315, 0.10346203297376633]], [[-0.04024535045027733, 0.00962591078132391, -0.03754632920026779], [-0.07581128180027008, 0.019309403374791145, -0.04563039913773537], [0.002795745152980089, 0.061968844383955, 0.013323760591447353]], [[-0.10896316915750504, -0.061082933098077774, -0.06328240036964417], [0.010478212498128414, 0.10450711101293564, -0.09539773315191269], [0.13650722801685333, -0.05900917574763298, -0.02010911889374256]], [[-0.028232168406248093, 0.0009696853230707347, 0.047412287443876266], [-0.11702960729598999, -0.05566413328051567, 0.05767009034752846], [0.09155578911304474, 0.09037504345178604, -0.08935236185789108]], [[-0.059139806777238846, -0.07876965403556824, 0.0005099576665088534], [0.08400822430849075, 0.0488966628909111, 0.044975586235523224], [0.08040744066238403, -0.03607325255870819, -0.11007267236709595]], [[-0.07518494874238968, -0.0479404479265213, -0.11276613920927048], [0.11494550108909607, -0.04978200048208237, 0.07372456789016724], [-0.03329828009009361, -0.05324658378958702, -0.01960396207869053]], [[0.08341953903436661, 0.10817652940750122, 0.07491882890462875], [-0.06046941131353378, 0.08013194054365158, 0.0002885012363549322], [-0.042772769927978516, 0.10452403128147125, -0.07115594297647476]], [[0.08578281104564667, 0.05816200375556946, 0.0065862019546329975], [-0.07007437199354172, -0.08327694982290268, -0.013828370720148087], [-0.04934106022119522, 0.08831346035003662, 0.04475106671452522]]], [[[0.07636808604001999, 0.04182242974638939, -0.11177606880664825], [-0.1243460550904274, 0.028547968715429306, 0.06797879189252853], [-0.04775065928697586, -0.03056696616113186, 0.002559834625571966]], [[-0.10255175828933716, 0.0802435502409935, -0.032745130360126495], [-0.07612002640962601, 0.1095714420080185, 0.0929846465587616], [-0.10705718398094177, 0.056508757174015045, 0.0303132776170969]], [[-0.008518565446138382, 0.027532368898391724, -0.011940195225179195], [-0.090357705950737, 0.13449156284332275, -0.11567214131355286], [-0.09735589474439621, -0.08527344465255737, 0.10477907955646515]], [[-0.07246207445859909, -0.049829382449388504, 0.05616308003664017], [0.009663520380854607, -0.02352144569158554, -0.10989303886890411], [-0.05741576850414276, 0.04263632744550705, -0.07002187520265579]], [[-0.03472040221095085, 0.07906082272529602, -0.13085037469863892], [0.08384131640195847, -0.1316288560628891, 0.10489945858716965], [-0.06841540336608887, 0.011232880875468254, 0.09573893249034882]], [[0.08754339069128036, -0.015948088839650154, 0.009530228562653065], [0.02498352713882923, 0.021464217454195023, 0.0394178070127964], [-0.05267326906323433, -0.10550285875797272, 0.044462651014328]], [[-0.11466509848833084, 0.07064583152532578, 0.04871552437543869], [0.015134287066757679, 0.07342404872179031, -0.0005536915268748999], [0.0939508005976677, -0.012380610220134258, -0.054416362196207047]], [[0.010355648584663868, 0.0267325509339571, 0.05354342982172966], [0.03912188485264778, 0.09836424142122269, -0.09605760872364044], [-0.05219380930066109, 0.009472880512475967, 0.04234416037797928]]], [[[-0.11152219772338867, -0.025068337097764015, 0.09508093446493149], [-0.10986819863319397, -0.06697547435760498, 0.07023800164461136], [-0.10460411012172699, -0.04410324990749359, 0.059228863567113876]], [[0.07553905248641968, -0.04485101252794266, -0.054145678877830505], [0.04380672052502632, 0.09799869358539581, -0.0799904465675354], [-0.01622646115720272, -0.015533367171883583, 0.057755716145038605]], [[0.04717690497636795, 0.0936654806137085, 0.09102173149585724], [0.007828583009541035, 0.05886268988251686, -0.06747914105653763], [0.07290265709161758, -0.06742270290851593, 0.029495887458324432]], [[0.04245621711015701, -0.09497910737991333, -0.05805709585547447], [-0.028040168806910515, 0.08694525063037872, 0.03876430541276932], [0.05754260718822479, 0.039713054895401, 0.012582824565470219]], [[-0.020681053400039673, 0.09145534783601761, 0.06938201189041138], [0.03900289535522461, -0.02072915807366371, 0.03285747766494751], [0.04348296672105789, 0.08439024537801743, 0.1147984117269516]], [[-0.11760780960321426, -0.10112994909286499, -0.09895671159029007], [-0.03707248717546463, -0.07881864905357361, 0.018779316917061806], [-0.046925999224185944, -0.12087605148553848, -0.057247456163167953]], [[0.08026117086410522, 0.08704836666584015, -0.07805953174829483], [-0.09489007294178009, 0.07110197842121124, -0.11422507464885712], [0.025233499705791473, 0.08039331436157227, 0.08562692254781723]], [[-0.061374060809612274, -0.10436204820871353, -0.08083643764257431], [-0.05547463521361351, -0.03731931746006012, 0.06308286637067795], [0.08062241226434708, 0.09582846611738205, 0.04589201882481575]]], [[[-0.04595218598842621, 0.11691143363714218, 0.11781249195337296], [-0.031189214438199997, 0.10304473340511322, -0.04570578411221504], [-0.06117238849401474, -0.0030730373691767454, -0.028172701597213745]], [[0.09850741922855377, 0.08352164179086685, -0.08144347369670868], [0.052401602268218994, 0.04466351121664047, -0.11103484034538269], [-0.006204673089087009, -0.009714012034237385, -0.09733118861913681]], [[-0.05703206732869148, -0.029640572145581245, 0.04000984504818916], [-0.09582884609699249, -0.09559007734060287, 0.04006263241171837], [0.05354451760649681, 0.1040472760796547, -0.027733726426959038]], [[-0.0018223400693386793, -0.04650939628481865, 0.043510496616363525], [-0.03511129319667816, -0.11635994911193848, 0.05481793358922005], [-0.12238916009664536, -0.11805092543363571, 0.04123607650399208]], [[-0.028090402483940125, 0.07931403070688248, 0.0005369274294935167], [-0.05433126538991928, -0.03108404390513897, -0.08366065472364426], [0.09516866505146027, 0.047399602830410004, 0.10445087403059006]], [[0.041846707463264465, -0.018124224618077278, 0.12109045684337616], [-0.10265182703733444, 0.02986893244087696, 0.051979679614305496], [-0.004913871176540852, -0.10996674746274948, 0.01461905799806118]], [[0.06466658413410187, 0.0741187036037445, -0.08447069674730301], [0.009646778926253319, -0.09060316532850266, 0.10591579228639603], [-0.09212346374988556, 0.02694050781428814, -0.07000235468149185]], [[0.03042454645037651, -0.049147579818964005, 0.06035367399454117], [0.06958773732185364, 0.025848060846328735, -0.10427982360124588], [0.038991812616586685, -0.07180272042751312, 0.020833401009440422]]], [[[0.03436789661645889, 0.11513560265302658, -0.060792796313762665], [-0.10473953932523727, 0.03561555966734886, -0.02545388974249363], [-0.026009265333414078, -0.03688938915729523, 0.08665921539068222]], [[0.10037566721439362, 0.05578426271677017, 0.014335459098219872], [0.08870001137256622, -0.05894557014107704, -0.014668069779872894], [0.07494723796844482, 0.048159241676330566, 0.03795918822288513]], [[0.043214209377765656, 0.06884203851222992, 0.07247181236743927], [0.04359406232833862, 0.02215559035539627, 0.014565763995051384], [0.015134138986468315, 0.1042400524020195, 0.08239803463220596]], [[-0.036079492419958115, 0.047381337732076645, 0.023425530642271042], [0.045647893100976944, 0.09970733523368835, 0.10119372606277466], [0.032630033791065216, 0.05820798501372337, 0.027366336435079575]], [[-0.08679995685815811, -0.0139591870829463, 0.13372983038425446], [0.054139282554388046, 0.09917057305574417, -0.02873111143708229], [0.03460833430290222, -0.08733567595481873, 0.08220932632684708]], [[-0.018548114225268364, -0.10258178412914276, 0.07611625641584396], [-0.05515839532017708, -0.03858442232012749, 0.04376759007573128], [0.08792570978403091, 0.08008484542369843, -0.019535884261131287]], [[0.018207671120762825, 0.01258997991681099, 0.06854414194822311], [0.06891704350709915, -0.09430105239152908, -0.016946900635957718], [-0.004972547292709351, -0.003187687136232853, -0.11114975810050964]], [[-0.117498978972435, 0.0949474349617958, -0.002052097348496318], [-0.048760972917079926, -0.07384885102510452, 0.008439322002232075], [0.046490203589200974, -0.0056886933743953705, 0.08537917584180832]]], [[[0.04059629142284393, -0.07167759537696838, 0.02683124877512455], [-0.08589408546686172, 0.09644324332475662, 0.06689231097698212], [-0.08545654267072678, 0.048348646610975266, -0.07394126802682877]], [[-0.08505868911743164, -0.047513943165540695, 0.06268022954463959], [0.0808461531996727, 0.056945834308862686, -0.10089008510112762], [-0.10317537188529968, -0.05160247161984444, 0.08723214268684387]], [[-0.009522930718958378, 0.04022869095206261, 0.11326894164085388], [0.014834749512374401, 0.0509030856192112, -0.045457903295755386], [-0.05953186750411987, 0.035850297659635544, -0.01522775087505579]], [[-0.11028991639614105, 0.040444910526275635, 0.05000850558280945], [0.06147727742791176, 0.03871218487620354, 0.10920464992523193], [0.10247122496366501, -0.05820678174495697, -0.028402715921401978]], [[-0.11007486283779144, 0.06476199626922607, -0.00993738416582346], [-0.03967732936143875, 0.02279401570558548, -0.06851432472467422], [0.10708554834127426, -0.0746815875172615, 0.009866854175925255]], [[0.013474749401211739, -0.0727037638425827, 0.11037085950374603], [0.10590898245573044, 0.012937378138303757, 0.06363485008478165], [0.11331292241811752, -0.01926267333328724, 0.06736128777265549]], [[-0.10895144939422607, -0.059875909239053726, 0.08369199931621552], [-0.09125498682260513, 0.10578113049268723, -0.043782755732536316], [0.03240136057138443, 0.000537369807716459, -0.030306104570627213]], [[-0.04126669466495514, 0.009063898585736752, -0.014857935719192028], [-0.013462133705615997, 0.001992317382246256, -0.012558945454657078], [-0.06480984389781952, -0.084749735891819, -0.11718148738145828]]], [[[-0.08503497391939163, -0.04841244965791702, 0.08073191344738007], [-0.062044620513916016, 0.10642904043197632, 0.03679140657186508], [0.05912444740533829, 0.08824862539768219, 0.05242161452770233]], [[-0.017310291528701782, -0.06016270071268082, 0.047215867787599564], [0.07342138886451721, -0.04094994440674782, 0.11270320415496826], [-0.07158125936985016, 0.027445528656244278, 0.06997250020503998]], [[0.08551506698131561, 0.03235679119825363, 0.03705378249287605], [0.09032334387302399, -0.08761131763458252, 0.07960454374551773], [0.0645589530467987, -0.13052038848400116, -0.08869919925928116]], [[-0.048419851809740067, 0.1093386635184288, 0.02391926571726799], [-0.11464781314134598, -0.03379546105861664, -0.09840761125087738], [-0.07884656637907028, 0.0027865194715559483, -0.02699919231235981]], [[0.08424267172813416, 0.01636923849582672, 0.03536689281463623], [0.0457768477499485, -0.020387660712003708, -0.0799139216542244], [-0.007647097110748291, 0.033118825405836105, 0.06707204133272171]], [[-0.04409913346171379, -0.07152895629405975, 0.04582047462463379], [-0.053423989564180374, 0.09019573777914047, 0.07408273965120316], [0.05303443968296051, -0.06583543121814728, -0.03598906472325325]], [[0.08266923576593399, -0.07391999661922455, 0.03542761877179146], [-0.014289477840065956, 0.024909760802984238, 0.08089612424373627], [0.07800810039043427, 0.07530315220355988, -0.01179333496838808]], [[0.02750162035226822, 0.014802844263613224, 0.05909600481390953], [0.025507375597953796, 0.10898122191429138, 0.08313509076833725], [-0.0383576862514019, 0.05302022770047188, -0.05952459201216698]]], [[[-0.0380585752427578, -0.058021072298288345, -0.12115070223808289], [0.10753151029348373, 0.05840807408094406, 0.09681057184934616], [0.06663181632757187, -0.00822263490408659, 0.05829755589365959]], [[-0.0019480054033920169, 0.06247490644454956, 0.008580639958381653], [-0.11113286763429642, 0.03843182325363159, -0.08739229291677475], [-0.11855295300483704, 0.013799107633531094, -0.018815381452441216]], [[0.1436060220003128, 0.10797735303640366, 0.026369575411081314], [0.021945782005786896, 0.025172501802444458, -0.032862693071365356], [0.07134953886270523, 0.10217898339033127, 0.033060722053050995]], [[-0.0938924252986908, -0.03467515856027603, -0.07307455688714981], [-0.057015761733055115, -0.03450077399611473, 0.05643941089510918], [0.018812261521816254, 0.006056823767721653, -0.024988777935504913]], [[-0.061110928654670715, 0.08451545238494873, -0.1331963986158371], [-0.06991973519325256, -0.012388276867568493, -0.04600995033979416], [-0.07779399305582047, -0.10196913778781891, -0.05242004990577698]], [[-0.007556067313998938, 0.004325261805206537, 0.06844882667064667], [-0.04711597040295601, -0.09607237577438354, -0.11268764734268188], [0.08435188233852386, 0.01498352736234665, 0.0976024940609932]], [[-0.042735613882541656, 0.025967339053750038, -0.030413992702960968], [0.06164923682808876, -0.007770610507577658, -0.11062254756689072], [-0.049587033689022064, -0.02434457279741764, 0.08428732305765152]], [[0.07139255851507187, 0.01857863925397396, -0.00877275038510561], [-0.1107998862862587, 0.10286877304315567, 0.06960899382829666], [-0.12867403030395508, -0.10062932223081589, -0.01743747852742672]]], [[[0.0018854844383895397, -0.03529837727546692, 0.035543352365493774], [-0.03172741085290909, 0.08613254874944687, -0.0881165862083435], [-0.08560263365507126, 0.07863546907901764, -0.11062528938055038]], [[-0.047368742525577545, -0.04953791946172714, 0.07417677342891693], [0.09061349928379059, 0.08005087077617645, -0.007976159453392029], [0.07538220286369324, -0.044163309037685394, -0.002646309556439519]], [[-0.022201379761099815, -0.05436771735548973, 0.017013326287269592], [-0.045123711228370667, -0.0712125226855278, -0.04865497350692749], [-0.11668332666158676, -0.05358419939875603, -0.023526713252067566]], [[-0.05205569043755531, 0.07643107324838638, -0.003837397787719965], [-0.0052242702804505825, -0.021806778386235237, -0.07836475223302841], [0.04766325280070305, 0.008884168229997158, -0.05242076888680458]], [[-0.0357702411711216, 0.04627325013279915, 0.08673234283924103], [-0.017330924049019814, -0.09967923909425735, -0.13459761440753937], [-0.049260400235652924, 0.11204452067613602, -0.05770440772175789]], [[0.02516239508986473, 0.04928930103778839, 0.040822453796863556], [0.05550725758075714, 0.05127706751227379, 0.014387793838977814], [0.08700579404830933, -0.05512254312634468, -0.038250911980867386]], [[0.04079832509160042, -0.025967078283429146, 0.027283120900392532], [-0.03643309697508812, 0.005455531179904938, 0.040249601006507874], [0.053504638373851776, 0.09518507868051529, -0.01543993316590786]], [[-0.07301372289657593, 0.05365033447742462, 0.10271374136209488], [0.07039427012205124, -0.08650562912225723, -0.05938299745321274], [0.0031972224824130535, -0.060280945152044296, -0.1163024976849556]]], [[[0.09178980439901352, -0.029827537015080452, 0.02372845634818077], [-0.01681065931916237, -0.08801146596670151, 0.0798688605427742], [-0.024590373039245605, 0.05688558146357536, 0.05922383442521095]], [[0.011285528540611267, 0.016957111656665802, -0.08670955151319504], [-0.06212169677019119, 0.060780830681324005, 0.037311043590307236], [0.10923972725868225, -0.04577609524130821, 0.03195732459425926]], [[0.00039589806692674756, 0.037832874804735184, -0.014037344604730606], [0.0401793047785759, 0.05483124405145645, 0.04408580809831619], [-0.08837301284074783, 0.01941835880279541, -0.09013298153877258]], [[0.02709711529314518, 0.08510851860046387, 0.10079526901245117], [0.0711948499083519, 0.10296734422445297, -0.005172647535800934], [0.04900483414530754, -0.0451899878680706, -0.09543859213590622]], [[0.08851996064186096, -0.04514410346746445, -0.1354881227016449], [-0.05394437536597252, 0.09792158752679825, -0.04994974285364151], [-0.0039963917806744576, -0.10228231549263, -0.014779309742152691]], [[0.03416898846626282, -0.061241429299116135, -0.09056137502193451], [-0.01181173324584961, -0.10986069589853287, -0.11892135441303253], [-0.08818719536066055, 0.0762920156121254, 0.08205338567495346]], [[-0.005922918673604727, 0.07436805218458176, 0.051506705582141876], [-0.0010424009524285793, 0.10020158439874649, -0.059515900909900665], [-0.10502184182405472, 0.09633966535329819, -0.08121659606695175]], [[0.017941342666745186, 0.07655267417430878, -0.0728287324309349], [0.04145413637161255, 0.019337091594934464, -0.09857456386089325], [0.08523781597614288, 0.08477039635181427, 0.06106186285614967]]], [[[0.06833263486623764, 0.0812731608748436, 0.013606362976133823], [0.007771971169859171, -0.09070935845375061, 0.07555656135082245], [-0.012553010135889053, 0.03727197274565697, 0.07782848924398422]], [[-0.10005983710289001, -0.04292955622076988, -0.06784509122371674], [0.11752139031887054, 0.0680241584777832, 0.05465361848473549], [0.04108704626560211, 0.05129839852452278, -0.01172254141420126]], [[-0.09303473681211472, -0.041661638766527176, 0.09819312393665314], [0.08236672729253769, 0.12820270657539368, -0.02276364527642727], [-0.04701507091522217, 0.02422207221388817, -0.06952638924121857]], [[-0.009659189730882645, 0.12519516050815582, -0.05659661442041397], [-0.05637957900762558, -0.08629918843507767, -0.0401424765586853], [0.004256750922650099, 0.11835400760173798, -0.024094725027680397]], [[0.06974682956933975, 0.011181026697158813, -0.03672336786985397], [0.046900928020477295, -0.0923386737704277, -0.12112828344106674], [-0.030004650354385376, -0.034947145730257034, -0.024130094796419144]], [[-0.06355573982000351, -0.003998139873147011, 0.06340239942073822], [0.11592105776071548, -0.023993156850337982, -0.03993527963757515], [-0.08652862161397934, -0.10467132925987244, 0.06720808148384094]], [[0.00789568666368723, 0.0990549847483635, 0.08199143409729004], [-0.0828876867890358, 0.036012981086969376, 0.04086221382021904], [0.025673028081655502, -0.06681135296821594, -0.09931619465351105]], [[-0.10598081350326538, 0.0824885293841362, -0.09509499371051788], [0.022671908140182495, 0.1253090500831604, 0.07008065283298492], [0.10132808238267899, 0.05222751945257187, -0.01368116494268179]]]], "encoder.4.bias": [-0.05787482112646103, 0.08048848807811737, 0.04739353060722351, 0.10969880223274231, -0.04259026423096657, 0.027587292715907097, 0.05917758867144585, 0.08691558986902237, 0.08091176301240921, -0.07262913882732391, 0.05245322734117508, -0.10469243675470352, -0.06281521916389465, -0.03646845370531082, 0.06589429825544357, 0.038719773292541504], "encoder.6.weight": [[[[0.04911257326602936, 0.05144309997558594, 0.015499451197683811], [-0.015481000766158104, -0.07565610110759735, 0.03919506072998047], [0.005624902900308371, -0.006284754723310471, -0.017834674566984177]], [[-0.022860480472445488, -0.08862663805484772, -0.03575987368822098], [0.05996235832571983, -0.03621289134025574, -0.06559580564498901], [-0.007267093285918236, -0.049205128103494644, -0.037919241935014725]], [[-0.018435044214129448, -0.020094994455575943, 0.09157877415418625], [0.0101703479886055, -0.014819792471826077, 0.0205144714564085], [-0.055748701095581055, 0.0596945583820343, -0.04431265965104103]], [[0.05234747752547264, 0.08437839150428772, -0.061354391276836395], [0.0006281572277657688, 0.09037845581769943, 0.08163931965827942], [0.023692581802606583, -0.004431895446032286, -0.01828131265938282]], [[-0.08895144611597061, 0.04250873997807503, 0.07707685977220535], [-0.04159156605601311, 0.08626929670572281, -0.03088054060935974], [-0.049339864403009415, 0.04651318117976189, -0.03691447153687477]], [[-0.03940588980913162, 0.0020440726075321436, 0.0059685674495995045], [0.006321359891444445, 0.0017842401284724474, 0.05132485553622246], [-0.07643596827983856, 0.018955659121274948, 0.0749131441116333]], [[0.030647942796349525, 0.04313633590936661, -0.05850478634238243], [0.02590019628405571, 0.04442516714334488, -0.034340452402830124], [-0.005721359979361296, 0.052810464054346085, 0.026156270876526833]], [[-0.07422099262475967, -0.08964747190475464, 0.0014214945258572698], [-0.07732633501291275, -0.0015368040185421705, 0.030137456953525543], [0.036460697650909424, -0.0631241723895073, -0.07199699431657791]], [[0.07678699493408203, 0.06059638038277626, 0.08248653262853622], [0.0435209758579731, -0.007350202649831772, 0.16324180364608765], [0.03008003905415535, 0.15850846469402313, 0.03921546787023544]], [[0.06744790077209473, 0.007255970500409603, 0.024890931323170662], [0.016875427216291428, -0.05599980056285858, -0.0008683016058057547], [9.876668627839535e-05, -0.049567826092243195, -0.07448884099721909]], [[0.05408889055252075, -0.032870568335056305, 0.10986485332250595], [0.09417373687028885, 0.0937436893582344, -0.05300531163811684], [-0.046010613441467285, -0.04208006709814072, 0.06248246133327484]], [[-0.010092721320688725, -0.027989869937300682, 0.04243319481611252], [-0.03408292680978775, -0.004375549964606762, 0.08108895272016525], [0.028676850721240044, 0.00623711571097374, -0.047691866755485535]], [[0.058572664856910706, -0.009315917268395424, -0.07044731080532074], [-0.018266793340444565, -0.0714121088385582, -0.11981543898582458], [0.13763733208179474, 0.021842679008841515, 0.05989028513431549]], [[-0.0365445613861084, -0.06603475660085678, -0.06019817292690277], [0.0684298425912857, -0.016944754868745804, 0.05625985190272331], [-0.030464351177215576, 0.028757354244589806, -0.08117571473121643]], [[0.06620851904153824, -0.005639608018100262, 0.04347234591841698], [-0.011020993813872337, -0.06861468404531479, -0.06912501156330109], [-0.03269246965646744, -0.06843412667512894, -0.07372315227985382]], [[-0.022737905383110046, 0.032568760216236115, 0.05001728609204292], [0.04139052703976631, -0.012452282011508942, -0.058754950761795044], [0.06474372744560242, -0.05942299962043762, -0.019165899604558945]]], [[[-0.013484242372214794, -0.03311096876859665, -0.0778956413269043], [0.04759163409471512, -0.07822226732969284, -0.06794438511133194], [-0.04942642152309418, -0.07564752548933029, 0.03887743502855301]], [[-0.017219603061676025, -0.07221758365631104, -0.060109566897153854], [-0.024497369304299355, -0.013106942176818848, 0.010984223335981369], [-0.04249470680952072, 0.004262542352080345, -0.05272378399968147]], [[-0.02332000806927681, 0.01677248440682888, -0.02129739336669445], [-0.06740577518939972, -0.06197955459356308, -0.09311579912900925], [-0.08199989050626755, -0.0548679456114769, 0.010790483094751835]], [[0.010088546201586723, 0.029936518520116806, 0.029666727408766747], [0.06627596169710159, -0.06501683592796326, -0.0385146327316761], [0.016265572980046272, -0.0861249566078186, 0.05420730635523796]], [[-0.03589143604040146, -0.02218351513147354, 0.06296847760677338], [0.025313252583146095, -0.045016344636678696, -0.08471842110157013], [0.040972914546728134, -0.012988382019102573, -0.03148221969604492]], [[-0.08439747244119644, 0.02139444835484028, 0.04574735462665558], [0.016968395560979843, -0.09250853955745697, 0.026292771100997925], [-0.0801125168800354, -0.018464919179677963, 0.015366224572062492]], [[-0.07403580844402313, 0.001192152383737266, -0.07417333126068115], [-0.033465366810560226, 0.019121406599879265, 0.06584437191486359], [0.03303505480289459, 0.04414072632789612, 0.010782189667224884]], [[0.010292217135429382, 0.050059571862220764, -0.03358960896730423], [0.01781587302684784, 0.02663431130349636, -0.0656030997633934], [-0.056274186819791794, -0.02302580140531063, 0.029882898554205894]], [[-0.05717041343450546, 0.04080963134765625, 0.024231702089309692], [0.005434174090623856, -0.009478732012212276, -0.017817344516515732], [0.050843819975852966, -0.04161497578024864, 0.019581852480769157]], [[-0.015010170638561249, -0.04163886234164238, -0.025861185044050217], [0.031272802501916885, 0.054374195635318756, -0.06291934847831726], [-0.07230642437934875, -0.052728574723005295, -0.04460868611931801]], [[-0.04046623408794403, -0.0434315986931324, 0.0361986979842186], [0.04814706742763519, 0.003921347204595804, 0.06736882030963898], [-0.03824315220117569, -0.04905001074075699, -0.06899406015872955]], [[-0.07720443606376648, 0.02005050703883171, -0.0572035126388073], [-0.0015128300292417407, 0.016448279842734337, -0.02300703153014183], [-0.045255616307258606, 0.067988820374012, 0.001789830974303186]], [[-0.08945995569229126, 0.06429267674684525, 0.020183488726615906], [0.008877021260559559, -0.016916844993829727, 0.02457706443965435], [-0.05828766152262688, 0.02256195619702339, -0.034826647490262985]], [[-0.0029788941610604525, -0.0007907261606305838, -0.053551990538835526], [0.06238541007041931, -0.004841153975576162, 0.016811514273285866], [0.012796884402632713, -0.06152995675802231, -0.024829193949699402]], [[0.06457804143428802, -0.020899318158626556, 0.011179381050169468], [-0.07196363061666489, -0.08414741605520248, -0.0712762251496315], [-0.05172818526625633, -0.017609549686312675, -0.05726029351353645]], [[-0.05101660639047623, -0.059146665036678314, 0.03147018700838089], [0.003474058350548148, -0.08639126271009445, -0.01745368167757988], [-0.056852612644433975, -0.04446902871131897, -0.07175714522600174]]], [[[0.07164453715085983, -0.07668493688106537, 0.023267678916454315], [0.06795059144496918, -0.006098453421145678, 0.04511863365769386], [0.016949905082583427, -0.05809028074145317, -0.06610827147960663]], [[0.02732454612851143, -0.01371282059699297, 0.11004925519227982], [-0.0406263992190361, -0.10039599239826202, 0.09820610284805298], [-0.019960394129157066, -0.10808423906564713, -0.019877003505825996]], [[-0.043131597340106964, 0.04102649539709091, -0.048486385494470596], [-0.02642398327589035, 0.04439160227775574, 0.06259314715862274], [0.07416275143623352, 0.03494670242071152, -0.07224482297897339]], [[0.016399109736084938, -0.015776747837662697, 0.03732793778181076], [-0.031485773622989655, 0.00304597825743258, 0.0019016582518815994], [-0.00757624302059412, 0.015192142687737942, 0.045278195291757584]], [[0.025624914094805717, -0.06252996623516083, -0.004408149514347315], [-0.08563432842493057, 0.01720096543431282, -0.033758435398340225], [-0.08081347495317459, -0.044045135378837585, 0.03121502511203289]], [[-0.03359358385205269, 0.04643009603023529, -0.021813947707414627], [0.009475182741880417, -0.05043764039874077, -0.06017294153571129], [-0.07596276700496674, -0.014875922352075577, -0.043045394122600555]], [[0.02281445637345314, -0.010681383311748505, 0.056206975132226944], [-0.023276394233107567, 0.07453236728906631, 0.028961535543203354], [-0.05769382417201996, 0.05128442123532295, -0.0648471862077713]], [[-0.0002918728278018534, -0.066850446164608, 0.07365182042121887], [-0.0773230791091919, -0.08397071063518524, 0.021298987790942192], [-0.03401896357536316, -0.008810457773506641, -0.08304580301046371]], [[0.06864167749881744, -0.008333723060786724, -0.056065622717142105], [0.07023721188306808, 0.023767001926898956, 0.04864242672920227], [-0.041871845722198486, -0.07767125964164734, -0.018320215865969658]], [[0.009908536449074745, -0.03747562691569328, 0.021428942680358887], [0.07519301772117615, 0.028914542868733406, 0.06927067041397095], [0.07395296543836594, -0.0031426006462424994, -0.05159749090671539]], [[0.07750163227319717, 0.017114240676164627, -0.048659805208444595], [0.007927234284579754, -0.04721924290060997, -0.08173538744449615], [-0.014630010351538658, -0.057976264506578445, 0.012588121928274632]], [[-0.08304102718830109, 0.06429839134216309, 0.008160509169101715], [-0.00995598454028368, 0.05135311931371689, -0.03500529006123543], [-0.04780087620019913, 0.019293546676635742, -0.04352499172091484]], [[-0.04731251299381256, -0.06646577268838882, 0.00314652849920094], [0.03999566286802292, -0.08545143902301788, -0.0663110539317131], [0.03520388528704643, -0.07428696006536484, -0.07129038870334625]], [[0.003904900047928095, -0.015384112484753132, -0.08405172824859619], [0.053240805864334106, 0.025772465392947197, 0.07415786385536194], [0.06707213819026947, -0.030802858993411064, 0.04162895306944847]], [[0.015200570225715637, -0.03325328603386879, -0.001427182462066412], [0.06871216744184494, 0.0004127067804802209, 0.023473631590604782], [0.07056592404842377, 0.006724115926772356, -0.04531283676624298]], [[0.020810864865779877, -0.053002938628196716, 0.05864986404776573], [-0.059496354311704636, -0.06780420243740082, 0.02014646679162979], [-0.01745552010834217, -0.030545629560947418, 0.012607643380761147]]], [[[0.07192633301019669, 0.06343908607959747, 0.04298488423228264], [0.043985962867736816, -0.024569278582930565, -0.06868159025907516], [0.02856678143143654, -0.048914287239313126, 0.06389787048101425]], [[0.03852288797497749, -0.07516460865736008, -0.11172859370708466], [-0.028700701892375946, -0.10225575417280197, -0.0832296684384346], [-0.04574507102370262, -0.05091479420661926, -0.032882317900657654]], [[-0.025602949783205986, -0.04851610213518143, 0.09295342117547989], [-0.04724371060729027, -0.05295242369174957, -0.0014327651588246226], [0.09051775932312012, 0.04106389731168747, -0.03675265237689018]], [[-0.08626238256692886, -0.016302330419421196, -0.053866591304540634], [-0.02491288259625435, -0.04634469375014305, 0.04469944164156914], [-0.07134027034044266, 0.02286158874630928, 0.015000451356172562]], [[0.04025186598300934, -0.061174288392066956, 0.09188201278448105], [0.06829451024532318, -0.05135725438594818, -0.03726596012711525], [0.029202472418546677, -0.032706838101148605, 0.08597484976053238]], [[-0.05228892341256142, 0.08632739633321762, 0.08595654368400574], [0.06799861043691635, -0.029194626957178116, 0.03731055185198784], [-0.013888086192309856, 0.07417983561754227, 0.025399548932909966]], [[-0.018536916002631187, -0.03821178898215294, 0.035351745784282684], [-0.006205051671713591, -0.043289028108119965, -0.04893580824136734], [-0.007398990448564291, 0.08447450399398804, -0.004267228301614523]], [[0.07299089431762695, -0.02027198113501072, -0.06808437407016754], [0.050799641758203506, 0.06303273141384125, 0.023143351078033447], [-0.010534301400184631, 0.06534707546234131, -0.0102704968303442]], [[0.03556598722934723, 0.030172619968652725, 0.04161955416202545], [-0.03423159196972847, -0.08476818352937698, 0.007633473724126816], [0.04195258393883705, -0.06265508383512497, -0.02871593087911606]], [[-0.0370962880551815, 0.0761450007557869, 0.043419383466243744], [0.04726293310523033, -0.03302379325032234, -0.040989432483911514], [-0.0017429719446226954, 0.04471462219953537, -0.012506465427577496]], [[-0.006118715740740299, 0.02579486183822155, -0.014032561331987381], [-0.0725124329328537, -0.056146152317523956, -0.03977440670132637], [0.019270049408078194, 0.030922377482056618, 0.041720692068338394]], [[0.07521697878837585, 0.0414663664996624, 0.013127671554684639], [0.08603566139936447, 0.07270547747612, 0.0033826830331236124], [-0.05135197192430496, 0.06667663902044296, -0.0677223727107048]], [[-0.04076364263892174, -0.01986871473491192, -0.06844493746757507], [0.06398481875658035, 0.06626244634389877, -0.03731182962656021], [-0.06482266634702682, 0.026697497814893723, -0.020353609696030617]], [[0.01645069755613804, 0.017868053168058395, -0.017387384548783302], [0.05684136599302292, -0.020335441455245018, 0.08302846550941467], [0.031731847673654556, -0.06460461020469666, 0.053348179906606674]], [[0.08735597133636475, 0.07722000777721405, 0.01272948831319809], [-0.027177611365914345, 0.007363710552453995, -0.055115845054388046], [-0.02380235865712166, -0.050597190856933594, -0.004085308872163296]], [[-0.07677927613258362, 0.08838362246751785, -0.04647395759820938], [0.006557992193847895, 0.08626401424407959, 0.06540386378765106], [0.04005345702171326, -0.021522505208849907, 0.04242074862122536]]], [[[0.06607599556446075, 0.09618337452411652, -0.03790987655520439], [-0.027681464329361916, -0.04186801239848137, -0.061193060129880905], [-0.0770474225282669, -0.05570876598358154, -0.016834819689393044]], [[0.0771075189113617, 0.022510478273034096, 0.0018187289824709296], [-0.0052700163796544075, 0.08901477605104446, 0.0656045451760292], [0.09167767316102982, 0.010849141515791416, 0.03967728465795517]], [[-0.06285802274942398, 0.07475101947784424, -0.010581644251942635], [0.0018631404964253306, -0.01275352668017149, -0.066498763859272], [-0.030170559883117676, 0.05095633864402771, -0.029638078063726425]], [[0.05290883406996727, 0.06945870816707611, 0.011126914992928505], [-0.043896544724702835, -0.031019464135169983, 0.07423261553049088], [-0.03412054479122162, -0.00952627882361412, 0.028351878747344017]], [[0.029688134789466858, 0.016358908265829086, 0.021157538518309593], [-0.005493496544659138, -0.05549836903810501, -0.082849882543087], [0.05953366681933403, -0.06506373733282089, -0.04574655741453171]], [[-0.04753865674138069, 0.0674055889248848, -0.08414260298013687], [0.012214905582368374, -0.07739774137735367, -0.021098967641592026], [0.011376823298633099, -0.02567087858915329, 0.029513223096728325]], [[-0.007635911460965872, -0.0032703657634556293, 0.0314117893576622], [0.042101193219423294, -0.05573771521449089, 0.04605822265148163], [0.07744454592466354, -0.06469947099685669, -0.010919093154370785]], [[-0.06362634897232056, 0.007777906022965908, -0.0009622069774195552], [-0.06555420905351639, -0.07564875483512878, 0.04945759475231171], [0.04063333570957184, 0.07334688305854797, -0.04747721180319786]], [[0.018201075494289398, 0.05590515211224556, 0.07456335425376892], [0.017727408558130264, -0.054437361657619476, -0.052180882543325424], [0.004132171627134085, -0.015264211222529411, -0.028000233694911003]], [[-0.003557359566912055, 0.060255348682403564, 0.04176228120923042], [-0.03140397369861603, 0.055094052106142044, -0.017659081146121025], [0.03129670023918152, 0.02919684536755085, -0.04140448197722435]], [[-0.05428092181682587, -0.04040971025824547, 0.019081076607108116], [-0.040166664868593216, 0.04652480408549309, 0.002758099464699626], [-0.07367066293954849, -0.0014666233910247684, 0.057110611349344254]], [[-0.050248969346284866, 0.05880409851670265, -0.013844155706465244], [0.03311508148908615, -0.05685867369174957, -0.009743129834532738], [0.0527152381837368, 0.04518859088420868, -0.031826671212911606]], [[-0.06422826647758484, 0.0660705640912056, -0.011250696144998074], [0.007352699991315603, 0.023439910262823105, -0.02574487403035164], [0.003883007913827896, -0.06861848384141922, -0.063139908015728]], [[-0.053407467901706696, 0.020210761576890945, 0.0744231641292572], [0.06437293440103531, 0.05817939341068268, 0.011220524087548256], [-0.004318655002862215, 0.02528376877307892, 0.07507392019033432]], [[-0.02614046446979046, -0.06324571371078491, 0.0663699060678482], [0.003982520662248135, 0.033437617123126984, -0.050441890954971313], [-0.015127276070415974, 0.041510507464408875, -0.06850571930408478]], [[0.011658594943583012, -0.06057127192616463, -0.06093902140855789], [-0.019180743023753166, -0.021776637062430382, 0.011614641174674034], [-0.03342122584581375, -0.0031781101133674383, 0.038300417363643646]]], [[[-0.015677597373723984, -0.07935938984155655, -0.06141618266701698], [0.048464301973581314, 0.06070989370346069, -0.028139295056462288], [0.07120199501514435, 0.0047142780385911465, -0.041232962161302567]], [[0.0002980288991238922, -0.06508637219667435, 0.03518929332494736], [-0.0013126572594046593, -0.06322785466909409, 0.07243628799915314], [-0.08192694932222366, -0.023446286097168922, -0.00017426599515601993]], [[0.051135603338479996, 0.004424681421369314, -0.02310388907790184], [0.06519515067338943, -0.014352765865623951, 0.06606324762105942], [0.018999680876731873, -0.04193924739956856, 0.03492927551269531]], [[0.03892769664525986, 0.008867613971233368, -0.07841534167528152], [-0.007859732024371624, -0.023865574970841408, 0.01176672987639904], [0.05043940618634224, 0.02009287290275097, -0.005838203709572554]], [[0.05064346641302109, -0.0006658006459474564, 0.07961854338645935], [-0.05297655239701271, 0.018879802897572517, -0.05417386069893837], [-0.032812610268592834, 0.07474978268146515, 0.0002896177757065743]], [[0.03314877673983574, -0.08668346703052521, -0.019677037373185158], [-0.08338773250579834, -0.08392435312271118, 0.058392878621816635], [-0.0182516910135746, 0.06188249588012695, 0.03128785640001297]], [[0.07286305725574493, -0.06304412335157394, 0.04525308310985565], [-0.0049423230811953545, -0.07314321398735046, -0.031936001032590866], [0.01680881343781948, 0.02227429673075676, -0.08755187690258026]], [[0.028718935325741768, -0.04720894247293472, 0.048965997993946075], [-0.050623904913663864, 0.06135090813040733, 0.06502369791269302], [-0.08405351638793945, 0.07867375016212463, 0.07826269418001175]], [[-0.049254726618528366, 0.0431932732462883, -0.04152834042906761], [-0.05422438681125641, -0.025481417775154114, 0.05876361206173897], [0.032986756414175034, -0.039939239621162415, 0.0012089665979146957]], [[-0.03958315774798393, -0.031658273190259933, 0.04246027395129204], [-0.07408235222101212, -0.013903399929404259, 0.06989213824272156], [0.018464630469679832, -0.01940101943910122, -0.015921205282211304]], [[0.03807909041643143, -0.029124870896339417, -0.0014948908938094974], [0.07374826073646545, -0.05797991901636124, 0.015766147524118423], [-0.08412466943264008, -0.0021243656519800425, -0.01746932789683342]], [[0.07267450541257858, -0.07094449549913406, -0.07822822779417038], [0.046588703989982605, -0.011449062265455723, 0.009377356618642807], [0.03656976297497749, -0.039115287363529205, 0.03626544401049614]], [[0.021276002749800682, 0.012808792293071747, -0.07355840504169464], [-0.05052121728658676, -0.0175479669123888, 0.023811662569642067], [-0.06442366540431976, 0.04258216544985771, 0.026871690526604652]], [[-0.003010123036801815, -0.07037726789712906, 0.017102837562561035], [-0.05972243472933769, 0.0018477441044524312, 0.07358141243457794], [-0.034455396234989166, -0.04655257612466812, -0.011857163161039352]], [[0.024289671331644058, 0.056452713906764984, 0.05500799044966698], [-0.030394958332180977, -0.07481443881988525, -0.009490646421909332], [-0.019223462790250778, 0.025053268298506737, -0.05171975493431091]], [[0.03759239986538887, -0.0374816469848156, -0.05090148001909256], [0.024803629145026207, -0.06140558421611786, -0.01084375474601984], [0.034636370837688446, -0.07248760759830475, -0.04758909344673157]]], [[[-0.043326668441295624, 0.05515144765377045, 0.07255243510007858], [0.02133765257894993, 0.023130785673856735, 0.07043784856796265], [-0.042627256363630295, 0.08725110441446304, 0.0822603851556778]], [[0.05882580950856209, -0.0368037186563015, 0.08867014944553375], [-0.06357788294553757, 0.07155293226242065, 0.047525130212306976], [0.044774215668439865, 0.04619992896914482, 0.016094869002699852]], [[0.031625814735889435, 0.060842808336019516, -0.08015400916337967], [0.04274041950702667, -0.020252911373972893, -0.009960987605154514], [-0.02855745516717434, 0.009713913314044476, -0.016128070652484894]], [[-0.04521743208169937, -0.10950709879398346, 0.06409826874732971], [0.08172255009412766, -0.040114596486091614, -0.03557930886745453], [0.0037259673699736595, 0.035194795578718185, 0.026839083060622215]], [[0.035193052142858505, 0.008080916479229927, 0.029217325150966644], [-0.02406810037791729, 0.01800769567489624, 0.0629427507519722], [0.00024575923453085124, 0.004385617561638355, -0.09928204864263535]], [[0.015801774337887764, 0.062388595193624496, -0.005507351364940405], [-0.07492753118276596, -0.06027388945221901, 0.0259449053555727], [-0.010621484369039536, 0.0513232946395874, -0.00026566596352495253]], [[-0.014081861823797226, 0.046514056622982025, 0.04392380639910698], [0.0017274405108764768, 0.08863285928964615, -0.018892493098974228], [-0.06640727072954178, -0.017696497961878777, 0.024162111803889275]], [[0.030025238171219826, -0.06015332415699959, -0.05698009952902794], [-0.02902047336101532, 0.014353076927363873, -0.07889954745769501], [-0.08908480405807495, 0.06833253055810928, -0.06252939999103546]], [[0.09884572774171829, -0.0962609127163887, 0.058057211339473724], [0.05450284108519554, -0.08411335945129395, -0.03730262815952301], [-0.03359415382146835, -0.01311928778886795, -0.06584861129522324]], [[-0.061104144901037216, 0.0757654532790184, -0.04715517535805702], [-0.025027701631188393, 0.07193293422460556, -0.07351143658161163], [0.03593799099326134, -0.010374938137829304, 0.04921633377671242]], [[0.05579248070716858, -0.018205761909484863, 0.002696423092857003], [0.03718956187367439, 0.033542096614837646, 0.08452866226434708], [-0.0659618154168129, 0.0338306799530983, 0.014936184510588646]], [[0.04277995228767395, -0.020818104967474937, -0.04291705787181854], [-0.018630340695381165, -0.01809917576611042, -0.016929185017943382], [0.06900163739919662, 0.08213640004396439, -0.07576879113912582]], [[0.024780794978141785, 0.08957812190055847, 0.004639850463718176], [-0.061848435550928116, -0.1102786436676979, 0.004578493535518646], [-0.0012785550206899643, 0.01334637776017189, -0.002609672024846077]], [[0.005894442554563284, -0.06978633999824524, -0.0449715293943882], [-0.06313575059175491, 0.0012241010554134846, -0.06782670319080353], [-0.06941061466932297, -0.0031184228137135506, 0.07205646485090256]], [[0.08113712072372437, -0.06434930860996246, 0.06343988329172134], [0.07449863851070404, 0.009272707626223564, -0.015029875561594963], [-0.0679294690489769, 0.0024259109050035477, -0.037689656019210815]], [[-0.044214919209480286, 0.045155227184295654, 0.022150913253426552], [-0.07605966180562973, -0.04871886968612671, -0.07291556894779205], [0.08479402959346771, -0.0028635580092668533, 0.04891239479184151]]], [[[0.015130450949072838, 0.01849169097840786, -0.06968262791633606], [0.02948218584060669, 0.011217396706342697, 0.0028023982886224985], [0.046592507511377335, -0.04664649814367294, 0.07432624697685242]], [[-3.410410727155977e-06, -0.07261412590742111, -0.032711539417505264], [0.07013925909996033, -0.034648265689611435, 0.06760599464178085], [0.011358637362718582, 0.056309185922145844, 0.11783567070960999]], [[-0.009981514886021614, 0.015969445928931236, -0.06880000978708267], [-0.05900628864765167, -0.07606735825538635, -0.04785824567079544], [-0.08619015663862228, -0.073996901512146, -0.0774080827832222]], [[0.06910886615514755, -0.055830053985118866, 0.00821539293974638], [-0.021525610238313675, 0.09057943522930145, 0.003445866284891963], [0.06994342058897018, 0.08022142946720123, 0.0822017565369606]], [[-0.034731537103652954, -0.0016704554436728358, -0.006056348793208599], [-0.05675370246171951, 0.046163078397512436, -0.005108343902975321], [0.008274814113974571, -0.02184959687292576, -0.054154373705387115]], [[0.07834316045045853, 0.0648609921336174, 0.05681547150015831], [-0.04282689467072487, 0.040336210280656815, -0.08885771036148071], [-0.022512275725603104, 0.02272133342921734, -0.07953735440969467]], [[-0.052641596645116806, -0.07303772866725922, -0.07906951010227203], [-0.0179047379642725, 0.006547938100993633, -0.03839092701673508], [-0.05795779451727867, 0.053480032831430435, -0.020488189533352852]], [[0.042897552251815796, -0.08582033962011337, -0.004778132773935795], [0.05974101275205612, 0.049664974212646484, 0.033581819385290146], [0.04299745708703995, 0.0758884847164154, -0.02184757962822914]], [[0.0008917948580347002, 0.05482304096221924, -0.008867379277944565], [-0.02913622185587883, -0.0754760354757309, 0.03627657890319824], [0.06162458658218384, 0.04257119819521904, -0.03714276850223541]], [[0.03680340573191643, 0.05254155397415161, -0.03777366876602173], [-0.001190443872474134, 0.05195347219705582, 0.03362974151968956], [0.04773363098502159, 0.06927277892827988, -0.08146954327821732]], [[0.045955851674079895, 0.06962190568447113, -0.04080139100551605], [-0.051616936922073364, -0.05231277272105217, -0.04869117587804794], [0.007387308403849602, -0.06069687753915787, 0.0710802674293518]], [[0.029272714629769325, 0.05189623311161995, -0.035546865314245224], [0.06278713792562485, -0.07380163669586182, 0.05455831065773964], [-0.0785575583577156, 0.044029902666807175, 0.07612358778715134]], [[0.011897388845682144, 0.04971594735980034, -0.03389069810509682], [-0.013858596794307232, 0.03779670596122742, -0.029942957684397697], [-0.037836335599422455, -0.04539129510521889, -0.00773964636027813]], [[-0.08569128811359406, -0.08136530220508575, -0.02289251796901226], [0.01750505156815052, -0.047677405178546906, -0.08370906114578247], [-0.03589137643575668, -0.07558456063270569, 0.06767082959413528]], [[-0.005921900272369385, 0.03247928246855736, -0.025009894743561745], [0.07221290469169617, 0.04011228308081627, -0.005105289164930582], [-0.0033916225656867027, -0.05848716199398041, 0.0007132066530175507]], [[0.035743970423936844, -0.04864009842276573, -0.02152239717543125], [-0.047630179673433304, 0.05312127247452736, 0.03297502547502518], [-0.07559175789356232, -0.05629175156354904, -0.027141232043504715]]], [[[0.03624534606933594, -0.039042871445417404, -0.028187980875372887], [-0.016594568267464638, -0.026035891845822334, 0.08068037778139114], [0.013029960915446281, -0.07543861120939255, 0.061053551733493805]], [[0.03951667249202728, 0.08512135595083237, -0.0010585038689896464], [0.01837337203323841, 0.04774031788110733, 0.10255415737628937], [0.06744257360696793, 0.0559191070497036, -0.014319452457129955]], [[0.014274567365646362, 0.002390886191278696, -0.04477876052260399], [0.0378507524728775, -0.03313494846224785, 0.021579928696155548], [0.03424200788140297, -0.0683060958981514, 0.05223975330591202]], [[-0.03643496707081795, -0.04841715842485428, 0.020558558404445648], [0.08644728362560272, 0.06634436547756195, 0.06153557077050209], [0.05799403041601181, 0.10151388496160507, -0.056837666779756546]], [[0.007592445705085993, 0.022764481604099274, 0.06334387511014938], [0.019210413098335266, 0.044873736798763275, 0.07888492196798325], [-0.0018221883801743388, -0.024464335292577744, 0.05119840428233147]], [[0.0023357165046036243, -0.027667133137583733, -0.02380751445889473], [-0.06582239270210266, 0.06141306832432747, 0.008581161499023438], [-0.004187332931905985, 0.04058236628770828, 0.08453956246376038]], [[-0.06270667910575867, 0.037169985473155975, 0.019381744787096977], [-0.022711411118507385, 0.010467360727488995, 0.05487190932035446], [-0.07272729277610779, 0.04461303725838661, 0.03815338388085365]], [[-0.02072990871965885, -0.029618972912430763, 0.05663757398724556], [0.010864116251468658, 0.03963450714945793, 0.024178901687264442], [-0.07231499254703522, -0.020251400768756866, 0.08253002911806107]], [[0.03321228548884392, 0.06272683292627335, 0.052472859621047974], [0.08053109049797058, -0.022718453779816628, 0.09585065394639969], [0.055169202387332916, 0.059740353375673294, 0.11612319201231003]], [[-0.05892643332481384, 0.0930619165301323, 0.008187099359929562], [-0.09726288914680481, 0.04816432297229767, 0.06914012879133224], [-0.09690538048744202, 0.0449063777923584, 0.028518088161945343]], [[-0.01982976868748665, 0.013582859188318253, -0.004229950252920389], [0.08336959779262543, -0.008152618072926998, 0.05429067835211754], [0.01347771380096674, -0.014720647595822811, -0.030189070850610733]], [[-0.008035177364945412, -0.02597823180258274, -0.07638675719499588], [-0.06941954046487808, -0.0322306826710701, 0.07455809414386749], [0.028647437691688538, -0.06871102750301361, -0.005503084044903517]], [[-0.08182591199874878, -0.07256745547056198, -0.03446204215288162], [-0.04809519276022911, -0.024406302720308304, -0.03327859193086624], [-0.047096118330955505, 0.0896599069237709, -0.028285378590226173]], [[0.006651482544839382, -0.026598170399665833, -0.039610687643289566], [-0.08119462430477142, 0.06299490481615067, 0.0056412420235574245], [-0.03354832902550697, -0.068869449198246, -0.04181915149092674]], [[-0.06665073335170746, -0.02998967096209526, 0.023466436192393303], [0.011354821734130383, -0.0323825404047966, -0.04890460520982742], [-0.09371974319219589, 0.015598401427268982, -0.01877535879611969]], [[0.009737740270793438, -0.04520136117935181, 0.018440566956996918], [0.07164181023836136, -0.039989132434129715, -0.03627477213740349], [-0.07757937908172607, -0.003937770612537861, 0.0034125964157283306]]], [[[0.06729868799448013, 0.061103276908397675, 0.03869108855724335], [-0.019352879375219345, 0.03332458809018135, -0.06288199126720428], [0.06640008091926575, -0.010809265077114105, -0.0010188724845647812]], [[0.052859026938676834, -0.018674524500966072, -0.043866220861673355], [0.05804631859064102, -0.06936917454004288, -0.06366930902004242], [0.07761459052562714, -0.02362474985420704, 0.044617898762226105]], [[-0.047452718019485474, 0.0045215231366455555, -0.048253703862428665], [-0.018143480643630028, 0.05064444988965988, -0.057911526411771774], [0.04588662460446358, 0.023891255259513855, 0.09571167081594467]], [[0.06569141149520874, 0.10184461623430252, 0.011292388662695885], [0.04054630547761917, 0.03900717943906784, -0.03313511610031128], [0.08936131000518799, 0.014662323519587517, 0.04020500183105469]], [[-0.014429323375225067, 0.0002995941904373467, 0.03598954156041145], [-0.021163344383239746, 0.019187133759260178, -0.06038707494735718], [-0.07405977696180344, -0.04400556534528732, 0.010540028102695942]], [[0.03536403179168701, 0.008101385086774826, 0.05829060450196266], [-0.06511134654283524, -0.04890160262584686, 0.07899542152881622], [-0.05209033191204071, -0.03297741338610649, 0.009829746559262276]], [[0.012611141428351402, -0.05049210786819458, 0.009513470344245434], [0.01426082756370306, 0.06897704303264618, -0.0602300688624382], [0.011754966340959072, -0.030543580651283264, 0.028954004868865013]], [[-0.013023757375776768, -0.09078724682331085, 0.02035139687359333], [-0.1113237664103508, -0.06973029673099518, -0.05433094501495361], [-0.02365422435104847, -0.057725705206394196, 0.012863470241427422]], [[-0.008681324310600758, -0.04573870822787285, -0.001231197384186089], [-0.05536917597055435, -0.0014455115888267756, 0.029004234820604324], [0.02880086749792099, -0.023373382166028023, 0.008930054493248463]], [[-0.02820020355284214, -0.00023026115377433598, -0.09139124304056168], [-0.005692279431968927, -0.0912046805024147, -0.0727304145693779], [-0.033652134239673615, -0.06404444575309753, -0.011547354981303215]], [[0.016325127333402634, 0.044382914900779724, 0.06454045325517654], [-0.04801160469651222, 0.09547664225101471, -0.04821433126926422], [-0.027592919766902924, -0.047138065099716187, 0.07948975265026093]], [[-0.039653219282627106, 0.03473728150129318, 0.04613643139600754], [-0.00970800407230854, -0.05415196716785431, 0.07405514270067215], [0.07768620550632477, -0.08342473208904266, 0.032782167196273804]], [[0.036403778940439224, 0.029691757634282112, -0.04240686818957329], [-0.14411135017871857, 0.01882125623524189, 0.05720122158527374], [0.019338790327310562, 0.057832635939121246, -0.09119660407304764]], [[-0.004758929833769798, 0.07253271341323853, -0.06466878205537796], [0.009180557914078236, 0.03209177777171135, -0.009637503884732723], [0.007556347642093897, -0.052434030920267105, -0.009271918796002865]], [[-0.061165425926446915, -0.026147842407226562, 0.026081742718815804], [-0.04004642739892006, -0.049397777765989304, -0.06464476138353348], [-0.07079749554395676, -0.04314953833818436, -0.0512559600174427]], [[0.04859741032123566, -0.06025514751672745, 0.07949043810367584], [0.03147989884018898, 0.028148910030722618, 0.023813679814338684], [0.03627639636397362, -0.01842363364994526, -0.041320525109767914]]], [[[-0.03378279134631157, -0.009207171387970448, -0.0007815717835910618], [0.005396024789661169, 0.037889514118433, 0.00024254823802039027], [-0.012194698676466942, -0.02263588272035122, -0.0019341126317158341]], [[0.010919432155787945, 0.0061601027846336365, -0.00516633503139019], [-0.046632926911115646, 0.04476138576865196, 0.03346440941095352], [0.04150097817182541, 0.03288911655545235, -0.014406693167984486]], [[0.007669639773666859, 0.030605677515268326, -0.07066355645656586], [0.006605731323361397, 0.019793778657913208, 0.016341088339686394], [-0.004031859803944826, -0.07619194686412811, -0.038859009742736816]], [[-0.04781675711274147, -0.008058412000536919, 0.07304327189922333], [-0.08257753401994705, 0.0033107101917266846, 0.07466157525777817], [0.04485728219151497, -0.030278654769062996, -0.03899015486240387]], [[0.07484129816293716, 0.04654758796095848, 0.04720959812402725], [0.01846231147646904, -0.023750880733132362, 0.0732903778553009], [-0.06961521506309509, 0.05594155192375183, -0.07210415601730347]], [[-0.020471006631851196, -0.03677491098642349, -0.005313841626048088], [-0.0539102628827095, -0.05375031754374504, -0.06989516317844391], [0.0717281922698021, -0.06160527095198631, 0.04440407454967499]], [[0.0286919753998518, -0.002276214538142085, 0.0014856437919661403], [0.025767996907234192, -0.04262396693229675, -0.05592748150229454], [0.005960703827440739, 0.010970458388328552, -0.019421037286520004]], [[-0.07139546424150467, -0.025616558268666267, -0.008991011418402195], [-0.070633664727211, 0.08492866158485413, 0.06601680815219879], [0.013729103840887547, -0.014807891100645065, 0.04413985088467598]], [[-0.0617191344499588, -0.003963838797062635, 0.09395760297775269], [-0.041742049157619476, 0.023872345685958862, 0.042082399129867554], [0.09047336876392365, -0.015737181529402733, 0.03917316347360611]], [[-0.035060200840234756, 0.05192907527089119, 0.06999203562736511], [-0.05196904018521309, 0.043102193623781204, 0.0630994364619255], [-0.019702428951859474, 0.020040158182382584, -0.06047680601477623]], [[-0.03483623266220093, 0.009219211526215076, 0.038593046367168427], [0.06891956180334091, 0.007116490975022316, 0.0727488249540329], [0.03521931543946266, -0.09675106406211853, 0.032046038657426834]], [[0.047049395740032196, -0.02931148186326027, -0.040485940873622894], [0.056223008781671524, 0.0175690408796072, 0.022456688806414604], [-0.0072361258789896965, -0.044735826551914215, 0.0038227620534598827]], [[-0.0010425662621855736, 0.013364698737859726, 0.09822555631399155], [-0.055070046335458755, -0.09919019043445587, 0.09580956399440765], [-0.06787249445915222, -0.07346583902835846, -0.035713598132133484]], [[-0.055475734174251556, 0.019351031631231308, -0.03552820906043053], [-0.025746295228600502, -0.06250008195638657, -0.06707226485013962], [-0.06017524376511574, -0.07424908131361008, -0.06014049053192139]], [[0.05451640486717224, 0.06441608816385269, -0.04761553555727005], [0.05392683297395706, -0.0449235774576664, 0.0184435173869133], [-0.05550788342952728, -0.04883663356304169, -0.011923919431865215]], [[0.0058929696679115295, -0.026216350495815277, -0.004667966160923243], [0.05195507034659386, 0.01222402136772871, 0.061032600700855255], [-0.013783741742372513, -0.008412236347794533, 0.01817304827272892]]], [[[-0.07194481045007706, 0.04804707691073418, 0.030324896797537804], [-0.019258415326476097, -0.019594326615333557, 0.026401152834296227], [0.07819110155105591, 0.07254043221473694, -0.04037187620997429]], [[-0.057359516620635986, -0.059583064168691635, -0.05644778907299042], [-0.052613355219364166, -0.021192971616983414, -0.0685744658112526], [-0.03475203737616539, 0.05836565047502518, -0.060399629175662994]], [[-0.037453196942806244, 0.022575413808226585, 0.06322035938501358], [-0.03763231635093689, 0.050936900079250336, -0.07609308511018753], [-0.01904076337814331, -0.04958125576376915, -0.04111182689666748]], [[-0.016501298174262047, -0.0761423334479332, -0.042859748005867004], [0.07490503042936325, -0.07379890233278275, 0.0310637466609478], [-0.009511164389550686, 0.047485169023275375, -0.0807526558637619]], [[-0.0455843023955822, -0.032501112669706345, 0.011519002728164196], [0.02531207725405693, -0.07423558831214905, 0.06478281319141388], [0.01708655245602131, -0.07895898818969727, 0.05078963562846184]], [[0.053711406886577606, -0.05240724980831146, -0.0749286338686943], [0.012793760746717453, 0.03401351347565651, 0.033533427864313126], [0.015081733465194702, 0.049288559705019, 0.05607312545180321]], [[-0.06642982363700867, -0.07842664420604706, 0.02524711936712265], [-0.05393490940332413, 0.07472720742225647, -0.013281814754009247], [-0.05852467939257622, 0.03256865590810776, 0.0754237174987793]], [[0.08033085614442825, -0.03549768775701523, 0.056811172515153885], [-0.04467211663722992, -0.014794654212892056, 0.05459541082382202], [-0.0025852478574961424, -0.06175483763217926, -0.07496554404497147]], [[0.0025890632532536983, 0.03527543693780899, -0.07160922884941101], [0.04283010959625244, -0.050481099635362625, 0.022742651402950287], [-0.050339002162218094, 0.008893548510968685, 0.04966554790735245]], [[0.013495034538209438, -0.04889264330267906, 0.07244077324867249], [0.07091467827558517, -0.07415322214365005, 0.044878680258989334], [0.0163906030356884, 0.028074881061911583, 0.007479712832719088]], [[-0.07438768446445465, 0.03058963641524315, 0.007907683029770851], [0.04249199479818344, -0.044371578842401505, 0.004412028007209301], [-0.01047440804541111, 0.06571278721094131, -0.0003638853377196938]], [[-0.01771756447851658, -0.06150578334927559, 0.002715633250772953], [0.022577736526727676, 0.02236051857471466, 0.07370194792747498], [0.031328991055488586, 0.0015605264343321323, 0.07680682837963104]], [[0.0036928451154381037, 0.06422379612922668, 0.05178949609398842], [0.04512251168489456, 0.08392712473869324, 0.020939530804753304], [-0.010570055805146694, -0.01778678596019745, -0.0430026575922966]], [[0.014817047864198685, 0.011977601796388626, 0.04202527925372124], [0.053705763071775436, 0.0333370566368103, -0.05760498344898224], [0.04781504347920418, -0.04771299287676811, 0.014239998534321785]], [[0.005666675511747599, 0.050449781119823456, -0.00836553517729044], [0.052547719329595566, 0.021540677174925804, -0.05795664340257645], [-0.023285582661628723, -0.06796631962060928, 0.00011272857227595523]], [[-0.036599963903427124, -0.08306661993265152, -0.03085964359343052], [0.016985518857836723, 0.03391757234930992, -0.029646793380379677], [0.0668175220489502, -0.0733642429113388, 0.04067890718579292]]], [[[-0.015905816107988358, 0.013390171341598034, -0.005234172567725182], [-0.06195501610636711, 0.01666928268969059, 0.037408068776130676], [0.07323461771011353, -0.0464666411280632, -5.9615715144900605e-05]], [[0.03320252150297165, -0.018202072009444237, 0.07823972404003143], [0.01734613999724388, 0.04519479721784592, -0.02814527414739132], [0.0037124520167708397, -0.007729694712907076, 0.01528269611299038]], [[0.03326713666319847, 0.07491737604141235, -0.018062470480799675], [0.016928205266594887, 0.04040733352303505, 0.04917998984456062], [-0.08271085470914841, 0.07191190868616104, -0.001376073225401342]], [[0.03708440437912941, -0.05195099860429764, -0.008292796090245247], [0.00023849397257436067, -0.08588648587465286, 0.06791114807128906], [-0.04528125002980232, -0.06528189033269882, -0.06202701851725578]], [[0.07316073030233383, 0.006771786604076624, -0.08213410526514053], [-0.007591314148157835, -0.008967122994363308, 0.048373185098171234], [-0.013826677575707436, 0.060393042862415314, -0.050321124494075775]], [[-0.05501653626561165, 0.005737717263400555, 0.0841679647564888], [0.07141035795211792, -0.05019202083349228, 0.06254030019044876], [-0.046629417687654495, -0.035921502858400345, 0.0645657479763031]], [[0.023791631683707237, -0.018208805471658707, -0.03457807004451752], [-0.030232764780521393, -0.03372662141919136, -0.01853819750249386], [-0.006479270756244659, 0.054998643696308136, -0.05663236603140831]], [[0.037274230271577835, -0.029451722279191017, -0.060411784797906876], [-0.0295169148594141, 0.08502495288848877, -0.0407535545527935], [-0.07437946647405624, 0.04567240551114082, -0.008239530958235264]], [[-0.02143780142068863, 0.03236152231693268, -0.03113078698515892], [-0.059556420892477036, 0.08616786450147629, 0.058575086295604706], [0.0513160340487957, 0.07560065388679504, 0.06327416002750397]], [[0.07844896614551544, -0.05234430357813835, 0.03769794851541519], [0.0838300883769989, 0.06150732934474945, 0.05307045206427574], [-0.03525435924530029, -0.0002691284171305597, -0.001422808156348765]], [[-0.03271870315074921, 0.01900825835764408, -0.0035706455819308758], [0.08420328050851822, -0.07236233353614807, -0.052003469318151474], [0.04463350027799606, -0.03008003532886505, 0.0839989110827446]], [[0.026841478422284126, 0.007531159091740847, 0.010126807726919651], [0.07882028818130493, 0.0071129947900772095, -0.039202433079481125], [0.032724834978580475, -0.06256698071956635, -0.07428575307130814]], [[0.04962771758437157, -0.07056017965078354, 0.05734648182988167], [0.013900842517614365, -0.07009797543287277, 0.02384991943836212], [-0.07154930382966995, -0.041538018733263016, 0.009200925007462502]], [[-0.06152543053030968, -0.059014637023210526, 0.07436094433069229], [-0.07181230932474136, 0.05857100337743759, -0.015348082408308983], [-0.03342873230576515, 0.06375283002853394, -0.05779612809419632]], [[0.0491776242852211, 0.014348158612847328, -0.05305462330579758], [0.056694891303777695, 0.03769984841346741, -0.058468133211135864], [-0.038286108523607254, -0.03659176081418991, 0.07983958721160889]], [[-0.03679274395108223, -0.015574808232486248, 0.05083576962351799], [-0.03917372226715088, 0.030323386192321777, -0.027377618476748466], [0.03479348495602608, 0.020543040707707405, 0.03616708517074585]]], [[[0.023734871298074722, -0.009076466783881187, 0.09365779161453247], [-0.03303690254688263, -0.04131588712334633, 0.09294050186872482], [-0.003255430841818452, -0.041964661329984665, 0.0061425925232470036]], [[0.040632687509059906, 0.031606148928403854, 0.04001111164689064], [0.07510960102081299, 0.08860988169908524, -0.08742750436067581], [0.061041735112667084, -0.06422887742519379, 0.02165049873292446]], [[-0.00636930949985981, -0.05097015202045441, -0.08216511458158493], [0.05617754906415939, -0.04018818959593773, 0.07655847072601318], [-0.0020859003998339176, 0.024953948333859444, -0.024456704035401344]], [[0.010577469132840633, -0.061952706426382065, 0.06432265043258667], [-0.0029498508665710688, 0.003375018248334527, 0.06622407585382462], [-0.04154444858431816, 0.06375425308942795, -0.04734654724597931]], [[-0.034407004714012146, 0.018783699721097946, -0.08638811111450195], [-0.055941466242074966, -0.036925069987773895, -0.0008508479222655296], [0.07401248812675476, -0.007476464379578829, -0.07222418487071991]], [[-0.06526216864585876, -0.013252800330519676, 0.06254178285598755], [0.07802341133356094, -0.016814053058624268, -0.07690011709928513], [-0.02334609255194664, 0.025584042072296143, 0.056455615907907486]], [[0.06182316690683365, 0.040909115225076675, 0.032288528978824615], [0.04884573817253113, -0.02898896485567093, 0.0694340318441391], [0.06290591508150101, -0.050659794360399246, 0.04714943841099739]], [[0.051965754479169846, 0.059113744646310806, -0.07766318321228027], [0.03420320153236389, 0.03412787616252899, 0.021104196086525917], [-0.005513027776032686, 0.07855341583490372, -0.03576985374093056]], [[-0.05529654026031494, 0.007431090343743563, 0.06292007863521576], [0.05490659922361374, -0.054886892437934875, 0.07995084673166275], [-0.05970289185643196, -0.01434693019837141, -0.011096391826868057]], [[0.0711836889386177, -0.009129289537668228, 0.02479422837495804], [-0.03515975549817085, -0.03271247074007988, -0.049660574644804], [0.017397116869688034, 0.007190302480012178, -0.011055964045226574]], [[0.0753941610455513, -0.023830188438296318, 0.0759139433503151], [-0.018450845032930374, -0.013943260535597801, -0.046134497970342636], [-0.030968930572271347, 0.020490989089012146, 0.007622969336807728]], [[0.007550408598035574, -0.025180477648973465, -0.07286173105239868], [-0.03637154400348663, -0.007700758520513773, -0.08096408098936081], [0.06606128066778183, -0.0766722708940506, 0.017582088708877563]], [[-0.06324760615825653, -0.056936778128147125, -0.02311558462679386], [0.042201075702905655, -0.049707379192113876, -0.013794924132525921], [-0.01911955699324608, -0.04446423426270485, -0.022277774289250374]], [[-0.07718488574028015, -0.009800232015550137, -0.060161493718624115], [0.05767574533820152, -0.0369955338537693, 0.06345055997371674], [-0.05916318669915199, 0.07795482128858566, 0.04249102622270584]], [[-0.023501034826040268, 0.010864154435694218, -0.042862098664045334], [0.042208343744277954, 0.07315535843372345, -0.04663275182247162], [0.06537225842475891, 0.0781746581196785, 0.0678546354174614]], [[-0.07249780744314194, -0.03546253219246864, 0.04609288275241852], [0.08874422311782837, -0.03752358630299568, -0.040168289095163345], [-0.045259200036525726, -0.003556158859282732, -0.019967753440141678]]], [[[-0.04949316754937172, 0.04967740923166275, 0.0794713944196701], [0.071832075715065, 0.016316326335072517, -0.05621708184480667], [0.018828898668289185, -0.05035857856273651, 0.04098351672291756]], [[0.1260412633419037, -0.057371415197849274, 0.00777722243219614], [-0.0015374661888927221, -0.024823378771543503, -0.08356925845146179], [-0.012938068248331547, 0.006844440475106239, 0.07003873586654663]], [[-0.062036700546741486, -0.013396592810750008, 0.05720968544483185], [0.04476853087544441, -0.006826144643127918, 0.06671712547540665], [-0.018968190997838974, 0.0008497668313793838, 0.07052214443683624]], [[-0.03350203111767769, -0.006146707572042942, 0.054068729281425476], [0.024486128240823746, 0.027074499055743217, 0.011854659765958786], [0.0553295761346817, -0.06748738139867783, 0.06674810498952866]], [[0.029527222737669945, 0.06460673362016678, 0.014108934439718723], [-0.07437969744205475, 0.07552723586559296, -0.03183848038315773], [0.00036237650783732533, 0.049142543226480484, -0.0035458102356642485]], [[-0.02403455227613449, 0.058315180242061615, -0.011125209741294384], [-0.08847230672836304, 0.07352746278047562, -0.05198637768626213], [-0.03476005420088768, 0.06146936118602753, -0.04856057092547417]], [[-0.02644718997180462, -0.08416987210512161, 0.024903807789087296], [0.07093653082847595, -0.0258384570479393, -0.0040934644639492035], [0.05021742731332779, -0.05138901248574257, -0.03572778031229973]], [[0.06162005662918091, 0.028070969507098198, -0.06264357268810272], [-0.04953334107995033, -0.08152656257152557, 0.018673483282327652], [0.07208701223134995, 0.07235393673181534, 0.06920617818832397]], [[0.08401481807231903, -0.023116014897823334, 0.03550911322236061], [0.0776105746626854, 0.062026578933000565, -0.060073964297771454], [0.07307711988687515, -0.055399928241968155, -0.03812143951654434]], [[-0.004219067748636007, -0.054579608142375946, -0.0427703782916069], [-0.07142522931098938, -0.0585222952067852, -0.026562565937638283], [-0.014068596996366978, 0.04052897170186043, 0.03868279978632927]], [[0.0664118230342865, 0.04932709410786629, -0.027261516079306602], [0.015273249708116055, -0.0834474191069603, 0.019983312115073204], [-0.01678844355046749, -0.021835967898368835, 0.002981102094054222]], [[0.022099271416664124, -0.08679433912038803, -0.0511581189930439], [-0.0641089379787445, 0.031650297343730927, 0.003225647145882249], [-0.08096612244844437, 0.023136770352721214, -0.0431351512670517]], [[0.013098773546516895, -0.023663083091378212, 0.04116866737604141], [0.07857917994260788, 0.028132714331150055, -0.06338787823915482], [0.09290929138660431, 0.07710370421409607, -0.02012079767882824]], [[-0.0822300985455513, -0.004463097080588341, 0.047414910048246384], [0.06392049044370651, 0.04727715253829956, -0.08489546924829483], [-0.07422588020563126, 0.05548756942152977, -0.03739454969763756]], [[0.04723155125975609, -0.0449560321867466, -0.08637769520282745], [0.076726995408535, 0.029315246269106865, 0.020691988989710808], [0.042031146585941315, -0.008718665689229965, 0.027845673263072968]], [[0.017044926062226295, -0.020595790818333626, 0.037366293370723724], [-0.02480967901647091, -0.07614767551422119, 0.0005395880434662104], [-0.07805027812719345, -0.054722800850868225, -0.052281565964221954]]], [[[0.03556612506508827, -0.045214612036943436, 0.03940514847636223], [-0.0494610071182251, 0.08286052197217941, -0.0012406070018187165], [-0.02187430113554001, -0.024633539840579033, -0.012631554156541824]], [[0.00974254123866558, 0.054271213710308075, -0.00275858654640615], [0.055098969489336014, 0.02301938645541668, 0.08962961286306381], [0.032593581825494766, 0.06581129878759384, -0.005913191009312868]], [[-0.04043421894311905, 0.045950111001729965, -0.04996562749147415], [0.019545380026102066, 0.04641950875520706, -0.02210002765059471], [0.03486466407775879, 0.05447046458721161, 0.07350310683250427]], [[-0.042745523154735565, 0.05375490337610245, 0.015112258493900299], [-0.043765436857938766, 0.010583052411675453, 0.05604908615350723], [-0.0032772987615317106, 0.03545518219470978, 0.1042548269033432]], [[0.005286400206387043, 0.0232795849442482, 0.07311669737100601], [-0.034500930458307266, 0.06913594901561737, -0.003310909029096365], [0.0365779846906662, 0.03499053418636322, -0.028187163174152374]], [[0.015973465517163277, 0.058054834604263306, -0.0009689542348496616], [0.007568375673145056, -0.02963046357035637, 0.0015703759854659438], [0.0188482366502285, 0.014980900101363659, -0.01142793521285057]], [[-0.06367030739784241, 0.0584123320877552, -0.060775719583034515], [-0.03425607457756996, -0.059447698295116425, 0.056225989013910294], [0.06041617691516876, -0.04953955486416817, 0.05566595122218132]], [[0.054927073419094086, -0.018905028700828552, 0.07063388079404831], [-0.009583228267729282, -0.05605164170265198, 0.07004671543836594], [0.03520664945244789, 0.03138664737343788, -0.062053319066762924]], [[-0.05266711115837097, 0.034423694014549255, 0.023044487461447716], [-0.011147821322083473, 0.0842425674200058, -0.06100314110517502], [0.00561928004026413, -0.03983129560947418, 0.034908171743154526]], [[0.058352671563625336, -0.03054426796734333, 0.04687543213367462], [-0.0003404913004487753, -0.03025616519153118, 0.02719728834927082], [-0.062273554503917694, -0.08871051669120789, -0.07138698548078537]], [[-0.004209565464407206, -0.003950955346226692, -0.03805764392018318], [0.07571762055158615, -0.08313076943159103, 0.0241628997027874], [0.020420389249920845, 0.0736110657453537, -0.07458819448947906]], [[-0.005461345426738262, -0.06817245483398438, 0.031206553801894188], [-0.06316722184419632, 0.021007658913731575, -0.06942370533943176], [-0.0008019860251806676, 0.06930068880319595, 0.013871061615645885]], [[-0.06788810342550278, 0.06409888714551926, -0.038910023868083954], [-0.01431907620280981, -0.054856278002262115, -0.026982780545949936], [-0.03282150253653526, -0.020436448976397514, 0.057183291763067245]], [[-0.02997799776494503, -0.05997564643621445, -0.05597073584794998], [-0.014146380126476288, 0.015796063467860222, 0.055800408124923706], [0.04186423122882843, -0.00844836700707674, -0.03294750675559044]], [[-0.04928942397236824, -0.08394156396389008, -0.07648155838251114], [0.01911286450922489, -0.0004038131737615913, -0.059942323714494705], [0.037035055458545685, 0.04159487411379814, -0.07579959183931351]], [[0.046346839517354965, -0.05219248682260513, -0.06575889885425568], [0.0065665594302117825, 0.06444472819566727, 0.07715598493814468], [-0.02193821221590042, -0.05290902405977249, -0.03593570739030838]]]], "encoder.6.bias": [-0.023058127611875534, 0.06335409730672836, -0.02607474848628044, -0.003605774836614728, 0.0652458518743515, -0.08492688834667206, -0.041711147874593735, 0.032346270978450775, 0.08563081175088882, 0.037330687046051025, -0.03933553397655487, -0.003288884647190571, -0.06561463326215744, 0.016073094680905342, -0.06625878065824509, 0.05482078343629837], "encoder.8.weight": [[[[-0.03234419971704483, -0.10581594705581665, 0.05117838457226753], [0.00703764520585537, -0.001408988144248724, 0.006903272122144699], [0.09630145877599716, 0.03090922348201275, 0.019894611090421677]], [[0.008900292217731476, -0.04791245982050896, -0.01718807779252529], [0.06394655257463455, -0.04145371913909912, -0.032173559069633484], [0.019821180030703545, -0.02561775967478752, 0.00479366397485137]], [[0.017067361623048782, 0.007755519822239876, -0.0060807401314377785], [0.0002246998337795958, -0.09505487978458405, -0.05371195077896118], [-0.10453976690769196, 0.043931614607572556, -0.049238067120313644]], [[-0.05681295692920685, 0.016790710389614105, 0.006784167140722275], [0.028138455003499985, 0.09884311258792877, -0.06972137838602066], [0.052945688366889954, -0.044930752366781235, -0.059070661664009094]], [[-0.1028381884098053, 0.005251050926744938, 0.10110178589820862], [-0.10214577615261078, 0.04777961224317551, 0.09943070262670517], [-0.08520081639289856, -0.012836487032473087, 0.059520430862903595]], [[-0.08570047467947006, 0.05740426108241081, -0.026215197518467903], [-0.07587102800607681, -0.0765206441283226, 0.0449623167514801], [-0.014689194038510323, 0.03365599364042282, -0.07091649621725082]], [[0.043847277760505676, -0.04119214043021202, -0.0660686194896698], [-0.07587143778800964, 0.06852753460407257, -0.03260152414441109], [0.06267937272787094, -0.013813759200274944, 0.055054761469364166]], [[-0.05811934173107147, 0.037106651812791824, 0.0043807728216052055], [0.0036395068746060133, 0.008775481022894382, -0.09365061670541763], [0.10241182148456573, -0.0892849862575531, -0.04852662980556488]], [[0.08465414494276047, -0.054009225219488144, 0.0347554013133049], [0.055218446999788284, 0.026093261316418648, -0.09888506680727005], [-0.014932609163224697, -0.01257346011698246, -0.07632407546043396]], [[-0.003709007054567337, 0.008323081769049168, 0.0503864660859108], [-0.10195145010948181, -0.0767582580447197, 0.10078141838312149], [-0.07855022698640823, -0.016008425503969193, 0.0528414361178875]], [[-0.029375864192843437, -0.10411876440048218, -0.009858465753495693], [0.09634621441364288, 0.03456766530871391, -0.015403807163238525], [0.03871040791273117, 0.009469697251915932, 0.06837084144353867]], [[0.017052529379725456, 0.0020402143709361553, -0.017908981069922447], [0.024462798610329628, 0.05429837107658386, -0.08352437615394592], [-0.023305105045437813, -0.07745648175477982, -0.04388558492064476]], [[0.04490647092461586, 0.05087776854634285, -0.05868153274059296], [0.016869476065039635, 0.09409507364034653, 0.05362638458609581], [0.021769126877188683, 0.014990554191172123, -0.06797270476818085]], [[-0.05499448627233505, -0.06659635156393051, 0.009432520717382431], [-0.06533590704202652, -0.04576293006539345, -0.004107454791665077], [-0.04563320055603981, 0.033487655222415924, 0.0941709354519844]], [[-0.04702478647232056, -0.025920243933796883, -0.06560593843460083], [0.0348253957927227, -0.015887288376688957, -0.12208697199821472], [0.0030007632449269295, -0.0795472040772438, -0.015814632177352905]], [[-0.05056951195001602, 0.04233906418085098, -0.05939222872257233], [0.004655062220990658, 0.010517372749745846, 0.018456002697348595], [0.05205114558339119, -0.04278891533613205, 0.004701241385191679]]], [[[0.005559646524488926, 0.019833125174045563, 0.04556563124060631], [-0.1200328841805458, -0.05461571365594864, -0.03535808250308037], [-0.049110788851976395, -0.05335443094372749, -0.056969594210386276]], [[-0.022799214348196983, -0.06486103683710098, 0.08134272694587708], [-0.03546484559774399, -0.04787597060203552, 0.043212100863456726], [-0.061341241002082825, -0.06697270274162292, -0.04868265986442566]], [[-0.0502137765288353, 0.014469502493739128, 0.03287908062338829], [0.08505914360284805, -0.03588647395372391, -0.004631194286048412], [-0.054998233914375305, -0.050481874495744705, 0.004137985873967409]], [[0.06997452676296234, 0.061536047607660294, -0.01662602089345455], [0.07043524086475372, -0.05042934790253639, 0.07394805550575256], [-0.049231261014938354, -0.06844569742679596, 0.013462861999869347]], [[0.035888634622097015, -0.05725140869617462, -0.011139428243041039], [0.06795159727334976, 0.05697004869580269, -0.05048477277159691], [0.07009346038103104, 0.055481165647506714, -0.07642307132482529]], [[-0.07129375636577606, -0.01990903913974762, -0.050618983805179596], [0.014590195380151272, 0.06120792031288147, -0.01696816086769104], [0.012560085393488407, -0.07070505619049072, 0.012587163597345352]], [[0.03933197632431984, -0.01971094310283661, -0.040117841213941574], [-0.0059555391781032085, -0.07683532685041428, 0.03904440999031067], [0.0909138172864914, -0.02728722058236599, -0.0729486346244812]], [[-0.05254705250263214, 0.0309736467897892, -0.028402388095855713], [-0.05648943409323692, -0.04182184860110283, 0.028683071956038475], [-0.018465055152773857, -0.022355737164616585, -0.07157617062330246]], [[-0.014950089156627655, -0.08195073157548904, -0.07709496468305588], [0.06307967752218246, -0.12225321680307388, -0.005731606390327215], [0.06771776080131531, -0.04586365818977356, -0.03064516745507717]], [[-0.00559991504997015, 0.030674738809466362, 0.0681765004992485], [0.01088744681328535, 0.07163539528846741, -0.02016768977046013], [-0.08742637187242508, -0.020711712539196014, 0.04408970847725868]], [[0.028553098440170288, 0.036719802767038345, -0.05697975307703018], [0.06838797777891159, -0.011462351307272911, 0.03879142925143242], [0.0816107764840126, 