{"encoder.0.weight": [[[[-0.2696114778518677, 0.16261252760887146, -0.23116354644298553], [-0.10184109210968018, -0.29474717378616333, -0.29815202951431274], [0.2279224842786789, -0.26630210876464844, -0.2780952453613281]]], [[[-0.2700723111629486, -0.05049854889512062, 0.0387222059071064], [0.12994897365570068, 0.2963617146015167, -0.18040765821933746], [-0.021400878205895424, -0.16331909596920013, 0.20764753222465515]]], [[[-0.09489277750253677, -0.18100114166736603, -0.207367941737175], [0.1669095903635025, -0.16877323389053345, 0.1219475269317627], [-0.15548661351203918, 0.18212105333805084, -0.024498527869582176]]], [[[-0.3137660622596741, 0.24915173649787903, 0.11956551671028137], [-0.19512666761875153, 0.0883125513792038, -0.22758211195468903], [-0.007767991628497839, -0.045842885971069336, -0.3326599597930908]]], [[[-0.2725628912448883, 0.12686537206172943, -0.2552216351032257], [0.01587316207587719, 0.18365167081356049, -0.021134544163942337], [0.18442758917808533, -0.06958667933940887, 0.2960125505924225]]], [[[-0.2617796063423157, -0.02423596940934658, -0.01679236628115177], [-0.2964569926261902, 0.25564664602279663, -0.0992300882935524], [0.014089862816035748, -0.1967998743057251, -0.15877215564250946]]], [[[-0.3321819305419922, 0.13731056451797485, -0.3069438934326172], [-0.2711922228336334, 0.20348061621189117, 0.19294779002666473], [-0.0009959355229511857, 0.03581584244966507, -0.24935127794742584]]], [[[0.08092760294675827, -0.18102732300758362, 0.19719728827476501], [-0.19538311660289764, 0.17595119774341583, 0.22184805572032928], [-0.053032465279102325, -0.04706193134188652, 0.1329221874475479]]], [[[0.04899350553750992, -0.23448516428470612, -0.2479548305273056], [-0.249860942363739, -0.06130225211381912, -0.09407863765954971], [0.04788094758987427, 0.3250327408313751, 0.16366435587406158]]], [[[0.014415308833122253, 0.2557019889354706, 0.05345306172966957], [-0.12157484143972397, 0.13812687993049622, -0.14312373101711273], [0.09270692616701126, -0.27531036734580994, 0.3146364986896515]]], [[[0.18842430412769318, 0.19845053553581238, 0.1785375475883484], [0.16303522884845734, 0.3253372013568878, 0.1562122404575348], [-0.23586826026439667, 0.25874000787734985, -0.007541503757238388]]], [[[-0.10565083473920822, -0.16624808311462402, -0.11997409164905548], [0.276983380317688, -0.2544896900653839, -0.09740450978279114], [0.1484336256980896, 0.021285280585289, 0.26844853162765503]]], [[[-0.11995180696249008, -0.038336239755153656, -0.32911252975463867], [-0.13279497623443604, -0.08281882852315903, 0.1815539449453354], [-0.2498149871826172, 0.03967124968767166, 0.009691961109638214]]], [[[0.17763042449951172, -0.22100095450878143, -0.15130814909934998], [-0.22868382930755615, -0.17511646449565887, -0.20881108939647675], [0.183903306722641, -0.21299466490745544, -0.2028285264968872]]], [[[-0.22229349613189697, -0.17353858053684235, 0.12759298086166382], [-0.2318139672279358, -0.21135343611240387, 0.017812088131904602], [0.07397015392780304, 0.28955399990081787, -0.06752298772335052]]], [[[0.12367000430822372, -0.2536377012729645, 0.07307025045156479], [-0.05551530048251152, 0.3003324568271637, -0.027990365400910378], [0.24234674870967865, 0.07813648134469986, 0.17567646503448486]]]], "encoder.0.bias": [0.16921906173229218, 0.20417630672454834, 0.24579684436321259, 0.09155923128128052, 0.15410147607326508, -0.204950213432312, 0.06089652702212334, -0.01528078131377697, -0.23274950683116913, 0.21698184311389923, -0.3178366720676422, 0.22219635546207428, 0.19080385565757751, 0.15639421343803406, 0.2877269685268402, -0.20454567670822144], "encoder.3.weight": [[[[-0.05673391744494438, -0.012244652025401592, 0.0713907778263092], [0.015837540850043297, 0.022320013493299484, -0.05801234766840935], [0.0313858799636364, 0.024376412853598595, 0.03076709434390068]], [[0.07671802490949631, 0.01517727691680193, -0.059419117867946625], [-0.016596967354416847, 0.028139816597104073, -0.06451644003391266], [0.016092751175165176, -0.004349679686129093, 0.05898844823241234]], [[0.047692328691482544, -0.044333845376968384, -0.04949329420924187], [-0.0562453493475914, 0.010292967781424522, 0.03126859664916992], [0.06917507946491241, 0.02807357907295227, 0.044549278914928436]], [[0.028648357838392258, 0.02770843170583248, 0.03243815153837204], [-0.04512987658381462, -0.06542034447193146, 0.04740821570158005], [0.08020254224538803, -0.0660061240196228, 0.06771247833967209]], [[0.011959047056734562, 0.07660400867462158, 0.08141708374023438], [-0.005966558586806059, 0.04921906441450119, 0.023116474971175194], [0.0023069398012012243, 0.008951905183494091, 0.07024368643760681]], [[-0.004502087831497192, 0.026669085025787354, -0.014341424219310284], [-0.02324444055557251, -0.06265796720981598, -0.017204931005835533], [-0.017842542380094528, -0.00165446603205055, 0.044264983385801315]], [[-0.06530790776014328, 0.04848667234182358, 0.08229738473892212], [-0.019482513889670372, -0.05454612895846367, -0.03815854713320732], [0.04586101695895195, 0.006540447473526001, -0.003990113735198975]], [[-0.052893754094839096, 0.07160933315753937, -0.07092521339654922], [-0.07356947660446167, 0.012402280233800411, -0.02483329549431801], [0.00836588628590107, -0.009943431243300438, -0.06431149691343307]], [[-0.025970598682761192, 0.005472928285598755, 0.01800675317645073], [-0.04897284507751465, -0.006237377878278494, 0.032561540603637695], [0.041110508143901825, -0.010961298830807209, 0.06612029671669006]], [[0.01649029552936554, 0.033205147832632065, 0.04510476440191269], [0.02248840034008026, 0.027532828971743584, 0.010123110376298428], [-0.06481074541807175, 0.08206451684236526, 0.07835607975721359]], [[-0.03731367364525795, -0.07860473543405533, -0.018860306590795517], [-0.06645713001489639, -0.04467056319117546, -0.045769743621349335], [0.040619704872369766, -0.06830896437168121, 0.045215580612421036]], [[0.07841899991035461, -0.0747501403093338, -0.060583941638469696], [0.06517549604177475, -0.018858125433325768, -0.057122182101011276], [0.03150588646531105, -0.004066207446157932, -0.0509740449488163]], [[0.04564311355352402, -0.06107135862112045, -0.038486432284116745], [-0.07656826823949814, 0.029759954661130905, 0.05079277604818344], [-0.05717933177947998, 0.0035915474873036146, -0.06551911681890488]], [[0.011021485552191734, -0.07438313215970993, -0.017515819519758224], [0.046401988714933395, 0.0811777114868164, -0.05485527962446213], [0.037473730742931366, 0.05381300300359726, -0.028577804565429688]], [[0.04607421159744263, 0.07771744579076767, -0.026626190170645714], [-0.06543341279029846, 0.049111008644104004, -0.01659218594431877], [0.020102977752685547, 0.054677996784448624, -0.07234750688076019]], [[-0.07471251487731934, 0.048200733959674835, -0.05616997554898262], [0.00741603784263134, 0.007949537597596645, -0.04803941026329994], [-0.02169550396502018, 0.057409029453992844, -0.02166842855513096]]], [[[-0.0037082433700561523, 0.06159850209951401, -0.050769805908203125], [-0.04435047507286072, -0.05810123682022095, -0.06406765431165695], [-0.044734738767147064, -0.06671807169914246, 0.0546688437461853]], [[-0.0016620928654447198, 0.0319356806576252, 0.0007596805808134377], [-0.024397287517786026, -0.059216249734163284, 0.049538224935531616], [-0.006058005150407553, -0.023909324780106544, 0.06906865537166595]], [[-0.05657074972987175, -0.07446057349443436, -0.0045287711545825005], [0.04627235606312752, -0.07810679823160172, -0.028549887239933014], [-0.06272228062152863, -0.011469329707324505, -0.04492425173521042]], [[-0.0696711391210556, 0.019464833661913872, 0.06739336252212524], [-0.0799500048160553, -0.06609639525413513, 0.02240641973912716], [-0.03787072375416756, 0.03307901322841644, -0.042759932577610016]], [[-0.052405454218387604, -0.006701397709548473, -0.0214286670088768], [0.02666519209742546, -0.030715031549334526, 0.042186055332422256], [0.027062851935625076, 0.011138812638819218, -0.07030929625034332]], [[-0.013120820745825768, 0.05311548709869385, -0.04226415604352951], [0.01479677390307188, 0.04213716834783554, 0.010879705660045147], [-0.02709226869046688, -0.03653483837842941, -0.032686881721019745]], [[0.04174868389964104, -0.0494302399456501, 0.015471051447093487], [-0.051391005516052246, -0.013874026015400887, 0.03231101483106613], [-0.031448833644390106, -0.016646206378936768, 0.08180411159992218]], [[0.005926910322159529, 0.07346619665622711, 0.05718730390071869], [0.061091098934412, -0.04521176218986511, 0.0514928437769413], [0.021099934354424477, 0.04137513414025307, 0.06610289961099625]], [[0.06735724955797195, -0.06205973029136658, -0.009675308130681515], [0.03668888285756111, -0.029719622805714607, -0.06639684736728668], [0.04215337336063385, 0.03940695896744728, -0.04195293039083481]], [[-0.006150970701128244, 0.04764849320054054, 0.06079327315092087], [0.08915954828262329, 0.027631575241684914, 0.032882604748010635], [0.005373060237616301, -0.04104587435722351, -0.05773179233074188]], [[-0.005775731988251209, 0.1064734235405922, -0.048597581684589386], [0.06716173887252808, -0.035480014979839325, 0.09399522095918655], [0.08722997456789017, 0.0435609333217144, -0.0020452479366213083]], [[-0.03503893315792084, -0.06398516893386841, 0.015164561569690704], [0.053430359810590744, -0.02951248362660408, 0.03500790148973465], [-0.06882578879594803, -0.04045473039150238, 0.01972874440252781]], [[0.03541494533419609, 0.02796708606183529, -0.04801513999700546], [-0.04267033934593201, 0.026303332298994064, 0.08001922070980072], [0.051007598638534546, -0.06770515441894531, 0.08211804926395416]], [[0.043531328439712524, 0.007169544696807861, -0.06101624295115471], [-0.07746188342571259, -0.03175855800509453, -0.0327952615916729], [0.008186718448996544, 0.019602825865149498, -0.003743082284927368]], [[-0.004686286207288504, 0.019132377579808235, -0.002270182827487588], [-0.055719804018735886, 0.02933182567358017, -0.019649790599942207], [-0.04073894023895264, 0.025876382365822792, -0.07726071774959564]], [[-0.05981362238526344, 0.06015439331531525, 0.015112967230379581], [-0.01699875295162201, 0.03938175365328789, 0.0785885602235794], [0.042992182075977325, -0.044700659811496735, -0.04605096951127052]]], [[[-0.07467812299728394, -0.07274525612592697, -0.045991718769073486], [0.029067616909742355, -0.06057029962539673, 0.064316526055336], [0.023105015978217125, -0.06261372566223145, 0.00209847092628479]], [[0.06252506375312805, -0.057695988565683365, -0.056746505200862885], [-0.03152509033679962, 0.07510127872228622, -0.016874395310878754], [0.08603167533874512, -0.038368213921785355, -0.03221624717116356]], [[0.059010736644268036, -0.033136893063783646, -0.06768690794706345], [-0.05754520744085312, 0.011537331156432629, 0.06632984429597855], [0.023513775318861008, -0.011647830717265606, 0.04846908897161484]], [[-0.0734933391213417, -0.011875977739691734, -0.051270853728055954], [-0.022662371397018433, -0.07029678672552109, 0.06216023489832878], [0.012675327248871326, 0.026481427252292633, 0.03253509849309921]], [[-0.00703439861536026, -0.04296837002038956, 0.0038996522780507803], [0.07315412908792496, -0.050801124423742294, 0.014298373833298683], [0.0804767832159996, -0.07623415440320969, 0.034387897700071335]], [[-0.038363873958587646, -0.04605492949485779, -0.03215961903333664], [0.05477036163210869, -0.012714277021586895, -0.050622016191482544], [0.046197932213544846, -0.0815499871969223, -0.038194090127944946]], [[0.0734376311302185, 0.007911568507552147, -0.008431504480540752], [0.004419535398483276, 0.0435231551527977, -0.041125427931547165], [-0.03251633048057556, 0.03292425721883774, 0.05457044765353203]], [[0.07111570984125137, -0.020239489153027534, -0.022815432399511337], [0.04875485226511955, 0.07199171930551529, 0.01092779915779829], [-0.05109386518597603, -0.07040448486804962, -0.07003189623355865]], [[0.0504072867333889, 0.08178414404392242, -0.0210206788033247], [0.07074466347694397, -0.008487161248922348, 0.0709933191537857], [0.06424058228731155, -0.07839599996805191, 0.053002145141363144]], [[-0.04667135328054428, -0.036908864974975586, -0.05785144865512848], [0.04651292786002159, -0.061089593917131424, 0.06628888100385666], [-0.04284576699137688, 0.006112414877861738, -0.02818075194954872]], [[0.05824567377567291, -0.0026479370426386595, 0.072477325797081], [0.06788156926631927, 0.055777475237846375, -0.009093834087252617], [0.11030111461877823, 0.06872355192899704, 0.11843784898519516]], [[-0.014785743318498135, 0.037441179156303406, 0.06316840648651123], [0.009144546464085579, 0.02747134119272232, -0.055408187210559845], [0.013685939833521843, -0.05492788180708885, -0.006534749176353216]], [[-0.04112168401479721, -0.021525293588638306, 0.02267986536026001], [-0.06483383476734161, -0.01868155598640442, 0.01793815754354], [-0.02911033295094967, -0.039307355880737305, 0.029502015560865402]], [[0.027313441038131714, 0.06593349575996399, -0.03356208652257919], [-0.06164458394050598, 0.03298864886164665, 0.017916789278388023], [-0.0083498265594244, 0.005870074033737183, -0.07136428356170654]], [[-0.05091417580842972, -0.03402018919587135, -0.06116386875510216], [0.008163630031049252, 0.039794038981199265, 0.002645698841661215], [-0.011707419529557228, 0.05263781547546387, -0.049171555787324905]], [[0.008540400303900242, 0.09009644389152527, 0.021141383796930313], [0.006485887337476015, 0.10404264181852341, -0.03379928693175316], [-0.016257300972938538, 0.07939639687538147, -0.010073346085846424]]], [[[-0.03305208683013916, -0.025549789890646935, -0.0438954159617424], [-0.009474466554820538, -0.06311162561178207, 0.06790316104888916], [-0.06602686643600464, -0.052439868450164795, -0.0497867688536644]], [[0.0343613438308239, -0.015436516143381596, -0.027912434190511703], [-0.05190742015838623, 0.0716017633676529, 0.0028477481100708246], [0.042005181312561035, 0.03895597532391548, -0.08322986215353012]], [[-0.013996979221701622, -0.04661310836672783, -0.07625368237495422], [-0.03291710466146469, -0.04457350820302963, 0.04009769484400749], [0.032455068081617355, 0.013071795925498009, -0.024392694234848022]], [[0.073037289083004, -0.023779969662427902, -0.00044605135917663574], [-0.0367298424243927, -0.01826869323849678, -0.059980910271406174], [0.0825524777173996, 0.019818982109427452, 0.026991039514541626]], [[0.04143362119793892, 0.024598130956292152, -0.07359498739242554], [-0.08014793694019318, -0.03211982175707817, -0.039753809571266174], [0.019072849303483963, 0.05282566323876381, 0.0210574958473444]], [[-0.062146883457899094, 0.054263245314359665, -0.06498301029205322], [0.04605624079704285, -0.05287005752325058, 0.05349027365446091], [0.02867187187075615, 0.00605232547968626, 0.06138952821493149]], [[0.00771409273147583, 0.06736352294683456, -0.05500992387533188], [-0.052808165550231934, -0.02369002439081669, 0.02450573444366455], [0.03204154223203659, 0.04247411713004112, -0.030662279576063156]], [[-0.02114284224808216, 0.017607685178518295, -0.04563584178686142], [0.013877329416573048, 0.04114360362291336, -0.07287918031215668], [0.00900461059063673, -0.05551218241453171, -0.026865243911743164]], [[0.06536582857370377, -0.04309333115816116, 0.07013428956270218], [-0.07689406722784042, -0.02033543772995472, -0.053470924496650696], [-0.061637457460165024, -0.05912565439939499, 0.005312324035912752]], [[-0.07457922399044037, -0.07067014276981354, -0.0734606608748436], [-0.07029478996992111, -0.04002007097005844, 0.00010604959970805794], [-0.003877324517816305, -0.04929728806018829, 0.07347243279218674]], [[-0.03627088665962219, -0.007958412170410156, 0.04348284751176834], [0.06617310643196106, -0.052459683269262314, -0.043611228466033936], [-0.013202991336584091, 0.030853481963276863, 0.06439702957868576]], [[0.045905157923698425, -0.0349806509912014, 0.07349435240030289], [0.07922549545764923, 0.04372330382466316, 0.08095531910657883], [-0.01987171731889248, 0.05236198380589485, 0.08079545944929123]], [[-0.061057090759277344, -0.08220049738883972, -0.05822625756263733], [0.044785283505916595, -0.05669334530830383, 0.00932854413986206], [0.0015214880695566535, -0.005573242902755737, 0.026815026998519897]], [[-0.023978402838110924, 0.016061555594205856, -0.07626505196094513], [-0.04255080223083496, 0.014391462318599224, 0.05519207566976547], [-0.05261897295713425, 0.03491192311048508, 0.03937704488635063]], [[0.03726604953408241, 0.07274573296308517, 0.024841396138072014], [0.01519923098385334, 0.004072724375873804, 0.0100669264793396], [-0.04182294383645058, 0.063840351998806, 0.0769287645816803]], [[0.06277547031641006, 0.03881026431918144, 0.033330872654914856], [0.022664662450551987, -0.08131963014602661, 0.037856657058000565], [-0.030823970213532448, 0.007255769334733486, -0.06802157312631607]]], [[[-0.06307780742645264, 0.046729087829589844, -0.0036610960960388184], [0.022182276472449303, 0.03315583989024162, -0.016779502853751183], [0.009298732504248619, 0.007567703723907471, -0.06503688544034958]], [[-0.039249029010534286, -0.05063638091087341, 0.07639415562152863], [-0.017172442749142647, 0.04236294701695442, 0.055040307343006134], [0.04919285327196121, -0.056013889610767365, -0.04627734795212746]], [[0.0711374580860138, 0.00846270751208067, -0.003095269203186035], [0.05151822790503502, 0.00018928170902654529, -0.08163195848464966], [0.026705652475357056, -0.043331652879714966, 0.07675911486148834]], [[0.07070457935333252, 0.05601581186056137, 0.012807193212211132], [0.06632615625858307, -0.014107530005276203, 0.004945844411849976], [-0.04778574779629707, 0.08042414486408234, 0.0032416582107543945]], [[0.0702785924077034, 0.07746663689613342, 0.07179317623376846], [0.05127272754907608, 0.015828337520360947, 0.004102018661797047], [-0.02261962555348873, -0.0628817081451416, -0.0772213563323021]], [[-0.04944492504000664, -0.022976946085691452, -0.057692043483257294], [0.0030702054500579834, -0.03064803220331669, -0.0047470033168792725], [0.07460799813270569, -0.010542194359004498, -0.017730405554175377]], [[-0.04001971334218979, -0.052332554012537, -0.0015726189594715834], [-0.010814696550369263, 0.07596202939748764, -0.014561861753463745], [0.030042152851819992, -0.012614831328392029, 0.042531829327344894]], [[0.024668589234352112, -0.03397233039140701, 0.08328630775213242], [-0.07560209184885025, -0.008163674734532833, -0.04818456247448921], [0.011052261106669903, -0.018774980679154396, 0.017877286300063133]], [[0.017656534910202026, 0.0828426405787468, 0.03864691033959389], [0.028043674305081367, -0.03489771485328674, 0.07656432688236237], [-0.05724724754691124, -0.024263083934783936, 0.08016275614500046]], [[-0.03616199642419815, 0.06780225783586502, -0.027312396094202995], [-0.04899121820926666, 0.008165279403328896, -0.0679907575249672], [0.06086182966828346, 0.0689447820186615, -0.04030982404947281]], [[-0.061669595539569855, 0.05793725699186325, -0.008898839354515076], [-0.0634010061621666, 0.023496408015489578, 0.05713273212313652], [0.07286372035741806, 0.07855278998613358, 0.048708513379096985]], [[0.0709124431014061, 0.018944235518574715, -0.02261430025100708], [-0.07848820090293884, -0.026502514258027077, -0.0632026344537735], [-0.07066020369529724, -0.025072705000638962, 0.05349818989634514]], [[0.07295168936252594, 0.057464390993118286, -0.024955442175269127], [-0.05628246068954468, -0.003272672649472952, -0.03088291548192501], [0.015506267547607422, 0.05968642234802246, -0.017646223306655884]], [[0.041884999722242355, -0.056440919637680054, 0.008482466451823711], [-0.024804910644888878, -0.009333690628409386, -0.05866580456495285], [-0.036282800137996674, 0.02436959743499756, 0.025347759947180748]], [[-0.04259311780333519, -0.06194943189620972, 0.04732826352119446], [-0.040028978139162064, -0.06340165436267853, 0.0388244166970253], [0.0216825008392334, -0.04146873950958252, 0.04687606170773506]], [[0.056285083293914795, 0.036891158670186996, 0.05043897405266762], [0.01642603985965252, 0.06338236480951309, 0.02066081576049328], [-0.012544971890747547, 0.08190131932497025, 0.04176158085465431]]], [[[0.021780353039503098, -0.039817094802856445, -0.052791446447372437], [0.026997506618499756, 0.00024997195578180254, -0.04432794451713562], [-0.037100933492183685, -0.03271850198507309, -0.05607505887746811]], [[-0.0771283209323883, 0.014214952476322651, 0.07134440541267395], [-0.06715719401836395, 0.0835997611284256, -0.04420609772205353], [0.012973841279745102, -0.053647562861442566, -0.028460241854190826]], [[0.081934854388237, -0.04809524863958359, 0.01618671417236328], [-0.03491891548037529, -0.07030495256185532, 0.05473729968070984], [0.060118168592453, -0.06977848708629608, 0.04764465615153313]], [[0.014020598493516445, 0.06363746523857117, -0.03426147252321243], [-0.0013398032169789076, -0.0013246869202703238, 0.026402395218610764], [0.0163724385201931, 0.008153078146278858, 0.0650937557220459]], [[-0.020139167085289955, -0.07828520238399506, -0.04174160212278366], [0.027156179770827293, 0.013488487340509892, -0.05453827232122421], [-0.019255701452493668, -0.02203213982284069, -0.004274285864084959]], [[-0.05789996311068535, -0.03782796859741211, -0.03821825981140137], [0.017381152138113976, 0.016296323388814926, -0.040704142302274704], [0.05832521244883537, 0.02081279084086418, 0.0076596736907958984]], [[0.07252596318721771, -0.04176808521151543, 0.07525980472564697], [-0.06796794384717941, -0.08129648864269257, -0.05572681874036789], [0.014232069253921509, -0.01861879788339138, -0.05275376886129379]], [[-0.04087522625923157, 0.04336169734597206, 0.019231369718909264], [-0.007389458362013102, 0.026338808238506317, -0.06935377418994904], [0.05624126270413399, -0.030423229560256004, -0.007139386609196663]], [[-0.06133958697319031, -0.054921045899391174, 0.06473951041698456], [-0.0036794147454202175, 0.0023708799853920937, 0.009471177123486996], [0.012017199769616127, -0.005600417964160442, -0.06962564587593079]], [[0.07073187828063965, 0.07380866259336472, 0.07470785081386566], [0.06214300915598869, 0.020117033272981644, 0.051691096276044846], [-0.00355324475094676, -0.030714409425854683, -0.04332021623849869]], [[-0.07109645754098892, 0.011089046485722065, -0.026658663526177406], [-0.015877272933721542, -0.027972714975476265, -0.04154243320226669], [-0.03405265510082245, 0.07346624881029129, 0.026343798264861107]], [[-0.04123513773083687, 0.03603488206863403, 0.032137468457221985], [0.02524443343281746, 0.053643740713596344, -0.013678232207894325], [-0.033290013670921326, 0.07439900934696198, -0.026485193520784378]], [[0.004798422567546368, -0.08161969482898712, -0.06583762168884277], [-0.07624433934688568, -0.08249081671237946, 0.027540981769561768], [0.0012239416828379035, -0.0322035476565361, 0.0023449163418263197]], [[-0.06626638025045395, 0.008151492103934288, 0.014919350855052471], [0.07315926253795624, 0.03851774334907532, -0.038604944944381714], [-0.036429278552532196, -0.040511250495910645, -0.08329911530017853]], [[-0.017073631286621094, -0.016978243365883827, 0.0015531653771176934], [-0.016491856426000595, 0.04414914920926094, -0.017553558573126793], [0.06646183133125305, -0.028747472912073135, -0.05367633327841759]], [[0.0686546117067337, -0.07361148297786713, -0.03333502635359764], [0.01000494509935379, 0.08718171715736389, 0.018002893775701523], [-0.02540493570268154, 0.08572016656398773, -0.019277362152934074]]], [[[0.049113236367702484, -0.03939307853579521, -0.07724840939044952], [-0.05218477174639702, -0.015510897152125835, 0.008548915386199951], [-0.07752424478530884, 0.027018418535590172, 0.045525990426540375]], [[-0.02366657368838787, 0.05270212143659592, 0.07676124572753906], [-0.04285922646522522, 0.0013175597414374352, -0.04467391222715378], [0.0027487738989293575, -0.05981934070587158, -0.06757400929927826]], [[0.015299966558814049, 0.06177431344985962, -0.036342233419418335], [-0.04833788797259331, 0.0482640378177166, 0.04644494876265526], [-0.07422536611557007, 0.05930978059768677, -0.04939686506986618]], [[-0.008681385777890682, -0.035942818969488144, -0.0776173397898674], [0.016683300957083702, -0.000497539876960218, 0.06795188039541245], [-0.021362820640206337, -0.035637639462947845, -0.0658557116985321]], [[0.04537825286388397, -0.02855655550956726, 0.030233293771743774], [0.04083177074790001, 0.03398897498846054, 0.0914488136768341], [0.08011752367019653, -0.04425849765539169, 0.056246157735586166]], [[0.050211429595947266, -0.03145092725753784, -0.01816488429903984], [0.02604299783706665, -0.031191637739539146, 0.07531031221151352], [-0.06139957159757614, 0.00358475255779922, 0.007873564958572388]], [[0.010961731895804405, 0.0701783150434494, -0.06961493194103241], [0.05433794856071472, -0.02416936680674553, -0.021345576271414757], [-0.06201247498393059, 0.015096795745193958, -0.00237390398979187]], [[0.07281702756881714, 0.022869683802127838, 0.0955071821808815], [0.03123655542731285, 0.04316074028611183, -0.05780965834856033], [0.09809820353984833, 0.01374838873744011, -0.04483451321721077]], [[0.07393629848957062, 0.003607210936024785, -0.0016796764684841037], [-0.03369850292801857, -0.0729927197098732, 0.018336176872253418], [0.032606348395347595, -0.0067776888608932495, 0.0614456981420517]], [[-0.04835749790072441, 0.06698468327522278, 0.026101354509592056], [0.08796972781419754, -0.04857717826962471, 0.08159413188695908], [0.02520054765045643, 0.08641045540571213, 0.07492970675230026]], [[0.1064155325293541, 0.00659767584875226, 0.11465509980916977], [0.1064937561750412, 0.055032309144735336, 0.03523607552051544], [0.13245302438735962, 0.014026211574673653, 0.1488456279039383]], [[0.0771818533539772, 0.0014460603706538677, -0.03149779140949249], [-0.06858756393194199, 0.018148129805922508, 0.04188971966505051], [-0.023750483989715576, -0.07745341956615448, 0.07772233337163925]], [[-0.014349192380905151, 0.03001294657588005, 0.028405725955963135], [0.04771989583969116, 0.07589074969291687, 0.038819096982479095], [0.03077411651611328, 0.038155049085617065, 0.0400310680270195]], [[0.016385376453399658, 0.02670936845242977, -0.04228256270289421], [0.0009540915489196777, 0.023032348603010178, 0.06597794592380524], [0.01623646542429924, 0.006172706838697195, 0.018642088398337364]], [[-0.00774602172896266, -0.02178761176764965, -0.005302503705024719], [-0.06919596344232559, -0.015759598463773727, 0.009549172595143318], [-0.05875478312373161, -0.07594659924507141, 0.0033869838807731867]], [[0.07478654384613037, -0.023072676733136177, -0.03622555732727051], [0.1115553006529808, 0.0865168571472168, 0.042967576533555984], [-0.001823123195208609, 0.008182123303413391, 0.01681092381477356]]], [[[-0.020450424402952194, 0.04944787546992302, -0.047068558633327484], [-0.06382936239242554, 0.019794544205069542, 0.07445685565471649], [0.04701218008995056, 0.07837460935115814, 0.07122726738452911]], [[-0.009646015241742134, -0.07056459039449692, 0.008510404266417027], [-0.035149045288562775, -0.0366486981511116, 0.037784866988658905], [-0.058095723390579224, -0.01622627303004265, -0.024052981287240982]], [[0.04611954092979431, 0.04809051752090454, -0.0009757479419931769], [0.05085507035255432, 0.07340201735496521, -0.039758406579494476], [-0.04574967548251152, 0.006035417318344116, -0.0546012744307518]], [[0.043956857174634933, 0.0037935238797217607, 0.0184608306735754], [0.06986720860004425, -0.029855182394385338, 0.015681475400924683], [-0.050735216587781906, 0.0728803277015686, -0.037377454340457916]], [[0.0119553217664361, 0.04438847675919533, -0.041308656334877014], [-0.06751851737499237, -0.05007828399538994, 0.035000644624233246], [0.05085378885269165, -0.07517059892416, -0.061403222382068634]], [[0.06828474998474121, -0.0016719698905944824, 0.07607641071081161], [0.016741245985031128, 0.03473840281367302, -0.08329852670431137], [-0.03622167557477951, 0.022680819034576416, 0.019999077543616295]], [[0.051951467990875244, 0.032560501247644424, 0.043859999626874924], [0.0024651787243783474, -0.004701276775449514, 0.061606090515851974], [0.05565708875656128, 0.06393856555223465, -0.0045141978189349174]], [[-0.035340093076229095, 0.047992244362831116, -0.03737778589129448], [0.06558398902416229, -0.014530450105667114, -0.021086128428578377], [0.0009386672754772007, -0.06952879577875137, 0.04504190385341644]], [[0.07343577593564987, 0.021515535190701485, 0.07572070509195328], [0.026211997494101524, 0.07112741470336914, -0.06821940094232559], [-0.026219194754958153, 0.027424518018960953, -0.07681819051504135]], [[-0.02101755514740944, 0.08435918390750885, 0.0419800765812397], [-0.025454595685005188, 0.04955381527543068, 0.04237953945994377], [0.04628648981451988, -0.030611315742135048, 0.07586828619241714]], [[0.06930632144212723, 0.008465119637548923, 0.016124384477734566], [-0.06088999658823013, -0.07962200790643692, 0.0782213881611824], [0.05788962543010712, -0.06923102587461472, -0.004813066683709621]], [[0.0438847690820694, 0.008920877240598202, 0.08261024206876755], [0.0137825021520257, -0.068596750497818, -0.03244360536336899], [-0.007852355018258095, 0.006213483400642872, 0.029417609795928]], [[0.08112867921590805, -0.03595435619354248, -0.07168214023113251], [0.06793123483657837, -0.05086443945765495, -0.03317486494779587], [-0.011073261499404907, -0.042879343032836914, -0.022693734616041183]], [[0.056298308074474335, -0.027565350756049156, -0.05042630434036255], [-0.005563398357480764, 0.054156940430402756, 0.04092779755592346], [0.016729285940527916, 0.04254606366157532, -0.04383168742060661]], [[0.06992094218730927, -0.030899878591299057, 0.07597241550683975], [-0.0503271110355854, -0.017133256420493126, 0.05752331763505936], [0.07399211078882217, -0.0320734903216362, -0.020023729652166367]], [[-0.019534559920430183, -0.03835795819759369, 0.06349065154790878], [-0.02643461711704731, -0.05417058616876602, -0.06098039448261261], [0.031657323241233826, 0.036157697439193726, -0.036666389554739]]]], "encoder.3.bias": [-0.014246737584471703, -0.010079838335514069, 0.06071656942367554, -0.0662102997303009, -0.001318611204624176, 0.057169776409864426, 0.014742078259587288, 0.007754278834909201], "decoder.0.weight": [[[[0.06927942484617233, 0.072597436606884, -0.04776804894208908], [0.04686374589800835, -0.04062607139348984, -0.03750448673963547], [0.06382298469543457, 0.06210946664214134, -0.03448213264346123]], [[0.010531634092330933, -0.0552634596824646, 0.08020372688770294], [0.01767594739794731, 0.06288428604602814, -0.02375401183962822], [0.0006340345134958625, 0.06588920205831528, -0.06949226558208466]], [[-0.03982436656951904, -0.058518003672361374, 0.00415047025308013], [0.021742569282650948, -0.04695422574877739, -0.049555446952581406], [0.020664960145950317, -0.03315293788909912, -0.03571286052465439]], [[-0.06315447390079498, 0.07817491888999939, 0.04766341671347618], [0.08192408084869385, 0.00044890245771966875, -0.06865260750055313], [-0.023610981181263924, 0.07473178207874298, 0.07892628014087677]], [[-0.05045284703373909, -0.07908833026885986, -0.015460249036550522], [-0.044142358005046844, 0.054551977664232254, 0.0254209004342556], [-0.06325781345367432, -0.04469922184944153, -0.06973156332969666]], [[0.024591585621237755, -0.015367117710411549, 0.0777541846036911], [-0.08240001648664474, 0.03046482428908348, -0.07703634351491928], [0.08051243424415588, -0.042988453060388565, 0.05566844344139099]], [[0.04612729698419571, -0.042593441903591156, 0.07384534180164337], [0.03865457698702812, -0.04081529751420021, 0.02315814606845379], [0.00736756157130003, 0.03566431254148483, 0.011730444617569447]], [[0.05501123517751694, -0.031025998294353485, 0.06084508076310158], [-0.0010684828739613295, 0.042618535459041595, -0.05621838569641113], [0.00041828412213362753, 0.016753803938627243, 0.07215163111686707]], [[-0.019559910520911217, 0.008685111068189144, -0.0044248877093195915], [-0.06453507393598557, 0.0014933645725250244, -0.009652521461248398], [-0.08220778405666351, -0.0516076497733593, 0.06159518286585808]], [[0.01511390507221222, -0.07298409938812256, 0.017042795196175575], [-0.08256642520427704, 0.04395483061671257, -0.07601732015609741], [-0.04282982647418976, -0.04018841311335564, 0.023695530369877815]], [[-0.08038878440856934, 0.018055668100714684, -0.04402855411171913], [-0.006051632110029459, -0.050779521465301514, 0.06412533670663834], [-0.060820020735263824, -0.00946127437055111, 0.0483592264354229]], [[0.0586470291018486, -5.9266887546982616e-05, -0.06851552426815033], [-0.019171297550201416, -0.024807322770357132, 0.07960715889930725], [0.07247006148099899, 0.028461676090955734, -0.03321545943617821]], [[0.03334682434797287, -0.05268006771802902, 0.08214899152517319], [0.06084778159856796, 0.02386261336505413, -0.012915144674479961], [-0.006987820379436016, -0.024975290521979332, 0.049590662121772766]], [[-0.04456580802798271, -0.007589539047330618, -0.058521877974271774], [-0.062414251267910004, -0.07718975841999054, -0.006503302603960037], [0.03480948135256767, -0.047443222254514694, -0.06587161123752594]], [[-0.037686657160520554, 0.033516429364681244, -0.042051635682582855], [0.04298790544271469, -0.01870882511138916, 0.05773420259356499], [0.06446218490600586, 0.06076149269938469, -0.019136568531394005]], [[0.04534619674086571, -0.07452717423439026, -0.08294135332107544], [0.03038787841796875, -0.0025361578445881605, -0.04345999285578728], [-0.07058518379926682, -0.06726402044296265, -0.020426351577043533]]], [[[-0.06881777197122574, 0.025459973141551018, -0.011198580265045166], [0.03034183196723461, 0.061540983617305756, -0.031780119985342026], [-0.07528209686279297, 0.0932505652308464, -0.05334316939115524]], [[-0.04459583759307861, -0.056840818375349045, 0.006248752120882273], [-0.0266141127794981, 0.07398903369903564, -0.06138622388243675], [-0.04534982517361641, -0.013612767681479454, -0.008988002315163612]], [[-0.013938462361693382, 0.015848001465201378, 0.002436709590256214], [-0.01454166229814291, 0.056604478508234024, 0.056376222521066666], [0.03899865970015526, 0.0656135156750679, -0.05795919895172119]], [[-0.02289261482656002, -0.0012674991739913821, 0.008884137496352196], [0.026625679805874825, 0.0113786980509758, 0.020336808636784554], [0.026407675817608833, 0.04232832416892052, 0.07737087458372116]], [[0.04449451342225075, 0.013021225109696388, 0.007461910136044025], [-0.02458500675857067, 0.011441372334957123, -0.039403270930051804], [-0.06869141012430191, -0.07235511392354965, 0.059520356357097626]], [[-0.057937897741794586, 0.003932478372007608, -0.06298335641622543], [-0.05608423054218292, 0.038285430520772934, -0.04919327795505524], [-0.07325340807437897, 0.07253701984882355, 0.0047157080844044685]], [[0.039069902151823044, 0.07028879970312119, 0.015911048278212547], [0.07502952218055725, 0.028850317001342773, -0.01771146059036255], [0.013626127503812313, -0.02203432284295559, 0.061777263879776]], [[0.09047888964414597, 0.06441599130630493, 0.08864781260490417], [0.02981122024357319, 0.06469430774450302, 0.07905401289463043], [0.0015039998106658459, 0.02622942440211773, -0.07300622761249542]], [[0.06947708129882812, 0.03496508300304413, -0.05966909974813461], [0.08565966784954071, -0.06225986033678055, 0.08528075367212296], [0.011204559355974197, 0.0783439502120018, -0.07090572267770767]], [[0.05715520307421684, -0.06918925046920776, 0.050614941865205765], [-0.06600488722324371, -0.07035645842552185, -0.03992889076471329], [-0.017012516036629677, 0.08661632239818573, -0.05266350135207176]], [[-0.017683055251836777, -0.0229866374284029, 0.030791224911808968], [0.08717093616724014, -0.024679940193891525, 0.0043721445836126804], [-0.03637555241584778, 0.05404474958777428, 0.02279571443796158]], [[0.07123271375894547, -0.003494781209155917, 0.029632069170475006], [-0.014234563335776329, 0.05584808439016342, -0.052292417734861374], [-0.06430736184120178, 0.054518602788448334, -0.08382068574428558]], [[-0.05611833557486534, -0.03630205616354942, 0.00032237262348644435], [-0.06600788235664368, -0.03355322778224945, -0.021569304168224335], [0.04180849716067314, 0.006236069370061159, -0.08245186507701874]], [[0.05915563553571701, 0.05559510737657547, -0.0638224184513092], [0.00015435136447194964, -0.05497153475880623, -0.034043945372104645], [0.05283063277602196, 0.010803560726344585, 0.07686392217874527]], [[-0.005396044813096523, 0.014224410988390446, 0.023466182872653008], [0.06378760933876038, -0.0678376704454422, 0.0574306845664978], [-0.07541260868310928, 0.052130840718746185, -0.051989808678627014]], [[0.05545403063297272, -0.05858374014496803, 0.002407727064564824], [-0.05874808877706528, -0.07559137046337128, -0.013083785772323608], [0.036098916083574295, 0.020509036257863045, -0.023501483723521233]]], [[[0.06112931668758392, 0.08134805411100388, -0.03623748943209648], [-0.07141698151826859, -0.026456939056515694, -0.07910948246717453], [-0.014331960119307041, 0.0029785463120788336, -0.013384699821472168]], [[-0.04289350286126137, 0.03330007568001747, -0.03212037310004234], [-0.035264261066913605, 0.07724267989397049, -0.057478729635477066], [0.0703563317656517, 0.027468698099255562, 0.06403806060552597]], [[0.0709599032998085, 0.040891051292419434, -0.00046313845086842775], [-0.0654309019446373, 0.0006229227874428034, 0.012314614839851856], [-0.010450910776853561, 0.041643835604190826, -0.012174447998404503]], [[0.09223119914531708, 0.0026349087711423635, 0.09437192231416702], [0.07774004340171814, -0.05459531769156456, 0.09670963883399963], [0.05906032770872116, 0.0006985493237152696, -0.05323413759469986]], [[0.02474304288625717, 0.0632292628288269, 0.08788418769836426], [-0.013279017992317677, -0.009388606995344162, 0.019450100138783455], [0.01863139308989048, -0.01312599889934063, -0.06755984574556351]], [[-0.061340637505054474, 0.006329110823571682, -0.02011883072555065], [0.017332207411527634, 0.01509193703532219, 0.06380484998226166], [0.028728513047099113, 0.07888670265674591, -0.0028570317663252354]], [[-0.0016192719340324402, -0.015571229159832, 0.0609644316136837], [0.016915075480937958, 0.07245994359254837, 0.03482753783464432], [0.05185822769999504, -0.07243413478136063, -0.030103029683232307]], [[0.028691664338111877, -0.034091394394636154, 0.00586799206212163], [0.06167900189757347, 0.01295115053653717, -0.08053119480609894], [0.00988693442195654, 0.03676396608352661, 0.08396874368190765]], [[0.021611489355564117, 0.05888047069311142, -0.00585534330457449], [0.05018278956413269, 0.02123483084142208, -0.06191237270832062], [0.010293173603713512, 0.011563519015908241, -0.06647445261478424]], [[-0.0026166310999542475, 0.09251286089420319, 0.05663147196173668], [0.030819963663816452, 0.04847881570458412, -0.037566881626844406], [-0.05408470705151558, -0.05589895695447922, 0.08442820608615875]], [[-0.004094211384654045, -0.0352950356900692, -0.0031806842889636755], [-0.008529421873390675, 0.009912786073982716, 0.007587778382003307], [0.027569949626922607, -0.013919214718043804, 0.09472180902957916]], [[-0.019837914034724236, 0.04342234507203102, 0.04179445281624794], [-0.03685183450579643, -0.055202193558216095, -0.07908856123685837], [0.051579851657152176, -0.04404362291097641, -0.003195699770003557]], [[0.005879542790353298, -0.019434399902820587, -0.009774741716682911], [0.05985249578952789, -0.009891093708574772, -0.03978625684976578], [-0.05118027329444885, 0.06966573745012283, 0.04872170090675354]], [[-0.07097210735082626, -0.0800505056977272, -0.03235108405351639], [0.002951323753222823, 0.0782715454697609, -0.01630220003426075], [0.04647808149456978, -0.06004462018609047, -0.04769511520862579]], [[-0.010464824736118317, -0.05529296025633812, 0.06935746222734451], [0.08430960029363632, -0.060263149440288544, 0.05757398530840874], [-0.034615494310855865, 0.07112418860197067, 0.04313415288925171]], [[0.06586429476737976, 0.02465962991118431, 0.049068957567214966], [-0.03336641564965248, 0.017475446686148643, -0.005165457725524902], [-0.07781832665205002, 0.03462650999426842, 0.04483463242650032]]], [[[0.056574076414108276, -0.06941937655210495, 0.017645280808210373], [0.04169061407446861, -0.0809173658490181, 0.04173721373081207], [0.030801761895418167, -0.07371500134468079, -0.07923507690429688]], [[0.0057165734469890594, -0.06915880739688873, 0.03954770043492317], [0.07131294161081314, 0.03560443967580795, 0.0795949250459671], [0.03702973946928978, 0.03391961380839348, 0.048507023602724075]], [[-0.020941831171512604, -0.047526199370622635, 0.015468599274754524], [0.025210924446582794, 0.024455077946186066, -0.004953524097800255], [-0.027977846562862396, 0.06811299175024033, 0.055866193026304245]], [[0.05470873415470123, -0.05911348760128021, -0.06681358069181442], [0.04610792547464371, -0.020887341350317, -0.0024791699834167957], [0.021195027977228165, -0.044969722628593445, -0.045422982424497604]], [[-0.024599891155958176, -0.07069382816553116, 0.03503641486167908], [-0.04121141880750656, 0.08212975412607193, -0.01806897111237049], [-0.01244704332202673, -0.06004158779978752, -0.04093845933675766]], [[0.05568821355700493, 0.08327210694551468, -0.029095901176333427], [0.05806441977620125, -0.05268207937479019, -0.019353006035089493], [-0.05392225831747055, -0.009967237710952759, 0.04324634373188019]], [[0.023460131138563156, 0.0754479467868805, -0.019218064844608307], [-0.042642056941986084, 0.060510989278554916, -0.053299013525247574], [-0.021868810057640076, -0.043278902769088745, -0.03930596634745598]], [[-0.04526028037071228, 0.053508542478084564, 0.033817969262599945], [0.012751634232699871, 0.06927148252725601, -0.03599422797560692], [-0.010920459404587746, -0.0548839345574379, -0.06363657861948013]], [[0.015246830880641937, 0.05645565316081047, -0.04452221840620041], [0.009422310627996922, -0.06938567757606506, -0.07139889150857925], [0.06095357611775398, -0.027202067896723747, -0.07147466391324997]], [[0.03347921371459961, 0.02304481342434883, -0.01903126947581768], [0.0741070881485939, 0.07244572043418884, -0.052167993038892746], [-0.010461661964654922, 0.0042288522236049175, 0.05742286890745163]], [[0.05914534255862236, -0.020433209836483, -0.06841285526752472], [0.06534665822982788, 0.07735643535852432, -0.05817028507590294], [-0.08055170625448227, 0.03711823746562004, 0.07714889198541641]], [[-0.061056774109601974, -0.05781504511833191, -0.013222873210906982], [-0.017533402889966965, -0.037861332297325134, -0.06837497651576996], [-0.08309707045555115, 0.028888169676065445, 0.05276896804571152]], [[-0.04374497011303902, -0.07872026413679123, 0.025111418217420578], [-0.07995951175689697, -0.019980469718575478, 0.01643376797437668], [0.06723159551620483, 0.044736772775650024, -0.08233603090047836]], [[-0.04890114814043045, 0.05320977047085762, -0.0709899365901947], [-0.07512838393449783, -0.012197518721222878, 0.07024997472763062], [0.0057404180988669395, 0.010820564813911915, -0.05441147834062576]], [[0.05084282532334328, -0.005306439474225044, -0.07295248657464981], [0.04726609215140343, 0.01859993301331997, 0.042924631386995316], [0.01858488656580448, -0.044335607439279556, 0.02502225711941719]], [[-0.029759109020233154, 0.03726805001497269, -0.055033084005117416], [-0.038938216865062714, -0.07258524745702744, -0.06922838091850281], [-0.06219850108027458, -0.07208359986543655, -0.021666143089532852]]], [[[0.002414024667814374, -0.016341079026460648, -0.01589166186749935], [-0.029963728040456772, 0.007164014503359795, 0.058550331741571426], [0.03375997766852379, 0.060599345713853836, -0.07955597341060638]], [[0.0675554946064949, -0.08056297898292542, -0.04654664546251297], [0.017672205343842506, 0.051103927195072174, -0.07249470800161362], [-0.012775340117514133, -0.02643008343875408, -0.021548697724938393]], [[-0.07335440814495087, -0.04665237292647362, -0.022969627752900124], [0.04449782520532608, 0.05341491475701332, 0.05547604337334633], [-0.04695386067032814, -0.0849783644080162, 0.06209905073046684]], [[0.0015430324710905552, -0.050957463681697845, 0.07995253801345825], [0.048985306173563004, 0.028379196301102638, 0.02358754351735115], [-0.047178369015455246, 0.06394292414188385, 0.00024269991263281554]], [[0.009660448879003525, 0.03505627438426018, 0.062096189707517624], [0.06594342738389969, 0.0896243005990982, -0.04610198363661766], [0.05878881365060806, -0.0223182775080204, -0.056570254266262054]], [[0.014984824694693089, 0.030350353568792343, 0.07372661679983139], [0.057736385613679886, -0.07101040333509445, 0.07999454438686371], [-0.06676112115383148, 0.03168461471796036, -0.009856964461505413]], [[-0.000556916173081845, -0.039031755179166794, 0.048225972801446915], [0.022313527762889862, 0.0014179631834849715, -0.010492862202227116], [0.06016528233885765, -0.005828610621392727, 0.004112266935408115]], [[0.0005790576688013971, -0.08022485673427582, 0.06392134726047516], [-0.07026863843202591, -0.06473574042320251, -0.057042043656110764], [0.019701052457094193, -0.03618182614445686, 0.011357604525983334]], [[0.03662291541695595, 0.001979530556127429, 0.028093790635466576], [0.017473800107836723, 0.04327394440770149, 0.03151770681142807], [-0.0027446721214801073, 0.0026215501129627228, 0.05895982310175896]], [[-0.04721567779779434, 0.03874947130680084, 0.039041124284267426], [0.026796605437994003, -0.07508580386638641, -0.0020727079827338457], [0.08986356854438782, 0.0424952358007431, -0.0007282521110028028]], [[0.05952059477567673, -0.0786573588848114, -0.05923963338136673], [0.02909296192228794, 0.0027003514114767313, 0.015419283881783485], [0.021991850808262825, 0.02235379070043564, 0.07069919258356094]], [[0.009170979261398315, -0.06322265416383743, 0.010755045339465141], [-0.018008213490247726, -0.07957962155342102, -0.007588644977658987], [-0.026066573336720467, 0.041780102998018265, -0.04798217862844467]], [[0.07357092946767807, 0.06441176682710648, 0.04380093887448311], [0.03205190226435661, 0.014732525683939457, 0.08348246663808823], [0.07869976758956909, -0.06148551404476166, -0.024567870423197746]], [[-0.05781691148877144, -0.07262822240591049, 0.03642193600535393], [0.04306598752737045, -0.017076531425118446, -0.010519063100218773], [0.05444925278425217, -0.03344123810529709, -0.05054067075252533]], [[-0.06526220589876175, 0.02882806397974491, -0.015627605840563774], [0.036756858229637146, 0.03421878069639206, -0.012490957975387573], [-0.05351259931921959, 0.06834357231855392, 0.0489802248775959]], [[-0.04802115634083748, -0.02353450283408165, 0.03332274407148361], [0.03538452461361885, -0.07306784391403198, -0.022829681634902954], [0.06991058588027954, 0.0044986894354224205, 0.00795120932161808]]], [[[-0.05291126295924187, 0.005745747592300177, -0.045040540397167206], [0.04474284499883652, -0.03571698069572449, -0.013636672869324684], [-0.04288698360323906, -0.06819098442792892, 0.03444875404238701]], [[-0.007440987974405289, -0.07275591790676117, -0.010427660308778286], [-0.013805524446070194, 0.041347332298755646, -0.014594212174415588], [0.04564056545495987, 0.028262903913855553, -0.05133352056145668]], [[0.014466963708400726, -0.04747017100453377, 0.0379406102001667], [-0.05267585068941116, -0.06372583657503128, 0.04798654094338417], [0.004027591552585363, -0.07126545161008835, -0.05393695458769798]], [[-0.04138484224677086, -0.031223030760884285, 0.0461406484246254], [0.04506024345755577, -0.005193237215280533, -0.07509151846170425], [0.05810431391000748, -0.005371824838221073, -0.004452595487236977]], [[0.013038719072937965, -0.05868837982416153, 0.061643581837415695], [0.05101099610328674, 0.04734297841787338, -0.035906337201595306], [0.07728154957294464, 0.032618336379528046, -0.01113066729158163]], [[0.02326745167374611, -0.031609006226062775, 0.05786725878715515], [-0.043394800275564194, 0.012087679468095303, -0.01577785424888134], [0.036113571375608444, 0.02660251222550869, 0.009935250505805016]], [[-0.07327155023813248, -0.03763701021671295, -0.05510866641998291], [0.026506315916776657, -0.026373758912086487, -0.028174536302685738], [-0.06058177351951599, -0.07384716719388962, -0.05339798703789711]], [[0.02587955817580223, -0.012903687544167042, -0.03458772599697113], [-0.04842568188905716, 0.06082630902528763, -0.019657643511891365], [-0.034256789833307266, -0.07707535475492477, 0.060993969440460205]], [[0.06938891112804413, -0.0303608700633049, 0.06253938376903534], [0.08287573605775833, -0.053835269063711166, 0.018285423517227173], [-0.0522867888212204, 0.00709487684071064, 0.013464686460793018]], [[-0.07676016539335251, 0.008206862024962902, 0.005459270440042019], [-0.01650450937449932, -0.005688883364200592, -0.06546111404895782], [0.055421844124794006, 0.028315242379903793, 0.0008122323197312653]], [[-0.06241839379072189, -0.006018339190632105, -0.044127222150564194], [0.060389988124370575, 0.04360019043087959, 0.05182034522294998], [0.054321687668561935, -0.030095122754573822, 0.03505744785070419]], [[-0.029813433066010475, -0.06740343570709229, 0.06204894930124283], [-0.012401829473674297, 0.006914300378412008, -0.05197635293006897], [-0.06407342106103897, 0.007728473283350468, -0.060606569051742554]], [[0.0036093054804950953, 0.00014946212468203157, -0.04845920205116272], [-0.0795585885643959, 0.054726742208004, -0.03406444191932678], [-0.03202228248119354, 0.04069923236966133, 0.048939019441604614]], [[-0.03746511787176132, -0.0822255089879036, -0.028505371883511543], [0.05514457821846008, 0.07170137017965317, -0.007727027405053377], [0.021394144743680954, 0.05537861958146095, 0.03830608353018761]], [[-0.07306377589702606, -0.04976800084114075, -0.022968381643295288], [0.02063777670264244, 0.005763500928878784, 0.05395025387406349], [-0.021342676132917404, 0.013026096858084202, -0.004981442354619503]], [[-0.01862998865544796, 0.06133703142404556, 0.04295762628316879], [0.07212004065513611, -0.05074130743741989, -0.07295364141464233], [0.05832371488213539, 0.07355088740587234, 0.061989981681108475]]], [[[-0.04379703477025032, 0.10302599519491196, -0.07075704634189606], [-0.049444619566202164, 0.05181925371289253, 0.0207008495926857], [0.055489927530288696, 0.006808973383158445, 0.005992959253489971]], [[0.04312795400619507, 0.03471069410443306, 0.012835909612476826], [0.08062237501144409, 0.05411829054355621, -0.06942442804574966], [-0.07782181352376938, -0.0747453048825264, -0.01339363306760788]], [[0.00803892407566309, -0.01859755627810955, -0.0371517539024353], [-0.04224390909075737, -0.0803871676325798, -0.01896975375711918], [-0.018978921696543694, -0.016245510429143906, 0.04688793420791626]], [[0.1131804957985878, -0.02932700142264366, 0.07872918993234634], [0.03535247966647148, -0.04798310995101929, 0.09289994835853577], [0.07269246131181717, 0.0809091329574585, 0.04532482847571373]], [[0.0034049085807055235, 0.04844045266509056, -0.02489306405186653], [0.04364708065986633, 0.07548511028289795, 0.06779548525810242], [0.05746056139469147, 0.0026279764715582132, 0.04962436854839325]], [[0.07399910688400269, 0.06232568249106407, -0.06063421443104744], [-0.055788878351449966, 0.08774160593748093, -0.06059946119785309], [0.0002536240790504962, 0.03691878914833069, 0.028855741024017334]], [[0.030966395512223244, -0.04608984664082527, -0.05547068268060684], [-0.01896710880100727, 0.005497411359101534, -0.04737356677651405], [0.019136954098939896, 0.06797632575035095, -0.012517990544438362]], [[0.00818395521491766, -0.06065481901168823, 0.047012846916913986], [0.007891238667070866, 0.05375560373067856, -0.040774617344141006], [-0.013768143020570278, 0.03584037348628044, 0.07712163776159286]], [[0.03812716528773308, 0.038374245166778564, -0.07646337151527405], [0.03879917040467262, -0.019047841429710388, 0.0846056193113327], [0.002910499693825841, -0.00575838191434741, -0.010819965973496437]], [[0.019837280735373497, 0.062202781438827515, 0.06854066252708435], [-0.012448476627469063, -0.005441677290946245, 0.004543646704405546], [-0.05758025497198105, 0.07800924777984619, 0.07949859648942947]], [[0.06988836079835892, 0.0358106791973114, 0.08633174002170563], [0.0901346206665039, 0.05069518834352493, 0.02185354381799698], [0.014739771373569965, -0.008357375860214233, 0.02837338298559189]], [[0.04155998304486275, -0.06178996339440346, -0.04781568795442581], [0.034344326704740524, 0.017969414591789246, 0.007835229858756065], [0.0031809706706553698, -0.006256370339542627, 0.0184283796697855]], [[-0.07493505626916885, 0.04385142773389816, -0.04666578769683838], [0.04781874269247055, 0.06215856596827507, -0.024284031242132187], [-0.05857080593705177, 0.03423887491226196, 0.07496000081300735]], [[0.028449229896068573, 0.05767558515071869, -0.06989181041717529], [0.05073608458042145, -0.040769170969724655, -0.008415646851062775], [-0.03605104237794876, -0.07668200135231018, 0.029635000973939896]], [[-0.008000604808330536, -0.034804828464984894, 0.003997476771473885], [-0.052704837173223495, 0.02295493148267269, -0.06829110532999039], [0.035050392150878906, -0.05589235574007034, -0.00651047145947814]], [[0.0004938050988130271, 0.082680843770504, -0.020770294591784477], [-0.00810072012245655, -0.07909320294857025, -0.015462517738342285], [-0.04586082696914673, 0.04473849758505821, 0.08707823604345322]]], [[[-0.0789632722735405, -0.025623084977269173, 0.05983375757932663], [0.027263784781098366, -0.00721007538959384, 0.01358551625162363], [0.017916137352585793, 0.08259221166372299, -0.04724874347448349]], [[-0.013525261543691158, -0.05556490272283554, -0.06916205585002899], [-0.06481080502271652, 0.03757338225841522, 0.027781032025814056], [-0.025768715888261795, 0.07876525819301605, -0.0633712112903595]], [[-0.019047316163778305, 0.026653096079826355, 0.08036822825670242], [0.03815888240933418, 0.026582228019833565, 0.037278518080711365], [-0.07868644595146179, -0.04133572429418564, 0.061121616512537]], [[-0.04040122032165527, 0.025247763842344284, -0.020414503291249275], [-0.03613482788205147, 0.030571425333619118, 0.03363024815917015], [0.08416860550642014, -0.042658668011426926, -0.05156375840306282]], [[0.05370822921395302, -0.04725092649459839, 0.035473424941301346], [0.05342784896492958, 0.08089054375886917, 0.074673131108284], [-0.04221547022461891, -0.0196601003408432, 0.0721556544303894]], [[-0.02490587905049324, 0.011671320535242558, -0.06982772797346115], [-0.054453544318675995, 0.014881421811878681, 0.03176169842481613], [-0.04637596011161804, 0.0735185295343399, -0.06905822455883026]], [[0.07837259769439697, -0.004994628950953484, 0.058728139847517014], [0.06047022342681885, -0.00850767083466053, 0.01341642439365387], [0.060285184532403946, 0.038646917790174484, 0.022349953651428223]], [[0.03605799749493599, 0.007994834333658218, -0.03670445829629898], [-0.004802286624908447, -0.0737839788198471, -0.04067927226424217], [0.008299119770526886, 0.04490109533071518, -0.049173079431056976]], [[-0.051944565027952194, -0.006768912076950073, -0.01776059903204441], [-0.03813575208187103, -0.04727328568696976, 0.022505391389131546], [-0.04305045306682587, -0.06199225038290024, 0.07928545773029327]], [[0.022647641599178314, 0.002980343531817198, 0.018511559814214706], [-0.07574733346700668, -0.07928930222988129, -0.04229562357068062], [0.04428783059120178, 0.01491918507963419, 0.04369927942752838]], [[0.056842416524887085, -0.001360116875730455, -0.03687358647584915], [0.05852467939257622, -0.05185826122760773, 0.06950391083955765], [-0.04013141617178917, -0.04304824024438858, 0.021167989820241928]], [[0.06490781903266907, -0.02330036088824272, 0.0435030497610569], [-0.02583104372024536, 0.0540243498980999, 0.07028479874134064], [0.005417925305664539, -0.054055698215961456, -0.03693782910704613]], [[0.019238317385315895, 0.07399297505617142, -0.031767722219228745], [-0.006161213386803865, 0.01911722868680954, -0.047019436955451965], [-0.02814135141670704, -0.07664009183645248, -0.07726571708917618]], [[-0.02031824178993702, 0.010626647621393204, -0.013389868661761284], [0.05799003690481186, -0.015568574890494347, 0.07377701252698898], [0.07556721568107605, 0.048677220940589905, -0.017532208934426308]], [[-0.07024170458316803, -0.009157133288681507, 0.0134496558457613], [-0.032250985503196716, -0.0490746796131134, 0.05293595790863037], [-0.05876392126083374, 0.021172378212213516, -0.043069977313280106]], [[-0.0005063416319899261, 0.022846894338726997, 0.0029705078341066837], [-0.04536456987261772, 0.006770342588424683, -0.0061746141873300076], [0.01604556106030941, -0.041919827461242676, 0.029546387493610382]]]], "decoder.0.bias": [-0.030500907450914383, -0.05326339602470398, 0.07873842120170593, -0.0015815714141353965, -0.07805369794368744, 0.06394556909799576, 0.012132856994867325, 0.03087814338505268, -0.016853265464305878, 0.060697827488183975, -0.05532808601856232, -0.07055966556072235, 0.07935591787099838, 0.030513299629092216, -0.06713605672121048, -0.03787858411669731], "decoder.2.weight": [[[[0.005621376913040876, 0.010808314196765423, -0.02696097642183304, -0.06957944482564926, 0.05923008546233177], [-0.005619067698717117, -0.07442571967840195, 0.04049596190452576, 0.014682848006486893, 0.015603416599333286], [0.0045699370093643665, 0.03476915508508682, -0.06880991905927658, -0.03275575488805771, -0.0498422272503376], [0.056757912039756775, -0.041448187083005905, 0.009560637176036835, 0.006763572338968515, 0.01129643339663744], [-0.013699511997401714, -0.07423218339681625, -0.06587620824575424, 0.06412959098815918, 0.00424905214458704]], [[0.03202147036790848, 0.05549468472599983, 0.04926172271370888, -0.047444261610507965, -0.012152035720646381], [0.06273321807384491, -0.06916031241416931, -0.011433052830398083, -0.052447233349084854, 0.017046213150024414], [-0.002757361391559243, 0.008587231859564781, 0.04390401765704155, -0.03589503839612007, -0.0615723542869091], [-0.00781929399818182, -0.015135502442717552, 0.07595671713352203, -0.028470417484641075, 0.031098462641239166], [0.069572813808918, -0.02557365968823433, -0.04805738478899002, -0.06035806983709335, -0.06626153737306595]], [[-0.008615449070930481, 0.025286706164479256, 0.03408639878034592, -0.05150676146149635, -0.03144124150276184], [0.06548002362251282, -0.026734722778201103, -0.02638748101890087, -0.035722360014915466, 0.0641520619392395], [-0.031545255333185196, -0.05491875484585762, -0.020999480038881302, -0.044461797922849655, 0.020440932363271713], [0.04945030435919762, -0.0013821087777614594, -0.06913446635007858, 0.006699114106595516, 0.017409585416316986], [-0.023748667910695076, -0.052023936063051224, -0.004840043373405933, 0.0432804711163044, 0.0050245304591953754]], [[-0.042247213423252106, -0.005033897235989571, 0.05510848015546799, 0.03871520608663559, -0.057570163160562515], [0.002636138116940856, -0.019830990582704544, 0.04689051955938339, 0.06416589021682739, -0.05240756273269653], [0.0337817519903183, 0.04790375009179115, 0.08352389931678772, -0.04861396178603172, 0.04067683592438698], [0.015773290768265724, 0.05971677973866463, -0.021940648555755615, 0.05276172235608101, -0.06301216781139374], [0.04699118435382843, -0.054525863379240036, 0.0025393906980752945, -0.017427703365683556, 0.006415308453142643]], [[0.04054400697350502, 0.0660177692770958, 0.037735942751169205, 0.012861921451985836, 0.06147349998354912], [-0.039662234485149384, -0.0033689525444060564, -0.034973714500665665, -0.050396744161844254, 0.030760791152715683], [-0.05084576830267906, 0.014202786609530449, -0.048296406865119934, 0.04424937441945076, 0.0676652267575264], [-0.03653307259082794, -0.0033704438246786594, 0.0168706513941288, -0.04874822124838829, -0.03368494287133217], [-0.046089813113212585, 0.06548647582530975, 0.012606590986251831, -0.011772592552006245, -0.06702948361635208]], [[-0.005659752059727907, -0.04262416064739227, 0.021515320986509323, -0.0317092128098011, 0.008346064016222954], [0.028339078649878502, -0.03818130120635033, -0.05831899866461754, -0.029740802943706512, 0.04329022765159607], [0.007599095813930035, 0.07707354426383972, -0.020668916404247284, 0.06857648491859436, -0.052957143634557724], [0.07095231860876083, -0.016688881441950798, 0.01957971230149269, 0.05131322517991066, -0.06708075106143951], [-0.06226413697004318, 0.019091004505753517, 0.046743884682655334, 0.06275629997253418, 0.07545690983533859]], [[-0.00905259046703577, 0.04202089458703995, -0.0614221952855587, 0.03697001561522484, -0.017210692167282104], [0.03428039699792862, -0.057895366102457047, 0.06784015148878098, 0.04360952973365784, 0.007337491028010845], [0.041439592838287354, -0.05669514089822769, 0.022533420473337173, -0.06624818593263626, 0.031257692724466324], [-0.04166664183139801, 0.055605098605155945, 0.06565997749567032, -0.04160572215914726, -0.02374090813100338], [-0.025912316516041756, -0.054452959448099136, 0.023338690400123596, 0.0172813031822443, -0.02607218362390995]], [[-0.02629958465695381, 0.038580238819122314, 0.054506804794073105, 0.06485843658447266, -0.04672462120652199], [0.015561291947960854, -0.033621396869421005, -0.0276198647916317, -0.021286187693476677, 0.0284824650734663], [-0.031804315745830536, 0.05746451020240784, -0.025877976790070534, -0.045526307076215744, 0.014789153821766376], [0.0025362169835716486, 0.0702948272228241, -0.03962681442499161, -0.0222164299339056, 0.03824543580412865], [-0.06384150683879852, 0.030350422486662865, 0.03532818332314491, -0.06390370428562164, 0.06473315507173538]]], [[[0.008554358035326004, -0.03661853447556496, -0.052516307681798935, -0.05258486419916153, -0.051950614899396896], [-0.05811304226517677, 0.04207976162433624, 0.000747715646866709, -0.001011607819236815, 0.04959704726934433], [0.01965169422328472, -0.012673224322497845, 0.011851572431623936, -0.022010251879692078, 0.05042516440153122], [-0.010658139362931252, 0.029550546780228615, -0.005379121284931898, -0.06120958924293518, -0.033872172236442566], [-0.047549277544021606, -0.04808316379785538, 0.03477059304714203, -0.01388298999518156, 0.0043168137781322]], [[-0.044294323772192, -0.030921809375286102, 0.009401545859873295, 0.019502362236380577, -0.0014917965745553374], [-0.041760314255952835, -0.06747543811798096, -0.03876776993274689, -0.0465390682220459, 0.007873188704252243], [-0.018652521073818207, 0.06298843026161194, 0.04650929942727089, -0.013381371274590492, 0.030980566516518593], [-0.061065737158060074, 0.00020573647634591907, -0.026243412867188454, 0.01984133943915367, 0.030873145908117294], [-0.03793003410100937, 0.02692059986293316, 0.0410873219370842, 0.03914095461368561, -0.05650404840707779]], [[-0.06494417786598206, -0.01609102264046669, 0.020938066765666008, 0.00012957144645042717, 0.030550766736268997], [-0.059061940759420395, 0.03072347119450569, 0.05735651031136513, 0.03929640352725983, -0.04623620957136154], [-0.0034041020553559065, -0.027119774371385574, 0.04272666200995445, 0.012676472775638103, -0.004288763273507357], [0.03948758915066719, -0.06497567147016525, 0.039016254246234894, -0.018828554078936577, -0.059919118881225586], [0.03450455889105797, -0.0012490020599216223, 0.056875623762607574, 0.051639802753925323, 0.05848740041255951]], [[0.0013036290183663368, 0.062078166753053665, 0.06948231905698776, 0.03789960965514183, 0.0601942278444767], [-0.061234407126903534, -0.0026342151686549187, 0.033834733068943024, -0.029395220801234245, -0.012497796677052975], [-0.059341054409742355, 0.01963617093861103, -0.003202977357432246, -0.020267631858587265, 0.04522806778550148], [-0.01784042827785015, 0.005257958080619574, 0.014611270278692245, 0.060631055384874344, 0.02507670223712921], [-0.019610930234193802, -0.03539729863405228, -0.043972522020339966, 0.004525696858763695, -0.06278999894857407]], [[-0.03023158200085163, -0.06277216970920563, 0.04611677676439285, 0.006927013397216797, -0.05290363356471062], [-0.026652397587895393, 0.004754598718136549, -0.05833771452307701, 0.061082351952791214, -0.019918780773878098], [-0.041884645819664, -0.05591569095849991, -0.038196563720703125, 0.01103588379919529, -0.014162110164761543], [0.02590811625123024, 0.006865247618407011, -0.02700117789208889, -0.02926858700811863, -0.06177530065178871], [-0.058723244816064835, 0.038310326635837555, 0.014221231453120708, 0.04280273988842964, 0.0670965239405632]], [[0.04043157026171684, 0.00908620748668909, -0.04350896552205086, 0.06015864014625549, -0.024664005264639854], [0.026962805539369583, -0.004334193654358387, -0.010779383592307568, 0.0753316804766655, 0.04341627284884453], [0.032531969249248505, 0.055231306701898575, 0.06915608793497086, -0.05252651125192642, 0.04481598734855652], [0.03910403326153755, -0.013514955528080463, 0.05113536864519119, 0.029619166627526283, 0.02294798567891121], [-0.0611671507358551, -0.053287651389837265, -0.02662116102874279, 0.04717158153653145, 0.04621298611164093]], [[0.02992955595254898, -0.0018004452576860785, -0.03346658870577812, 0.06602884083986282, -0.033935241401195526], [-0.02185109630227089, -0.05594957619905472, 0.007067579310387373, 0.04015914350748062, -0.05972757935523987], [-0.05274205282330513, 0.032047338783741, 0.035032719373703, -0.05418374016880989, -0.011568390764296055], [0.029931291937828064, -0.002273689256981015, 0.003783355699852109, -0.03805043548345566, 0.03577418252825737], [0.05084766447544098, 0.009426536969840527, -0.02020360715687275, 0.05314759910106659, -0.06704878807067871]], [[-0.04413242265582085, 0.06832582503557205, -0.021926961839199066, -0.03996271640062332, 0.053103845566511154], [0.03796358406543732, 0.01869497075676918, 0.030160363763570786, -0.028179174289107323, 0.040867697447538376], [-0.023830797523260117, 0.014249049127101898, 0.02346942014992237, 0.021797871217131615, 0.038236577063798904], [-0.010438094846904278, -0.025833293795585632, 0.03393056243658066, 0.03479065001010895, 0.0215055700391531], [-0.036595702171325684, -0.047247081995010376, -0.0506475493311882, -0.0020501448307186365, -0.055816467851400375]]], [[[0.04865586385130882, 0.02670850045979023, 0.06058477982878685, 0.04400031641125679, -0.0558784157037735], [0.06843782216310501, 0.01503743976354599, -0.0022213845513761044, -0.024488145485520363, 0.050596851855516434], [-0.00022030160471331328, -0.06427092105150223, -0.041444048285484314, -0.04948805645108223, 0.04765456169843674], [0.05047041177749634, 0.015194384381175041, 0.05701528489589691, -0.011954555287957191, -0.0006098747835494578], [0.002519775414839387, -0.05985249578952789, 0.03201697766780853, -0.036046408116817474, 0.05014462023973465]], [[0.02841978892683983, 0.05187636613845825, -0.013534780591726303, -0.06372903287410736, 0.010194044560194016], [-0.01385471597313881, -0.06119943782687187, -0.01945064589381218, -0.02290324494242668, 0.05380754545331001], [-0.012984326109290123, -0.05368076264858246, -0.062162190675735474, 0.040879081934690475, -0.025742555037140846], [-0.030286898836493492, -0.01936178095638752, 0.049602918326854706, 0.0009418468689545989, 0.05512843653559685], [0.041738111525774, 0.035318225622177124, 0.06372889876365662, 6.583496542589273e-06, 0.06654056161642075]], [[0.03505771607160568, -0.010489607229828835, 0.03879708796739578, -0.06210364028811455, -0.06273084133863449], [-0.06953537464141846, -0.01990809477865696, -0.030173227190971375, 0.03871038928627968, -0.02330782450735569], [-0.04512830451130867, 0.02841092273592949, -0.057423923164606094, 0.042100973427295685, -0.05867568776011467], [-0.05096473917365074, 0.024211004376411438, 0.0510173961520195, 0.03286813572049141, -0.05590875446796417], [0.015496544539928436, 0.03705199807882309, -0.016393613070249557, 0.0668480321764946, -0.06707993894815445]], [[0.031616222113370895, -0.057323869317770004, -0.04225480183959007, -0.047177452594041824, 0.06471037864685059], [0.06127651408314705, 0.0015757096698507667, -0.03704236075282097, 0.026810329407453537, -0.02520943246781826], [0.01866287924349308, -0.04336955025792122, -0.06788211315870285, -0.06441616266965866, 0.006584044545888901], [0.0556216686964035, 0.013117487542331219, -0.04437291622161865, -0.001758794067427516, -0.037811003625392914], [-0.02634921669960022, 0.034786395728588104, 0.04871109500527382, -0.0623621828854084, 0.06394468247890472]], [[-0.015926092863082886, -0.01580636575818062, 0.06607302278280258, 0.04077879339456558, -0.009220109321177006], [0.028125356882810593, 0.04462684690952301, -0.04752521216869354, 0.02884003520011902, 0.056635331362485886], [0.016116991639137268, -0.029263203963637352, -0.042971041053533554, -0.028583524748682976, 0.06367103010416031], [0.050042107701301575, 0.013497257605195045, -0.033160485327243805, -0.017222853377461433, 0.021981704980134964], [-0.056909676641225815, 0.06107808277010918, 0.052681226283311844, -0.029973547905683517, -0.038130443543195724]], [[-0.03138844296336174, 0.021715804934501648, -0.015203898772597313, -0.023645948618650436, 0.05185488611459732], [-0.04728704318404198, -0.050642795860767365, 0.017493754625320435, 0.015922890976071358, -0.02384730987250805], [0.0031365116592496634, 0.0694422721862793, -0.02506828121840954, -0.022215723991394043, -0.04054991528391838], [-0.028392676264047623, 0.03708362951874733, -0.06156446039676666, 0.03775851055979729, 0.05769592151045799], [0.06342772394418716, 0.017232507467269897, -0.014973907731473446, 0.0017052263719961047, -0.038278788328170776]], [[0.019148696213960648, -0.03451244905591011, 0.005392658989876509, 0.05513404309749603, 0.00211114389821887], [0.032172784209251404, 0.05119527131319046, 0.04780076444149017, -0.02720409817993641, 0.015606609173119068], [0.06608442217111588, 0.06313380599021912, -0.06559891253709793, 0.022202758118510246, 0.050482023507356644], [0.005767630413174629, 0.017764247953891754, 0.03867248818278313, 0.0597277469933033, 0.045985154807567596], [-0.032573092728853226, 0.0674903616309166, -0.008054615929722786, 0.06212041527032852, 0.009843244217336178]], [[0.07029072940349579, 0.07026513665914536, -0.02286669798195362, 0.009237437509000301, -0.04534069076180458], [-0.03811963275074959, 0.0635266974568367, 0.005909938830882311, -0.0040386696346104145, -0.014619686640799046], [0.009991483762860298, -0.031218497082591057, -0.006036838050931692, 0.06336687505245209, -0.0599186085164547], [0.025203999131917953, -0.06865901499986649, -0.0014487879816442728, -0.022703807801008224, -0.0611945204436779], [0.04585839435458183, -0.06957512348890305, 0.002536012092605233, 0.017929958179593086, 0.03669817000627518]]], [[[-0.02894114889204502, -0.0327296182513237, 0.011428814381361008, 0.015395374968647957, 0.05491402745246887], [-0.009190976619720459, 0.04272601008415222, 0.020096903666853905, 0.056165020912885666, -0.011933431029319763], [-0.06936641037464142, -0.04210089147090912, -0.06951291114091873, 0.018154753372073174, -0.037455350160598755], [-0.026597436517477036, 0.058313604444265366, 0.031019283458590508, 0.04723008722066879, -0.03984617814421654], [-0.06325306743383408, -0.017521364614367485, 0.018559817224740982, -0.0035178991965949535, 0.006412327755242586]], [[0.06467850506305695, 0.058688003569841385, 0.009889409877359867, -0.04928041622042656, -0.004684210754930973], [-0.0301688089966774, -0.0007720804424025118, -0.0428755097091198, -0.03526636213064194, -0.025468479841947556], [-0.061386026442050934, -0.05373727157711983, 0.042394306510686874, -0.042705290019512177, 0.021770726889371872], [0.02607082575559616, 0.06872167438268661, 0.046299565583467484, -0.006888401694595814, -0.048535652458667755], [0.007009914610534906, 0.037751276046037674, 0.06836231797933578, 0.01587858237326145, -0.0002734210283961147]], [[-0.012437309138476849, 0.039521995931863785, -0.005064803641289473, -0.04041224345564842, -0.029721161350607872], [-0.05524243414402008, -0.0362359881401062, -0.009397108107805252, -0.06115952879190445, 0.029798055067658424], [-0.06972552835941315, 0.005474474746733904, 0.005516907200217247, -0.04437467083334923, -0.05485460162162781], [0.06929294019937515, -0.017950262874364853, -0.010064991191029549, 0.006044360343366861, -0.046760622411966324], [-0.030418576672673225, 0.031623661518096924, -0.03451536223292351, -0.020342521369457245, -0.006138936150819063]], [[0.04436755180358887, 0.010357088409364223, 0.0072160568088293076, 0.07041282951831818, -0.013734162785112858], [0.041371461004018784, 0.0015899644931778312, -0.03145343065261841, -0.006168940104544163, 0.057018354535102844], [0.0696307048201561, 0.07436411082744598, 0.06356587260961533, 0.05615181475877762, 0.07115867733955383], [0.07913760095834732, 0.0589236281812191, 0.06180690973997116, -0.0152523722499609, -0.026666143909096718], [-0.044387996196746826, 0.019045952707529068, -0.04948687553405762, 0.07243727147579193, -0.059656791388988495]], [[0.057541973888874054, 0.06470122188329697, -0.033988382667303085, -0.055977050215005875, 0.021829472854733467], [-0.02360152080655098, 0.037083499133586884, 0.008792019449174404, -0.006971702445298433, -0.0499340295791626], [-0.026723003014922142, 0.060859158635139465, -0.0442521907389164, -0.048676591366529465, -0.038850583136081696], [0.015774469822645187, 0.017972424626350403, 0.03759245201945305, -0.024626782163977623, 0.027148066088557243], [-0.002732184249907732, -0.01527823880314827, -0.055776916444301605, -0.013557439669966698, -0.06485383212566376]], [[0.03213350847363472, -0.0332966186106205, 0.07016482949256897, -0.02523103915154934, -0.020894519984722137], [0.0534309521317482, 0.07512246072292328, 0.026183191686868668, -0.0008400815422646701, 0.08199652284383774], [0.0549892783164978, 0.05629779398441315, 0.036118365824222565, 0.016963083297014236, 0.07490187138319016], [-0.00030202631023712456, -0.039737239480018616, 0.009413961321115494, 0.04935600981116295, -0.03578769788146019], [0.06611885130405426, 0.059999383985996246, 0.08036081492900848, -0.04217512905597687, 0.030052974820137024]], [[-0.021837357431650162, 0.052350737154483795, -0.02529359795153141, 0.0374879390001297, 0.06617223471403122], [-0.021740473806858063, 0.05381283164024353, 0.029946284368634224, 0.0533951111137867, -0.04023662582039833], [0.052515752613544464, -0.024385644122958183, 0.0012979842722415924, 0.06554798036813736, 0.06549353897571564], [-0.021728869527578354, 0.05368813872337341, -0.015489793382585049, 0.00921004731208086, -0.019772039726376534], [-0.03708123043179512, 0.06867310404777527, -0.04704110324382782, -0.02263217233121395, -0.014314965344965458]], [[-0.031732261180877686, 0.018163759261369705, 0.02526683919131756, 0.033074960112571716, -0.049242474138736725], [0.06330933421850204, 0.04886465147137642, 0.02578713744878769, -0.054240670055150986, 0.028048017993569374], [-0.009509866125881672, 0.07622816413640976, 0.02015531435608864, -0.03793976455926895, -0.020073454827070236], [0.07105038315057755, 0.04903305694460869, -0.05032199248671532, 0.07419440895318985, -0.06271344423294067], [-0.06780757009983063, -0.061896029859781265, -0.029568802565336227, 0.054125674068927765, 0.05364369601011276]]], [[[0.05470288172364235, -0.0315253920853138, 0.013465558178722858, -0.014006191864609718, 0.024058258160948753], [0.009428760036826134, -0.0258302204310894, -0.05464959889650345, 0.009113343432545662, 0.040000658482313156], [0.001487013534642756, -0.03541155532002449, 0.05351056903600693, -0.062310874462127686, -0.00972014106810093], [-0.06334484368562698, -0.05908297374844551, 0.017821257933974266, -0.0036320139188319445, -0.046341538429260254], [-0.03910833224654198, -0.02513287402689457, -0.05742151662707329, -0.011837382800877094, 0.005710306577384472]], [[-0.06283050775527954, 0.030594900250434875, 0.07110871374607086, 0.07121715694665909, -0.029015831649303436], [-0.040958743542432785, 0.05428255721926689, 0.014165079221129417, -0.014655820094048977, -0.05154483765363693], [-0.062104713171720505, -0.009700163267552853, -0.010437851771712303, 0.035951945930719376, -0.014910750091075897], [0.0007187981391325593, -0.03181516379117966, 0.005824738182127476, 0.07354902476072311, 0.027439702302217484], [-0.042372699826955795, 0.06692846119403839, -0.0568401925265789, 0.05479450523853302, 0.01713734120130539]], [[0.03421884402632713, 0.00911339558660984, -0.019837331026792526, -0.030890196561813354, 0.05028092488646507], [0.005964111536741257, -0.016697926446795464, -0.06574961543083191, 0.030089879408478737, 0.036282945424318314], [-0.05631335452198982, 0.004911669995635748, -0.07103226333856583, -0.022128593176603317, -0.0608971081674099], [-0.06768251210451126, 0.026463614776730537, 0.05411873385310173, -0.04077558591961861, -0.053368184715509415], [0.0627812072634697, 0.04452558606863022, 0.0352683961391449, -0.0016978337662294507, 0.04472566023468971]], [[-0.016903195530176163, 0.07346652448177338, 0.05689622834324837, -0.05477368086576462, 0.040197666734457016], [-0.05953829735517502, 0.06354828923940659, 0.05435396730899811, 0.04170692712068558, 0.037993546575307846], [0.08502358943223953, -0.011671769432723522, 0.06825137138366699, 0.07516665756702423, -0.010288451798260212], [0.031690943986177444, 0.009783882647752762, -0.049795977771282196, 0.03516850993037224, 0.07405722886323929], [0.06862343847751617, -0.045349642634391785, -0.0576760359108448, -0.0025829849764704704, -0.007672276813536882]], [[0.014475389383733273, -0.04527287557721138, 0.00477473484352231, 0.023133384063839912, 0.0307770948857069], [-0.06143443286418915, 0.01484077051281929, -0.0439528152346611, -0.06795912235975266, -0.033512528985738754], [-0.058515120297670364, -0.06561025977134705, -0.049901798367500305, -0.036508627235889435, -0.027430271729826927], [0.015754608437418938, 0.031816426664590836, -0.004795264918357134, 0.06686372309923172, -0.05826416611671448], [0.0690968930721283, 0.008330178447067738, 0.05297527462244034, 0.014746539294719696, -0.015335680916905403]], [[0.004761870019137859, 0.01983247883617878, -0.042253993451595306, 0.005811704322695732, -0.06874526292085648], [-0.0064224498346447945, -0.009289498440921307, -0.0028685862198472023, 0.03967414051294327, 0.018012940883636475], [-0.06429075449705124, -0.024334987625479698, 0.05864279344677925, -0.00821070559322834, 0.06483923643827438], [0.050625029951334, 0.04927374795079231, 0.025316225364804268, -0.01910960115492344, 0.04308035969734192], [0.02617456205189228, 0.0610729455947876, -0.02489790879189968, 0.06717044860124588, -0.027284638956189156]], [[0.012827267870306969, -0.009532611817121506, 0.04526006430387497, 0.059777356684207916, -0.030405748635530472], [0.00391795439645648, -0.0554952397942543, -0.0005040602991357446, -0.02262021414935589, 0.018322637304663658], [0.03968717157840729, 0.04312125965952873, -0.0040581561625003815, -0.020111510530114174, 0.03720590099692345], [-0.04251302778720856, -0.020086463540792465, 0.05962637439370155, 0.0409407839179039, -0.030998537316918373], [-0.03383643552660942, -0.0003074818814639002, -0.037354931235313416, -0.020464986562728882, 0.029702577739953995]], [[0.07036988437175751, -0.028122110292315483, -0.05779022350907326, 0.008620443753898144, -0.0001936498301802203], [-0.058791834861040115, -0.037544794380664825, 0.03135037422180176, 0.0011580969439819455, 0.056181907653808594], [-0.041506849229335785, -0.01152170728892088, -0.0354018434882164, 0.049548640847206116, 0.056864459067583084], [-0.04252251237630844, 0.021574070677161217, 0.04376472905278206, -0.021237563341856003, -0.01375699881464243], [0.028705570846796036, 0.05413040891289711, 0.026361756026744843, -0.06994077563285828, -0.0012877258704975247]]], [[[0.06257279217243195, 0.06029878556728363, 0.028680747374892235, -0.02875305898487568, -0.06371984630823135], [-0.04394705221056938, 0.06190068647265434, -0.05801048129796982, 0.048507675528526306, 0.045319922268390656], [-0.0018564978381618857, -0.05434807762503624, 0.05689180642366409, 0.03888745978474617, 0.058035362511873245], [-0.016353430226445198, -0.06190062686800957, -0.027393463999032974, 0.026232177391648293, -0.03808131068944931], [-0.05655142664909363, -0.004968247376382351, 0.060686271637678146, -0.008446735329926014, -0.020182957872748375]], [[-0.008101447485387325, -0.05109235644340515, -0.019968867301940918, 0.04972041770815849, -0.03022538311779499], [0.06445498019456863, -0.034010984003543854, -0.021629175171256065, -0.022975729778409004, -0.024655641987919807], [0.04460570216178894, 0.04588891565799713, -0.03126458078622818, 0.05276556685566902, -0.0478888638317585], [-0.02201736718416214, -0.024106014519929886, 0.07023996114730835, -0.012872295454144478, 0.0735536515712738], [0.07216867804527283, -0.042678430676460266, 0.05937455594539642, -0.026777775958180428, -0.060951441526412964]], [[-0.05057673901319504, -0.04332892224192619, 0.010426080785691738, 0.059642892330884933, 0.028258975595235825], [0.00956406258046627, -0.06935081630945206, -0.04131206497550011, -0.02155156619846821, -0.0433124303817749], [-0.01536248903721571, 0.019191883504390717, 0.02077123336493969, -0.049236878752708435, 0.00846780277788639], [0.06895224004983902, -0.00802843738347292, -0.013867231085896492, -0.02021665684878826, -0.047690216451883316], [0.03516650199890137, -0.023517999798059464, -0.004128115717321634, -0.025320755317807198, -0.003823777660727501]], [[-0.030518390238285065, 0.07903243601322174, 0.0638301894068718, 0.06786800920963287, 0.07696466147899628], [0.0045111957006156445, 0.020124590024352074, -0.008182859979569912, -0.04885508120059967, -0.05732237547636032], [0.034305501729249954, 0.03225613012909889, -0.03649546205997467, 0.06445039063692093, 0.003961488138884306], [-0.031702764332294464, 0.07585787773132324, -0.006700641009956598, 0.02714015357196331, 0.07085171341896057], [0.0216959398239851, 0.020365793257951736, -0.04097548872232437, 0.015937095507979393, 0.05164910480380058]], [[-0.06406419724225998, -0.06148621439933777, 0.06763368099927902, 0.03938914090394974, -0.020848840475082397], [0.03593903034925461, 0.05759112909436226, -0.010436191223561764, -0.02988717332482338, 0.015100140124559402], [0.018199486657977104, 0.05363014340400696, -0.024460935965180397, -0.06894058734178543, 0.055049795657396317], [0.0445098802447319, -0.019409868866205215, 0.02491508238017559, -0.022442307323217392, 0.03398771584033966], [-0.0526653490960598, 0.06476540118455887, 0.022054212167859077, -0.04586021974682808, 0.0302120354026556]], [[-0.03779058903455734, -0.003837091149762273, 0.021313544362783432, -0.025964071974158287, -0.017046228051185608], [0.071269191801548, 0.01817398890852928, 0.0470564067363739, -0.06220661848783493, -0.05064024776220322], [0.015030143782496452, -0.05691637843847275, 0.0543280728161335, 0.07729671895503998, -0.05759812891483307], [0.049271102994680405, 0.0537872351706028, -0.0666264221072197, 0.06959051638841629, 0.06815307587385178], [0.04417761415243149, -0.041677240282297134, -0.025003360584378242, 0.041561275720596313, 0.04566015675663948]], [[0.035423267632722855, 0.032501768320798874, 0.006716675590723753, -0.01829969324171543, 0.06844888627529144], [0.0265974048525095, -0.062128521502017975, 0.0038454493042081594, -0.00700904568657279, -0.05619185045361519], [0.0349079929292202, 0.05802544206380844, -0.05074063315987587, 0.05068196728825569, 0.01652611419558525], [-0.0407140851020813, -0.04049241170287132, -0.02952418103814125, -0.02681609056890011, -0.01257212646305561], [-0.035517048090696335, 0.02320343442261219, 0.002333948388695717, 0.021660609170794487, 0.006069068796932697]], [[0.0012053571408614516, -0.048325832933187485, 0.03820789232850075, -0.04152962937951088, 0.07033209502696991], [-0.043962836265563965, 0.044781655073165894, -0.03925348073244095, -0.024564461782574654, 0.054914023727178574], [0.03290663659572601, 0.00347921228967607, -0.04115268215537071, -0.00478467857465148, -0.06620259582996368], [-0.06383474171161652, 0.034766826778650284, 0.00518655264750123, 0.006292370613664389, -0.0004104487888980657], [-0.026028404012322426, -0.05858880281448364, -0.06264712661504745, 0.06861799210309982, 0.0007745816255919635]]], [[[0.015118700452148914, -0.016239972785115242, 0.04061112925410271, -0.03538118675351143, -0.03917654976248741], [0.01670636609196663, -0.06570597738027573, -0.06963764131069183, 0.011302481405436993, 0.02976977452635765], [0.05727018415927887, -0.06069707125425339, 0.044387441128492355, 0.005415784660726786, 0.013133919797837734], [-0.05291762202978134, 0.024702925235033035, -0.004984596744179726, -0.03423205390572548, -0.025524508208036423], [-0.04125536233186722, 0.04746623337268829, 0.06938645988702774, -0.06104134023189545, -0.041333068162202835]], [[-0.012284314259886742, 0.000915686076041311, -0.035710807889699936, -0.007989666424691677, -0.03883878514170647], [0.06810589134693146, 0.049481358379125595, 0.013244017027318478, -0.03918522223830223, -0.021886294707655907], [0.011083729565143585, 0.02343113161623478, 0.06509388238191605, 0.047367505729198456, -0.008806424215435982], [-0.015637779608368874, 0.06393031030893326, 0.06355390697717667, 0.0005708078388124704, -0.06484759598970413], [-0.030411284416913986, -0.04407421872019768, 0.021579455584287643, 0.06319916993379593, -0.006911697797477245]], [[0.0007357037393376231, -0.020764561370015144, 0.013830183073878288, -0.054896604269742966, -0.05639703571796417], [0.04803125932812691, 0.012280457653105259, -0.002452631015330553, -0.0044197579845786095, 0.05277981609106064], [0.0414227619767189, -0.009386301040649414, 0.0133845005184412, -0.04670106619596481, -0.02905920520424843], [-0.03888026252388954, -0.0479564443230629, -0.06573823094367981, 0.04254753142595291, -0.02944360300898552], [0.040538787841796875, -0.03145653381943703, 0.05539290979504585, 0.05180817097425461, -0.011450134217739105]], [[-0.06294719129800797, -0.03450153395533562, -0.037386614829301834, 0.04582596942782402, 0.048024747520685196], [0.035447776317596436, -0.034989651292562485, 0.008171267807483673, 0.034237056970596313, -0.014079201966524124], [-0.05539989098906517, 0.009878866374492645, -0.04250776395201683, 0.035784751176834106, 0.03957444056868553], [-0.06478635966777802, 0.07118962705135345, 0.00014693685807287693, -0.06035405024886131, -0.06018032878637314], [0.03287477418780327, 0.03676358610391617, 0.03763031214475632, -0.025688577443361282, -0.017407922074198723]], [[0.00741849560290575, 0.05308569595217705, 0.02578352577984333, -0.025122342631220818, 0.017127718776464462], [-0.0016633503837510943, 0.019889021292328835, -0.00907129142433405, -0.0535099059343338, 0.03167560696601868], [-0.0419636145234108, -0.002203524811193347, 0.01929127797484398, 0.013029825873672962, 0.0439196415245533], [-0.001856425660662353, -0.05834845453500748, -0.008555270731449127, -0.04962260648608208, 0.06439170241355896], [0.056444201618433, -0.0685608834028244, -0.05099857598543167, 0.0038823627401143312, 0.055753983557224274]], [[-0.06523287296295166, -0.06456183642148972, 0.0772625282406807, 0.05512829124927521, -0.04460374265909195], [-0.054310157895088196, 0.07750802487134933, 0.04890444129705429, 0.0746985599398613, 0.012438595294952393], [-0.009262753650546074, 0.027173539623618126, 0.007859335280954838, -0.05804196000099182, -0.054055485874414444], [-0.022356098517775536, -0.029619719833135605, 0.03786667436361313, -0.016447903588414192, -0.05243287980556488], [-0.0497497133910656, -0.022870227694511414, 0.006062912754714489, 0.006010981276631355, -0.03638488054275513]], [[-0.012690393254160881, 0.05803583189845085, -0.03758719190955162, -0.049041423946619034, 0.01809719018638134], [-0.012558277696371078, -0.006260499358177185, 0.0004309487121645361, -0.027049612253904343, -0.07064172625541687], [-0.003962349146604538, -0.03751666471362114, -0.003514111042022705, 0.028605328872799873, 0.06400377303361893], [-0.06277526170015335, 0.0219570379704237, -0.03754126653075218, -0.05345868319272995, -0.028305551037192345], [0.023270515725016594, 0.06974898278713226, 0.044203534722328186, 0.054623160511255264, -0.05590904876589775]], [[3.818978257186245e-06, 0.026021482422947884, 0.049475714564323425, -0.06509177386760712, -0.024834755808115005], [-0.014303375035524368, -0.0637822225689888, -0.020007004961371422, 0.050395797938108444, 0.041642073541879654], [0.07229791581630707, 0.009648151695728302, 0.04359104856848717, -0.036415401846170425, 0.048291102051734924], [0.06544806808233261, 0.025236446410417557, -0.004279219079762697, 0.05199809744954109, 0.0724794790148735], [0.061564620584249496, 0.06853337585926056, 0.003613260807469487, 0.02792641520500183, -0.00027672096621245146]]], [[[-0.02816101908683777, 0.05871429666876793, -0.034484028816223145, -0.06720542162656784, -0.053221382200717926], [-0.013124693185091019, -0.04001917690038681, -0.02967109903693199, -0.009062834084033966, -0.0294721107929945], [0.01209316123276949, -0.0068888007663190365, -0.05487264320254326, 0.04117627814412117, 0.012874539941549301], [-0.06362102925777435, 0.059023454785346985, 0.020591631531715393, 0.022043507546186447, -0.03992265835404396], [-0.025109538808465004, -0.03532925993204117, -0.06677870452404022, 0.026394866406917572, -0.005699720233678818]], [[0.049116101115942, 0.03327223286032677, 0.023724276572465897, -0.06357675045728683, -0.0642678365111351], [0.025414390489459038, 0.01149801630526781, -0.05085403472185135, -0.02162570133805275, 0.0104214521124959], [0.014317259192466736, -0.01501333899796009, 0.01820368878543377, 0.04229212924838066, -0.0018520059529691935], [-0.010495890863239765, 0.023540262132883072, 0.03375127539038658, 0.05289813131093979, -0.013722138479351997], [-0.019104158505797386, 0.00421951524913311, -0.056530825793743134, 0.0012571557890623808, 0.02779819443821907]], [[-0.06652189791202545, 0.06609029322862625, 0.05215553939342499, 0.05106329545378685, 0.04778115823864937], [-0.023093607276678085, -3.5426193790044636e-05, 0.007357442285865545, 0.030088204890489578, -0.056475672870874405], [-0.03252973034977913, -0.0329185388982296, 0.03760800138115883, 0.028395431116223335, -0.032471317797899246], [-0.02478048764169216, -0.03683776780962944, -0.011005875654518604, 0.029221657663583755, -0.014108016155660152], [-0.05544992908835411, -0.05696311220526695, -0.06662514060735703, 0.027157943695783615, 0.03596438840031624]], [[0.04960174113512039, -0.020555945113301277, 0.022593894973397255, -0.03553590178489685, 0.03275752440094948], [0.04964303597807884, 0.06932275742292404, 0.012676490470767021, 0.036686114966869354, 0.06466730684041977], [0.07041588425636292, -0.009760366752743721, -0.014727667905390263, -0.008661732077598572, -0.008964315056800842], [0.040506068617105484, 0.01242663525044918, 0.032684843987226486, 0.04010915383696556, 0.059597477316856384], [-0.05031530186533928, 0.03951709717512131, -0.046006347984075546, 0.059426210820674896, -0.009988060221076012]], [[0.059224531054496765, -0.061710771173238754, -0.04943779483437538, 0.061011239886283875, 0.003573768073692918], [0.03961698338389397, 0.008961087092757225, -0.04518894851207733, -0.041470468044281006, -0.055964723229408264], [-0.02236832119524479, 0.0009659968200139701, -0.0430326946079731, -0.03419804945588112, -0.0690348818898201], [0.06423227488994598, -0.03208807855844498, 0.03354601934552193, -0.03297422453761101, 0.0039114030078053474], [0.055587515234947205, 0.04870449751615524, 0.019597424194216728, -0.05643613636493683, -0.06227162852883339]], [[-0.05868394300341606, -0.019489368423819542, -0.008540863171219826, 0.050389841198921204, -0.004126364830881357], [0.017856338992714882, -0.04832855239510536, 0.018075773492455482, 0.06811144202947617, 0.021082129329442978], [-0.04159648343920708, 0.035026051104068756, 0.05851483345031738, -0.01248014997690916, 0.009822654537856579], [0.0022002668119966984, -0.007715091574937105, -0.0200529582798481, 0.007434822153300047, -0.0566072091460228], [0.04960855096578598, -0.03703415021300316, -0.039154376834630966, -0.010020830668509007, 0.010101238265633583]], [[0.048075899481773376, 0.009185105562210083, 0.05967125669121742, 0.025102648884058, 0.019066989421844482], [0.04084010049700737, -0.04374321550130844, 0.00011188568896614015, 0.02633434347808361, -0.049295756965875626], [-0.020704692229628563, -0.004751994740217924, -0.041878633201122284, -0.010600060224533081, 0.000431174790719524], [0.015800824388861656, -0.017599569633603096, 0.022522421553730965, 0.056554511189460754, -0.007720452267676592], [-0.06278420239686966, 0.022752035409212112, -0.0684182345867157, 0.0396723672747612, 0.0248497873544693]], [[0.008122699335217476, -0.058336637914180756, -0.017281947657465935, 0.06564798951148987, 0.052713483572006226], [0.049282364547252655, 0.06685858219861984, 0.03351851552724838, -0.05423847585916519, 0.012019657529890537], [0.024184882640838623, 0.05019029229879379, 0.04175862297415733, -0.0001458123151678592, -0.015105310827493668], [0.02912662737071514, -0.06025291979312897, -0.057019539177417755, 0.03334358334541321, -0.02004099078476429], [-0.026526154950261116, -0.03107960894703865, 0.02704363502562046, -0.06626526266336441, -0.0025002213660627604]]], [[[0.004516342654824257, -0.022460663691163063, -0.06542731821537018, 0.051925286650657654, 0.00493769533932209], [0.0524575375020504, 0.009164184331893921, -0.0238649845123291, 0.059370748698711395, 0.047140005975961685], [0.032499074935913086, 0.010636556893587112, 0.04013193026185036, 0.04823647439479828, 0.015575321391224861], [0.06253324449062347, -0.04216829687356949, -0.05038640648126602, -0.06352373957633972, -0.03410986810922623], [-0.06284121423959732, -0.0702366754412651, 0.017368149012327194, -0.05716580152511597, -0.04590880125761032]], [[0.0017626062035560608, 0.0348316915333271, -0.014421597123146057, -0.0439501628279686, 0.02403305098414421], [-0.04492225497961044, 0.02532987669110298, -0.016329705715179443, -0.04360649734735489, 0.03303426504135132], [-0.008063589222729206, -0.06852281838655472, -0.033635374158620834, -0.04403188079595566, -0.021537940949201584], [-0.0542636476457119, 0.025151941925287247, -0.020295653492212296, -0.0016845446079969406, 0.04952242597937584], [0.04718058928847313, -0.041979189962148666, -0.016224971041083336, 0.04097539559006691, 0.04658651724457741]], [[-0.005450578406453133, 0.045215267688035965, -0.05400194227695465, 0.02051357738673687, 0.033368971198797226], [0.03425115346908569, 0.009544135071337223, -0.021244339644908905, -0.009206046350300312, 0.0005980961723253131], [-0.012160939164459705, -0.0672740712761879, -0.052911534905433655, 0.009058129042387009, -0.030148079618811607], [-0.06240316480398178, -0.04837081953883171, 0.005353967193514109, 0.061864133924245834, 0.04100045934319496], [-0.05624272674322128, -0.028356358408927917, 0.02201668545603752, 0.04635625332593918, -0.04077275097370148]], [[-0.048067692667245865, 0.04166455939412117, 0.07923124730587006, 0.03752794861793518, 0.03813881054520607], [-0.0036045426968485117, 0.06958253681659698, -0.0015651157591491938, -0.051402583718299866, 0.025727052241563797], [0.008801172487437725, 0.039950933307409286, -0.05172045901417732, 0.06298983842134476, 0.06257849186658859], [0.0657816082239151, 0.04698733612895012, 0.038654204457998276, -0.025677191093564034, -0.037188902497291565], [0.04396463930606842, -0.02320440486073494, 0.04055260121822357, -0.03812912106513977, -0.011342762969434261]], [[0.016901453956961632, -0.020325113087892532, 0.008607500232756138, -0.020525852218270302, 0.0575961172580719], [0.05242617055773735, -0.052194949239492416, 0.054427847266197205, 0.02002640627324581, 0.054984934628009796], [-0.05902997404336929, 0.04154950752854347, -0.007357570342719555, -0.01872752234339714, -0.05773438885807991], [-0.06683767586946487, -0.07141917198896408, -0.048628490418195724, 0.024442046880722046, 0.0513586550951004], [-0.029904792085289955, -0.06944973021745682, 0.017449311912059784, -0.027493663132190704, 0.009689978323876858]], [[0.04733362793922424, 0.059648677706718445, 0.028050338849425316, 0.07588241994380951, -0.02231333963572979], [-0.019704731181263924, 0.03532598167657852, -0.05003463849425316, -0.06055426225066185, 0.048272501677274704], [-0.05453657731413841, 0.03615459427237511, 0.048886414617300034, 0.021331001073122025, -0.030715592205524445], [0.03286121413111687, 0.006341112311929464, -0.02455650269985199, -0.011462305672466755, 0.0008351475698873401], [0.019615190103650093, 0.00994575209915638, -0.0045144641771912575, -0.010202458128333092, 0.025086745619773865]], [[0.013683438301086426, 0.07081445306539536, -0.012856588698923588, 0.040188055485486984, 0.005684430245310068], [-0.032407522201538086, 0.036893706768751144, 0.026226598769426346, -0.04486183449625969, -0.022578435018658638], [0.04151282086968422, -0.02573779597878456, -0.05166754126548767, 0.027782566845417023, -0.004908001981675625], [0.05733906477689743, -0.05912470817565918, 0.007997378706932068, 0.0012956156861037016, 0.03923850506544113], [-0.0396394319832325, -0.01939978264272213, -0.004056317266076803, -0.01034176629036665, 0.05525215342640877]], [[0.018610792234539986, -0.02989193983376026, 0.013654476031661034, -0.003882060060277581, -0.042441051453351974], [-0.027105186134576797, -0.06287306547164917, 0.021236563101410866, -0.04367268458008766, -0.03160041943192482], [0.0721215233206749, 0.018585722893476486, -0.015965865924954414, -0.011292323470115662, 0.04095693677663803], [-0.023598741739988327, -0.016787100583314896, -0.06672254204750061, 0.07372701168060303, -0.03769291937351227], [0.013074122369289398, 0.032911986112594604, 0.005257105454802513, -0.007184145040810108, -0.058738887310028076]]], [[[-0.040696270763874054, 0.030164632946252823, -0.004614927805960178, -0.06193428859114647, -0.017254026606678963], [0.016737675294280052, 0.00715138902887702, -0.0542604885995388, -0.005526787601411343, -0.01211017370223999], [-0.03291647881269455, -0.01937522552907467, 0.02306183986365795, -0.015778422355651855, 0.012810020707547665], [-0.061482880264520645, -0.0017301930347457528, -0.06675450503826141, -0.0661247968673706, -0.02045309916138649], [0.041919395327568054, -0.01944217085838318, -0.06462052464485168, -0.059603601694107056, 0.010232962667942047]], [[0.011740497313439846, 0.06459769606590271, -0.011202878318727016, 0.0343770869076252, 0.024863073602318764], [0.06532260775566101, 0.07479637861251831, -0.024999476969242096, 0.07249044626951218, -0.035052403807640076], [-0.03523721545934677, -0.06712687760591507, 0.023777781054377556, 0.06946642696857452, -0.06277959048748016], [-0.007259432692080736, 0.012812510132789612, -0.028550345450639725, -0.011121861636638641, 0.018885035067796707], [-0.05387897044420242, -0.023572370409965515, -0.023806452751159668, 0.06333943456411362, 0.029407845810055733]], [[0.04262980818748474, 0.06702031940221786, 0.05304621905088425, -0.04085184261202812, -0.009505391120910645], [-0.057659197598695755, -0.04270647466182709, 0.027241377159953117, -0.03925757110118866, -0.009359417483210564], [-0.006454494781792164, 0.02143939398229122, 0.019456978887319565, -0.045321814715862274, 0.01889735646545887], [-0.029935138300061226, -0.049312394112348557, -0.04229183867573738, -0.06411432474851608, 0.010471240617334843], [-0.011758912354707718, 0.008736071176826954, -0.027724746614694595, 0.043230071663856506, 0.011307843960821629]], [[-0.010865407064557076, 0.028361791744828224, 0.03711429610848427, -0.0361223965883255, 0.07990902662277222], [0.034910522401332855, 0.06906820088624954, -0.05296339839696884, 0.026450272649526596, 0.03231450170278549], [-0.01437362190335989, 0.07887015491724014, 0.08440700173377991, -0.0009765509748831391, -0.013766665942966938], [0.07138800621032715, 0.05766180157661438, -0.02160046063363552, 0.06420712918043137, -0.02036953531205654], [-0.006085724104195833, 0.070455402135849, 0.032360564917325974, -0.057682011276483536, -0.05945615842938423]], [[0.022258566692471504, -0.0382019504904747, 0.05171073228120804, 0.015017347410321236, 0.06186860427260399], [0.056545764207839966, -0.007166611030697823, 0.053437791764736176, -0.040189824998378754, 0.03774525225162506], [0.03330199047923088, 0.01652401313185692, -0.0374039001762867, 0.014106031507253647, -0.037298351526260376], [0.06632894277572632, -0.03490574657917023, -0.04631226137280464, -0.018399620428681374, 0.05861828848719597], [0.020363470539450645, 0.02810332551598549, -0.026738839223980904, -0.038497183471918106, -0.023597439751029015]], [[0.0507279597222805, 0.03705010935664177, -0.03929487243294716, -0.05888171121478081, -0.044340915977954865], 