{"encoder.0.weight": [[[[-0.26378118991851807, -0.26621025800704956, -0.15239755809307098], [-0.03745679184794426, -0.1555619239807129, -0.18409955501556396], [0.06295498460531235, -0.030882200226187706, -0.2809959650039673]]], [[[0.25162404775619507, 0.1911240518093109, -0.17754562199115753], [-0.21632474660873413, -0.0912749245762825, 0.04046221449971199], [-0.2511742115020752, -0.23481516540050507, 0.24784424901008606]]], [[[-0.004818303976207972, -0.093958780169487, -0.2662513554096222], [0.12145330756902695, 0.08291284739971161, 0.0023399784695357084], [-0.04321174696087837, 0.32681602239608765, -0.1901688128709793]]], [[[-0.2768363952636719, 0.3140057623386383, -0.018460599705576897], [-0.010504515841603279, -0.30523261427879333, 0.30757904052734375], [0.2849079370498657, 0.2367313802242279, 0.10010464489459991]]], [[[0.30681753158569336, 0.07772227376699448, -0.07744916528463364], [0.23281151056289673, 0.2876114249229431, 0.25187215209007263], [-0.3036951720714569, -0.016853809356689453, -0.0015776343643665314]]], [[[0.09220374375581741, -0.15783023834228516, 0.23045769333839417], [-0.21556246280670166, 0.03927341476082802, 0.2223607897758484], [0.21012724936008453, 0.23839102685451508, -0.2739635407924652]]], [[[-0.27468180656433105, -0.32782861590385437, 0.18503116071224213], [-0.07550060003995895, -0.012506949715316296, 0.1895560324192047], [-0.23697586357593536, -0.22756852209568024, -0.09866208583116531]]], [[[0.18111509084701538, -0.2893242835998535, -0.15802808105945587], [-0.2923347055912018, 0.22709155082702637, -0.24658608436584473], [0.23637187480926514, -0.053958166390657425, 0.19072438776493073]]]], "encoder.0.bias": [0.13592860102653503, 0.2674795091152191, -0.011153352446854115, 0.1488208919763565, -0.11102502048015594, 0.22198261320590973, 0.10482998937368393, -0.10863830894231796], "encoder.2.weight": [[[[-0.006089362781494856, -0.10067737102508545, 0.08156895637512207], [-0.06673797219991684, -0.10624654591083527, -0.007927849888801575], [0.06982504576444626, -0.08006653934717178, -0.051475830376148224]], [[0.06690824776887894, 0.07273678481578827, -0.003358827205374837], [-0.09783502668142319, 0.09452281892299652, 0.10091740638017654], [0.007559327408671379, 0.07957495003938675, 0.0800887793302536]], [[0.09789904952049255, 0.08884377777576447, 0.027401374652981758], [0.10736317187547684, -0.06651410460472107, 0.06796915829181671], [-0.10303080081939697, -0.09606093168258667, -0.07079757750034332]], [[-0.060432057827711105, 0.024527357891201973, 0.09215259552001953], [-0.04014230892062187, -0.025575000792741776, 0.07345572859048843], [0.06014621630311012, -0.03481083735823631, -0.07642088085412979]], [[0.05601406469941139, 0.08290409296751022, -0.09327889233827591], [0.09766191244125366, 0.03005009889602661, 0.021055078133940697], [-0.06295124441385269, -0.009801062755286694, 0.03561117500066757]], [[0.027043169364333153, -0.07361780107021332, 0.06431261450052261], [0.07545295357704163, -0.05727295204997063, 0.01948903687298298], [0.11111227422952652, 0.12416044622659683, -0.10628970712423325]], [[0.04992896690964699, 0.11097127199172974, 0.030068745836615562], [0.062485966831445694, 0.09880004078149796, -0.06411148607730865], [-0.10219015181064606, 0.07114342600107193, 0.025950290262699127]], [[-0.049657195806503296, -0.00828646495938301, -0.0058303093537688255], [-0.0843193382024765, -0.047728344798088074, 0.010738454759120941], [0.046845193952322006, 0.096338652074337, -0.01353180967271328]]], [[[-0.10198159515857697, 0.0018051916267722845, -0.0320604182779789], [-0.026451854035258293, 0.04922918975353241, 0.10611195117235184], [0.0543629452586174, 0.013276355341076851, -0.07733260095119476]], [[0.07830594480037689, 0.042205557227134705, -0.10702478140592575], [-0.0048090144991874695, -0.041655514389276505, -0.03192877396941185], [0.027176516130566597, -0.10921992361545563, 0.11051058769226074]], [[0.10260609537363052, 0.009926608763635159, 0.07021172344684601], [0.055172137916088104, 0.10852927714586258, 0.03560865670442581], [0.011786860413849354, -0.11062480509281158, 0.1111019104719162]], [[-0.021621868014335632, -0.023466868326067924, -0.0796913206577301], [-0.02451045624911785, 0.12400837987661362, -0.06241689622402191], [-0.0023165931925177574, 0.02065589651465416, -0.032375872135162354]], [[-0.0418832041323185, 0.08043736219406128, -0.0802629292011261], [-0.0206792950630188, 0.0370347835123539, -0.0018974050180986524], [0.05657998472452164, 0.12443726509809494, -0.025148488581180573]], [[0.1044996902346611, 0.08377952128648758, 0.0030277215410023928], [-0.060093823820352554, -0.026159200817346573, -0.10085839778184891], [0.09955032169818878, 0.10359416902065277, 0.1224537193775177]], [[-0.10911375284194946, -0.06966652721166611, -0.04978371784090996], [-0.025814224034547806, 0.026705345138907433, -0.061651259660720825], [0.06969352066516876, 0.1060321256518364, -0.002541143447160721]], [[-0.11606349050998688, -0.04799680784344673, 0.10058450698852539], [-0.04604228585958481, -0.04233913496136665, -0.09482379257678986], [-0.045534007251262665, 0.047348521649837494, -0.09349320083856583]]], [[[-0.10685305297374725, 0.028633486479520798, -0.02146776393055916], [0.02685689926147461, -0.016917843371629715, -0.05283372849225998], [-0.08007849007844925, -0.07925333082675934, 0.09719561785459518]], [[-0.037218283861875534, 0.10785157978534698, -0.013369621708989143], [0.09862636774778366, 0.037889476865530014, -0.09132871776819229], [0.03748956322669983, -0.08661212027072906, -0.10451342910528183]], [[-0.014889798127114773, -0.06599841266870499, -0.014546175487339497], [0.10617638379335403, 0.07054346799850464, 0.04194490239024162], [-0.06267555058002472, 0.09227783977985382, 0.02200170047581196]], [[0.08335835486650467, -0.09310974180698395, 0.08456684648990631], [0.08331358432769775, -0.11621525138616562, -0.0677441954612732], [-0.052404846996068954, 0.05943143367767334, 0.04762248694896698]], [[0.08012288808822632, 0.059196338057518005, -0.03360963240265846], [0.012204961851239204, -0.007676832843571901, -0.02061719447374344], [0.05391120910644531, 0.11659292131662369, -0.06681196391582489]], [[0.09332460165023804, -0.056373607367277145, 0.10164095461368561], [0.08334004133939743, -0.060731418430805206, -0.04022005572915077], [0.10352902114391327, -0.06262771785259247, 0.016798216849565506]], [[0.10542400181293488, 0.04397228732705116, -0.03369536250829697], [0.1153775230050087, -0.10580651462078094, 0.06734040379524231], [-0.05843104422092438, 0.08149854093790054, -0.0062842159532010555]], [[-0.037341970950365067, 0.052015502005815506, 0.0744529440999031], [-0.07300956547260284, 0.0010652015917003155, 0.10406318306922913], [0.025543875992298126, 0.030591418966650963, -0.10423843562602997]]], [[[0.034236881881952286, 0.03716558218002319, -0.04644748568534851], [0.029836006462574005, 0.09542343020439148, -0.053985025733709335], [0.03102804720401764, 0.07701282948255539, -0.11526764184236526]], [[-0.06282173097133636, -0.08333472162485123, 0.11529707163572311], [0.11273141950368881, 0.08279748260974884, -0.06620022654533386], [0.028986580669879913, -0.00801980122923851, -0.06841564923524857]], [[0.04745231941342354, -0.02305568754673004, -0.03759026527404785], [-0.04813990369439125, -0.11761919409036636, -0.06352831423282623], [0.04064895212650299, -0.012867812067270279, 0.1087593287229538]], [[-0.03446994721889496, 0.10015624761581421, -0.05110422149300575], [-0.08373568952083588, 0.07639166712760925, 0.06582417339086533], [0.04830418527126312, 0.05582971125841141, -0.07209868729114532]], [[-0.096625916659832, -0.07991565018892288, 0.0078883683308959], [0.10661544650793076, -0.1124982088804245, 0.02650262415409088], [0.05888194590806961, 0.08876918256282806, -0.06604323536157608]], [[-0.11928829550743103, 0.06636352837085724, 0.027484823018312454], [-0.10797052830457687, 0.09952281415462494, -0.04668097198009491], [0.010926133953034878, 0.09656938910484314, -0.014930934645235538]], [[0.017156027257442474, -0.1110910028219223, -0.027451718226075172], [0.003305964171886444, 0.0520598404109478, 0.049285244196653366], [0.033394791185855865, 0.07596282660961151, -0.10696844011545181]], [[-0.11691723018884659, 0.03654120862483978, -0.06017008796334267], [-0.013595781289041042, -0.07481789588928223, 0.0001829026878112927], [0.022215865552425385, 0.007062434684485197, 0.03790874034166336]]], [[[-0.08787036687135696, -0.0547492615878582, -0.10661561042070389], [0.10026025772094727, 0.009224076755344868, 0.08283257484436035], [0.06219787523150444, -0.0509556382894516, 0.00969614926725626]], [[0.05852882191538811, 0.09034796804189682, -0.07340789586305618], [-0.10076510906219482, 0.0956084132194519, -0.02767782099545002], [0.10929413884878159, -0.08458565175533295, -0.046899691224098206]], [[-0.11668794602155685, 0.10251066088676453, -0.11128091812133789], [-0.05966958403587341, 0.04555482789874077, 0.09996594488620758], [0.02472318708896637, 0.04156725853681564, 0.010189210996031761]], [[0.00811572652310133, -0.09737707674503326, 0.056796181946992874], [0.02241169847548008, -0.015633726492524147, -0.07124829292297363], [-0.029506193473935127, -0.05950799211859703, -0.07549121230840683]], [[-0.08553916215896606, -0.0982854813337326, -0.08903863281011581], [0.11745315045118332, -0.08572084456682205, -0.04393606632947922], [-0.10858889669179916, 0.05608628690242767, -0.04421641305088997]], [[0.0991242304444313, -0.10128935426473618, -0.0805911272764206], [0.05777652934193611, -0.009802949614822865, -0.11265331506729126], [-0.10058799386024475, 0.09787984937429428, -0.0889437198638916]], [[-0.05134625360369682, -0.034785620868206024, 0.046198368072509766], [-0.05354050546884537, -0.10546670109033585, 0.01350408885627985], [0.07022829353809357, -0.04382004961371422, 0.04251466318964958]], [[0.06033935397863388, -0.10655046254396439, -0.022918669506907463], [0.07773285359144211, 0.0752389132976532, -0.04732665419578552], [-0.04862434044480324, 0.031554993242025375, 0.059598930180072784]]], [[[0.11360999196767807, 0.0023697346914559603, -0.00100452802143991], [0.05126121640205383, -0.05857567489147186, -0.008377740159630775], [-0.0743044763803482, 0.10486049205064774, 0.06893957406282425]], [[0.11568769067525864, -0.1064419150352478, -0.08956542611122131], [-0.004947947338223457, -0.0269981250166893, 0.08310332894325256], [0.11721306294202805, 0.11234096437692642, -0.08773235976696014]], [[-0.004833564627915621, 0.0128312474116683, -0.07897687703371048], [-0.07692139595746994, 0.05635899305343628, -0.03476189076900482], [-0.01659918762743473, -0.09128911793231964, -0.05485238507390022]], [[-0.11676735430955887, -0.02923627942800522, 0.09876107424497604], [-0.02219281904399395, 0.0030265734530985355, 0.040690965950489044], [-0.019641008228063583, -0.06396058946847916, -0.07505002617835999]], [[-0.029501525685191154, -0.06768881529569626, 0.09162534028291702], [-0.004666683729737997, 0.11308122426271439, -0.0625288337469101], [-0.06482023000717163, -0.016118759289383888, -0.017753075808286667]], [[0.10282387584447861, -0.03934410959482193, 0.05957954376935959], [-0.028988365083932877, 0.09390832483768463, -0.07866476476192474], [-0.042763058096170425, 0.023421021178364754, -0.0892910286784172]], [[0.006602865643799305, -0.09751729667186737, -0.08899156749248505], [-0.006063681095838547, -0.11360543966293335, -0.08552355319261551], [-0.03276720643043518, 0.10021379590034485, -0.11103508621454239]], [[0.0035080360248684883, -0.11661850661039352, -0.11623794585466385], [0.08149704337120056, 0.0361538901925087, -0.069649338722229], [0.09906067699193954, 0.07889056950807571, -0.08993158489465714]]], [[[0.017312057316303253, -0.04132594168186188, 0.012463272549211979], [0.11176442354917526, -0.09878850728273392, 0.06782877445220947], [-0.0017865205882117152, -0.07971221208572388, 0.06409855931997299]], [[-0.030283959582448006, -0.023661108687520027, 0.08807536959648132], [0.09521127492189407, -0.05633974075317383, -0.10734491795301437], [0.025038031861186028, -0.0723048597574234, 0.006288757547736168]], [[0.07092408835887909, -0.07576236128807068, -0.03743068873882294], [-0.019930778071284294, -0.09224303066730499, 0.09897635132074356], [0.056900426745414734, 0.10404804348945618, -0.05264836922287941]], [[-0.028979303315281868, 0.085453100502491, 0.001442991546355188], [-0.08426137268543243, -0.06737936288118362, -0.08381804078817368], [-0.1002565547823906, 0.0556505024433136, -0.031128687784075737]], [[-0.047648895531892776, 0.058557454496622086, 0.02591266855597496], [-0.04668612778186798, 0.00455900514498353, -0.0029596087988466024], [0.08243465423583984, -0.004494840279221535, 0.027280541136860847]], [[-0.09323593229055405, -0.0996275320649147, -0.06129637733101845], [0.04933696985244751, -0.09476830810308456, 0.015482489950954914], [-0.03117486834526062, 0.11327119171619415, -0.1133563220500946]], [[-0.07120035588741302, -0.0900791808962822, 0.06050704047083855], [0.11072421073913574, -0.09605873376131058, 0.08349751681089401], [-0.0009004252497106791, -0.011577626690268517, 0.10421215742826462]], [[-0.056727565824985504, -0.05474601686000824, -0.027542520314455032], [-0.10109274089336395, 0.012967217713594437, -0.10579544305801392], [-0.0708112120628357, -0.012361062690615654, 0.11062907427549362]]], [[[-0.08686038106679916, -0.008878388442099094, -0.11322755366563797], [-0.10867322981357574, -0.07920771092176437, -0.08531167358160019], [0.028969932347536087, -0.11189418286085129, -0.03794293850660324]], [[0.10691241174936295, -0.03710309416055679, 0.005664898082613945], [0.11044829338788986, 0.06256235390901566, -0.09178060293197632], [5.786514975625323e-06, 0.011384398676455021, 0.09129831194877625]], [[-0.025718681514263153, 0.09686966985464096, 0.03459201008081436], [0.0939239040017128, 0.022774826735258102, -0.01190978940576315], [-0.08712658286094666, -0.006492840591818094, 0.023315833881497383]], [[0.051463376730680466, 0.023375777527689934, 0.012595827691257], [0.10144861042499542, -0.0367685966193676, -0.11826852709054947], [-0.004529187921434641, -0.057675112038850784, 0.04069055616855621]], [[-0.052067480981349945, 0.10069786012172699, 0.07881682366132736], [0.0900682583451271, -0.04783991724252701, -0.008291962556540966], [0.10219607502222061, 0.015857521444559097, 0.10919103026390076]], [[-0.04894593358039856, -0.11837387084960938, -0.0909954383969307], [0.06810924410820007, -0.09069626033306122, 0.009887528605759144], [0.032702505588531494, 0.07273346185684204, 0.09288694709539413]], [[0.07793187350034714, -0.019750116392970085, 0.02357500046491623], [-0.09682385623455048, -0.08901258558034897, -0.09764916449785233], [-0.07219173014163971, -0.04733707383275032, 0.044383589178323746]], [[0.055479202419519424, -0.02883625589311123, 0.01415150798857212], [0.0442652590572834, -0.05138754844665527, 0.05584866926074028], [-0.102366603910923, 0.11668244004249573, 0.10900944471359253]]]], "encoder.2.bias": [-0.008758590556681156, 0.10436538606882095, -0.09217783808708191, 0.06005510315299034, -0.05279950797557831, -0.07576639205217361, -0.1082908883690834, -0.03311295807361603], "encoder.4.weight": [[[[0.0054964288137853146, 0.04328880086541176, 0.05289745703339577], [0.07116706669330597, 0.11075136810541153, 0.019580407068133354], [-0.11373163759708405, 0.11405328661203384, 0.10441894829273224]], [[0.026546241715550423, -0.07213796675205231, 0.029354505240917206], [-0.06929175555706024, -0.002706413622945547, -0.0006815489032305777], [-0.08103213459253311, -0.029984012246131897, -0.029935747385025024]], [[0.0643591582775116, -0.0879768654704094, 0.10279063135385513], [-0.11899784207344055, -0.11797920614480972, -0.035959985107183456], [0.004479353781789541, 0.04706747829914093, -0.03250071033835411]], [[-0.09465061873197556, 0.08521708101034164, 0.05219608172774315], [0.03473491966724396, -0.0548982173204422, 0.09403881430625916], [-0.11172904819250107, -0.036195218563079834, 0.004642942454665899]], [[-0.015727870166301727, -0.07938311249017715, -0.11234182119369507], [-0.1021706759929657, -0.05123304948210716, -0.09880221635103226], [0.019152807071805, -0.025843478739261627, 0.06569003313779831]], [[-0.04281032085418701, 0.004309967625886202, 0.11200065165758133], [-0.014008278958499432, 0.06307234615087509, -0.011815606616437435], [-0.11230926960706711, -0.1035144031047821, -0.0776204839348793]], [[0.009144327603280544, 0.030934074893593788, -0.07003922760486603], [0.016369031742215157, -0.052796538919210434, 0.06352338194847107], [-0.07235276699066162, 0.11283393949270248, 0.11114359647035599]], [[-0.060850903391838074, 0.05162844806909561, -0.017039962112903595], [-0.003921497147530317, -0.006762669421732426, -0.07167350500822067], [0.05591118708252907, -0.0879320427775383, -0.10763206332921982]]], [[[-0.11819058656692505, 0.003656829474493861, -0.07407739013433456], [-0.08564691245555878, 0.11066125333309174, -0.09636829793453217], [-0.015024831518530846, -0.03772598132491112, 0.024207323789596558]], [[0.005582156125456095, 0.06529711931943893, -0.03899069130420685], [0.11335040628910065, -0.021944424137473106, -0.05010583624243736], [0.01331859827041626, -0.08383486419916153, 0.08112753927707672]], [[-0.0715508759021759, -0.09186013042926788, -0.006929666735231876], [-0.08606848120689392, 0.1060599833726883, -0.10777078568935394], [0.051776960492134094, -0.000389122316846624, 0.08837505429983139]], [[0.019130241125822067, -0.010483715683221817, -0.042287759482860565], [-0.06341234594583511, -0.00443722028285265, -0.115395188331604], [-0.015732720494270325, -0.02282799407839775, -0.001768793328665197]], [[-0.09573635458946228, 0.04852421581745148, 0.05248306691646576], [0.08895234018564224, 0.11384900659322739, 0.09306830912828445], [-0.04829823598265648, 0.04428977891802788, 0.04768483340740204]], [[-0.06708569079637527, 0.03438641503453255, -0.031050989404320717], [-0.06337220966815948, -0.0746987983584404, -0.06913173198699951], [0.09723440557718277, -0.04546183720231056, -0.004627804271876812]], [[0.09072442352771759, 0.04427490010857582, -0.030195027589797974], [0.09837578237056732, 0.07925646007061005, 0.09458479285240173], [-0.10037603229284286, 0.0648462325334549, -0.08100128173828125]], [[0.0359773226082325, 0.036499474197626114, 0.0771162137389183], [0.08903514593839645, 0.010001271031796932, 0.019723858684301376], [-0.06586513668298721, 0.09516299515962601, -0.10258068144321442]]], [[[-0.07290945947170258, -0.03402882069349289, 0.02394946478307247], [-0.1122560128569603, 0.06828878074884415, 0.01926225610077381], [0.05473462492227554, 0.111727274954319, -0.06711269915103912]], [[0.08055133372545242, 0.05915932357311249, -0.06116507574915886], [0.07683218270540237, -0.026590466499328613, 0.0035576254595071077], [-0.06323135644197464, -0.026762744411826134, 0.04921066761016846]], [[-0.08753221482038498, -0.06876443326473236, -0.0006548340898007154], [0.07366213202476501, -0.09453554451465607, 0.10741520673036575], [-0.06347424536943436, -0.11773373931646347, 0.09067182242870331]], [[-0.06332433223724365, -0.10739945620298386, -0.04370816424489021], [-0.02423248626291752, 0.09424049407243729, 0.035827506333589554], [-0.05166931450366974, 0.06727807223796844, -0.10870859771966934]], [[0.11081478744745255, 0.019532619044184685, -0.005368412472307682], [-0.11228547245264053, 0.02514844946563244, 0.0782741978764534], [-0.06475066393613815, -0.06702408194541931, -0.10520793497562408]], [[-0.10416225343942642, -0.03328607976436615, -0.08655330538749695], [-0.03360571712255478, 0.0896371379494667, 0.006804365199059248], [-0.005494062788784504, -0.005975199863314629, -0.04984314739704132]], [[0.08035264909267426, -0.019639810547232628, -0.06042211130261421], [0.058054644614458084, -0.07301364094018936, 0.048954129219055176], [-0.06790263205766678, -0.11073415726423264, -0.06480594724416733]], [[0.04461749270558357, -0.057001810520887375, -0.029643481597304344], [-0.0518668070435524, -0.028566492721438408, 0.10275500267744064], [-0.07696512341499329, 0.11006911844015121, -0.05703044682741165]]], [[[0.004532909486442804, -0.010818074457347393, -0.03462402522563934], [-0.10361173003911972, 1.3997709174873307e-05, 0.05473756790161133], [0.03036937490105629, 0.08029384911060333, 0.09573911130428314]], [[0.03403673321008682, -0.05313305929303169, 0.051603179425001144], [0.08717267215251923, -0.04631221294403076, 0.0051515670493245125], [0.007491088937968016, -0.07698602229356766, 0.06939828395843506]], [[-0.03182389959692955, 0.06630231440067291, -0.09739678353071213], [0.07309921830892563, 0.06598585098981857, -0.011554723605513573], [0.08233126252889633, 0.053163785487413406, 0.04856997728347778]], [[-0.032285623252391815, 0.08938781917095184, -0.010992136783897877], [0.021787971258163452, 0.015282760374248028, -0.03183572739362717], [0.08734734356403351, -0.06572744250297546, -0.09616442769765854]], [[-0.022382941097021103, 0.08225288987159729, 0.05191446468234062], [-0.0035648366902023554, 0.09123212099075317, -0.06337100267410278], [0.06359102576971054, -0.020050857216119766, 0.1120455265045166]], [[0.07110124081373215, -0.08704657107591629, -0.02149980328977108], [0.005279522389173508, -0.08798814564943314, -0.06431024521589279], [-0.05809399113059044, 0.014443510212004185, -0.011130518279969692]], [[0.020807581022381783, -0.0059117781929671764, -0.07623279094696045], [-0.000992656801827252, -0.04523887857794762, -0.0704108402132988], [0.09558182954788208, 0.07843418419361115, 0.00047742060269229114]], [[0.018666943535208702, 0.01032199151813984, -0.03891187906265259], [0.0597323477268219, 0.0026970834005624056, -0.09471959620714188], [0.10914651304483414, 0.10856052488088608, -0.07946334779262543]]], [[[-0.041773464530706406, -0.098728246986866, 0.10623364895582199], [-0.1035580262541771, 0.10482818633317947, -0.0939527377486229], [0.007554410491138697, 0.02088911272585392, -0.04022470861673355]], [[-0.058271605521440506, 0.005183061119168997, -0.008121750317513943], [0.02150154486298561, -0.024927353486418724, -0.0647517740726471], [-0.04090690612792969, 0.022135362029075623, -0.07686396688222885]], [[-0.10017679631710052, 0.09086921066045761, 0.05839904397726059], [0.041176438331604004, -0.007458370644599199, -0.012547094374895096], [-0.0526869110763073, 0.004357844591140747, -0.02901604026556015]], [[0.006431291811168194, 0.0809626504778862, 0.00934920646250248], [-0.0017059132223948836, 0.02991022914648056, 0.10731680691242218], [-0.10690567642450333, 0.05347026512026787, -0.08003824949264526]], [[-0.02960074320435524, -0.031951919198036194, 0.10910774022340775], [-0.10119729489088058, -0.04981805384159088, -0.04379171505570412], [0.005986791104078293, -0.055378612130880356, 0.019190359860658646]], [[0.09023100137710571, 0.027351658791303635, 0.050515804439783096], [-0.10892057418823242, -0.008381557650864124, -0.027670294046401978], [-0.07347265630960464, 0.0950508639216423, -0.018139543011784554]], [[0.06367321312427521, -0.016631564125418663, 0.02692471817135811], [-0.014862443320453167, 0.03367966040968895, -0.023034006357192993], [-0.016767144203186035, 0.004268379881978035, -0.06441181153059006]], [[0.08394496142864227, -0.03353090211749077, -0.006049604620784521], [0.0863783210515976, -0.0009587640524841845, 0.03540901467204094], [-0.10107243806123734, 0.045969247817993164, 0.0010843517957255244]]], [[[-0.051825203001499176, -0.09679365903139114, 0.012070763856172562], [-0.11533771455287933, 0.09570551663637161, -0.08436954766511917], [0.05150324106216431, -0.11190062761306763, 0.06762611865997314]], [[-0.011936918832361698, 0.05113299563527107, -0.013104090467095375], [-0.04351663216948509, -0.037194427102804184, 0.0891060158610344], [-0.02050011418759823, -0.10332007706165314, -0.0261880811303854]], [[-0.028099538758397102, 0.09446395933628082, -0.11796414107084274], [0.02462862990796566, 0.023518726229667664, -0.03973565623164177], [0.0036872297059744596, 0.10262366384267807, 0.03089081682264805]], [[0.10032088309526443, 0.062455300241708755, 0.027093643322587013], [0.07283493876457214, 0.014989267103374004, 0.09580980986356735], [0.07524943351745605, -0.015633277595043182, 0.05369345098733902]], [[-0.08163140714168549, 0.08456195890903473, -0.06577640771865845], [0.04739585891366005, 0.03695796802639961, 0.08503510057926178], [-0.018055260181427002, 0.00968904048204422, 0.024359755218029022]], [[0.08170508593320847, 0.02547110617160797, 0.046605683863162994], [0.08605338633060455, 0.07411567866802216, -0.038355372846126556], [-0.07594271004199982, -0.05090104416012764, -0.02072089910507202]], [[0.007385898381471634, -0.04705696180462837, -0.05922403559088707], [0.08124126493930817, 0.07349705696105957, -0.0853360965847969], [0.0014227497158572078, 0.027332372963428497, -0.035664353519678116]], [[0.005278254859149456, -0.07084623724222183, 0.0493525005877018], [0.049268387258052826, 0.09390750527381897, 0.04178961366415024], [0.08222664147615433, 0.07200374454259872, -0.10541494935750961]]], [[[-0.008036753162741661, -0.00530919898301363, -0.04699331149458885], [-0.016183849424123764, 0.11020194739103317, 0.008138593286275864], [0.09785496443510056, -0.09040258824825287, -0.04638597369194031]], [[-0.03931223228573799, 0.09851957857608795, 0.07314439117908478], [-0.0687754899263382, -0.014638984575867653, -0.09070892632007599], [-0.10134641081094742, -0.11200958490371704, -0.10321180522441864]], [[-0.016199404373764992, -0.06250382214784622, 0.016436327248811722], [0.10243600606918335, -0.10577130317687988, -0.015816273167729378], [0.04620663449168205, 0.1012965589761734, -0.011785302311182022]], [[0.10861988365650177, -0.036858174949884415, -0.04306276887655258], [-0.06181913986802101, -0.03877769783139229, -0.10828620195388794], [0.05498981475830078, 0.009921395219862461, 0.07519429177045822]], [[-0.07225243747234344, 0.030942615121603012, -0.02933756448328495], [-0.01895047351717949, -0.05726926401257515, 0.009755422361195087], [0.11360864341259003, 0.11418523639440536, -0.026458794251084328]], [[-0.008818327449262142, 0.06807070970535278, -0.08668653666973114], [-0.05977101996541023, 0.015290572308003902, 0.027899092063307762], [-0.04765933379530907, 0.06957428902387619, -0.06835417449474335]], [[-0.08514049649238586, -0.06979105621576309, 0.06736817210912704], [0.10645792633295059, -0.06537344306707382, 0.002175226341933012], [0.08061151951551437, 0.09848939627408981, -0.11099210381507874]], [[0.04713866859674454, -0.0075623164884746075, 0.08771851658821106], [-0.0645192414522171, 0.025242827832698822, -0.03553307056427002], [0.09090454876422882, 0.11410404741764069, 0.0007723248563706875]]], [[[0.08202748745679855, -0.00991065427660942, 0.07025755196809769], [0.053708262741565704, -0.05417754873633385, -0.026214599609375], [0.07158039510250092, -0.02126121148467064, 0.006633629556745291]], [[0.0898347869515419, 0.10257371515035629, 0.09657277911901474], [0.11278071999549866, 0.009281506761908531, 0.08182541280984879], [-0.09443242102861404, -0.07370125502347946, 0.06922752410173416]], [[0.00360116851516068, -0.07189718633890152, 0.10933104157447815], [-0.06490964442491531, 0.0020429971627891064, 0.09966838359832764], [-0.006113003008067608, 0.04721792787313461, 0.06632272899150848]], [[-0.013560469262301922, -0.08965045213699341, -0.10232260823249817], [0.10765603929758072, 0.09832853823900223, 0.06551206856966019], [-0.05714398995041847, 0.03504456207156181, -0.09643734991550446]], [[-0.05054396018385887, -0.06250467896461487, 0.015052241273224354], [-0.025425536558032036, -0.01561575848609209, -0.01700437068939209], [-0.05858142301440239, 0.08829284459352493, -0.08789018541574478]], [[0.07693438231945038, -0.0280049629509449, -0.030981479212641716], [-0.022310731932520866, 0.03565481677651405, -0.09180392324924469], [-0.04036832973361015, 0.07599577307701111, -0.10055965185165405]], [[0.012234367430210114, 0.023976126685738564, 0.05721648037433624], [-0.043025482445955276, 0.0987413302063942, -0.08452918380498886], [-0.008289969526231289, -0.043963413685560226, -0.002785369986668229]], [[-0.06013720482587814, -0.08645452558994293, -0.11187577247619629], [-0.0053572263568639755, -0.05491870269179344, 0.11569947749376297], [-0.09001035243272781, -0.10869067162275314, 0.025061871856451035]]], [[[-0.061311930418014526, -0.05543448403477669, -0.06488647311925888], [-0.08985847234725952, 0.07957486063241959, -0.051221948117017746], [0.09954999387264252, 0.09542713314294815, -0.021580981090664864]], [[0.11227253079414368, -0.06579002737998962, -0.07928484678268433], [-0.047053366899490356, 0.10671772062778473, 0.09802716970443726], [-0.07467616349458694, -0.06874056905508041, 0.047275375574827194]], [[-0.0455317385494709, 0.10575481504201889, -0.05717874690890312], [-0.06533487886190414, 0.003343927673995495, -0.052024152129888535], [0.07134123891592026, 0.0011379742063581944, 0.09322613477706909]], [[-0.054938383400440216, -0.014495545998215675, -0.07634210586547852], [0.020997531712055206, -0.09779823571443558, 0.04582391679286957], [0.071889229118824, 0.09327948093414307, 0.007931508123874664]], [[0.06872015446424484, 0.00041215404053218663, -0.0032992553897202015], [0.008037291467189789, -0.008287911303341389, 0.01526845432817936], [0.10283905267715454, -0.09663214534521103, -0.06791745871305466]], [[0.08722194284200668, 0.04635312780737877, 0.01686445251107216], [-0.06575383245944977, 0.034637704491615295, -0.039211779832839966], [0.10862608999013901, 0.06470540165901184, 0.08166228979825974]], [[-0.02945432811975479, 0.10438742488622665, -0.10292146354913712], [-0.03764885663986206, 0.10805413126945496, -0.06063489988446236], [-0.029630593955516815, -0.08189088851213455, -0.0184643492102623]], [[-0.06085401028394699, -0.04976672679185867, 0.09038792550563812], [-0.11861440539360046, 0.07690370827913284, -0.015673184767365456], [0.09733333438634872, 7.405533688142896e-05, 0.04475124552845955]]], [[[0.06894425302743912, -0.06030990928411484, 0.0997053012251854], [-0.06430846452713013, -0.02317848429083824, 0.10972698032855988], [-0.017370060086250305, 0.11066058278083801, -0.013196134008467197]], [[0.0013297112891450524, -0.02468959242105484, -0.05567238852381706], [0.1154715046286583, 0.038070905953645706, 0.04163883998990059], [0.1032853052020073, 0.03306777402758598, 0.08746740967035294]], [[-0.07959628105163574, -0.0652981847524643, -0.06430540233850479], [-0.09079417586326599, 0.07077804952859879, 0.08775594830513], [-0.04489654675126076, 0.09126977622509003, 0.08314529806375504]], [[0.02218071185052395, -0.0632891058921814, 0.024659745395183563], [-0.02408246137201786, 0.013213437050580978, -0.05398121476173401], [-0.04219074174761772, -0.01772146485745907, 0.06944084912538528]], [[0.009522855281829834, -0.04465942084789276, -0.10067363828420639], [0.006567476317286491, -0.11586605757474899, -0.0723273903131485], [-0.06604866683483124, 0.08145559579133987, 0.024061214178800583]], [[-0.04742642864584923, -0.09236569702625275, 0.07833594083786011], [-0.037358369678258896, -0.005808265879750252, 0.06920139491558075], [0.11146117746829987, -0.06488586217164993, -0.012469913810491562]], [[0.0054820841178298, -0.08869719505310059, 0.09603281319141388], [-0.010520507581532001, 0.018277356401085854, 0.018054276704788208], [-0.0967596247792244, -0.01753019541501999, -0.002526444150134921]], [[0.0927470400929451, -0.011103070341050625, -0.05192382261157036], [0.020300712436437607, -0.02211972326040268, 0.09348811954259872], [0.018864940851926804, -0.10741954296827316, -0.013389181345701218]]], [[[-0.10494168102741241, 0.10665813833475113, -0.10919564962387085], [-0.03482504189014435, -0.0872441753745079, -0.06541970372200012], [-0.07000457495450974, -0.001229266868904233, -0.043613772839307785]], [[-0.029481379315257072, 0.03722842037677765, -0.03741784766316414], [0.0839371606707573, -0.029430409893393517, 0.08968964219093323], [0.05452542379498482, -0.007125928997993469, -0.05624594911932945]], [[0.022700784727931023, 0.09000018984079361, -0.004672460723668337], [-0.08782119303941727, -0.0641472339630127, 0.08139324933290482], [-0.03047923743724823, 0.020160939544439316, 0.028444211930036545]], [[-0.015153707005083561, 0.024359069764614105, -0.05885066092014313], [0.10319553315639496, -0.04179764166474342, -0.07785656303167343], [-0.010232154279947281, 0.1027587503194809, 0.07419246435165405]], [[0.01553353015333414, -0.06381024420261383, -0.09225214272737503], [-0.06834826618432999, -0.044248275458812714, -0.014557942748069763], [0.01720525696873665, -0.009128108620643616, 0.10261351615190506]], [[0.07050436735153198, 0.08169213682413101, -0.09946839511394501], [-0.005484119988977909, 0.09202039986848831, -0.06077367812395096], [0.05754157528281212, -0.05111968144774437, -0.021684104576706886]], [[0.002367947716265917, 0.00553329149261117, 0.0934598371386528], [-0.11362964659929276, 0.06529020518064499, -0.008074423298239708], [0.09905296564102173, -0.00034414741094224155, 0.008149683475494385]], [[0.10271177440881729, -0.08393952250480652, -0.004609895404428244], [-0.018378635868430138, -0.08877790719270706, 0.03297436609864235], [-0.03807198256254196, -0.08545240014791489, -0.0315655842423439]]], [[[0.03847440332174301, 0.039319317787885666, 0.042403727769851685], [0.08604639768600464, 0.00952340941876173, -0.02463407814502716], [-0.09047288447618484, -0.1052597239613533, -0.10813423991203308]], [[0.05696401000022888, 0.012967525981366634, -0.01809006556868553], [-0.05520066246390343, -0.05982087552547455, -0.0029626828618347645], [-0.09440788626670837, -0.04760066047310829, 0.09752926975488663]], [[-0.06469433009624481, 0.0761268362402916, -0.07577810436487198], [-0.10437068343162537, 0.020234178751707077, -0.018889615312218666], [0.04372499883174896, -0.022489503026008606, -0.10828759521245956]], [[-0.004060479812324047, 0.06901361793279648, -0.042164530605077744], [-0.02294519543647766, -0.089540995657444, 0.03507862985134125], [-0.02515675313770771, -0.10443467646837234, -0.09404628723859787]], [[-0.07960139214992523, -0.06260550767183304, -0.037764813750982285], [-0.024399148300290108, -0.06411823630332947, 0.025143995881080627], [-0.016182227060198784, -0.06010869890451431, 0.09817488491535187]], [[-0.06359667330980301, 0.046069495379924774, -0.09222419559955597], [0.09125620126724243, -0.09935285896062851, 0.06294108182191849], [0.033418238162994385, -0.040682848542928696, 0.08048564195632935]], [[-0.07159776240587234, 0.06880127638578415, -0.01643100567162037], [0.03190021961927414, -0.03391992300748825, -0.10084656625986099], [0.034328412264585495, -0.005785666406154633, 0.05407988652586937]], [[-0.07959504425525665, 0.0708845853805542, -0.07771023362874985], [-0.05016930773854256, 0.03644965961575508, 0.03977416455745697], [0.022292517125606537, 0.07316946238279343, -0.07979222387075424]]], [[[0.06952188163995743, 0.04873833805322647, 0.02722504548728466], [0.09732889384031296, -0.012559663504362106, -0.044181566685438156], [-0.03965957090258598, -0.07124603539705276, 0.12131184339523315]], [[0.029785288497805595, 0.07898533344268799, 0.11582265049219131], [0.002624508924782276, 0.11448080837726593, 0.09921576827764511], [0.11195540428161621, -0.04425105080008507, -0.013166021555662155]], [[0.09130056947469711, -0.10631249845027924, 0.0037670833989977837], [-0.029886635020375252, -0.08433234691619873, 0.033802468329668045], [0.028544960543513298, 0.10983999073505402, -0.020831312984228134]], [[-0.08400584012269974, -0.0429144948720932, -0.07705433666706085], [0.0744267925620079, 0.055537283420562744, -0.0639561340212822], [-0.05356702581048012, -0.07070823758840561, 0.05578548088669777]], [[-0.07955112308263779, 0.014472637325525284, 0.02764730714261532], [0.09674734622240067, 0.11767566204071045, -0.10789777338504791], [0.022837691009044647, 0.09797046333551407, 0.0036174640990793705]], [[0.0465744249522686, 0.06017228588461876, -0.05312640219926834], [-0.07119187712669373, 0.11290963739156723, 0.07810574024915695], [0.07198981195688248, -0.11573173850774765, 0.08415038883686066]], [[0.0722861960530281, -0.07368260622024536, -0.030901994556188583], [0.034109942615032196, -0.028216775506734848, 0.05576980486512184], [0.09369103610515594, 0.05797887593507767, 0.09085504710674286]], [[-0.07570486515760422, 0.07371792197227478, 0.07640458643436432], [-0.09367220103740692, 0.10674846172332764, 0.02199685201048851], [-0.07068955898284912, 0.12642571330070496, 0.01392789464443922]]], [[[-0.003694632789120078, 0.002430717460811138, 0.033457934856414795], [0.06404456496238708, 0.040410831570625305, -0.09697280079126358], [-0.08077216893434525, -0.060515400022268295, 0.05710339546203613]], [[0.10362441092729568, 0.041077353060245514, 0.10998521000146866], [-0.11237956583499908, 0.09976590424776077, 0.035215020179748535], [0.03639230504631996, -0.05802415311336517, -0.1120794266462326]], [[-0.09408720582723618, -0.08395804464817047, 0.00811393465846777], [-0.05634324997663498, -0.07059697061777115, 0.07676969468593597], [-0.04373199865221977, -0.09637226164340973, 0.105967216193676]], [[0.08056692779064178, 0.026704803109169006, -0.0007866282830946147], [-0.05065546929836273, 0.11028844863176346, 0.019240928813815117], [0.08148188889026642, -0.010536806657910347, -0.0016189075540751219]], [[-0.02434970997273922, -0.03993866220116615, -0.009265759959816933], [-0.046533774584531784, 0.007484521716833115, -0.07448597252368927], [0.004599078092724085, 0.048993490636348724, -0.0011636323761194944]], [[-0.07745717465877533, -0.030225088819861412, -0.05218270793557167], [0.1023215502500534, 0.013769780285656452, -0.07681544870138168], [-0.06255126744508743, 0.09874604642391205, -0.05953432247042656]], [[0.030747437849640846, 0.017542866989970207, 0.08882033824920654], [-0.01707436330616474, 0.1159883514046669, 0.03638443350791931], [0.07543816417455673, 0.0879439190030098, 0.0371457040309906]], [[-0.09281580150127411, -0.06507064402103424, -0.045716263353824615], [0.10982641577720642, -0.09703298658132553, -0.1164378747344017], [-0.05170479789376259, 0.08262545615434647, 0.09578341990709305]]], [[[0.008710029534995556, -0.11698947846889496, -0.024066690355539322], [-0.07550649344921112, 0.003453981364145875, -0.02617543190717697], [-0.08072520047426224, -0.012292250990867615, 0.09002052992582321]], [[-0.08214596658945084, 0.11415406316518784, -0.08182334899902344], [-0.0393047109246254, -0.09776753932237625, -0.024420524016022682], [-0.11370651423931122, 0.09511202573776245, 0.11625939607620239]], [[-0.027622075751423836, -0.1076635792851448, -0.05437587946653366], [-0.07194367796182632, 0.01605602726340294, -0.10124997049570084], [-0.08526809513568878, -0.053836122155189514, -0.01924171671271324]], [[-0.014694398269057274, -0.02515193074941635, 0.10177768766880035], [0.09911023825407028, -0.0773988589644432, 0.03521755337715149], [-0.07214182615280151, -0.09820821136236191, 0.013599373400211334]], [[0.07128344476222992, -0.06409231573343277, -0.11727453023195267], [0.04648705944418907, -0.06167596951127052, -0.05871722102165222], [-0.026722393929958344, -0.016270551830530167, -0.06361555308103561]], [[-0.10689762979745865, -0.018333036452531815, 0.02971561811864376], [0.0990273505449295, -0.013470258563756943, -0.05703931301832199], [0.023415805771946907, 0.010701675899326801, 0.05645647644996643]], [[-0.05284866318106651, 0.08655258268117905, -0.06248671934008598], [0.009662417694926262, -0.003849243512377143, 0.07265842705965042], [0.06942012906074524, -0.09829117357730865, 0.022633209824562073]], [[-0.02854248881340027, 0.0057161427102983, -0.01616627350449562], [0.026158109307289124, 0.09364683926105499, -0.0913715809583664], [-0.03719494864344597, -0.026757504791021347, 0.07758662104606628]]], [[[-0.11074163764715195, 0.04251975938677788, 0.09225907921791077], [-0.056328870356082916, -0.10003360360860825, 0.047176819294691086], [0.08740360289812088, -0.107513926923275, 0.06930125504732132]], [[0.010196389630436897, 0.09358540922403336, -0.052755217999219894], [0.046943552792072296, 0.0011295551666989923, 0.06447235494852066], [0.0552031509578228, 0.08644182980060577, 0.07252006232738495]], [[-0.044899776577949524, -0.06907329708337784, -0.02428082376718521], [-0.06375502049922943, -0.09166157990694046, -0.025466574355959892], [0.03877106308937073, -0.04907514154911041, -0.04190050810575485]], [[-0.09214943647384644, 0.10993276536464691, -0.008929870091378689], [0.07592000812292099, 0.054140958935022354, -0.0801168829202652], [-0.06283067166805267, 0.10639818757772446, -0.10664347559213638]], [[-0.11426561325788498, -0.05212421715259552, 0.06615790724754333], [-0.06531127542257309, 0.11714828759431839, 0.05235859379172325], [-0.03709284961223602, 0.0510701946914196, 0.09351291507482529]], [[-0.09846470504999161, 0.09790294617414474, -0.0893419086933136], [-0.023631779477000237, -0.09608039259910583, -0.0965806320309639], [0.04474896192550659, -0.08181262016296387, -0.06257898360490799]], [[-0.10150966793298721, -0.0751999095082283, 0.10575100779533386], [0.047966282814741135, -0.10151005536317825, 0.021851757541298866], [-0.0781635195016861, -0.07151332497596741, 0.011003144085407257]], [[-0.08616936951875687, -0.043018557131290436, 0.08107154816389084], [0.07682248204946518, -0.007165208924561739, 0.09089812636375427], [-0.024622593075037003, -0.01564740762114525, -0.03895631060004234]]]], "encoder.4.bias": [-0.005872598383575678, 0.07913602888584137, 0.0863218605518341, -0.006643435452133417, -0.08708783239126205, 0.07471442967653275, 0.11363647133111954, 0.06232738122344017, -0.09852314740419388, -0.07861194014549255, 0.058659475296735764, -0.09840527921915054, 0.06684931367635727, 0.020811300724744797, 0.001255182782188058, 0.05359175428748131], "encoder.6.weight": [[[[0.032953571528196335, 0.017329523339867592, -0.039762068539857864], [-0.028080416843295097, 0.005093899089843035, 0.028332486748695374], [0.0786128118634224, -0.05877730995416641, 0.011223060078918934]], [[-0.049339890480041504, 0.030231507495045662, 0.05368584021925926], [0.05811420828104019, 0.07610872387886047, 0.01277390867471695], [0.0504772923886776, -0.0632510781288147, 0.0004183174460195005]], [[0.054431285709142685, 0.010630900040268898, -0.05170368775725365], [-0.010219423100352287, -0.05753997713327408, 0.020971424877643585], [0.06750363111495972, -0.046773314476013184, -0.08093298226594925]], [[0.0541471391916275, 0.0741124302148819, 0.04970597103238106], [0.023401163518428802, 0.044565167278051376, 0.028528954833745956], [-0.03597147762775421, 0.0746326595544815, -0.064886175096035]], [[0.03670615330338478, 0.056127630174160004, 0.07700789719820023], [-0.0768706426024437, 0.016481423750519753, 0.07565319538116455], [0.08129183202981949, -0.040889207273721695, 0.04079047217965126]], [[-0.04438153654336929, -0.04801012575626373, -0.0022574581671506166], [0.02413984388113022, 0.005969877354800701, 0.047666169703006744], [-0.0877123698592186, 0.04181045666337013, 0.05191843584179878]], [[-0.06155368685722351, 0.0748080164194107, 0.04803633317351341], [0.06083906441926956, 0.07239684462547302, -0.08030756562948227], [0.04176202416419983, -0.052751414477825165, 0.040808092802762985]], [[0.07286848872900009, -0.07227461040019989, 0.05794748291373253], [-0.031135398894548416, -0.06909482926130295, -9.357529052067548e-05], [0.007793964818120003, 0.02468784712255001, 0.039273738861083984]], [[-3.758376624318771e-05, -0.06134781613945961, -0.04080648347735405], [-0.01741514727473259, -0.042238522320985794, -0.042737871408462524], [-0.08709163963794708, 0.0016735033132135868, 0.06204340234398842]], [[0.005939801689237356, -0.013041505590081215, 0.03548912703990936], [0.047147855162620544, -0.02887897938489914, -0.04752601683139801], [-0.023541852831840515, -0.016126619651913643, -0.07538402080535889]], [[0.01867382973432541, 0.07253683358430862, -0.06638827174901962], [-0.023418854922056198, 0.06561588495969772, 0.009077480994164944], [-0.02415955811738968, -0.04345834627747536, -0.06338654458522797]], [[0.04723527282476425, 0.02901923656463623, -0.0511823445558548], [-0.04506094381213188, -0.031902723014354706, 0.08245767652988434], [-0.07455815374851227, 0.017778409644961357, -0.056675445288419724]], [[0.01796833984553814, -0.02452784962952137, -0.036954525858163834], [-0.07638779282569885, -0.005308993626385927, -0.055483803153038025], [-0.0030646901577711105, 0.0206757765263319, 0.05211387947201729]], [[-0.0023498297668993473, 0.08121449500322342, 0.06164470314979553], [-0.04982757940888405, -0.018493887037038803, -0.0515177957713604], [0.08233217149972916, 0.03796923905611038, 0.03678208962082863]], [[0.02477167174220085, 0.03614388033747673, -0.0480225645005703], [-0.0728345513343811, 0.029591618105769157, 0.030499007552862167], [0.04470033571124077, -0.00530741224065423, -0.059588395059108734]], [[0.07151789218187332, -0.012693514116108418, 0.023153390735387802], [0.03958633914589882, -0.022957107052206993, 0.0443403497338295], [0.057434625923633575, -0.016082344576716423, -0.050882142037153244]]], [[[-0.023922840133309364, -0.06303957849740982, 0.015467227436602116], [0.01659334823489189, -0.03559749945998192, 0.07296837866306305], [0.00871098879724741, -0.012504279613494873, -0.0690653845667839]], [[-0.028222767636179924, -0.07434787601232529, -0.05605023354291916], [-0.0007640911499038339, -0.00670778751373291, -0.08237084001302719], [0.06188949570059776, -0.05064978078007698, 0.06886950880289078]], [[0.019546737894415855, 0.0030162667389959097, 0.07349672168493271], [-0.03551320731639862, 0.064762644469738, 0.054617732763290405], [-0.04344422370195389, -0.07806096971035004, -0.016547657549381256]], [[-0.01571417972445488, 0.0003571593260858208, -0.08353923261165619], [-0.03518639877438545, -0.038003791123628616, 0.00017917212971951813], [0.025879910215735435, -0.07162123918533325, -0.046557698398828506]], [[-0.054599784314632416, -0.014700916595757008, -0.021531809121370316], [-0.038285840302705765, -0.00871521607041359, 0.040997665375471115], [-0.046698566526174545, 0.018386254087090492, 0.02819124236702919]], [[0.04774856939911842, 0.059224437922239304, 0.07031862437725067], [0.06154554337263107, -0.07078235596418381, -0.0046757482923567295], [-0.07546364516019821, 0.04673176631331444, -0.05162700638175011]], [[-0.0785776898264885, -0.03716598078608513, -0.05839727818965912], [0.05338950827717781, -0.0026513421908020973, 0.00899865198880434], [0.01235430408269167, -0.08109866082668304, 0.019031262025237083]], [[0.0819542407989502, -0.02349846623837948, 0.046101491898298264], [0.0645778551697731, -0.08308279514312744, 0.04159320518374443], [0.018845468759536743, 0.03409906104207039, 0.08177169412374496]], [[-0.04792153835296631, 0.03998773545026779, 0.06645362824201584], [0.07969783991575241, -0.02313510701060295, 0.028647787868976593], [0.04627925157546997, -0.07674898952245712, 0.04320789501070976]], [[0.05859164148569107, -0.0706847533583641, 0.08252114802598953], [-0.020297007635235786, 0.017464246600866318, -0.08031415939331055], [0.02423154003918171, -0.07143595814704895, 0.0010917639592662454]], [[-0.08299905061721802, -0.0790957510471344, -0.058273207396268845], [-0.050065070390701294, -0.0064378888346254826, 0.05042184516787529], [0.03841846063733101, 0.04553913697600365, -0.01691543124616146]], [[0.04013187810778618, 0.02657836675643921, 0.06476189941167831], [-0.041279386729002, -0.0651821717619896, -0.04262072965502739], [0.07687029242515564, -0.04339953511953354, 0.002911508083343506]], [[-0.047475628554821014, 0.005104752257466316, -0.010892432183027267], [0.0356130376458168, 0.02915061265230179, 0.00513121671974659], [-0.08092860132455826, 0.04786308854818344, -0.028769053518772125]], [[-0.021632321178913116, -0.07533293962478638, -0.06269185245037079], [-0.013558956794440746, 0.06554266065359116, 0.01515077706426382], [-0.016320928931236267, -0.005195296835154295, 0.025845028460025787]], [[0.036007076501846313, -0.018560534343123436, 0.08041359484195709], [0.06638830900192261, -0.004839257337152958, -0.004837209824472666], [0.021407458931207657, 0.029560022056102753, -0.04393379017710686]], [[-0.03781072422862053, -0.06424854695796967, -0.0789693146944046], [0.04118054360151291, 0.030835967510938644, 0.049578957259655], [-0.025136062875390053, -0.05140833556652069, 0.05253027006983757]]], [[[-0.02701425366103649, -0.08323446661233902, -0.05689626187086105], [-0.01844855584204197, -0.04726855829358101, 0.025942623615264893], [0.05194386839866638, -0.04126299172639847, -0.05395711213350296]], [[-0.020765621215105057, 0.05696554109454155, -0.020891860127449036], [0.07401867210865021, -0.03067481890320778, -0.07788737863302231], [-0.017691247165203094, -0.059735462069511414, -0.05199429392814636]], [[0.022655177861452103, -0.029315991327166557, -0.054804909974336624], [0.026266777887940407, 0.05451976880431175, 0.07163286209106445], [-0.024159599095582962, -0.03613129258155823, -0.0595330074429512]], [[-0.013654348440468311, -0.06286938488483429, 0.007756382692605257], [-0.07147329300642014, -0.02693920023739338, 0.04430677741765976], [-0.07464481890201569, -0.07224314659833908, 0.06408967822790146]], [[0.08205117285251617, -0.03189695253968239, 0.05372050404548645], [-0.0008817053749226034, -0.04615027830004692, 0.06982117146253586], [-0.05186914652585983, 0.01452698279172182, 0.08017396181821823]], [[-0.04699978232383728, 0.054580699652433395, -0.07319549471139908], [0.00016778375720605254, 0.05525354668498039, 0.007070009130984545], [0.05664168670773506, -0.0057752435095608234, -0.015058870427310467]], [[-0.023416059091687202, 0.041873104870319366, 0.04035772755742073], [-0.05411114916205406, -0.06814753264188766, -0.0020142756402492523], [0.02005241997539997, -0.0009438211563974619, -0.052764251828193665]], [[0.06800246238708496, -0.07617232203483582, -0.07499222457408905], [-0.07329261302947998, -0.07930999249219894, 0.0557049997150898], [-0.01703646592795849, 0.08313684165477753, 0.02090306766331196]], [[0.025837451219558716, 0.008793477900326252, -0.03093976154923439], [0.044831644743680954, -0.058461643755435944, -0.033832695335149765], [-0.05241537094116211, 0.07090755552053452, -0.021821750327944756]], [[-0.029862333089113235, -0.07474745810031891, 0.007614470552653074], [-0.0061805592849850655, -0.08193496614694595, 0.032683879137039185], [-0.07394266128540039, 0.010932154022157192, 0.04274090379476547]], [[0.001179525163024664, -0.07267678529024124, -0.07971931993961334], [0.019025227054953575, -0.03785717487335205, 0.025979116559028625], [0.04133240133523941, -0.03479625657200813, -0.050664905458688736]], [[-0.0718357115983963, -0.060566388070583344, 0.031782977283000946], [0.0604233555495739, -0.03964334726333618, -0.07922656834125519], [0.040275365114212036, 0.012824366800487041, -0.037352949380874634]], [[-0.08248883485794067, 0.005334191489964724, 0.07710810005664825], [-0.023424724116921425, -0.07942914962768555, 0.006630235817283392], [0.07975471764802933, -0.017153548076748848, 0.04330489784479141]], [[-0.029484501108527184, -0.02963455766439438, 0.022264715284109116], [-0.02452722378075123, -0.016471561044454575, -0.014211997389793396], [0.0048093656077980995, -0.047454554587602615, 0.02476201206445694]], [[-0.022906051948666573, -0.031224848702549934, 0.0029329259414225817], [-0.038099367171525955, 0.053922299295663834, -0.017467942088842392], [-0.05280691757798195, 0.0596209354698658, -0.08303463459014893]], [[0.08103078603744507, 0.038252413272857666, 0.04495026171207428], [0.0016837475122883916, 0.04388650879263878, -0.05053984001278877], [-0.06273503601551056, -0.024125022813677788, -0.0054034884087741375]]], [[[-0.054823700338602066, -0.00857500545680523, 0.08169489353895187], [-0.05825730413198471, -0.013701071962714195, 0.048841387033462524], [-0.00270471372641623, -0.02760113775730133, -0.06313009560108185]], [[-0.013048013672232628, 0.0068209427408874035, 0.05295920372009277], [-0.03641829639673233, 0.06518659740686417, 0.017892973497509956], [-0.06862787157297134, 0.040947504341602325, -0.040051497519016266]], [[-0.030739158391952515, -0.06164560094475746, 0.07798117399215698], [-0.048855479806661606, 0.029054896906018257, -0.07382187247276306], [-0.08330447226762772, -0.032762330025434494, 0.020015623420476913]], [[0.01578502357006073, 0.009398218244314194, 0.028710437938570976], [0.010849542915821075, 0.07651695609092712, 0.016337640583515167], [0.06010405346751213, -0.0008513898937962949, -0.05463086813688278]], [[0.06780204176902771, -0.0649452805519104, -0.07906936854124069], [-0.028412701562047005, -0.04812927916646004, 0.05400601401925087], [0.036758437752723694, -0.0800885483622551, 0.07914774864912033]], [[-0.01260696817189455, 0.004644443746656179, 0.04443395137786865], [-0.016681529581546783, -0.0763063058257103, 0.00027229179977439344], [0.04507170617580414, -0.010432570241391659, 0.00880158506333828]], [[0.0644594058394432, 0.0691038966178894, -0.034741245210170746], [0.08032416552305222, -0.05118119716644287, 0.012832662090659142], [0.07605390250682831, 0.04951793700456619, -0.07248183339834213]], [[0.06970494985580444, -0.08013705164194107, -0.07817992568016052], [-0.049735743552446365, -0.07533294707536697, 0.03399153798818588], [0.0006067026988603175, 0.07636497914791107, -0.047479551285505295]], [[0.055838391184806824, 0.006921024527400732, 0.05560185760259628], [-0.03808290511369705, -0.05994062125682831, -0.03836604580283165], [-0.041557081043720245, -0.03911315277218819, -0.05256183445453644]], [[-0.02530202455818653, -0.0768255963921547, 0.01351610105484724], [-0.02438451535999775, 0.034202512353658676, -0.07231274992227554], [-0.044121984392404556, 0.01814855821430683, 0.031036537140607834]], [[0.05527442321181297, -0.04332897812128067, -0.024558858945965767], [-0.00448398943990469, -0.02010982483625412, -0.05202406272292137], [0.0007345182239077985, 0.017627162858843803, 0.06076609343290329]], [[-0.02984597347676754, -0.04406898468732834, 0.07273566722869873], [0.04880515858530998, 0.03934913128614426, 0.06388673186302185], [-0.028791185468435287, 0.04994746297597885, 0.02797488495707512]], [[0.07756771147251129, -0.05797554552555084, -0.011943168006837368], [0.029538864269852638, -0.05559317395091057, -0.06811841577291489], [-0.02407483570277691, 0.033489909023046494, -0.036664217710494995]], [[-0.02862853929400444, -0.03000257909297943, 0.030081797391176224], [0.06367988884449005, 0.04476132243871689, -0.07318635284900665], [-0.03301548585295677, -0.08066476881504059, -0.03270043060183525]], [[-0.02376624010503292, 0.030710965394973755, 0.07240656018257141], [0.012486904859542847, -0.06910683959722519, -0.037313662469387054], [-0.045083992183208466, -0.07731036841869354, -0.014284289442002773]], [[-0.0507662259042263, -0.02075149118900299, -0.011062880977988243], [0.04297503083944321, 0.02904762141406536, 0.04661381244659424], [-0.0009040749282576144, -0.0010193587513640523, -0.07644673436880112]]], [[[-0.01922643557190895, 0.05973096191883087, -0.050703831017017365], [0.06973158568143845, -0.039391305297613144, 0.06127103790640831], [0.039571478962898254, 0.024865318089723587, 0.05997910350561142]], [[0.06852331012487411, -0.016453944146633148, 0.005219405982643366], [0.055089350789785385, -0.0830477848649025, 0.07391803711652756], [-0.019545091316103935, 0.061167240142822266, 0.08064158260822296]], [[0.07561352849006653, 0.028434457257390022, 0.029317403212189674], [0.03745622560381889, -0.0734325498342514, -0.04150218516588211], [-0.023246942088007927, -0.07879510521888733, 0.08077409118413925]], [[-0.012915624305605888, 0.02315457910299301, -0.047667551785707474], [-0.012930015102028847, -0.0009933203691616654, 0.03297696262598038], [0.019327716901898384, 0.06318742781877518, 0.07434608042240143]], [[-0.05605635792016983, 0.059637218713760376, -0.01811964251101017], [-0.06393072754144669, -0.03874971345067024, -0.014397797174751759], [0.08178376406431198, -0.07232248038053513, -0.017927300184965134]], [[-0.04241557419300079, 0.018412228673696518, 0.06517346203327179], [-0.08122327923774719, -0.05416911095380783, -0.030052173882722855], [-0.0034797301050275564, 0.06919039785861969, -0.030311431735754013]], [[-0.05749799311161041, -0.010385677218437195, 0.015738660469651222], [-0.021162789314985275, 0.012602345086634159, -0.03495020791888237], [-0.04476672783493996, -0.04075605422258377, 0.023118169978260994]], [[0.010060825385153294, -0.03436367213726044, 0.02350541017949581], [-0.013876176439225674, -0.005062907934188843, -0.07628243416547775], [0.00748693710193038, 0.06764152646064758, 0.012432314455509186]], [[-0.07438653707504272, 0.04868222773075104, -0.03436907380819321], [0.023323049768805504, 0.018146958202123642, 0.04452339559793472], [0.028402376919984818, 0.009843305684626102, 0.06359018385410309]], [[0.061774324625730515, 0.03425990045070648, -0.08196412771940231], [0.011782146990299225, -0.08424389362335205, -0.009036244824528694], [0.001232728362083435, 0.029814863577485085, -0.005343297030776739]], [[0.030327266082167625, -0.023819759488105774, -0.05503300577402115], [-0.016896212473511696, -0.04280460998415947, -0.022097958251833916], [-0.02719355933368206, -0.014353408478200436, -0.08276770263910294]], [[0.04281727224588394, 0.029724370688199997, -0.06987027823925018], [-0.060984306037425995, -0.032721929252147675, -0.05835653468966484], [-0.040956854820251465, -0.0491979643702507, 0.05355653166770935]], [[-0.040131159126758575, -0.081424780189991, -0.0530637726187706], [-0.07525359839200974, -0.017416896298527718, 0.04960326477885246], [0.06656347215175629, 0.0009619261836633086, -0.0377529114484787]], [[-0.019212154671549797, 0.005299699492752552, 0.0023243960458785295], [0.019418304786086082, -0.03743775561451912, 0.011216029524803162], [-0.06995787471532822, -0.07489604502916336, 0.007338689640164375]], [[-0.06921373307704926, -0.05236188694834709, 0.03010060265660286], [-0.04780837520956993, 0.07363644242286682, 0.08212745189666748], [0.0457337461411953, -0.010395647957921028, -0.05903257057070732]], [[0.019862404093146324, -0.01722056232392788, 0.011854961514472961], [-0.07490154355764389, 0.07137572020292282, 0.04106071591377258], [0.008624586276710033, 0.04695930331945419, 0.01083710603415966]]], [[[-0.010518963448703289, 0.003292822279036045, 0.0012724485713988543], [0.03797794133424759, -0.021891377866268158, 0.08065995573997498], [0.008088849484920502, 0.029461968690156937, 0.009441591799259186]], [[0.04655875265598297, 0.0340290442109108, -0.06911088526248932], [-0.05167220160365105, -0.0637238472700119, 0.02330010198056698], [0.06278610974550247, -0.051895711570978165, -0.05271204933524132]], [[0.024324778467416763, -0.009366492740809917, -0.027608823031187057], [-0.05727311968803406, 0.036082156002521515, 0.014087338000535965], [-0.07824993133544922, -0.05759432911872864, -0.07069949805736542]], [[-0.07170908898115158, -0.06033886969089508, -0.03210901841521263], [-0.004459457006305456, 0.04881379008293152, 0.05020265653729439], [0.0386008620262146, -0.03891391307115555, 0.002466439502313733]], [[-0.008924756199121475, -0.011832223273813725, 0.022228581830859184], [-0.052886925637722015, -0.018865292891860008, -0.04894670844078064], [-0.08374955505132675, -0.005365625023841858, -0.06358873844146729]], [[0.01941695250570774, -0.04751911014318466, 0.031509507447481155], [0.053672198206186295, -0.034276027232408524, -0.06847009807825089], [-0.05081562325358391, 0.052577320486307144, 0.06799636781215668]], [[0.07316011935472488, 0.039098888635635376, -0.0666002407670021], [0.07344263792037964, 0.03373899310827255, 0.02047467790544033], [0.00695144385099411, 0.003813140094280243, -0.07268956303596497]], [[0.0029680721927434206, -0.062499262392520905, -0.011570305563509464], [-0.031672682613134384, 0.04394429177045822, 0.06448257714509964], [-0.04751488193869591, 0.0029468750581145287, -0.07390633970499039]], [[-0.04552007094025612, -0.08187397569417953, -0.04842204228043556], [0.05795969441533089, 0.01898590661585331, 0.03237953409552574], [-0.008935009129345417, -0.009825581684708595, 0.06333188712596893]], [[0.06141968071460724, 0.0014808415435254574, 0.06406024843454361], [0.04508572071790695, 0.05036487802863121, 0.033869363367557526], [0.01051435898989439, -0.014769920147955418, -0.013992337509989738]], [[0.022738881409168243, -0.03670864552259445, 0.05946597084403038], [0.022444291040301323, 0.018045399338006973, -0.0018727490678429604], [0.003474629484117031, -0.03777633234858513, 0.0672367736697197]], [[-0.011122254654765129, -0.06427495926618576, 0.05003209039568901], [-0.06954770535230637, -0.06710198521614075, 0.07810576260089874], [0.0606221966445446, -0.07676446437835693, -0.06607836484909058]], [[-0.05378654599189758, -0.021716739982366562, -0.01655683107674122], [0.0586598739027977, -0.05044996365904808, -0.008700372651219368], [-0.0302616935223341, 0.018997922539711, -0.05038917064666748]], [[0.07900653034448624, 0.03186985105276108, 0.07678785175085068], [0.05154438689351082, -0.003211663104593754, -0.04241624101996422], [-0.07871013134717941, 0.059099920094013214, 0.017554573714733124]], [[0.0001394418068230152, -0.020340213552117348, -0.05644688755273819], [-0.008518951945006847, -0.008459985256195068, -0.0702037662267685], [-0.019797157496213913, -0.05895264446735382, -0.04320297762751579]], [[0.04119645804166794, 0.059159014374017715, -0.08050568401813507], [0.0036802019458264112, -0.0338933989405632, 0.07969574630260468], [-0.05929581820964813, -0.004497515968978405, -0.060239993035793304]]], [[[0.03181016445159912, -0.008791066706180573, 0.04655390605330467], [-0.06405617296695709, 0.01968436688184738, -0.03817490115761757], [-0.08268885314464569, -0.03924654424190521, -0.026343319565057755]], [[0.0382576547563076, -0.04170029237866402, -0.032087843865156174], [-0.06571438163518906, -0.06662575900554657, -0.010624706745147705], [-0.013675916939973831, 0.07351569831371307, 0.01581883244216442]], [[0.036041487008333206, -0.02967897243797779, -0.06743822991847992], [-0.013286196626722813, -0.021917328238487244, -0.08008065074682236], [0.03737200051546097, -0.013688793405890465, 0.08097696304321289]], [[0.0523686520755291, 0.07270380854606628, 0.024058083072304726], [-0.03224368020892143, -0.08702468127012253, 0.07208190113306046], [0.047267939895391464, 0.05386809632182121, 0.04036100208759308]], [[0.06056990474462509, 0.0698661208152771, 0.05816306546330452], [0.05098620429635048, 0.06658660620450974, -0.05979704111814499], [0.03507571667432785, 0.039139557629823685, -0.06769856810569763]], [[0.06894700229167938, 0.06166940927505493, 0.06016535311937332], [0.046945005655288696, 0.019695164635777473, -0.0012814902001991868], [-0.08476587384939194, 0.0586075559258461, 0.010968197137117386]], [[-0.082054004073143, 0.016742190346121788, 0.01905628852546215], [0.079065702855587, -0.05740201100707054, -0.05273296684026718], [-0.0551886186003685, -0.07834886759519577, 0.05384843051433563]], [[-0.03547905012965202, -0.07968483865261078, -0.049730751663446426], [-0.03845146298408508, 0.04512045904994011, 0.05037785321474075], [-0.030195986852049828, 0.05535287410020828, -0.008504467085003853]], [[-0.038861632347106934, 0.058914605528116226, 0.00023655920813325793], [0.02164679393172264, -0.04707837104797363, 0.0024998707231134176], [0.0644446387887001, -0.06324133276939392, 0.02275729738175869]], [[0.024577545002102852, -0.07264440506696701, 0.007615675684064627], [0.03105592541396618, -0.07435985654592514, 0.052342455834150314], [-0.007178430445492268, 0.05721340700984001, 0.05408019199967384]], [[0.028007550165057182, 0.007602950092405081, -0.011068389751017094], [0.010895189829170704, -0.0482792966067791, 0.08106596022844315], [-0.044613853096961975, 0.05119544267654419, 0.007692877668887377]], [[0.035819508135318756, -0.035857848823070526, 0.07559806108474731], [-0.04272448271512985, -0.0658385381102562, 0.03595299646258354], [0.011299342848360538, 0.0434584841132164, 0.035533588379621506]], [[0.04492764174938202, -0.03547053411602974, 0.05291565880179405], [-0.07899678498506546, -0.07827465981245041, -0.028298640623688698], [-0.0673212930560112, -0.03454640135169029, 0.03406772390007973]], [[0.08041734993457794, -0.042288847267627716, -0.06671381741762161], [-0.046507034450769424, 0.06676723062992096, 0.06849060952663422], [0.06806241720914841, 0.01729387789964676, 0.00841549038887024]], [[-0.040932804346084595, 0.05242963507771492, -0.03335040062665939], [-0.07534219324588776, -0.03790421038866043, -0.02035709284245968], [-0.027143118903040886, -0.002694502705708146, -0.007316714618355036]], [[-0.08265464752912521, 0.005788237322121859, 0.03285729140043259], [0.03668588027358055, -0.025772390887141228, 0.03905857726931572], [-0.06320071965456009, 0.054142747074365616, -0.0518515519797802]]], [[[-0.07697355002164841, -0.0319906622171402, 0.011526098474860191], [-0.04962122067809105, 0.049916286021471024, 0.015942811965942383], [0.034937676042318344, -0.023696493357419968, -0.005503273569047451]], [[0.0311147328466177, 0.039192114025354385, -0.0558258555829525], [0.0822872668504715, -0.04022744670510292, 0.055334240198135376], [-0.05066673085093498, 0.015936145558953285, 0.0015002150321379304]], [[-0.0010015497682616115, -0.013601190410554409, -0.00031963680521585047], [0.018661675974726677, 0.07914945483207703, 0.06274160742759705], [-0.04004311189055443, -0.027833441272377968, -0.02568131871521473]], [[0.012956655584275723, 0.05730365216732025, 0.040987156331539154], [-0.005378019530326128, 0.07543652504682541, -0.05669402331113815], [-0.01993783377110958, -0.027418745681643486, 0.07091929763555527]], [[0.007419086527079344, -0.003810610854998231, 0.00799486692994833], [-0.009366615675389767, 0.02719057910144329, 0.033946357667446136], [-6.782606214983389e-05, -0.054830845445394516, 0.04323633387684822]], [[-0.016429496929049492, -0.04382094368338585, 0.07766884565353394], [-0.07704321295022964, -0.008047198876738548, -0.08130636066198349], [-0.033599115908145905, 0.06320741772651672, 0.054556962102651596]], [[-0.01176528725773096, -0.079027459025383, 0.017261620610952377], [-0.01311236247420311, 0.014236443676054478, 0.08110233396291733], [0.05903017520904541, -0.051684364676475525, -0.0493391677737236]], [[0.03467871993780136, 0.013740218244493008, 0.04649168252944946], [0.014321785420179367, 0.04919016361236572, -0.02529696747660637], [-0.07835650444030762, 0.050985902547836304, -0.06381364166736603]], [[-0.014886199496686459, 0.06484514474868774, -0.043720245361328125], [0.02046630159020424, 0.004906854126602411, 0.028837502002716064], [-0.013208146207034588, -0.01859588548541069, -0.06262047588825226]], [[0.06285440921783447, 0.03683682903647423, 0.0034037071745842695], [-0.02473343536257744, 0.0019056907622143626, -0.007980969734489918], [0.02984139323234558, -0.03036186844110489, 0.021814074367284775]], [[0.033685456961393356, 0.04072899743914604, -0.058135662227869034], [-0.07321134954690933, -0.031144222244620323, 0.034984610974788666], [0.016587981954216957, 0.07859668135643005, -0.0829952284693718]], [[0.07635331153869629, 0.06569834798574448, 0.0575963519513607], [-0.002962440252304077, 0.00802081823348999, -0.05308069288730621], [-0.06707687675952911, -0.08062960207462311, -0.008562694303691387]], [[-0.08289166539907455, -0.0519302636384964, -0.0009670960134826601], [0.0026589627377688885, -0.08361619710922241, -0.025045737624168396], [0.022988976910710335, -0.04921209439635277, -0.038548544049263]], [[-0.0757707804441452, 0.07574370503425598, -0.05336969345808029], [-0.0506255142390728, 0.018865816295146942, -0.018776141107082367], [0.0345204658806324, 0.019325174391269684, -0.03246976062655449]], [[-0.03877655789256096, 0.07995327562093735, -0.004326303955167532], [-0.03499682992696762, 0.06665410101413727, -0.025396903976798058], [-0.034001629799604416, 0.052580736577510834, -0.033214133232831955]], [[0.0653306320309639, 0.06057163327932358, -0.06827539205551147], [0.05835635960102081, 0.0391937792301178, -0.08256204426288605], [-0.04847940430045128, 0.026769019663333893, 0.07708819210529327]]], [[[0.03775646910071373, -0.0443563275039196, -0.04194782301783562], [0.0058000655844807625, -0.042594317346811295, 0.04678748920559883], [-0.040278661996126175, -0.04455453157424927, -0.009212479926645756]], [[0.04757048934698105, 0.008482879027724266, -0.06908325850963593], [0.04960791766643524, 0.04362005367875099, -0.0645701065659523], [-0.02729911543428898, 0.031735166907310486, 0.03940410539507866]], [[0.0030213743448257446, 0.03347419947385788, -0.01662445440888405], [0.05954718589782715, 0.046219103038311005, -0.05024739354848862], [0.01309986598789692, 0.031005481258034706, 0.025932053104043007]], [[-0.0768730640411377, 0.08054260164499283, -0.01618274860084057], [0.08065575361251831, 0.08393188565969467, 0.0765070840716362], [-0.0190518107265234, -0.07363485544919968, 0.07113198190927505]], [[0.03021768480539322, -0.05481024459004402, -0.029111500829458237], [-0.04613066464662552, 0.020973678678274155, 0.03582686558365822], [-0.025919750332832336, 0.00933562871068716, -0.016695450991392136]], [[-0.0328730084002018, 0.0746418684720993, 0.024637695401906967], [0.06161300092935562, -0.04041139781475067, -0.0512998029589653], [0.0646246075630188, -0.05429330840706825, -0.05162372440099716]], [[-0.018886297941207886, 0.010212473571300507, 0.04307643324136734], [0.05831687152385712, -0.07219519466161728, -0.053964752703905106], [-0.054282911121845245, 0.018536925315856934, 0.0664181187748909]], [[0.07640177756547928, -0.02667144313454628, -0.05835245922207832], [0.06007929518818855, -0.06872693449258804, -0.021554889157414436], [0.04626227542757988, 0.0724782943725586, 0.0775638222694397]], [[-0.006539430934935808, 0.0288351159542799, -0.033265531063079834], [0.07011730968952179, 0.016584785655140877, 0.017015833407640457], [-0.005340720526874065, -0.06971677392721176, -0.06985870748758316]], [[0.005783770699054003, -0.03771205246448517, 0.007976227439939976], [0.07087080180644989, -0.037551987916231155, 0.05655250325798988], [-0.0449359156191349, -0.06745507568120956, 0.0665120854973793]], [[0.03563835099339485, -0.08272422850131989, 0.0255851112306118], [0.04658789560198784, -0.052156656980514526, 0.04159364104270935], [0.0786241739988327, -0.0013813469558954239, 0.00778912752866745]], [[-0.029820578172802925, -0.02515239641070366, -0.022881116718053818], [-0.025137729942798615, 0.08060996979475021, -0.04041823744773865], [0.03271516039967537, 0.019782990217208862, 0.023979427292943]], [[0.0069115255028009415, -0.031935740262269974, 0.03888624906539917], [0.0519259050488472, -0.039527006447315216, -0.05429484695196152], [0.020079893991351128, -0.01603618450462818, 0.011280978098511696]], [[0.05158422142267227, -0.03562852740287781, -0.05748901143670082], [0.07361698150634766, 0.03717576712369919, 0.020145703107118607], [-0.0482710637152195, 0.015243824571371078, -0.05056912824511528]], [[-0.043122775852680206, 0.046594083309173584, 0.05277227237820625], [0.0020678555592894554, -0.030581388622522354, 0.08274804055690765], [0.0038521382957696915, 0.011875135824084282, -0.0790981724858284]], [[0.07555503398180008, -0.055804457515478134, -0.07890834659337997], [0.003461442654952407, -0.042486824095249176, 0.04054275155067444], [0.034157928079366684, 0.005627370439469814, -0.07279036194086075]]], [[[-0.03200121223926544, -0.036296769976615906, 0.05464585870504379], [0.03233775496482849, -0.016988074406981468, -0.03934274613857269], [-0.039720967411994934, -0.05504632368683815, 0.038707055151462555]], [[0.019118783995509148, 0.05100507289171219, -0.07455000281333923], [-0.04679062217473984, 0.00513926986604929, -0.015827015042304993], [-0.07218749821186066, 0.06649672240018845, 0.020934222266077995]], [[-0.012136964127421379, -0.06364037841558456, 0.07685436308383942], [0.04248715192079544, 0.06515919417142868, 0.007341820280998945], [0.07538604736328125, -0.07903389632701874, 0.06296234577894211]], [[0.06769546866416931, -0.0012651856523007154, 0.07129518687725067], [-0.009690041653811932, 0.0763193815946579, -0.03603309392929077], [0.08617058396339417, 0.06198884919285774, 0.03137235343456268]], [[-0.036356303840875626, -0.023356983438134193, 0.0236200038343668], [-0.07718415558338165, 0.04057258367538452, 0.06755707412958145], [-0.05744881555438042, -0.017891423776745796, -0.050221268087625504]], [[-0.03642352297902107, 0.04077001288533211, 0.0640341117978096], [0.054338693618774414, 0.0799323171377182, 0.002009740099310875], [-0.06676820665597916, 0.08446183800697327, 0.02195991948246956]], [[0.05597070977091789, 0.0479283444583416, 0.03655983880162239], [-0.017942432314157486, 0.06356286257505417, 0.0596233531832695], [-0.048779189586639404, 0.05090782791376114, 0.02150130458176136]], [[-0.024029415100812912, -0.02146982215344906, -0.03282223641872406], [-0.025443805381655693, 0.02771439030766487, -0.0004635186051018536], [-0.010864979587495327, 0.07432632893323898, -0.0068381852470338345]], [[-0.042017143219709396, -0.014961753971874714, -0.06803005188703537], [-0.0619172565639019, 0.009728603065013885, -0.0011689685052260756], [0.009094607084989548, -0.02111085318028927, 0.04337233304977417]], [[0.04161853715777397, -0.04729684442281723, -0.056136418133974075], [0.06052415817975998, -0.030292445793747902, 0.07291678339242935], [0.008848886936903, 0.07899486273527145, -0.034636542201042175]], [[0.016684595495462418, -0.06555813550949097, -0.05920461565256119], [-0.07738255709409714, -0.034157853573560715, 0.01407739706337452], [-0.0112569909542799, 0.03438685089349747, 0.037467483431100845]], [[-0.07733501493930817, -0.03891758248209953, 0.05982590466737747], [-0.007631141692399979, 0.07820131629705429, -0.06636335700750351], [0.024961275979876518, 0.02511441893875599, -0.06712677329778671]], [[0.038914185017347336, -0.06460246443748474, -0.08434318006038666], [0.033842820674180984, -0.053084101527929306, -0.07005509734153748], [0.005814898293465376, 0.0837876945734024, 0.016653060913085938]], [[-0.03004501201212406, 0.05062606930732727, -0.010951855219900608], [-0.07028217613697052, 0.028589678928256035, 0.041978560388088226], [0.06276734173297882, 0.05557618290185928, -0.06348509341478348]], [[0.05952757969498634, 0.016313672065734863, -0.06661822646856308], [0.07098042219877243, 0.02627849392592907, -0.004636431112885475], [0.0007049295818433166, -0.033881641924381256, 0.05458672717213631]], [[0.044620923697948456, -0.024745821952819824, 0.005936977453529835], [-0.01648910902440548, -8.760063792578876e-05, -0.0634928047657013], [-9.627145482227206e-05, 0.04248051345348358, 0.037563227117061615]]], [[[0.08075957000255585, -0.06680899113416672, 0.06512574106454849], [0.051359668374061584, 0.002422368386760354, -0.062235236167907715], [-0.014338708482682705, -0.02078637108206749, 0.029993994161486626]], [[0.03815602511167526, 0.04901536926627159, 0.05491309240460396], [-0.08119554072618484, -0.06600508838891983, -0.021927498281002045], [-0.05483416095376015, -0.050563517957925797, -0.03867999091744423]], [[0.010018693283200264, -0.057700347155332565, 0.07726934552192688], [-0.0803547203540802, 0.08008738607168198, 0.02719777636229992], [-0.02238469012081623, 0.07931312173604965, 0.040337055921554565]], [[0.048029571771621704, -0.04508637264370918, 0.049352798610925674], [-0.009372996166348457, -0.06387216597795486, -0.05463298410177231], [0.037804778665304184, 0.054776620119810104, 0.07227318733930588]], [[0.04502490162849426, -0.0644938126206398, -0.024703914299607277], [0.05796375498175621, -0.06352192908525467, -0.014411745592951775], [0.018712112680077553, -0.03238460049033165, 0.03861331194639206]], [[0.03063182719051838, -0.005396322347223759, 0.07284607738256454], [0.04640920087695122, -0.08082886040210724, -0.03714489936828613], [-0.08302850276231766, 0.050930868834257126, -0.041447337716817856]], [[-0.028715794906020164, 0.059226419776678085, -0.041721224784851074], [-0.0038946964778006077, 0.06760768592357635, 0.0139526491984725], [-0.03739137202501297, 0.03396996855735779, -0.01277612242847681]], [[-0.000776890548877418, -0.06978631764650345, -0.0297983530908823], [-0.030796565115451813, 0.07175321877002716, 0.0600288100540638], [0.07958894222974777, -0.002220667665824294, -0.062033120542764664]], [[0.07975146919488907, 0.04247797280550003, 0.045642245560884476], [-0.08158013224601746, 0.043110042810440063, -0.0031744688749313354], [-0.0003450388612691313, -0.04443969205021858, 0.04046502709388733]], [[-0.030710048973560333, 0.024446506053209305, 0.00013153489271644503], [-0.08286401629447937, -0.018745245411992073, 0.0063223689794540405], [0.05319416522979736, 0.051501452922821045, -0.04966333881020546]], [[-0.0021130619570612907, -0.001461752806790173, -0.069097138941288], [0.014853758737444878, 0.050226110965013504, -0.011716628447175026], [0.0285156462341547, 0.02115619368851185, 0.07066721469163895]], [[-0.07604797929525375, 0.027994563803076744, -0.05910385772585869], [0.05460534617304802, -0.07752784341573715, 0.004407534375786781], [-0.01365394052118063, -0.05440157651901245, 0.0032486312557011843]], [[0.06160472333431244, -0.0490872897207737, -0.06712757050991058], [0.015830915421247482, -0.018684547394514084, -0.028855210170149803], [-0.00934478361159563, -0.05933253467082977, 0.003629032988101244]], [[0.004871584475040436, -0.033842720091342926, 0.004253606777638197], [-0.015439228154718876, -0.06342095136642456, 0.05360806733369827], [-0.06157970055937767, -0.025244498625397682, 0.00833695288747549]], [[0.03646247833967209, 0.060416895896196365, 0.08105829358100891], [-0.08267318457365036, 0.01065993681550026, -0.005725404713302851], [0.025380810722708702, -0.012722698971629143, 0.004614322446286678]], [[0.025554679334163666, 0.07335429638624191, 0.05893846973776817], [0.07034886628389359, 0.05347483977675438, 0.041587818413972855], [-0.05732599273324013, -0.07331202924251556, -0.019392825663089752]]], [[[-0.054083988070487976, -0.029382580891251564, 0.01987529918551445], [-0.009103315882384777, -0.08103596419095993, 0.006015405524522066], [0.04243567958474159, -0.08217170834541321, -0.016352422535419464]], [[-0.0017086353618651628, -0.01927608996629715, 0.0770365446805954], [0.018842093646526337, -0.01953410729765892, -0.042589958757162094], [-0.02219078317284584, 0.02186938188970089, -0.005882582161575556]], [[-0.026903530582785606, 0.006332633551210165, -0.0006850207573734224], [-0.016837529838085175, 0.02228504605591297, 0.04022723063826561], [0.02542952634394169, -0.04832262545824051, -0.02947545237839222]], [[0.025367576628923416, -0.04331431910395622, 0.04312565550208092], [-0.007992388680577278, -0.04261527583003044, -0.036005619913339615], [-0.05241286754608154, -0.044266775250434875, -0.011092554777860641]], [[-0.0032472400926053524, 0.06497091054916382, 0.03475434333086014], [0.029788309708237648, -0.025529444217681885, -0.007377040106803179], [0.04929697886109352, -0.007910865359008312, -0.010641227476298809]], [[-0.06921686232089996, 0.031470831483602524, -0.0066309436224401], [0.018648434430360794, -0.07302942126989365, -0.07534760236740112], [-0.03628716990351677, 0.0021954376716166735, 0.054543182253837585]], [[-0.060273319482803345, -0.0801505595445633, -0.049937356263399124], [0.030250953510403633, 0.07021526992321014, 0.07242944836616516], [-0.011248255148530006, 0.022307513281702995, -0.037670765072107315]], [[-0.048325393348932266, -0.011158331297338009, 0.04995817318558693], [0.011710732243955135, 0.001453073462471366, -0.018763599917292595], [-0.03954285383224487, 0.027566157281398773, 0.06615117937326431]], [[0.0009546693181619048, 0.07521988451480865, 0.07190978527069092], [-0.04361706227064133, 0.06487852334976196, 0.0788155049085617], [-0.0528743639588356, -0.08273378759622574, -0.01600032113492489]], [[0.07645227760076523, 0.04792071506381035, -0.07063543796539307], [-0.02910894900560379, 0.007905567064881325, 0.0765659362077713], [0.031349435448646545, 0.07578080892562866, -0.012988485395908356]], [[0.03854690119624138, 0.005161147564649582, 0.0831061378121376], [-0.07532122731208801, 0.03776023909449577, -0.0800192728638649], [0.0803619921207428, 0.0338468998670578, 0.043665483593940735]], [[0.03777003288269043, 0.06914760917425156, 0.07815900444984436], [0.05769425630569458, 0.03775836154818535, -0.06246870756149292], [0.021693501621484756, 0.06151053309440613, 0.015536297112703323]], [[-0.044320493936538696, 0.05732438713312149, -0.055297788232564926], [-0.07069902867078781, -0.055722035467624664, -0.03394470363855362], [0.06316616386175156, 0.0681820660829544, 0.07992500811815262]], [[-0.07840655744075775, 0.014503362588584423, 0.008135255426168442], [-0.07464636117219925, -0.013284998945891857, -0.008722901344299316], [-0.057473134249448776, -0.015685617923736572, 0.05830324813723564]], [[0.023044249042868614, -0.03731496259570122, -0.01218121312558651], [0.03624237701296806, -0.033763740211725235, -0.025455525144934654], [-0.037046175450086594, -0.010171226225793362, 0.006483196280896664]], [[0.08012041449546814, 0.0192069411277771, 0.05017402395606041], [-0.04459311068058014, 0.05695713683962822, 0.045255690813064575], [-0.034585896879434586, -0.06353988498449326, -0.01233776193112135]]], [[[-0.0806652158498764, 0.009996387176215649, 0.016630040481686592], [-0.016920264810323715, 0.03984542936086655, 0.06620537489652634], [-0.06705834716558456, 0.025143107399344444, 0.0012584057403728366]], [[0.009855999611318111, -0.015338331460952759, 0.008981430903077126], [0.014064875431358814, -0.04244745895266533, 0.06892020255327225], [0.0576290600001812, 0.0030236446764320135, -0.0015484316973015666]], [[0.05275832489132881, -0.07473264634609222, -0.006907184608280659], [0.07088394463062286, -0.0584431029856205, 0.023174719884991646], [-0.04200093820691109, -0.01987639255821705, 0.030044013634324074]], [[0.00839888397604227, 0.058042459189891815, 0.06046681851148605], [-0.04240940883755684, 0.04340144246816635, -0.026940997689962387], [-0.08604604750871658, -0.08287970721721649, -0.009507117792963982]], [[-0.08425402641296387, -0.04644739627838135, -0.0780738964676857], [-0.018209075555205345, -0.04838356748223305, -0.015431967563927174], [-0.03579764813184738, 0.013383259065449238, 0.02406654693186283]], [[0.07069338113069534, 0.050845980644226074, -0.02120896615087986], [-0.0598798543214798, 0.07401730120182037, 0.03286539018154144], [0.004062592051923275, 0.005985680036246777, -0.08116646111011505]], [[-0.07652294635772705, -0.0755365639925003, 0.036252234131097794], [0.07239586859941483, -0.07251305133104324, -0.058239515870809555], [-0.04665621742606163, 0.006507509388029575, -0.05161474272608757]], [[0.052079036831855774, 0.022636543959379196, 0.07601121068000793], [0.021202238276600838, 0.07021444290876389, 0.01074558962136507], [-0.03302089124917984, -0.0004253779770806432, -0.03994353488087654]], [[-0.04916146770119667, -0.03367922455072403, -0.007780493702739477], [-0.050513703376054764, 0.025263216346502304, 0.05595501884818077], [-0.018454255536198616, 0.059843890368938446, 0.04950924217700958]], [[-0.044034555554389954, 0.028928397223353386, -0.06988807022571564], [-0.0019518901826813817, 0.0020894701592624187, 0.01654973439872265], [0.020141778513789177, 0.06615028530359268, 0.014730381779372692]], [[-0.0627063512802124, 0.056855589151382446, 0.019896648824214935], [0.05752834677696228, -0.045616090297698975, 0.036024875938892365], [-0.07306549698114395, 0.07546539604663849, 0.07704644650220871]], [[-0.025263041257858276, 0.034179262816905975, 0.039010994136333466], [0.03936971351504326, 0.04754459112882614, -0.050652503967285156], [-0.05031229928135872, 0.03605634346604347, 0.07541442662477493]], [[-0.036403801292181015, -0.05452860891819, -0.06957191973924637], [0.019353585317730904, -0.018403764814138412, -0.007711135782301426], [0.002601521322503686, -0.03181767091155052, 0.06647540628910065]], [[-0.01722267083823681, -0.007149841170758009, 0.04522523283958435], [0.016055839136242867, -0.015278195962309837, -0.06405657529830933], [-0.05399167537689209, -0.07727817445993423, -0.07920961081981659]], [[-0.01095413789153099, 0.08176800608634949, 0.08060798794031143], [-0.002310100244358182, 0.0014987025642767549, 0.051765672862529755], [0.03863932192325592, 0.028359999880194664, -0.0034488853998482227]], [[-0.030949415639042854, 0.07538005709648132, -0.050372976809740067], [-0.06466478854417801, -0.0017252499237656593, 0.07099232077598572], [-0.0067342426627874374, -0.05149918422102928, 0.06106462702155113]]], [[[0.06775424629449844, -0.052785612642765045, -0.06009416654706001], [0.03929402306675911, -0.033356525003910065, -0.0714244470000267], [0.018724948167800903, -0.05804266780614853, -0.06789012998342514]], [[-0.06733833998441696, -0.014649908989667892, 0.06932688504457474], [-0.03658764809370041, -0.007882152684032917, -0.07752583920955658], [0.06861519813537598, 0.025528371334075928, 0.025243166834115982]], [[-0.062392428517341614, 0.014438200742006302, -0.06237950921058655], [-0.015974190086126328, -0.019830314442515373, -0.06260485202074051], [-0.08020712435245514, 0.015600987710058689, -0.005946617107838392]], [[0.04417959973216057, -0.03155684098601341, -0.07768470793962479], [0.024484388530254364, 0.06955885142087936, 0.04837970435619354], [0.020398521795868874, 0.05036396533250809, -0.025355756282806396]], [[-0.04056486859917641, 0.064056396484375, -0.02525009959936142], [0.01729949377477169, -0.05975239723920822, 0.049853309988975525], [-0.04255583509802818, 0.01840067468583584, 0.05683561787009239]], [[-0.08235429227352142, 0.07622391730546951, 0.002139077056199312], [-0.05244814604520798, 0.023278148844838142, 0.034050460904836655], [0.00027459766715765, 0.07483503222465515, 0.032399650663137436]], [[0.0434686578810215, 0.007436156272888184, 0.0003694899205584079], [0.026811255142092705, 0.07932966947555542, -0.07636190205812454], [0.02864958718419075, -0.042319659143686295, 0.05469139292836189]], [[0.011111767962574959, 0.018034042790532112, -0.07719911634922028], [-0.059867337346076965, 0.07197163254022598, 0.04878630116581917], [0.06812506914138794, -0.07110966742038727, 0.05604691803455353]], [[0.0007604745915159583, 0.08064539730548859, 0.039745964109897614], [-0.019270962104201317, -0.05551822483539581, -0.06044469401240349], [-0.03585955500602722, -0.045554157346487045, -0.07871181517839432]], [[-0.07372727245092392, -0.03651466965675354, 0.031061410903930664], [0.07206650078296661, 0.042405325919389725, -0.06659974157810211], [-0.0613555833697319, -0.03219737857580185, -0.05151022970676422]], [[0.06715268641710281, -0.03186365216970444, -0.051286108791828156], [0.03655822575092316, 0.028013044968247414, -0.03764032945036888], [-0.03829318284988403, 0.05973394215106964, 0.08326033502817154]], [[0.04950886592268944, 0.06766616553068161, 0.0568854957818985], [0.020317932590842247, 0.034871093928813934, 0.020489901304244995], [-0.007490380667150021, 0.07120680809020996, -0.055274706333875656]], [[0.03486667573451996, -0.06051427870988846, -0.05381567031145096], [0.07641706615686417, -0.020672759041190147, -0.08453302085399628], [0.06293480098247528, 0.0653529018163681, -0.008682250045239925]], [[-0.031219206750392914, 0.060446105897426605, 0.054811663925647736], [0.048281069844961166, -0.057001471519470215, 0.08293744921684265], [0.004442626144737005, -0.07564903050661087, 0.04948948323726654]], [[-0.021675312891602516, 0.06095457449555397, 0.05888935923576355], [-0.04427333176136017, 0.05262910574674606, 0.0491693951189518], [0.049346502870321274, -0.021133940666913986, 0.08020041137933731]], [[-0.04044661298394203, 0.0012461860897019506, 0.0649593248963356], [0.005777320358902216, 0.018503431230783463, 0.07150880247354507], [-0.06476791203022003, -0.07566816359758377, 0.07133209705352783]]], [[[-0.0414312519133091, -0.04786521941423416, 0.07717534899711609], [0.03152301535010338, 0.008776242844760418, -0.023802248761057854], [0.020168760791420937, 0.008745686151087284, 0.0806921049952507]], [[0.015810901299118996, -0.08113205432891846, 0.025040555745363235], [-0.07962937653064728, 0.05241086333990097, 0.07334116101264954], [0.011571874842047691, -0.007211446762084961, 0.001463286578655243]], [[0.02792280539870262, -0.05175665393471718, -0.015932058915495872], [0.02570156939327717, 0.03756657987833023, -0.013810638338327408], [-0.024977540597319603, 0.05774950981140137, 0.04933931678533554]], [[-0.034097980707883835, 0.0607241690158844, -0.02723092958331108], [0.08008027821779251, 0.030833613127470016, -0.015375576913356781], [0.03669408708810806, 0.04242398589849472, 0.0329316221177578]], [[-0.02985910139977932, 0.004797547589987516, 0.07423195987939835], [0.02544172666966915, -0.01658700779080391, 0.0010831006802618504], [0.08020384609699249, -0.05255071446299553, 0.04794941842556]], [[-0.013936471194028854, -0.06158331409096718, 0.03133094683289528], [-0.06623867899179459, -0.07314635068178177, -0.04692429304122925], [0.03303494676947594, 0.0007541439845226705, 0.054248593747615814]], [[0.07124800980091095, -0.05122288689017296, 0.008696626871824265], [-0.03280068561434746, -0.014912083745002747, -0.022087598219513893], [0.010641733184456825, -0.027668163180351257, -0.02902325429022312]], [[-0.014038820751011372, -0.016327468678355217, -0.059760987758636475], [-0.016361352056264877, -0.02002475969493389, -0.01852944865822792], [0.027125190943479538, 0.07133568078279495, -0.050807733088731766]], [[0.04367780312895775, -0.06430330127477646, 0.011584646999835968], [-0.08191653341054916, -0.03394398093223572, -0.08358361572027206], [-0.06381242722272873, -0.06679835170507431, -0.0295035932213068]], [[-0.060828328132629395, 0.053779806941747665, 0.057602912187576294], [0.0346975140273571, 0.006872755475342274, -0.032232191413640976], [0.049461498856544495, -0.06898317486047745, -0.018494201824069023]], [[0.07138171046972275, 0.0013837578007951379, -0.06575261056423187], [-0.06485722213983536, -0.00022161008382681757, -0.06795836240053177], [-0.060327719897031784, 0.031115008518099785, -0.020050127059221268]], [[0.0345451720058918, 0.022932058200240135, -0.061612166464328766], [0.021461300551891327, 0.06711209565401077, 0.07375670969486237], [-0.041438132524490356, 0.04356224834918976, -0.044834528118371964]], [[-0.025516169145703316, 0.03002803400158882, 0.07696341723203659], [-0.07298646867275238, 0.04263799265027046, 0.02986292541027069], [-0.08157578855752945, 0.03468635678291321, 0.05853456258773804]], [[-0.07850777357816696, -0.059907086193561554, -0.04024700075387955], [0.04869193583726883, -0.0254526324570179, 0.041140735149383545], [0.0047827293165028095, -0.051534444093704224, 0.025766730308532715]], [[-0.02132771909236908, 0.042530693113803864, 0.009443692862987518], [-0.004121888894587755, 0.05475921556353569, -0.03587092459201813], [-0.03804582357406616, -0.035348664969205856, -0.034784961491823196]], [[0.022966086864471436, -0.03748975694179535, -0.028710685670375824], [0.07067359983921051, 0.08312904089689255, -0.0734008178114891], [-0.06585922837257385, 0.05872315540909767, 0.005858520977199078]]], [[[-0.07503104209899902, 0.034202940762043, 0.0498436763882637], [-0.06416408717632294, -0.01385694369673729, -0.06830546259880066], [-0.07284321635961533, 0.02740378864109516, 0.005432852543890476]], [[0.011801790446043015, 0.07658921927213669, -0.05606469511985779], [0.005314651411026716, -0.001104110386222601, -0.06539013236761093], [0.08302921056747437, 0.043844398111104965, -0.03103647381067276]], [[0.08211682736873627, 0.04103318974375725, -0.04599442705512047], [-0.05331374704837799, -0.004730241373181343, -0.06526050716638565], [-0.015281652100384235, 0.0013354695402085781, 0.02765883319079876]], [[-0.0704762265086174, -0.02634226158261299, 0.08333174884319305], [0.05843844637274742, 0.011758455075323582, 0.023568497970700264], [-0.0071525233797729015, 0.03170696645975113, -0.04109477251768112]], [[0.05045141279697418, -0.02662867121398449, -0.051700808107852936], [0.04520862549543381, -0.03771164268255234, 0.06946094334125519], [0.030389660969376564, 0.02095765620470047, 0.017557471990585327]], [[-0.0719393938779831, 0.00913222786039114, -0.04055238142609596], [0.04183688387274742, 0.010550822131335735, 0.016590610146522522], [-0.021736832335591316, -0.06768076121807098, -0.008265960961580276]], [[0.05837870389223099, -0.035281892865896225, -0.0805751234292984], [-0.001102251699194312, -0.05249003693461418, 0.03104066103696823], [-0.00017195686814375222, 0.028222262859344482, 0.07607998698949814]], [[-0.07889962941408157, -0.02505914680659771, 0.010302400216460228], [-0.041798271238803864, 0.08020420372486115, -0.0548800453543663], [0.06326042860746384, -0.01904183067381382, 0.06453495472669601]], [[-0.01777905970811844, -0.07052619010210037, 0.06240604817867279], [0.0399421826004982, 0.02422979474067688, -0.07569273561239243], [-0.07212255150079727, 0.07415394484996796, 0.03783775866031647]], [[-0.0063070873729884624, 0.035167861729860306, 0.075546994805336], [0.04010907560586929, 0.013444969430565834, 0.032584719359874725], [0.06241661682724953, -0.03569785878062248, 0.07492762804031372]], [[-0.017761172726750374, -0.056750524789094925, 0.036595262587070465], [0.013551577925682068, -0.056889425963163376, 0.03857327252626419], [0.08238887786865234, 0.008928726427257061, -0.07658461481332779]], [[-0.07507553696632385, 0.04895626753568649, 0.06899892538785934], [0.04891315475106239, 0.0003177913895342499, -0.05273079872131348], [-0.041413597762584686, -0.06431980431079865, -0.01777324266731739]], [[0.0498957633972168, -0.024715455248951912, 0.08061881363391876], [0.0051832557655870914, -0.028584716841578484, 0.08640207350254059], [0.062261540442705154, 0.04961426928639412, -0.059042152017354965]], [[-0.02765904925763607, 0.026410473510622978, 0.060515377670526505], [-0.03355799615383148, 0.021751143038272858, 0.05793696641921997], [-0.005129817873239517, -0.014074430800974369, 0.04294685646891594]], [[-0.08109643310308456, 0.06220179796218872, -0.05762869492173195], [0.02158219739794731, 0.06678230315446854, 0.008180242963135242], [-0.008052789606153965, -0.078127920627594, 0.006421886850148439]], [[-0.010689910501241684, 0.07350911945104599, 0.059704311192035675], [-0.0489555262029171, -0.028736382722854614, 0.004407084546983242], [-0.03261515870690346, -0.05212569609284401, 0.04623652622103691]]]], "encoder.6.bias": [0.04898010194301605, 0.03488081321120262, -0.04257328435778618, -0.08074440807104111, -0.030236249789595604, -0.04978075996041298, 0.05680728703737259, 0.024364560842514038, -0.04429567977786064, 0.05041511356830597, 0.021789906546473503, 0.05549513176083565, 0.05443049222230911, 0.07506678998470306, 0.060992807149887085, 0.06120350956916809], "encoder.8.weight": [[[[-0.06890790164470673, 0.0297209732234478, 0.03376049920916557], [0.037870027124881744, 0.05613023787736893, -0.06521209329366684], [-0.0647393986582756, -0.08333344012498856, 0.013775713741779327]], [[-0.02899233065545559, 0.00878854375332594, 0.0038748597726225853], [-0.06271802634000778, 0.01722872257232666, -0.010302498005330563], [0.05161808803677559, 0.00424007186666131, -0.011007459834218025]], [[-0.02246846631169319, 0.05028248205780983, 0.04150365665555], [-0.019855134189128876, 0.08286700397729874, 0.009390526451170444], [0.06963088363409042, 0.032796118408441544, -0.06352107226848602]], [[0.05665320158004761, -0.037572890520095825, 0.016280563548207283], [0.01664924994111061, 0.019301310181617737, 0.009647802449762821], [-0.022733133286237717, 0.00462069408968091, -0.010559359565377235]], [[0.07792332768440247, -0.042582541704177856, -0.022502927109599113], [-0.0667957291007042, 0.0572071373462677, 0.02098679728806019], [0.08252433687448502, 0.018062924966216087, -0.04513171687722206]], [[0.04288255795836449, -0.020816002041101456, -0.020972589030861855], [-0.06178059056401253, 0.04204648360610008, 0.00019767564663197845], [0.06480680406093597, -0.06012432649731636, -0.04893927648663521]], [[-0.026203421875834465, -0.04582960903644562, 0.003051030682399869], [-0.0384068638086319, -0.0054770903661847115, -0.023167770355939865], [0.013486123643815517, -0.02667347714304924, 0.08061959594488144]], [[-0.013826712034642696, -0.02602969855070114, -0.026844747364521027], [-0.052943989634513855, 0.012948439456522465, -0.04138263314962387], [0.04592569172382355, 0.0652208924293518, 0.07017980515956879]], [[0.02322927489876747, -0.06817600131034851, 0.0668608769774437], [0.045258134603500366, 0.0641697570681572, 0.04789036512374878], [-0.00907622929662466, -0.06483770161867142, 0.07818208634853363]], [[-0.06692244857549667, -0.015995118767023087, -0.01628127507865429], [0.04453088343143463, -0.06048544496297836, 0.06310632824897766], [0.01201626192778349, -0.05851273983716965, 0.0353684164583683]], [[-0.04970841109752655, -0.04342631995677948, 0.04886171594262123], [0.06161142513155937, -0.02445855364203453, -0.06662734597921371], [-0.06893225014209747, 0.023082636296749115, -0.04874575883150101]], [[-0.0019025052897632122, -0.05794275552034378, 0.04091569408774376], [0.006149223539978266, -0.03826390206813812, -0.0012061414308845997], [0.060732729732990265, -0.0470595583319664, -0.05267420411109924]], [[0.07576307654380798, 0.030000003054738045, 0.045766085386276245], [0.05915447324514389, -0.07591679692268372, -0.06813151389360428], [0.045966412872076035, 0.07389002293348312, -0.06195857748389244]], [[0.06944041699171066, -0.05927708372473717, -0.02529459074139595], [0.06332338601350784, 0.06200157478451729, 0.07534648478031158], [-0.052907608449459076, -0.03441499546170235, -0.04672665894031525]], [[0.016385748982429504, 0.05473029986023903, -0.045172303915023804], [-0.004513860214501619, -0.08332949131727219, -0.07422291487455368], [0.06865294277667999, -0.07367542386054993, 0.01063406653702259]], [[0.02459031529724598, 0.023418841883540154, -0.04611724242568016], [-0.0062627969309687614, -0.07392608374357224, -0.03853582590818405], [-0.020202433690428734, 0.03404925763607025, -0.048505716025829315]]], [[[0.013482898473739624, -0.035898368805646896, -0.06078539043664932], [0.043935395777225494, 0.04343055933713913, 0.05532125011086464], [0.04133831709623337, -0.03883056715130806, 0.05735868215560913]], [[-0.04526352509856224, 0.06240149214863777, 0.055099960416555405], [0.005983577109873295, -0.04683922976255417, 0.012882777489721775], [-0.017709262669086456, -0.03078773431479931, 0.03238220885396004]], [[-0.0024327414575964212, 0.021578500047326088, -0.020493462681770325], [0.06822270154953003, 0.059438787400722504, -0.023589765653014183], [0.03906039521098137, 0.07984263449907303, -0.04108969494700432]], [[0.06342317909002304, -0.011207574047148228, 0.006964667234569788], [0.07618948817253113, -0.0004192408232484013, -0.0795825943350792], [0.06776705384254456, -0.06750635802745819, 0.01822117529809475]], [[-0.04354291409254074, 0.07205583155155182, -0.07593677192926407], [-0.07276039570569992, -0.03176915645599365, -0.003697206499055028], [-0.003454406512901187, -0.02955232374370098, -0.024312039837241173]], [[-0.06770864129066467, -0.06677351891994476, -0.036227062344551086], [-0.045174963772296906, -0.03486258164048195, -0.07033172249794006], [-0.03750402107834816, -0.041074831038713455, -0.08024995774030685]], [[0.08060460537672043, -0.06524238735437393, -0.02127111703157425], [0.0009226569090969861, -0.045256130397319794, 0.052672091871500015], [0.03442233055830002, -0.017017465084791183, -0.069939024746418]], [[0.0663595199584961, -0.04492304474115372, 0.08180367946624756], [0.07224130630493164, 0.06067093834280968, 0.03838842362165451], [0.079740509390831, 0.02869420126080513, 0.07139094173908234]], [[-0.04797830060124397, 0.08324570208787918, 0.023339254781603813], [0.08048245310783386, 0.0070159719325602055, 0.04826582968235016], [-0.007964828051626682, 0.024024279788136482, -0.0476372092962265]], [[0.0776762068271637, 0.015252250246703625, 0.06340880692005157], [0.018032459542155266, -0.0012973505072295666, -0.01594126783311367], [-0.05404802784323692, 0.0807175487279892, 0.07770399749279022]], [[0.037718478590250015, 0.039488520473241806, 0.07364512234926224], [-0.07069268822669983, 0.0023068184964358807, -0.030391551554203033], [-0.05130868777632713, 0.06826595216989517, 0.07952509075403214]], 