{"encoder.0.weight": [[[[-0.2643979489803314, -0.3262985348701477, 0.33176887035369873], [-0.10697095841169357, -0.22730115056037903, 0.32719147205352783], [0.22164322435855865, 0.26811549067497253, -0.0027682206127792597]]], [[[-0.1739848107099533, 0.3031764030456543, 0.1536281406879425], [0.31953164935112, -0.22632244229316711, -0.210102841258049], [-0.15170975029468536, 0.02609269879758358, 0.1348705291748047]]], [[[-0.18858705461025238, 0.07456415146589279, -0.0319991372525692], [-0.06902669370174408, 0.12439931929111481, -0.28608089685440063], [-0.1011563092470169, 0.18592390418052673, 0.09373019635677338]]], [[[-0.27907422184944153, 0.2541528046131134, -0.1041548028588295], [0.1900302916765213, 0.13362355530261993, 0.2882232964038849], [0.10953488200902939, 0.26761147379875183, -0.2617139220237732]]], [[[-0.048290517181158066, -0.1596694439649582, 0.03390928730368614], [0.09736106544733047, -0.06556921452283859, -0.01974959298968315], [0.08586607128381729, 0.029613180086016655, -0.14163252711296082]]], [[[0.16009004414081573, -0.32448679208755493, -0.1768508106470108], [0.09271630644798279, 0.2444334626197815, 0.2020208239555359], [0.08229732513427734, 0.24526391923427582, -0.10715800523757935]]], [[[-0.12378624826669693, -0.2807543873786926, -0.0736321285367012], [0.16115613281726837, 0.21846501529216766, -0.06314782053232193], [0.04707703739404678, 0.072597436606884, -0.16397209465503693]]], [[[-0.1899983435869217, -0.24634550511837006, 0.02162078022956848], [0.3042854368686676, -0.23992443084716797, 0.18290001153945923], [0.33233195543289185, -0.2069540172815323, -0.14825382828712463]]]], "encoder.0.bias": [0.10710622370243073, -0.1257888227701187, 0.14170368015766144, -0.09618481248617172, 0.010520397685468197, 0.3186514377593994, 0.06723608821630478, -0.20235542953014374], "encoder.2.weight": [[[[0.08026709407567978, 0.06323970854282379, 0.029772374778985977], [-0.108731210231781, -0.034093525260686874, 0.07433857023715973], [-0.03337899222970009, 0.028010398149490356, -0.0887785479426384]], [[-0.09454555064439774, 0.11340782046318054, -0.08646973967552185], [-0.07594168186187744, 0.10798329859972, -0.013326362706720829], [0.07068916410207748, -0.060290202498435974, 0.04837629199028015]], [[-0.049701027572155, 0.03068332001566887, 0.09203650057315826], [0.013442483730614185, 0.09949292987585068, -0.05289241671562195], [-0.018506214022636414, 0.1157594621181488, 0.0486907996237278]], [[0.07761037349700928, -0.032529085874557495, 0.11130126565694809], [0.0029962288681417704, -0.000468779937364161, -0.01884463056921959], [-0.09200616180896759, -0.026003437116742134, -0.06766657531261444]], [[-0.0667068138718605, 0.07838376611471176, 0.009188066236674786], [-0.08071630448102951, -0.04046095907688141, -0.02308706007897854], [-0.018622910603880882, -0.06533833593130112, -0.0866275206208229]], [[-0.0464693121612072, -0.03934711217880249, -0.029464062303304672], [0.05941964313387871, -0.02413364313542843, 0.027089500799775124], [0.03856675326824188, -0.10695415735244751, -0.10230308026075363]], [[0.08343952149152756, -0.011671443469822407, 0.03012518584728241], [-0.09901159256696701, 0.008609632030129433, 0.07610951364040375], [0.05592407286167145, 0.0058360109105706215, -0.11378622055053711]], [[-0.0022558411583304405, 0.07726222276687622, 0.03186148777604103], [0.034900765866041183, -0.08922646194696426, -0.06643668562173843], [0.029238726943731308, -0.01452160906046629, 0.04189194366335869]]], [[[-0.02087070606648922, -0.07607997953891754, -0.07655622065067291], [0.0012072852114215493, 0.05897253379225731, 0.00757216289639473], [-0.07039511948823929, 0.04191642627120018, 0.11052439361810684]], [[-0.018829280510544777, -0.11230748146772385, -0.05282273516058922], [-0.010552521795034409, 0.07819110155105591, -0.043672624975442886], [0.08822700381278992, 0.02512483298778534, 0.08792633563280106]], [[-0.0658433735370636, -0.0450483001768589, -0.006471151951700449], [0.08164406567811966, -0.0655723512172699, 0.11573662608861923], [0.023855676874518394, -0.05802597478032112, 0.09588853269815445]], [[0.05041923373937607, -0.07695317268371582, 0.11294133961200714], [0.11304500699043274, -0.04773564636707306, -0.10551496595144272], [-0.11748620867729187, -0.10789239406585693, 0.0921710953116417]], [[-0.030680034309625626, 0.051840249449014664, -0.039137836545705795], [-0.046780914068222046, -0.11424069106578827, -0.04331343248486519], [-0.09376823902130127, -0.05403001606464386, -0.05873921886086464]], [[-0.0992666706442833, -0.024290435016155243, 0.09948364645242691], [0.0009623184450902045, 0.005470383446663618, -0.023536652326583862], [-0.08582258224487305, 0.011032658629119396, -0.05333071947097778]], [[-0.10825322568416595, 0.0872047170996666, -0.06324685364961624], [0.06127499043941498, -0.048381026834249496, -0.026906004175543785], [-0.06606622040271759, 0.0404173880815506, 0.011184094473719597]], [[0.0632563903927803, 0.11637015640735626, -0.01627318374812603], [-0.004026174079626799, 0.004741190932691097, 0.0357300266623497], [-0.04916936531662941, 0.06424842774868011, -0.04863343387842178]]], [[[0.07006081193685532, -0.043490417301654816, 0.11323164403438568], [-0.06861130893230438, -0.00877169519662857, 0.09653531759977341], [-0.04236350581049919, 0.0077700442634522915, 0.003306975122541189]], [[-0.04065601900219917, -0.09274648874998093, -0.11370058357715607], [0.002622984815388918, -0.03359329700469971, -0.09020242840051651], [-0.018004417419433594, 0.03332154080271721, -0.06462059915065765]], [[0.08556944131851196, 0.062399059534072876, -0.11398571729660034], [0.016947023570537567, -0.03742164000868797, -0.0012311679311096668], [-0.005239664111286402, 0.05389590561389923, 0.0759885162115097]], [[0.09258062392473221, 0.061154916882514954, 0.05857687443494797], [0.11640874296426773, -0.020429562777280807, 0.10196131467819214], [0.026654617860913277, 0.00046608547563664615, -0.09161724150180817]], [[0.013793230056762695, -0.08485563844442368, -0.08037633448839188], [-0.05026163160800934, -0.06004079058766365, -0.02690475434064865], [0.07673628628253937, -0.06274242699146271, -0.10106751322746277]], [[0.10677417367696762, -0.1082989051938057, 0.05632717162370682], [0.003794501069933176, 0.1051805317401886, -0.07655726373195648], [0.06603904813528061, -0.0016950304852798581, 0.020797234028577805]], [[0.04388584569096565, -0.06894474476575851, 0.07456424832344055], [0.1038384884595871, -0.044817354530096054, 0.01741776242852211], [0.017540207132697105, -0.06435384601354599, 0.03140870854258537]], [[-0.05365821719169617, -0.05088408663868904, 0.08854871243238449], [-0.08924977481365204, -0.005019508767873049, 0.051237985491752625], [0.08809173107147217, 0.03908366337418556, 0.06541454792022705]]], [[[-0.034983400255441666, 0.09958516061306, -0.09463848918676376], [0.03981677442789078, -0.033658698201179504, -0.02032412588596344], [-0.04711984470486641, -0.08220404386520386, -0.11162581294775009]], [[0.08017195016145706, -0.05657561495900154, -0.10058056563138962], [-0.016685739159584045, -0.09204184263944626, -0.018370920792222023], [0.08171920478343964, -0.08534370362758636, -0.04477684944868088]], [[0.0010318247368559241, -0.013049640692770481, 0.09232166409492493], [0.09905294328927994, 0.11721644550561905, 0.03941918909549713], [0.03654337674379349, 0.07769101858139038, 0.10033062845468521]], [[-0.05502291023731232, 0.018094392493367195, -0.05232720449566841], [0.051761966198682785, 0.027839956805109978, 0.09900796413421631], [-0.07117825001478195, 0.08091758191585541, -0.09761334955692291]], [[0.006787237245589495, -0.059093888849020004, -0.07833470404148102], [0.019227981567382812, 0.039963286370038986, -0.1164550706744194], [0.00726944487541914, -0.05418925732374191, 0.10444089025259018]], [[-0.024877674877643585, 0.029355688020586967, -0.0469396710395813], [-0.049970176070928574, 0.08927207440137863, -0.10591775178909302], [-0.04099716246128082, -0.10202387720346451, 0.0764496847987175]], [[-0.07437489926815033, -0.007364315912127495, -0.04568571224808693], [0.08633795380592346, -0.05227724835276604, -0.08746065944433212], [0.10302696377038956, 0.050045717507600784, 0.08685238659381866]], [[0.04497368633747101, -0.015284954570233822, 0.00778540875762701], [-0.012018113397061825, 0.07764776796102524, 0.040376823395490646], [0.06525689363479614, -0.0612444132566452, -0.06909272819757462]]], [[[-0.023410087451338768, 0.09306887537240982, -0.08966442197561264], [0.09875508397817612, 0.0722062736749649, 0.08392105996608734], [0.07154687494039536, 0.09418971836566925, 0.06500162929296494]], [[0.059602655470371246, 0.01724841259419918, -0.052716705948114395], [0.10893438756465912, 0.09983672946691513, 0.06286446750164032], [-0.024323275312781334, 0.0013824008638039231, -0.06517999619245529]], [[-0.03788020834326744, -0.1097712442278862, -0.02035604417324066], [0.006521407514810562, -0.10181169211864471, -0.05023321509361267], [-0.03588797524571419, -0.02709932066500187, 0.11385851353406906]], [[0.10513082891702652, -0.04251839593052864, 0.07026218622922897], [0.048667293041944504, -0.10320110619068146, -0.11655944585800171], [-0.04384171590209007, 0.09073986113071442, -0.07966706901788712]], [[-0.08020412176847458, -0.028369907289743423, 0.05086643248796463], [-0.06015481799840927, -0.009997328743338585, 0.09880940616130829], [-0.06345004588365555, -0.018849581480026245, -0.07948265969753265]], [[0.047958023846149445, -0.07393445074558258, -0.08108309656381607], [-0.11369144916534424, 0.08445186913013458, -0.09933601319789886], [-0.010209993459284306, -0.090518519282341, -0.052092790603637695]], [[-0.06299998611211777, 0.016712594777345657, 0.05836538225412369], [-0.07940435409545898, -0.08946369588375092, -0.06883727014064789], [-0.07569573819637299, 0.07970261573791504, -0.08654707670211792]], [[-0.10691321641206741, 0.06623250246047974, 0.0782800242304802], [0.029293160885572433, -0.062322136014699936, 0.11585069447755814], [0.10792484879493713, -0.05987824127078056, 0.02278571017086506]]], [[[0.017870115116238594, 0.04909881576895714, 0.07298576831817627], [0.06285780668258667, -0.01090704370290041, -0.01849006675183773], [-0.022074026986956596, 0.006678760051727295, -0.08861558139324188]], [[0.11554067581892014, -0.06403934955596924, -0.11648343503475189], [0.05592925101518631, -0.07444405555725098, -0.009435080923140049], [-0.03745727241039276, -0.041733257472515106, 0.001388062140904367]], [[-0.03726859763264656, 0.11793503910303116, 0.08225975930690765], [-0.1050185114145279, 0.10803976655006409, 0.04671689495444298], [0.07524312287569046, -0.028654638677835464, -0.040401797741651535]], [[0.07432958483695984, 0.0009592698770575225, -0.06640470027923584], [-0.062114614993333817, 0.09944704920053482, 0.11147590726613998], [-0.06476262211799622, 0.08514835685491562, -0.014994977042078972]], [[-0.02397751435637474, 0.029394403100013733, 0.03169253468513489], [0.09504323452711105, -0.07063712924718857, -0.11767613887786865], [-0.03237371891736984, -0.0056175123900175095, -0.08417986333370209]], [[0.011669609695672989, -0.09999094903469086, 0.015896452590823174], [-0.03139643743634224, -0.048764120787382126, -0.012741541489958763], [-0.05475166067481041, -0.013981719501316547, 0.0132594658061862]], [[-0.09108968079090118, -0.10697108507156372, -0.06975895166397095], [-0.01653260365128517, -0.09621307998895645, -0.0748760849237442], [0.04218725115060806, -0.0018410043558105826, -0.00282164104282856]], [[-0.07863090187311172, -0.09667360037565231, -0.10549747943878174], [-0.005597127601504326, 0.08274051547050476, -0.0962565541267395], [-0.04273666813969612, -0.003016353351995349, -0.08187782019376755]]], [[[0.050704360008239746, -0.046630408614873886, 0.007724225986748934], [0.037064820528030396, 0.07366523146629333, -0.09061594307422638], [0.05708536133170128, -0.07539811730384827, -0.06904230266809464]], [[-0.06561432033777237, 0.05832212045788765, 0.017256811261177063], [-0.009804842993617058, -0.023098541423678398, 0.05712838098406792], [0.090535007417202, 0.016036976128816605, -0.01933141052722931]], [[-0.07838056236505508, 0.06315723806619644, -0.00630306638777256], [0.09959745407104492, -0.04231041669845581, -0.11373604089021683], [0.0999857485294342, -0.0016905105439946055, 0.09289808571338654]], [[-0.07021332532167435, -0.06153196096420288, 0.08895318955183029], [-0.048241887241601944, -0.06434750556945801, 0.04268640652298927], [-0.015929583460092545, -0.1062348261475563, 0.08741080015897751]], [[-0.01894639991223812, -0.05913563817739487, 0.10143708437681198], [-0.07827459275722504, 0.04284360632300377, -0.07731691747903824], [-0.027247406542301178, 0.09762648493051529, 0.036623042076826096]], [[-0.07313742488622665, 0.030329378321766853, 0.03803637996315956], [-0.10871891677379608, 0.004848559387028217, 0.024793263524770737], [-0.10798423737287521, -0.04123706370592117, 0.020053356885910034]], [[0.11019118130207062, 0.004206438548862934, -0.06728379428386688], [0.10195991396903992, -0.050491251051425934, -0.03532274812459946], [0.06934404373168945, 0.013930738903582096, -0.11378642916679382]], [[-0.08939755707979202, -0.007827741093933582, -0.053846973925828934], [-0.019099781289696693, -0.030730290338397026, -0.025072338059544563], [-0.1149253249168396, 0.09023026376962662, 0.06359492987394333]]], [[[-0.06564757972955704, 0.07440594583749771, 0.03143637999892235], [0.1116759404540062, -0.031429048627614975, 0.0015103715704753995], [0.0030996280256658792, 0.10121678560972214, -0.09850157797336578]], [[-0.08454523980617523, -0.05356868728995323, -0.09012646973133087], [-0.0013587665744125843, 0.06259842962026596, 0.11102639138698578], [-0.04118359461426735, 0.03979595750570297, -0.02487783320248127]], [[0.0023153438232839108, 0.06832995265722275, 0.11581644415855408], [-0.040885522961616516, 0.0734439343214035, -0.04072553291916847], [-0.10450673848390579, -0.06750000268220901, -0.059627968817949295]], [[0.005888075102120638, 0.06827942281961441, 0.09997416287660599], [0.11225251853466034, -0.10354366153478622, 0.01215073000639677], [0.10972926020622253, 0.020141541957855225, -0.02037225104868412]], [[-0.08561255782842636, 0.10526587069034576, 0.021041743457317352], [0.048617374151945114, -0.020437801256775856, 0.05257892608642578], [-0.11000238358974457, -0.06689530611038208, -0.08469042927026749]], [[0.07583203911781311, 0.020474961027503014, -0.007364898454397917], [0.09674560278654099, 0.06575696915388107, -0.11584796011447906], [-0.10009016841650009, -0.08464043587446213, -0.1141543984413147]], [[0.00014147869660519063, -0.09624156355857849, 0.08889857679605484], [-0.014544974081218243, 0.051284052431583405, 0.009225200861692429], [-0.11665592342615128, 0.03705352172255516, 0.04582246020436287]], [[-0.004189780913293362, 0.10347262769937515, 0.07886844128370285], [0.09397350251674652, -0.09435956180095673, -0.0947975441813469], [0.01302548311650753, -0.018135754391551018, -0.10526836663484573]]]], "encoder.2.bias": [-0.06412899494171143, -0.0029968363232910633, -0.03754595294594765, 0.06778331100940704, -0.1055084839463234, -0.0448906309902668, -0.006413588300347328, 0.025115083903074265], "encoder.4.weight": [[[[0.0036021226551383734, -0.07921744883060455, 0.023747049272060394], [0.05792684108018875, -0.08676611632108688, -0.020349925383925438], [0.11266276985406876, 0.02947045862674713, 0.055710624903440475]], [[-0.04562211036682129, 0.05312490463256836, 0.07738546282052994], [0.09395146369934082, 0.07504291087388992, 0.0785786584019661], [0.025449497625231743, 0.08708352595567703, 0.030209798365831375]], [[0.02218169905245304, 0.008042439818382263, -0.05151529237627983], [0.008165722712874413, -0.10317214578390121, 0.074700728058815], [0.08584249019622803, -0.09612233191728592, 0.0897882953286171]], [[0.07428371906280518, -0.06020564213395119, -0.08597644418478012], [-0.06232187896966934, 0.01860462874174118, -0.09662230312824249], [-0.0723378136754036, -0.01731802336871624, 0.11771906912326813]], [[0.02185252122581005, -0.1067235991358757, 0.07815530896186829], [0.026252692565321922, -0.0895175188779831, -0.024042436853051186], [0.10165337473154068, 0.006055623758584261, -0.043555550277233124]], [[0.10288683325052261, -0.04122157767415047, 0.039952728897333145], [0.07632218301296234, 0.09560170024633408, 0.06518440693616867], [0.11388837546110153, -0.013036338612437248, -0.09646257013082504]], [[-0.03733978793025017, -0.10572624951601028, -0.03441989794373512], [0.030430596321821213, 0.0813731774687767, 0.051503248512744904], [-0.01161972526460886, 0.052362143993377686, 0.05368135869503021]], [[-0.043022435158491135, 0.10978081822395325, -0.035718388855457306], [0.09630155563354492, 0.009604236111044884, -0.04874352365732193], [0.06337203830480576, -0.01824120245873928, -0.05703120306134224]]], [[[-0.0013065203092992306, -0.09573058784008026, 0.10741208493709564], [0.05046481266617775, -0.009995739907026291, 0.03712235763669014], [-0.06567421555519104, 0.09114137291908264, 0.08321934938430786]], [[0.09932318329811096, -0.017785560339689255, 0.0872391015291214], [0.11044089496135712, 0.07885334640741348, -0.06354618072509766], [-0.10230454057455063, -0.09556358307600021, 0.06921377032995224]], [[0.07870539277791977, -0.0801885649561882, -0.01130188163369894], [0.03363423049449921, 0.0889778733253479, -0.016042277216911316], [-0.09397542476654053, -0.11393097788095474, -0.0616607703268528]], [[0.05764840170741081, -0.09141716361045837, -0.0980537012219429], [0.07502234727144241, 0.04321490228176117, 0.059960342943668365], [-0.011849096976220608, -0.02601778879761696, -0.0493050143122673]], [[0.09262106567621231, -0.10218476504087448, -0.01739826798439026], [0.05518607050180435, 0.019361892715096474, -0.09642451256513596], [0.02422374114394188, 0.06909064948558807, -0.017463846132159233]], [[0.025372516363859177, -0.03617483377456665, 0.07649614661931992], [0.04802972078323364, 0.040600813925266266, -0.012579868547618389], [-0.11147137731313705, -0.029701679944992065, 0.05702243372797966]], [[0.053563427180051804, 0.027711424976587296, -0.05788285285234451], [0.10717225819826126, 0.08402162045240402, 0.10059700906276703], [-0.01891963742673397, 0.10597152262926102, -0.09859536588191986]], [[-0.07275144755840302, -0.067440927028656, 0.02369948849081993], [-0.00789832416921854, -0.055881302803754807, 0.08911465108394623], [0.009867158718407154, 0.04253330081701279, 0.03292778506875038]]], [[[0.07328406721353531, -0.02332596480846405, -0.05350731313228607], [0.023583538830280304, -0.03854966163635254, -0.0877155214548111], [-0.010444693267345428, 0.021030116826295853, 0.11528030037879944]], [[0.077135369181633, 0.025521643459796906, -0.07912784814834595], [-0.10476868599653244, 0.06641676276922226, 0.023169366642832756], [0.09969264268875122, -0.07740181684494019, -0.003892518114298582]], [[0.06386435776948929, -0.04340565949678421, -0.062482960522174835], [0.010165727697312832, 0.08830485492944717, 0.1149221807718277], [-0.09588726609945297, 0.040966156870126724, -0.05476504564285278]], [[0.032245244830846786, 0.011431505903601646, 0.11544053256511688], [-0.006397562567144632, -0.07985714077949524, -0.046289656311273575], [-0.04631844535470009, -0.05570250377058983, -0.05497674271464348]], [[-0.05207420140504837, -0.005335717462003231, 0.044137679040431976], [0.10460499674081802, 0.09779679030179977, 0.013985236175358295], [-0.03609862178564072, 0.0736539214849472, -0.0009678640635684133]], [[-0.0065731992945075035, 0.07915207743644714, 0.06581706553697586], [0.07177712023258209, -0.08852823823690414, 0.08363877236843109], [0.09143318980932236, 0.10816268622875214, -0.0936196967959404]], [[0.0454961396753788, -0.017291586846113205, -0.01541539654135704], [0.04198479652404785, 0.07388339936733246, -0.05201631039381027], [0.09456492960453033, 0.07598665356636047, 0.09342219680547714]], [[0.02777808904647827, 0.0766255110502243, 0.09688213467597961], [-0.0206623375415802, -0.034363918006420135, 0.08392519503831863], [-0.08662804961204529, 0.06541235744953156, 0.0922163799405098]]], [[[0.07469509541988373, 0.05839865654706955, -0.10590396821498871], [-0.051720961928367615, -0.015592564828693867, 0.11077917367219925], [-0.005868304520845413, -0.1099390909075737, -0.1155565083026886]], [[-0.037363212555646896, 0.028155075386166573, 0.055705007165670395], [0.03363069146871567, -0.02904924750328064, 0.04967980459332466], [-0.10925141721963882, 0.00690619507804513, -0.06435323506593704]], [[-0.06029060482978821, -0.09835213422775269, 0.02497706562280655], [0.020884685218334198, 0.012985143810510635, 0.019427061080932617], [0.11749668419361115, 0.11006423830986023, 0.04587817192077637]], [[0.09593106061220169, 0.11262530833482742, 0.1148359403014183], [0.10147078335285187, 0.019102882593870163, 0.052698589861392975], [-0.02586318925023079, 0.06970319151878357, 0.06801672279834747]], [[-0.033995550125837326, -0.11353177577257156, 0.006874735467135906], [0.07542802393436432, 0.09176284819841385, 0.06671281158924103], [-0.06495363265275955, 0.09026102721691132, -0.013769764453172684]], [[-0.05439910292625427, 0.0684095099568367, 0.051641181111335754], [0.10087505728006363, 0.0622422993183136, -0.10589476674795151], [-0.1024877279996872, 0.04627010226249695, 0.06759658455848694]], [[0.08699558675289154, 0.012199284508824348, -0.038867849856615067], [-0.07442731410264969, -0.050844140350818634, 0.042071085423231125], [0.05269421264529228, -0.06155481934547424, 0.025374427437782288]], [[-0.03568205237388611, -0.008335829712450504, -0.0008742327336221933], [0.049550533294677734, 0.06653385609388351, 0.027413260191679], [-0.004263823386281729, 0.043518148362636566, 0.04473406821489334]]], [[[0.001593465218320489, -0.037451889365911484, -0.06543014943599701], [0.021010413765907288, 0.04236431047320366, 0.09372375905513763], [-0.06854870915412903, -0.037493009120225906, 0.10506845265626907]], [[-0.07473506033420563, -0.057242970913648605, 0.08994177728891373], [0.018030382692813873, -0.01668245531618595, 0.03183131664991379], [-0.05440748855471611, -0.06150438264012337, -0.03085819073021412]], [[-0.016960490494966507, 0.013951354660093784, 0.057100553065538406], [0.036710213869810104, -0.028976360335946083, 0.07350931316614151], [-0.03853702172636986, -0.06346970051527023, -0.10930202156305313]], [[-0.11156430840492249, -0.009134436026215553, -6.642343214480206e-05], [0.06337566673755646, -0.015832843258976936, -0.07186692208051682], [0.02439630962908268, -0.03422066941857338, -0.08747217059135437]], [[-0.07129522413015366, 0.11311855167150497, 0.08035141229629517], [0.019965043291449547, -0.11215341091156006, 0.03290298581123352], [0.042426012456417084, -0.046276215463876724, -0.11680030077695847]], [[0.08495369553565979, -0.1091902107000351, -0.11187147349119186], [-0.10353163629770279, 0.03425754979252815, -0.0383516289293766], [-0.04705246910452843, 0.017930062487721443, 0.11741621792316437]], [[0.03534581512212753, 0.06993760913610458, 0.07178881764411926], [-0.0713280588388443, -0.11275210976600647, -0.04926721006631851], [-0.0691564679145813, 0.022787177935242653, 0.018141161650419235]], [[0.0007474069716408849, -0.05285382270812988, -0.09570899605751038], [-0.05032185837626457, -0.07620304822921753, 0.04394849017262459], [0.01891046017408371, 0.04083709418773651, 0.07065078616142273]]], [[[-0.04385213926434517, 0.08512385934591293, -0.03875751420855522], [-0.0636550560593605, -0.09978674352169037, -0.019740132614970207], [0.10639728605747223, -0.053854722529649734, -0.10419421643018723]], [[-0.11328934878110886, -0.026568293571472168, 0.09314416348934174], [-0.07006985694169998, 0.05347241088747978, -0.003018780378624797], [0.09200642257928848, 0.0006759536336176097, -0.069600909948349]], [[-0.04846452921628952, 0.09012585878372192, -0.09479953348636627], [-0.11649752408266068, 0.011669367551803589, 0.04235346242785454], [-0.010885444469749928, -0.07563845813274384, 0.064616359770298]], [[-0.05565562844276428, -0.054490216076374054, -0.08982273191213608], [0.07000444084405899, -0.049040887504816055, -0.0905328243970871], [-0.07845458388328552, -0.1033095270395279, 0.10703089833259583]], [[-0.040284138172864914, 0.09376489371061325, 0.042247988283634186], [-0.030651122331619263, -0.07280229032039642, -0.10387831181287766], [0.07074061036109924, -0.00275970296934247, 0.0706840455532074]], [[0.028941858559846878, 0.051078569144010544, -0.08040358126163483], [0.11567529290914536, -0.09535631537437439, 0.009739925153553486], [-0.08271365612745285, 0.06750901788473129, 0.07455748319625854]], [[0.05771173909306526, -0.01869458705186844, 0.020083580166101456], [0.10586743801832199, -0.07198088616132736, -0.07846631109714508], [-0.03623398393392563, -0.04188106581568718, -0.032364655286073685]], [[-0.08421579748392105, 0.013872865587472916, -0.040724463760852814], [0.024971330538392067, 0.0346161313354969, 0.007176781538873911], [0.013762370683252811, 0.08404301851987839, -0.05708995833992958]]], [[[-0.049581337720155716, 0.026651721447706223, -0.042750705033540726], [0.01962498389184475, 0.035685181617736816, -0.06478404253721237], [-0.11472734808921814, -0.08105766773223877, -0.011449972167611122]], [[0.026861900463700294, -0.0030262270011007786, 0.10092120617628098], [-0.04352704435586929, -0.025358404964208603, -0.11221875995397568], [0.11428900808095932, 0.05517156049609184, -0.03993535041809082]], [[0.030713366344571114, -0.08955390006303787, -0.08787909150123596], [0.03881532698869705, -0.07370602339506149, 0.09668510407209396], [-0.046129364520311356, 0.04772923141717911, -0.05120626091957092]], [[0.10124897211790085, -0.06873255223035812, -0.013108249753713608], [0.014383157715201378, 0.014481669291853905, -0.02763226628303528], [-0.08592990785837173, 0.07783009111881256, -0.05142998695373535]], [[0.061863768845796585, 0.021957047283649445, 0.034917350858449936], [0.011944524012506008, 0.014618273824453354, -0.09419559687376022], [-0.0811539962887764, -0.10833331942558289, 0.0804082378745079]], [[-0.08484166860580444, 0.0621054470539093, 0.060860294848680496], [-0.04017282649874687, -0.10507867485284805, -0.09636355191469193], [0.002472024178132415, 0.1076892614364624, 0.07710136473178864]], [[0.06262517720460892, -0.10830055177211761, -0.0014152817893773317], [0.10921764373779297, 0.08481615781784058, -0.04202970489859581], [-0.021121855825185776, 0.01751580275595188, -0.07700662314891815]], [[0.01329206582158804, 0.10016827285289764, 0.002792056417092681], [-0.0848986953496933, 0.01738760806620121, 0.03100794367492199], [-0.01346452534198761, -0.025366898626089096, 0.08638142049312592]]], [[[0.02489066869020462, -0.0028773443773388863, 0.07559546828269958], [0.056350018829107285, 0.10626188665628433, 0.005250286310911179], [0.05894747003912926, 0.09400101751089096, 0.029756218194961548]], [[0.03029218688607216, 0.021116677671670914, -0.019850416108965874], [-0.040939364582300186, -0.07751545310020447, -0.051798734813928604], [0.0015404951991513371, -0.02235143817961216, 0.1010623350739479]], [[0.06810538470745087, -0.07352279126644135, -0.09642356634140015], [0.06724125891923904, -0.0707215666770935, 0.10955426096916199], [0.0780244991183281, 0.05845775827765465, 0.029217880219221115]], [[0.07030514627695084, 0.09976019710302353, -0.037946466356515884], [-0.01470649428665638, 0.11395809054374695, 0.1175994873046875], [-0.1087610274553299, 0.0327632762491703, -0.10793281346559525]], [[-0.04700684919953346, -0.03766527771949768, 0.060885969549417496], [0.10895766317844391, -0.041769787669181824, 0.015088510699570179], [0.08975923806428909, 0.014017071574926376, -0.013224980793893337]], [[-0.11057478189468384, 0.03778313845396042, -0.024201469495892525], [0.07804247736930847, 0.012445759028196335, 0.11268104612827301], [-0.10365087538957596, -0.0031590245198458433, -0.0006292786565609276]], [[-0.11152034997940063, 0.09338077902793884, 0.09189939498901367], [-0.0413065068423748, -0.1002206951379776, 0.07224404066801071], [0.06724661588668823, -0.10097009688615799, 0.08295495063066483]], [[-0.053750742226839066, 0.0055672116577625275, -0.00601228466257453], [-0.06795962154865265, 0.04649296775460243, -0.029774826020002365], [-0.05102125182747841, 0.01174105890095234, 0.09945209324359894]]], [[[0.10202645510435104, -0.06632185727357864, 0.05214325711131096], [0.04008505493402481, -0.05517164245247841, -0.08507436513900757], [-0.11001286655664444, 0.06013116613030434, 0.08280619233846664]], [[0.010043362155556679, 0.06834809482097626, 0.02307201363146305], [0.03776033967733383, 0.07573720067739487, 0.008931079879403114], [0.10539641231298447, -0.07364384084939957, 0.054068177938461304]], [[-0.04235154762864113, 0.034743085503578186, -0.05919874832034111], [-0.08819889277219772, -0.0663914754986763, 0.04153837263584137], [0.10932937264442444, -0.05036400258541107, -0.07947434484958649]], [[-0.014470115303993225, 0.00856291688978672, -0.0488978810608387], [-0.016530629247426987, 0.07901507616043091, -0.021862082183361053], [-0.05617545545101166, 0.0723828449845314, -0.08198456466197968]], [[0.05923503637313843, 0.05145784839987755, -0.10678569972515106], [0.009224741719663143, -0.08405975997447968, -0.06022407114505768], [-0.024726370349526405, -0.11490164697170258, -0.11608797311782837]], [[-0.05236272141337395, -0.06297073513269424, 0.07172223180532455], [-0.0975879430770874, -0.04307449236512184, 0.03218229115009308], [-0.10989464819431305, 0.08339407294988632, -0.08513928204774857]], [[0.03336675465106964, 0.007878215052187443, 0.008732371963560581], [0.01440393552184105, -0.0110189039260149, 0.09124016016721725], [0.1002250388264656, 0.03813973814249039, 0.0161350779235363]], [[0.05281548202037811, 0.0856880247592926, 0.06140946224331856], [-0.012472940608859062, 0.08170115947723389, -0.003974232356995344], [0.07380812615156174, -0.05103423073887825, 0.10148023813962936]]], [[[0.0984686091542244, 0.11623898893594742, 0.07039803266525269], [-0.11227171123027802, 0.06138933077454567, 0.05952413007616997], [0.10466472804546356, 0.09925945103168488, 0.05400652438402176]], [[0.08662866801023483, -0.09895114600658417, 0.06948335468769073], [0.012533714063465595, 0.0652843564748764, 0.10364677011966705], [-0.011849086731672287, -0.06943681836128235, -0.009669804014265537]], [[-0.056292399764060974, 0.025462374091148376, -0.015523215755820274], [0.08411955833435059, 0.04169904813170433, -0.04711637273430824], [0.10457397252321243, -0.06966353207826614, 0.10065789520740509]], [[-0.03707754984498024, -0.02387937158346176, 0.006402617320418358], [0.06480491161346436, 0.09792868047952652, -0.11356331408023834], [-0.08511465787887573, -0.021480707451701164, 0.06183179095387459]], [[-0.06565981358289719, 0.07268747687339783, -0.11628057062625885], [-0.026238424703478813, 0.01792455092072487, 0.08166609704494476], [0.07171569764614105, 0.0034537408500909805, 0.11481314152479172]], [[-0.0690934956073761, 0.10127969086170197, 0.0448598749935627], [0.11756036430597305, 0.09075368195772171, 0.07341745495796204], [-0.1078980341553688, -0.11669708788394928, -0.07122798264026642]], [[-0.012578824535012245, 0.09930247813463211, -0.047522541135549545], [-0.005153336096554995, -0.05635335296392441, -0.021990792825818062], [0.02886795997619629, 0.030625119805336, -0.0024062383454293013]], [[-0.005414049606770277, 0.03856848180294037, -0.08376073092222214], [-0.08543301373720169, 0.047255679965019226, -0.01999007724225521], [0.003841118421405554, 0.11636588722467422, -0.06069885194301605]]], [[[-0.007845133543014526, 0.052561916410923004, 0.05755611136555672], [0.10278720408678055, 0.018468953669071198, 0.11279604583978653], [0.0001627431920496747, 0.10432465374469757, -0.00537114217877388]], [[-0.08955585956573486, -0.007858915254473686, -0.056059617549180984], [-0.10510912537574768, -0.05153554677963257, 0.022892173379659653], [0.030672093853354454, -0.06409736722707748, -0.10059382766485214]], [[-0.0766715556383133, -0.11669355630874634, -0.058633431792259216], [0.08302748203277588, 0.06939875334501266, -0.03785652667284012], [-0.1091683879494667, -0.01892569102346897, -0.03804849460721016]], [[0.06197059154510498, -0.049921974539756775, -0.014511932618916035], [0.10662892460823059, -0.10176102072000504, -0.015626469627022743], [0.11318203806877136, 0.11648441851139069, -0.10117681324481964]], [[0.07755322009325027, -0.04614561051130295, 0.0356069914996624], [-0.11583258956670761, -0.092196524143219, -0.07683171331882477], [0.050801947712898254, -0.05028568208217621, -0.03355007618665695]], [[0.06306584924459457, 0.03881624713540077, 0.05065283924341202], [-0.014305110089480877, -0.10290117561817169, -0.04624425992369652], [0.019415300339460373, 0.05288597568869591, 0.08237487077713013]], [[0.10083796083927155, 0.1048751100897789, 0.09624481946229935], [0.004834887105971575, 0.04509503394365311, 0.05061131715774536], [0.02451837807893753, 0.011594257317483425, 0.04905707389116287]], [[-0.03875814005732536, -0.03152154013514519, -0.07858835160732269], [-0.04000348225235939, -0.0842738077044487, 0.08943325281143188], [0.06402574479579926, 0.09806893765926361, -0.055384524166584015]]], [[[0.06255120784044266, 0.0645001083612442, -0.040473572909832], [-0.01651548221707344, 0.1055498719215393, 0.07275126129388809], [-0.03690313547849655, 0.01241246610879898, -0.0533607192337513]], [[-0.1050473004579544, 0.11464985460042953, -0.06113889440894127], [-0.11235912889242172, -0.05515401065349579, -0.027340801432728767], [0.09584178030490875, 0.048626869916915894, 0.0837150514125824]], [[-0.0683252289891243, -0.04452912136912346, -0.01352684199810028], [-0.014494332484900951, -0.10310185700654984, -0.07699532061815262], [0.017277514562010765, -0.007189514115452766, -0.11190290004014969]], [[-0.07406335324048996, -0.093365877866745, 0.07237742096185684], [-0.09850537776947021, -0.06300120800733566, 0.09536100924015045], [0.028471924364566803, 0.030442049726843834, 0.11704260110855103]], [[0.05027442052960396, 0.1058063879609108, 0.010658455081284046], [0.027429040521383286, 0.044538527727127075, -0.021133147180080414], [-0.11186185479164124, -0.022425705567002296, 0.10753077268600464]], [[-0.012985317967832088, 0.017719054594635963, -0.038253702223300934], [-0.020510300993919373, -0.04438275471329689, -0.11503478139638901], [0.026860440149903297, -0.04136558622121811, 0.10230351239442825]], [[-0.029921354725956917, 0.08579100668430328, 0.04774375259876251], [0.06217486411333084, 0.09013095498085022, -0.01808890514075756], [-0.07740284502506256, 0.058351077139377594, 0.07869508117437363]], [[0.09613873809576035, -0.06639742851257324, 0.015266524627804756], [-0.11099369823932648, -0.10400472581386566, -0.08776970207691193], [-0.0887565165758133, 0.01732591912150383, -0.01144444476813078]]], [[[0.01163591630756855, 0.04893084987998009, -0.09254815429449081], [0.08795872330665588, -0.07682972401380539, -0.03854949399828911], [-0.10306674987077713, 0.00697016716003418, 0.09956277161836624]], [[-0.032729849219322205, -0.005945713724941015, 0.001326550729572773], [0.010637473315000534, -0.0885881781578064, 0.09593316912651062], [-0.1080445870757103, 0.03618079423904419, 0.004293406847864389]], [[0.04209262877702713, 0.10395126789808273, 0.06135593354701996], [-0.10324560105800629, -0.08617044985294342, -0.037358127534389496], [-0.09707257151603699, 0.007097845431417227, -0.03282763436436653]], [[0.0935373604297638, -0.04334982484579086, -0.05425561964511871], [0.09260324388742447, 0.06109074875712395, -0.09647628664970398], [0.09587258845567703, 0.025528492406010628, -0.06597177684307098]], [[0.11411546170711517, -0.07251951843500137, -0.054988473653793335], [0.07419609278440475, -0.11756782233715057, -0.09383884817361832], [0.012387620285153389, -0.08431585133075714, -0.08993079513311386]], [[0.06672278046607971, -0.02781827747821808, 0.050387654453516006], [-0.01479431614279747, 0.04961616173386574, 0.019452324137091637], [-0.004290016833692789, -0.07487833499908447, -0.06101326271891594]], [[0.09814213961362839, 0.11674955487251282, 0.10416744649410248], [0.07688134163618088, 0.01885322667658329, 0.10862824320793152], [-0.08022928237915039, 0.05959571152925491, 0.09024153649806976]], [[0.0462656132876873, 0.10940616577863693, -0.11133146286010742], [-0.050790708512067795, -0.06349871307611465, 0.06481900811195374], [0.0471370592713356, -0.09795929491519928, 0.0543326735496521]]], [[[0.015335715375840664, -0.020210424438118935, -0.07828674465417862], [-0.06552191078662872, 0.06223320588469505, 0.06025465205311775], [0.01619739457964897, -0.018561573699116707, -0.03740832209587097]], [[0.0880042016506195, -0.11430194228887558, -0.07586406171321869], [0.04294413700699806, -0.11735346168279648, -0.07984652370214462], [0.10180175304412842, -0.08311939239501953, 0.09243234992027283]], [[0.058155618607997894, 0.11318406462669373, 0.10936068743467331], [-0.015963923186063766, -0.009293155744671822, -0.07630115002393723], [0.06600192934274673, -0.09297453612089157, -0.026062848046422005]], [[-0.00812795665115118, 0.07721032202243805, -0.041982609778642654], [0.06785041093826294, 0.11724686622619629, 0.11385148763656616], [-0.04714513570070267, -0.026633653789758682, 0.0006339411484077573]], [[-0.11597110331058502, 0.06287789344787598, -0.07736901938915253], [0.038898807018995285, 0.03452836349606514, -0.022734247148036957], [-0.05391978099942207, -0.0399213507771492, -0.1147233098745346]], [[-0.07829514145851135, 0.07041321694850922, -0.022761793807148933], [-0.0445559062063694, 0.0687568262219429, -0.0432121567428112], [0.07106073945760727, 0.051406290382146835, -0.06261807680130005]], [[0.04270750284194946, 0.11052946746349335, 0.049505565315485], [0.04595523700118065, -0.052759088575839996, 0.02863200381398201], [-0.08238925039768219, -0.021740948781371117, -0.07907666265964508]], [[0.06494572758674622, 0.020442020148038864, -0.02425627037882805], [-0.02377910539507866, 0.039291586726903915, 0.09198534488677979], [0.038916271179914474, -0.0842939168214798, 0.006216072477400303]]], [[[0.006559911649674177, 0.09476586431264877, -0.0925900787115097], [0.10669394582509995, 0.08299780637025833, 0.02425176091492176], [0.08236517012119293, -0.06449384242296219, 0.025812014937400818]], [[-0.04726226255297661, 0.07084539532661438, -0.09043204039335251], [-0.10319140553474426, 0.03861204907298088, -0.10502688586711884], [0.09496334195137024, -0.07001272588968277, -0.04431360960006714]], [[-0.10718172788619995, 0.10804305970668793, 0.0424012653529644], [-0.023755306378006935, 0.07635306566953659, -0.01768859475851059], [0.03923121467232704, -0.11769643425941467, -0.013713810592889786]], [[-0.08659926056861877, 0.012888717465102673, -0.09358888864517212], [-0.049700308591127396, 0.08777981996536255, 0.017496146261692047], [-0.0605926513671875, 0.11104564368724823, 0.1019018217921257]], [[0.03922659903764725, 0.07756315171718597, 0.054339177906513214], [-0.11465262621641159, 0.07368960231542587, 0.09675372391939163], [0.09176599234342575, -0.11166578531265259, 0.11529845744371414]], [[0.03827165812253952, -0.01350915152579546, 0.028818456456065178], [-0.0733070895075798, 0.07443470507860184, 0.09126795083284378], [0.013412096537649632, -0.005461877677589655, 0.05736720189452171]], [[-0.07402870059013367, -0.09452489763498306, -0.11541856080293655], [-0.04600466787815094, 0.05664737895131111, 0.07268232107162476], [-0.05881727859377861, -0.014888525940477848, 0.10744132101535797]], [[-0.09501267224550247, 0.11631610244512558, -0.05537115037441254], [0.10861694067716599, -0.01704169437289238, -0.07529083639383316], [0.06476449966430664, -0.07095636427402496, -0.06259740889072418]]], [[[-0.003968081437051296, 0.01790107786655426, 0.0952288955450058], [0.02323196455836296, -0.11141568422317505, 0.001612099353224039], [-0.11348238587379456, 0.038700323551893234, -0.029007740318775177]], [[0.09142124652862549, -0.024743249639868736, 0.11186027526855469], [-0.030851364135742188, -0.08825967460870743, -0.10190995782613754], [0.062453966587781906, -0.09333628416061401, 0.08457549661397934]], [[-0.003402682254090905, 0.042778436094522476, -0.04338051378726959], [-0.014604591764509678, 0.0852474719285965, -0.05198539420962334], [0.0637618824839592, 0.059590619057416916, 0.02162904106080532]], [[0.09730330109596252, -0.07258837670087814, -0.10520488768815994], [0.0030244411900639534, 0.09624896198511124, -0.08367471396923065], [-0.057868003845214844, -0.11278155446052551, 0.011165251955389977]], [[-0.0584523044526577, -0.09345005452632904, 0.006817793473601341], [0.011847671121358871, -0.11222237348556519, 0.008018759079277515], [-0.11394978314638138, -0.03528715670108795, -0.09605638682842255]], [[0.06020057946443558, 0.08383254706859589, -0.11308136582374573], [0.11424191296100616, -0.0665593072772026, -0.09177152812480927], [-0.018187521025538445, 0.03186356648802757, 0.006816457957029343]], [[0.05034537985920906, -0.07688641548156738, 0.04727569967508316], [0.10009545832872391, -0.0013851926196366549, 0.004681646823883057], [0.06451378017663956, 0.027889346703886986, -0.0483558252453804]], [[-0.019377490505576134, -0.026587631553411484, 0.03588291257619858], [-0.05162189528346062, -0.11063817143440247, -0.0645708292722702], [-0.10319636017084122, -0.03166680783033371, -0.027567697688937187]]]], "encoder.4.bias": [0.08318201452493668, -0.07401730120182037, 0.056024208664894104, 0.09811638295650482, -0.10998876392841339, 0.007549820933490992, 0.09327656030654907, 0.003966112621128559, -0.11462117731571198, -0.06794752180576324, 0.08065465837717056, -0.05901562049984932, 0.03211141750216484, -0.08943362534046173, -0.11322321742773056, -0.0623934380710125], "encoder.6.weight": [[[[-0.07072955369949341, -0.04682498797774315, -0.05710719898343086], [0.01034389529377222, -0.04968024790287018, 0.06546129286289215], [0.07942839711904526, 0.06826745718717575, -0.03946942090988159]], [[0.015829453244805336, -0.020260240882635117, 0.004104949068278074], [-0.007687617093324661, -0.07790287584066391, -0.06184304133057594], [0.06338613480329514, -0.0799584910273552, 0.04608110338449478]], [[-0.07721129804849625, -0.03063751570880413, -0.04632402956485748], [-0.07485480606555939, -0.034793220460414886, -0.03226781636476517], [0.08137229084968567, -0.0723680853843689, -0.06274155527353287]], [[0.07853242009878159, 0.04410737380385399, 0.01981283538043499], [-0.0025935820303857327, 0.061645522713661194, -0.009702010080218315], [0.07726971060037613, -0.01557161845266819, 0.015562895685434341]], [[0.05518665909767151, -0.07236407697200775, -0.02373664453625679], [0.052833326160907745, 0.012778154574334621, 0.07621778547763824], [0.06790082156658173, -0.0004051522701047361, -0.010600218549370766]], [[0.05336311087012291, 0.05982021987438202, 0.01189706102013588], [-0.013192346319556236, 0.003922035917639732, 0.06551116704940796], [0.02074516750872135, 0.07964078336954117, 0.0012999296886846423]], [[0.07859297841787338, -0.028784045949578285, -0.0679207295179367], [-0.065444715321064, 0.06535852700471878, 0.06736764311790466], [0.01457748468965292, 0.009187085554003716, 0.060072753578424454]], [[0.06292053312063217, -0.07695812731981277, -0.0683460384607315], [0.020700406283140182, 0.02141594886779785, 0.04177049547433853], [-0.0642082616686821, 0.03449758142232895, 0.07017532736063004]], [[-0.013178876601159573, 0.05220019444823265, 0.0571199394762516], [0.03137435391545296, 0.07952409982681274, 0.003968007396906614], [0.004977175034582615, -0.03437330946326256, 0.018299544230103493]], [[0.05481337383389473, 0.010696815326809883, 0.059240374714136124], [0.019454440101981163, 0.03320819139480591, -0.0030697102192789316], [-0.05287740379571915, 0.0718475803732872, -0.03569531440734863]], [[0.023354949429631233, -0.05320711433887482, 0.01416743453592062], [0.028485767543315887, 0.021260777488350868, -0.07917627692222595], [0.05332833528518677, 0.05042652413249016, 0.07638414204120636]], [[0.0425211600959301, -0.015003959648311138, 0.03665786236524582], [-0.0003427863121032715, 0.013002882711589336, 0.06904993951320648], [-0.07975052297115326, -0.012146016582846642, 0.005003373138606548]], [[0.020155860111117363, -0.06792852282524109, -0.03967607766389847], [-0.021921291947364807, -0.048709604889154434, 0.01870621182024479], [0.033021263778209686, 0.015660589560866356, 0.029711484909057617]], [[-0.04602750390768051, -0.042832132428884506, -0.001529312925413251], [-0.01535563264042139, -0.036763183772563934, 0.043692681938409805], [-0.059795115143060684, 0.06465347111225128, -0.05616691708564758]], [[0.024786513298749924, -0.03910866379737854, -0.021344374865293503], [-0.023489218205213547, -0.013710997998714447, 0.014361639507114887], [0.0786205381155014, 0.005662820301949978, -0.07083788514137268]], [[0.030340204015374184, -0.02402992732822895, -0.04923930764198303], [0.008230659179389477, 0.05697071552276611, 0.0038601828273385763], [0.0006073114927858114, 0.030661799013614655, 0.07948180288076401]]], [[[0.02939990721642971, 0.06508363038301468, -0.009695934131741524], [-0.030518898740410805, -0.026311838999390602, 0.06323803216218948], [0.0695989578962326, -0.06730908155441284, -0.019009338691830635]], [[-0.009255037643015385, -0.03751852735877037, -0.07954812794923782], [0.053471364080905914, 0.04923885315656662, -0.0016720239073038101], [-0.00357850082218647, 0.05673021823167801, -0.009798010811209679]], [[0.01500352006405592, -0.00837730336934328, 0.0522245354950428], [-0.03352459892630577, -0.006535225547850132, -0.038378674536943436], [-0.01038371678441763, 0.06391256302595139, 0.0289286021143198]], [[-0.00871574692428112, 0.07853931188583374, 0.014291923493146896], [-0.03390456736087799, 0.0770820751786232, -0.0013195978244766593], [-0.04123200103640556, -0.04400092735886574, -0.030155090615153313]], [[0.03633566200733185, -0.018289968371391296, -0.04483401030302048], [-0.07011017948389053, 0.06169977784156799, 0.05083811655640602], [-0.04229438304901123, -0.07145139575004578, -0.020741121843457222]], [[-0.03725872188806534, 0.053799450397491455, 0.05369279906153679], [0.07253909111022949, 0.027572834864258766, 0.06507415324449539], [0.0660056546330452, 0.035134170204401016, -0.04494139924645424]], [[-0.04232373461127281, 0.050198428332805634, -0.0616573803126812], [-0.0823000967502594, 0.005733470432460308, 0.011713141575455666], [-0.04631572216749191, 0.03542632609605789, 0.04666769877076149]], [[0.07949328422546387, -0.025753308087587357, 0.03818259388208389], [0.06197451055049896, 0.06981933116912842, -0.011725446209311485], [-0.04437728226184845, -0.014912212267518044, -0.05023324117064476]], [[-0.06325729191303253, -0.015508616343140602, 0.07789488881826401], [-0.035798151046037674, 0.06172913685441017, 0.028227847069501877], [-0.037476200610399246, -0.018007753416895866, -0.04215265437960625]], [[-0.07274225354194641, 0.04217042401432991, -0.04871011897921562], [-0.053915973752737045, 0.06832804530858994, 0.06232720613479614], [0.05293911695480347, -0.05618402734398842, -0.038749340921640396]], [[-0.03512369096279144, 0.0008322981302626431, -0.07816000282764435], [0.0015655463794246316, -0.0449531264603138, -0.05315569415688515], [-0.01950906775891781, -0.028184611350297928, -0.07442209124565125]], [[-0.056256722658872604, 0.0013439854374155402, -0.07548682391643524], [-0.05534837767481804, -0.05111117288470268, 0.005233824253082275], [0.04527926445007324, 0.01965966820716858, 0.01772400736808777]], [[-0.050716329365968704, 0.061225682497024536, 0.008434755727648735], [-0.013166938908398151, -0.012756702490150928, 0.0012079983716830611], [-0.0784045085310936, 0.0254024900496006, -0.06770583987236023]], [[0.030024122446775436, -0.05765765160322189, -0.03085189498960972], [-0.06801733374595642, -0.0083269402384758, 0.012838288210332394], [0.05162091925740242, 0.04068479314446449, -0.015643980354070663]], [[-0.07202538847923279, 0.001519434037618339, -0.027522161602973938], [0.019256476312875748, -0.017202863469719887, 0.0305186714977026], [-0.01779484562575817, 0.07981789857149124, 0.07367223501205444]], [[0.03761833906173706, -0.017889434471726418, -0.05721529200673103], [0.07484228909015656, -0.06494370102882385, -0.03873194009065628], [0.027120275422930717, -0.025365173816680908, -0.06398163735866547]]], [[[-0.027744634076952934, 0.015573329292237759, -0.01785474643111229], [0.04571238532662392, 0.04080510139465332, -0.041397202759981155], [0.00492194714024663, 0.012630990706384182, 0.0032706758938729763]], [[0.07911259680986404, -0.05472803860902786, -0.05009492114186287], [-0.024286149069666862, 0.05347076803445816, -0.030905574560165405], [0.05651203915476799, -0.02515299618244171, 0.014107970520853996]], [[-0.07236895710229874, 0.045452479273080826, -0.017387453466653824], [-0.01844034343957901, 0.0413023866713047, 0.03308284282684326], [-0.0006463786121457815, -0.08444405347108841, -0.06254138052463531]], [[0.010497256182134151, 0.0034953325521200895, -0.016492703929543495], [0.051460474729537964, 0.08034495264291763, -0.06193060055375099], [-0.08123376220464706, -0.041061658412218094, -0.0022629760205745697]], [[-0.04890352115035057, -0.06140367314219475, 0.06417551636695862], [0.00848208274692297, -0.000540377979632467, 0.05566142871975899], [-0.07435441762208939, 0.045156080275774, 0.07665687054395676]], [[0.02425452321767807, 0.0019030194962397218, 0.06457027792930603], [0.0434955358505249, -0.010090327821671963, 0.05377502366900444], [-0.008365039713680744, 0.056733425706624985, 0.07151061296463013]], [[0.032896243035793304, 0.00652843015268445, -0.0765252336859703], [-0.06995376944541931, 0.016732139512896538, -0.0050549861043691635], [0.05856439843773842, 0.06685827672481537, -0.037282511591911316]], [[0.021417364478111267, 0.07409058511257172, 0.03669486567378044], [0.0342116504907608, 0.06909790635108948, -0.04317638650536537], [0.05056072771549225, -0.08029648661613464, -0.00823950581252575]], [[0.08325716108083725, -0.08026949316263199, -0.08274997770786285], [-0.02429748885333538, 0.049158141016960144, 0.03014429286122322], [0.043631140142679214, -0.044464580714702606, -0.02851136215031147]], [[0.033208586275577545, -0.05449231341481209, 0.04766113683581352], [-0.05631891265511513, 0.04178779944777489, -0.03127532824873924], [0.07444913685321808, 0.07028265297412872, -0.019701339304447174]], [[-0.032429955899715424, -0.07887277007102966, -0.0828852578997612], [-0.03851151838898659, -0.06672016531229019, 0.0714675635099411], [0.019307050853967667, 0.016468394547700882, -0.02508312091231346]], [[-0.00844718050211668, -0.05899474024772644, 0.0517769455909729], [-0.0784381553530693, 0.061888646334409714, -0.0684950202703476], [0.0034463207703083754, -0.06353349983692169, -0.05745010823011398]], [[0.03193959593772888, 0.012120997533202171, -0.057865604758262634], [-0.023465026170015335, -0.05796525254845619, 0.058853790163993835], [-0.03159734234213829, -0.021531201899051666, 0.06063549220561981]], [[-0.03944743052124977, 0.011439784429967403, -0.0470379963517189], [0.04567496106028557, 0.008870726451277733, -0.018930919468402863], [-0.018777308985590935, 0.042213164269924164, 0.07866412401199341]], [[0.05741075426340103, 0.05013473331928253, -0.06178901717066765], [-0.05684948340058327, -0.027434157207608223, 0.0001408292300766334], [-0.049220576882362366, -0.060078490525484085, -0.028668513521552086]], [[-0.07396367192268372, -0.008316289633512497, 0.06523922085762024], [0.004664340987801552, 0.06333132833242416, -0.021218890324234962], [0.06867707520723343, 0.05691731348633766, -0.011715698055922985]]], [[[-0.032327838242053986, -0.017185039818286896, -0.04737601429224014], [0.03667827695608139, 0.012225307524204254, -0.08042064309120178], [-0.016131794080138206, 0.026463011279702187, -0.014241616241633892]], [[0.061411067843437195, -0.04383929818868637, -0.030645692721009254], [-0.0012937374413013458, 0.04331131651997566, 0.03681154549121857], [0.016403278335928917, 0.05487699806690216, 0.03222784399986267]], [[0.018035460263490677, 0.0346212200820446, 0.022873010486364365], [-0.06910853832960129, 0.015162935480475426, 0.00034509802935644984], [-0.02416878752410412, -0.08196309208869934, 0.06977195292711258]], [[-0.023618856444954872, 0.022062426432967186, -0.03498886525630951], [0.05692804977297783, 0.04490876942873001, 0.008344214409589767], [-0.025243259966373444, -0.08223626017570496, 0.0604572519659996]], [[-0.045210275799036026, -0.07620720565319061, 0.07698150724172592], [-0.05536848306655884, 0.061388395726680756, 0.08079139143228531], [-0.016516968607902527, 0.011344628408551216, -0.0387498214840889]], [[-0.06315167993307114, 0.058723270893096924, -0.07017017155885696], [-0.06294485926628113, -0.0632411316037178, 0.02927444688975811], [-0.039884231984615326, 0.015515654347836971, 0.027949154376983643]], [[-0.028869768604636192, -0.03411716967821121, 0.07624458521604538], [0.0533248670399189, -0.07067114859819412, 0.08155038207769394], [0.009558365680277348, -0.028583841398358345, 0.022401530295610428]], [[0.003209294518455863, -0.0605987124145031, -0.04587286710739136], [0.07417430728673935, 0.020373264327645302, -0.029118547216057777], [0.03269541636109352, 0.041454967111349106, -0.007582653313875198]], [[0.020411115139722824, 0.03715274855494499, -0.0380026139318943], [-0.03722551465034485, 0.021025871858000755, 0.06346316635608673], [0.06266273558139801, 0.0118126654997468, 0.05100902169942856]], [[-0.03639010339975357, -0.04487528279423714, -0.07882266491651535], [0.05327421426773071, 0.05333125218749046, -0.022020792588591576], [0.020252078771591187, -0.05778595805168152, -0.07295377552509308]], [[0.03966359421610832, -0.04723014682531357, -0.06433624774217606], [-0.032830290496349335, -0.020901678130030632, -0.033406827598810196], [0.024932710453867912, -0.04584786295890808, 0.010932625271379948]], [[0.004500409122556448, -0.03437741845846176, -0.014052152633666992], [0.06699102371931076, 0.06789493560791016, 0.007405759766697884], [-0.0182255320250988, 0.05730059742927551, -0.06661739945411682]], [[0.04374866560101509, -0.07370302081108093, -0.050696417689323425], [-0.07952352613210678, 0.028063179925084114, -0.019938703626394272], [-0.045215532183647156, 0.02885226346552372, 0.03166643902659416]], [[0.03920864313840866, 0.04839685559272766, 0.05535489693284035], [-0.0678110122680664, 0.06366827338933945, 0.050993721932172775], [0.04667827486991882, -0.0130637651309371, 0.031382642686367035]], [[-0.033858176320791245, 0.05036092922091484, -0.07517233490943909], [0.034158334136009216, -0.013895495794713497, 0.08227140456438065], [0.01342087797820568, 0.07469620555639267, 0.04412004351615906]], [[0.006264911964535713, -0.04968341067433357, 0.07356046885251999], [0.06430265307426453, 0.030952997505664825, -0.06839138269424438], [-0.014997534453868866, -0.05195116624236107, -0.03776390478014946]]], [[[-0.021827733144164085, 0.007165741641074419, -0.021607117727398872], [-0.06967416405677795, -0.02088838629424572, -0.06395605951547623], [-0.00717938132584095, 0.045408695936203, -0.050672996789216995]], [[0.0764266699552536, -0.02652781270444393, -0.006186932325363159], [-0.04731801152229309, 0.07315003871917725, -0.0007274846429936588], [-0.004014293663203716, 0.07195451110601425, -0.052926525473594666]], [[0.04132302850484848, -0.04451289027929306, 0.06239545717835426], [0.01305306889116764, -0.06295294314622879, 0.04371960833668709], [0.010615644045174122, 0.08109990507364273, -0.032299403101205826]], [[0.025946015492081642, -0.08209440857172012, 0.0648021325469017], [0.058831583708524704, -0.033682920038700104, -0.06672569364309311], [0.016385413706302643, -0.03418419510126114, 0.06444822251796722]], [[0.07801872491836548, 0.025168409571051598, 0.03551072999835014], [0.0036450724583119154, 0.036053579300642014, 0.0680561438202858], [0.06125342845916748, 0.0623876228928566, 0.017053615301847458]], [[-0.06611868739128113, 0.047110483050346375, -0.07311341166496277], [0.05081811174750328, -0.040944021195173264, 0.07119271159172058], [-0.06898828595876694, 0.02971472404897213, 0.020569415763020515]], [[0.05440536141395569, -0.07621683925390244, 0.051000773906707764], [-0.08070927113294601, 0.05309359356760979, 0.03203480318188667], [-0.04021843150258064, -0.07230044901371002, 0.001611369545571506]], [[-0.047767095267772675, -0.04066323861479759, -0.03674919158220291], [-0.011544445529580116, -0.043995436280965805, -0.003778997575864196], [-0.04555530473589897, 0.0005184293258935213, 0.06462877988815308]], [[-0.05288099870085716, 0.001925600110553205, 0.029421700164675713], [-0.052796393632888794, 0.05865265429019928, -0.030840139836072922], [-0.06497886776924133, 0.010146599262952805, 0.07537643611431122]], [[-0.03303636983036995, -0.03392313793301582, 0.0015922755701467395], [0.06832654029130936, -0.027923021465539932, -0.06083045154809952], [-0.03567107021808624, -0.018186863511800766, 0.028107531368732452]], [[0.06096481531858444, 0.04740500450134277, -0.05513761565089226], [0.029081176966428757, -0.07451267540454865, -0.04308529943227768], [-0.03541167825460434, -0.07407528162002563, -0.044771622866392136]], [[0.07049517333507538, -0.08239712566137314, 0.05889801308512688], [0.000874509452842176, -0.05505600571632385, -0.03484021872282028], [0.0760904848575592, -0.06091716140508652, 0.06693221628665924]], [[-0.012800609692931175, 0.07511521875858307, -0.008739895187318325], [-0.0306033194065094, -0.010536333546042442, -0.012884406372904778], [0.072847381234169, -0.08326535671949387, -0.011440157890319824]], [[-0.019360778853297234, -0.07522642612457275, -0.03732838109135628], [-0.07413356751203537, -0.005455935839563608, -0.03506740555167198], [-0.05006369948387146, -0.02807900682091713, 0.03164086118340492]], [[0.021166905760765076, 0.0006403286824934185, -0.037858445197343826], [0.019102808088064194, 0.035211239010095596, 0.05684065818786621], [0.05831767991185188, -0.0522344633936882, -0.020240914076566696]], [[-0.018422435969114304, 0.05156597122550011, 0.0327981598675251], [-0.08175407350063324, 0.07277005910873413, -0.016211381182074547], [-0.06486377865076065, 0.00747957406565547, -0.07454321533441544]]], [[[-0.04444055259227753, -0.04597772657871246, 0.04403245821595192], [0.07056732475757599, -0.04805159196257591, -0.0380135104060173], [-0.006896318402141333, 0.026051687076687813, 0.059535399079322815]], [[0.0772780179977417, -0.0801607295870781, 0.05688074603676796], [-0.027307745069265366, -0.07298565655946732, -0.060927823185920715], [-0.023460181429982185, -0.05276966094970703, 0.032173145562410355]], [[-0.038964059203863144, 0.003058299422264099, -0.02849043346941471], [0.07812614738941193, 0.04159519076347351, -0.031015772372484207], [0.08509472012519836, 0.02190449833869934, -0.06750649213790894]], [[0.0785350501537323, -0.04468128830194473, 0.012413596734404564], [0.025820067152380943, 0.06977053731679916, -0.02696187235414982], [0.015981042757630348, -0.013821127824485302, 0.008654740639030933]], [[0.06554696708917618, 0.06466938555240631, 0.04696962609887123], [-0.0193361546844244, 0.016612697392702103, -0.04042996093630791], [0.06693527102470398, 0.08193103969097137, 0.039927687495946884]], [[-0.06654056906700134, -0.05289360135793686, 0.0006196637405082583], [-0.056314367800951004, -0.03627941384911537, 0.01188563834875822], [-0.049785565584897995, -0.06805519759654999, 0.0034164295066148043]], [[-0.046698980033397675, -0.025117676705121994, 0.02617388404905796], [0.03431408107280731, 0.03653479740023613, 0.073134645819664], [-0.02718159928917885, 0.039523106068372726, -0.007849632762372494]], [[-0.06516566872596741, 0.06042565405368805, 0.00723205367103219], [0.03305106982588768, 0.016158366575837135, 0.006175085436552763], [0.0460054948925972, -0.0019070416456088424, 0.0265477504581213]], [[-0.043303150683641434, -0.06371475756168365, 0.04804614186286926], [-0.01912066526710987, -0.019856471568346024, -0.05168931558728218], [-0.06730063259601593, -0.02328931912779808, 0.005287543870508671]], [[-0.020399954169988632, -0.05781182646751404, -0.037033721804618835], [0.056619785726070404, 0.022572165355086327, 0.02099796012043953], [-0.028466347604990005, 0.0425153523683548, 0.04723719507455826]], [[0.003855719231069088, 0.05124414339661598, -0.011812645941972733], [-0.06119035929441452, 0.04404319077730179, -0.0018936051055788994], [-0.0348973274230957, 0.06392935663461685, -0.03157981485128403]], [[-0.04266669601202011, 0.0045558614656329155, 0.027368446812033653], [0.04764985293149948, -0.07564789056777954, 0.035940200090408325], [-0.05098990723490715, 0.052824608981609344, -0.06598987430334091]], [[0.03717685863375664, -0.030648257583379745, -0.035361398011446], [-0.02909740060567856, -0.010240675881505013, -0.05702444911003113], [-0.003133041551336646, 0.025598302483558655, 0.07894894480705261]], [[-0.027808919548988342, 0.07403462380170822, -0.04763447120785713], [0.024623893201351166, -0.07726935297250748, -0.0009139809408225119], [-0.01011538878083229, -0.001086163567379117, 0.015741635113954544]], [[-0.00920475646853447, -0.016200996935367584, -0.05674917995929718], [-0.07469133287668228, 0.04224236309528351, -0.029295818880200386], [-0.008009654469788074, 0.051570091396570206, -0.00041103901457972825]], [[0.017547529190778732, -0.00196895282715559, -0.02747383899986744], [0.07981312274932861, 0.007850966416299343, -0.037725817412137985], [0.06950770318508148, 0.021482491865754128, 0.050591472536325455]]], [[[-0.03955184295773506, -0.039497215300798416, -0.02743607573211193], [-0.00034094162401743233, -0.04861486330628395, 0.05690393224358559], [0.0011793834855780005, -0.07933018356561661, 0.07106524705886841]], [[-0.00398067245259881, -0.040004801005125046, 0.06368386745452881], [-0.04626748710870743, 0.031133253127336502, -0.05794212594628334], [0.08024097234010696, -0.0153511893004179, 0.06178132817149162]], [[0.06982234120368958, -0.06350713968276978, -0.060581885278224945], [0.06774244457483292, 0.04011376574635506, -0.038584109395742416], [-0.04585197567939758, 0.08309216052293777, 0.02800098992884159]], [[-0.05070941895246506, 0.07148871570825577, -0.05547212064266205], [-0.011585233733057976, -0.05477440357208252, -0.04307227581739426], [0.03239808231592178, 0.009066910482943058, -0.08063386380672455]], [[0.0429881252348423, 0.04928506538271904, 0.058867570012807846], [0.0753432884812355, 0.07985242456197739, -0.049402687698602676], [-0.006380749400705099, 0.06858187913894653, 0.011868095025420189]], [[-0.019551249220967293, 0.005104698706418276, 0.014210615307092667], [-0.002159100491553545, 0.02782529965043068, -0.07288195937871933], [-0.045708272606134415, 0.02661787159740925, -0.06282857805490494]], [[0.015740256756544113, -0.07990658283233643, -0.042807772755622864], [0.03573371097445488, -0.030077319592237473, -0.06895288825035095], [0.07709214091300964, -0.0015756554203107953, -0.08018361032009125]], [[0.08149953931570053, 0.01122310385107994, -0.05109039321541786], [-0.029391096904873848, 0.07113760709762573, -0.059842802584171295], [0.020790454000234604, -0.005468823481351137, 0.06105983629822731]], [[0.04929206520318985, 0.015622270293533802, -0.07345887273550034], [0.06474760174751282, 0.07088517397642136, -0.052510377019643784], [0.004274449776858091, -0.04568324238061905, -0.07623382657766342]], [[0.06722689419984818, -0.04187483713030815, 0.05177818238735199], [0.019011985510587692, -0.06346289813518524, 0.07216265052556992], [0.00343776261433959, -0.004209050443023443, 0.03761342912912369]], [[0.018070796504616737, 0.08061695098876953, -0.08244814723730087], [0.07433047890663147, 0.019984226673841476, 0.019772781059145927], [-0.05473509430885315, -0.06996285170316696, 0.02412456087768078]], [[-0.0042623779736459255, -0.01819556951522827, -0.03806667774915695], [0.02787773869931698, -0.03972317650914192, 0.007369723636657], [0.07969637960195541, 0.03014715574681759, 0.07296022027730942]], [[0.021491093561053276, -0.0405016727745533, -0.045905016362667084], [-0.06474045664072037, 0.037825584411621094, 0.05294983461499214], [-0.04415944591164589, -0.051666002720594406, -0.0832558199763298]], [[0.03601057082414627, -0.006633520592004061, 0.016361843794584274], [-0.03613754361867905, 0.05953344330191612, -0.0009050796506926417], [-0.011715305037796497, 0.06986168771982193, 0.035768214613199234]], [[-0.06581025570631027, 0.01596294716000557, 0.041681356728076935], [0.017639262601733208, 0.002349834656342864, -0.0665736198425293], [0.0629059448838234, 0.023571770638227463, 0.08059047162532806]], [[-0.06470469385385513, -0.07541237026453018, -0.021803725510835648], [-0.011817974969744682, -0.022928301244974136, -0.010251080617308617], [-0.048956722021102905, 0.03329460322856903, -0.006241511553525925]]], [[[0.08137643337249756, 0.05867321789264679, -0.014084958471357822], [-0.07695899158716202, 0.06386275589466095, 0.023956451565027237], [0.07267627865076065, -0.027936328202486038, -0.013270135037600994]], [[0.009236217476427555, 0.07214861363172531, -0.05856731906533241], [0.041118115186691284, -0.05224122107028961, -0.00530235143378377], [-0.04711027070879936, -0.02929157018661499, 0.06385484337806702]], [[0.06522409617900848, -0.04596305266022682, -0.07928819209337234], [-0.06287132203578949, 0.04960067570209503, -0.009618573822081089], [0.01826464757323265, 0.026112308725714684, -0.00927941408008337]], [[0.0033603436313569546, -0.03577040880918503, 0.012158619239926338], [-0.06981150805950165, -0.04889591038227081, 0.026114748790860176], [0.011726222932338715, 0.0784987136721611, -0.011128203943371773]], [[-0.0025361422449350357, 0.07012075930833817, 0.0027293749153614044], [-0.054103076457977295, 0.005817441735416651, -0.07543197274208069], [0.055125102400779724, 0.044143423438072205, 0.040463536977767944]], [[0.0670686662197113, 0.011413615196943283, 0.004470957908779383], [0.027587847784161568, -0.05530336871743202, -0.07456786930561066], [0.01459899079054594, 0.04214925691485405, -0.06947015970945358]], [[-0.03396838158369064, -0.07912572473287582, -0.054180726408958435], [0.041985753923654556, -8.446170249953866e-05, -0.01350498478859663], [0.020304949954152107, 0.06485012918710709, 0.0446985587477684]], [[0.024854198098182678, 0.017764326184988022, -0.07427483052015305], [-0.06668181717395782, -0.03558249771595001, -0.045676518231630325], [0.035508278757333755, 0.029036609455943108, 0.07889910042285919]], [[-0.026208624243736267, 0.04866988956928253, 0.047758109867572784], [0.03244361653923988, 0.08271721005439758, -0.011519941501319408], [0.027291152626276016, 0.019490286707878113, -0.04861558601260185]], [[0.06243748217821121, -0.06808027625083923, 0.06588287651538849], [0.02295362390577793, 0.03280365839600563, 0.04664042592048645], [0.019387366250157356, -0.023660657927393913, 0.04311063513159752]], [[-0.06551001220941544, -0.05533989146351814, 0.07614518702030182], [0.029648512601852417, -0.07759667187929153, -0.04406796395778656], [0.0652293786406517, -0.016468292102217674, 0.06176675111055374]], [[-0.04880975931882858, 0.017307480797171593, 0.028998076915740967], [-0.03070734813809395, -0.0413934551179409, -0.03432302922010422], [0.07611530274152756, -0.04211464524269104, 0.044202517718076706]], [[-0.05376546084880829, 0.031938258558511734, -0.0488182008266449], [0.04134624823927879, -0.002565991599112749, 0.06987296044826508], [0.07632248848676682, 0.01968187466263771, -0.01891668513417244]], [[0.023589037358760834, -0.033917564898729324, -0.042372267693281174], [0.0636235848069191, 0.056153200566768646, 0.03604093939065933], [-0.05295955017209053, 0.02477880008518696, 0.01638277992606163]], [[-0.015245828777551651, -0.07239395380020142, 0.010737815871834755], [-0.056541163474321365, -0.06554694473743439, -0.06067126989364624], [0.031103074550628662, 0.0460602268576622, -0.0016693134093657136]], [[0.04770346358418465, -0.0828174352645874, 0.02605629339814186], [-0.018404705449938774, -0.017478223890066147, -0.05910962447524071], [0.05526798218488693, 0.04344742000102997, 0.054447632282972336]]], [[[0.07851731777191162, 0.06993532925844193, 0.06072814762592316], [0.07203274965286255, -0.010193966329097748, 0.07898754626512527], [0.07408183068037033, -0.05347698554396629, 0.07145456969738007]], [[-0.0793594941496849, -0.058258846402168274, -0.059253986924886703], [0.044512711465358734, 0.004691086709499359, -0.04487746208906174], [0.023515116423368454, -0.027926862239837646, -0.018549276515841484]], [[-0.07823514938354492, 0.029599472880363464, 0.07816165685653687], [-0.019016053527593613, -0.06651119142770767, 0.03377297520637512], [-0.07501452416181564, 0.07111416012048721, 0.02514345943927765]], [[0.050396040081977844, -0.08171698451042175, 0.03701362386345863], [-0.01716388575732708, -0.04941214621067047, -0.03199148550629616], [-0.002009127289056778, -0.001553040579892695, 0.018776515498757362]], [[0.018526772037148476, -0.014273800887167454, -0.0634935274720192], [-0.05065048858523369, 0.008774920366704464, 0.04289853200316429], [-0.06320596486330032, -0.0631861612200737, -0.06937675178050995]], [[-0.03883563354611397, 0.04834642633795738, 0.0338742733001709], [0.06095807999372482, 0.005299931392073631, 0.04328761622309685], [0.010165821760892868, 0.05264465883374214, 0.003181775100529194]], [[0.0020975011866539717, -0.05941842868924141, 0.06870677322149277], [0.00357866776175797, 0.057515449821949005, -0.03294918313622475], [0.02243286371231079, 0.03215374797582626, 0.03033427707850933]], [[-0.06729183346033096, 0.04507239907979965, -0.003565342165529728], [-0.0201518964022398, -0.02250751666724682, -0.059288594871759415], [-0.005303938873112202, -0.015569418668746948, 0.053156085312366486]], [[0.07625769078731537, 0.06093848869204521, -0.05382674187421799], [-0.005615803878754377, 0.03226998820900917, -0.08120272308588028], [-0.07498423010110855, -0.030848562717437744, 0.02753451280295849]], [[-0.05885731428861618, 0.006778909359127283, 0.04749249294400215], [0.055799126625061035, -0.00026522480766288936, 0.07789182662963867], [-0.04971649497747421, -0.0786144807934761, -0.0379507839679718]], [[-0.03667057678103447, 0.05379829555749893, 0.008019430562853813], [0.06759842485189438, 0.05546106770634651, 0.07268775999546051], [-0.029667235910892487, 0.06802064180374146, 0.041064053773880005]], [[-0.04208382964134216, 0.07827334105968475, -0.03817171975970268], [0.019312145188450813, 0.07438037544488907, -0.03321847692131996], [0.05519496649503708, 0.025708874687552452, 0.07111573219299316]], [[-0.03240341320633888, -0.06601116806268692, 0.06336476653814316], [-0.06984265893697739, -0.03349817916750908, -0.00016976929327938706], [-0.07819191366434097, -0.008474566973745823, 0.045866671949625015]], [[0.03167564049363136, -0.034781672060489655, -0.0555257722735405], [-0.06836904585361481, -0.012724519707262516, -0.007586467079818249], [0.0267348475754261, 0.05099496245384216, -0.07460565119981766]], [[-0.004016464576125145, 0.055885571986436844, -0.03687267377972603], [0.06735869497060776, 0.047351133078336716, 0.01756627857685089], [-0.0564553402364254, 0.010078994557261467, -0.011016728356480598]], [[0.01343874167650938, -0.0006965059437789023, 0.03975929692387581], [-0.07727529108524323, -0.06181503087282181, 0.0036834734492003918], [0.027598245069384575, 0.020713575184345245, 0.0649833083152771]]], [[[0.07375133782625198, -0.06184476986527443, 0.0101290512830019], [0.04332670941948891, -0.07180683314800262, 0.029164958745241165], [-0.061437904834747314, -0.012956212274730206, 0.026256810873746872]], [[-0.02724897302687168, -0.04576702415943146, 0.0815286636352539], [0.023254092782735825, -0.08321407437324524, -0.06298502534627914], [-0.014708873815834522, -0.042279791086912155, -0.07823478430509567]], [[0.07218478620052338, -0.0203142948448658, 0.04566856473684311], [0.010844956152141094, -0.025081807747483253, -0.06580853462219238], [0.0385243222117424, -0.04958869144320488, 0.07720361649990082]], [[-0.08210266381502151, 0.08279445022344589, -0.06326562166213989], [-0.03207225352525711, -0.01685383729636669, -0.05902426317334175], [-0.003901165211573243, -0.019793037325143814, 0.06661644577980042]], [[0.08271246403455734, 0.004318907391279936, -0.024503163993358612], [-0.02072017639875412, -0.042452987283468246, 0.06611411273479462], [0.02975577488541603, -0.0019139255164191127, 0.07407848536968231]], [[0.001636468106880784, 0.051301389932632446, 0.05574717000126839], [-0.029646161943674088, -0.06132962927222252, 0.04371144622564316], [-0.05868453159928322, -0.05367845669388771, 0.030713394284248352]], [[0.04376119747757912, -0.08119861036539078, 0.07211422920227051], [-0.047797370702028275, 0.044880859553813934, 0.005769697483628988], [0.014711355790495872, -0.04452848806977272, -0.04461030289530754]], [[0.0256876852363348, -0.047779448330402374, -0.06260297447443008], [-0.021087240427732468, 0.055550605058670044, -0.020710423588752747], [-0.03143487125635147, 0.01520621869713068, 0.05455559864640236]], [[0.017394188791513443, -0.0417979434132576, -0.051912449300289154], [-0.007937992922961712, -0.06548091769218445, 0.04489957168698311], [0.03583741560578346, -0.06422823667526245, -0.06245627999305725]], [[-0.01600213535130024, 0.008033562451601028, -0.00012547214282676578], [-0.06044723093509674, 0.04556931182742119, 0.060209229588508606], [0.04467416927218437, 0.06267078965902328, 0.03148409724235535]], [[-0.07167624682188034, -0.04413926228880882, -0.05386423319578171], [0.06688284128904343, -0.08087662607431412, 0.015619117766618729], [-0.01250134315341711, 0.048782240599393845, 0.03210831433534622]], [[-0.03083210252225399, -0.01726575754582882, 0.0041649541817605495], [0.08112411946058273, -0.0007432997226715088, -0.03766989707946777], [-0.014234870672225952, 0.0003945728240069002, -0.00188484787940979]], [[0.06896963715553284, 0.04152385890483856, 0.06517183035612106], [-0.06400350481271744, -0.002450288040563464, 0.06168471649289131], [0.08208239078521729, -0.06858006864786148, -0.008418123237788677]], [[0.06418228149414062, -0.04616193845868111, -0.08217289298772812], [-0.07724358141422272, 0.01948498748242855, -0.0636095404624939], [-0.01551385410130024, 0.0021667350083589554, 0.046795107424259186]], [[-0.049710631370544434, -0.020266462117433548, 0.019761083647608757], [-0.02784583903849125, 0.08194178342819214, -0.026796290650963783], [0.07185869663953781, -0.04814141243696213, -0.0644647628068924]], [[0.05903809517621994, 0.008143923245370388, -0.03027370199561119], [-0.06687626987695694, -0.021918723359704018, 0.049628328531980515], [-0.0791420266032219, -0.006195772904902697, 0.0706758052110672]]], [[[-0.016182053834199905, -0.01579979620873928, -0.06092577427625656], [-0.05700349807739258, -0.08006294816732407, -0.06730569899082184], [0.0625034049153328, -0.0717998817563057, 0.07887406647205353]], [[0.07690641283988953, -0.01806984655559063, 0.04279738664627075], [0.0017982225399464369, -0.007400622125715017, -0.05690736696124077], [-0.06426967680454254, 0.0616467110812664, 0.056751251220703125]], [[-0.037187132984399796, -0.022716868668794632, -0.011539117433130741], [0.06853219866752625, 0.034085605293512344, -0.05046449601650238], [0.009156113490462303, -0.06084325909614563, -0.05979073420166969]], [[-0.05863460525870323, 0.04307376965880394, 0.036993786692619324], [-0.007547968532890081, 0.033889081329107285, -0.07939707487821579], [-0.0568733885884285, -0.04278380051255226, -0.06124817207455635]], [[-0.05852719396352768, -0.013003170490264893, -0.07125189155340195], [-0.0440879762172699, -0.021240830421447754, 0.08325967192649841], [-0.0512239933013916, -0.009676496498286724, -0.017535915598273277]], [[-0.054277729243040085, -0.04789043590426445, 0.03704150766134262], [0.07800935208797455, -0.029490381479263306, 0.047783300280570984], [-0.050511401146650314, -0.00984445121139288, -0.007639509160071611]], [[0.0666474848985672, 0.06695907562971115, -0.06918393820524216], [0.008317279629409313, 0.034926749765872955, 0.062243085354566574], [-0.006937594618648291, -0.06678402423858643, 0.05225331708788872]], [[-0.07797715812921524, -0.015685196965932846, -0.01549923699349165], [0.04684601351618767, 0.06330940127372742, -0.023400194942951202], [0.031177029013633728, 0.03619745001196861, 0.02701934054493904]], [[0.033768460154533386, 0.0632883831858635, -0.06500265002250671], [0.0031357668340206146, -0.07785499095916748, -0.0678367018699646], [-0.036046527326107025, -0.03858655318617821, -0.03518453612923622]], [[0.03409454971551895, -0.030291171744465828, -0.002175628673285246], [0.01744447462260723, 0.047193560749292374, 0.005877517629414797], [0.072386234998703, -0.002685111714527011, -0.05516001209616661]], [[0.03709520027041435, 0.039472054690122604, 0.07914625853300095], [-0.010358115658164024, 0.05189305543899536, 0.007526954170316458], [0.0725158154964447, 0.01956447958946228, 0.08328380435705185]], [[-0.061524540185928345, 0.007459362503141165, -0.018186133354902267], [0.000183512776857242, 0.03696703910827637, 0.010828743688762188], [-0.04654023051261902, 0.05043327808380127, 0.025137832388281822]], [[0.07270380109548569, 0.07769400626420975, -0.07990110665559769], [0.03599086031317711, 0.021573087200522423, -0.05285592004656792], [0.053618766367435455, 0.031382858753204346, -0.060300759971141815]], [[0.04162880405783653, 0.06450812518596649, 0.044753871858119965], [0.03874446824193001, -0.04769940301775932, -0.053479816764593124], [-0.01985073834657669, 0.056307531893253326, -0.060083143413066864]], [[-0.031344443559646606, -0.029254287481307983, -0.010693937540054321], [-0.0602693073451519, -0.05367235094308853, -0.04620908945798874], [-0.03837071731686592, -0.026922687888145447, -0.0521964468061924]], [[0.02893546223640442, -0.028102438896894455, 0.02497776411473751], [-0.0033684854861348867, -0.08331915736198425, -0.04252709075808525], [-0.07583978027105331, -0.026896163821220398, -0.014742291532456875]]], [[[-0.08354000002145767, 0.03790578618645668, -0.06174015626311302], [0.055539414286613464, 0.07085961103439331, -0.021272584795951843], [-0.014300570823252201, -0.06861384958028793, -0.009697267785668373]], [[-0.06229850649833679, -0.08096069097518921, 0.034020353108644485], [0.009699252434074879, -0.053919415920972824, -0.0183121170848608], [-0.034949176013469696, 0.010843299329280853, 0.030406147241592407]], [[0.04318927600979805, 0.07051923871040344, -0.0694834440946579], [-0.053784552961587906, -0.0425841324031353, -0.07856899499893188], [0.04410877451300621, 0.06530449539422989, 0.0024348224978893995]], [[0.06423401832580566, -0.0102754607796669, 0.0012514041736721992], [0.04308588057756424, 0.07801930606365204, 0.0036118284333497286], [0.03332379087805748, -0.008761533536016941, -0.0017804327653720975]], [[-0.06547977030277252, 0.016420496627688408, -0.05516853928565979], [0.01903311349451542, 0.008348286151885986, 0.011255033314228058], [0.0651848316192627, 0.05741529166698456, -0.009913529269397259]], [[-0.07701816409826279, 0.04284380376338959, 0.033429522067308426], [-0.06571358442306519, 0.04962588846683502, -0.04003625363111496], [-0.03844433277845383, 0.014966023154556751, -0.031176574528217316]], [[0.05308748781681061, 0.061196330934762955, 0.012462257407605648], [0.00812376569956541, 0.030090520158410072, -0.051271818578243256], [0.052620287984609604, 0.05004711449146271, 0.00900897104293108]], [[-0.014492484740912914, -0.037267815321683884, -0.05751378834247589], [0.06022133678197861, -0.07715893536806107, -0.042754318565130234], [0.0605747252702713, 0.001976730301976204, 0.07508105039596558]], [[0.013056062161922455, -0.005002384074032307, 0.0538707859814167], [0.07065266370773315, -0.07343307137489319, 0.018688788637518883], [-0.038956597447395325, -0.019784586504101753, -0.003954101819545031]], [[0.046131301671266556, -0.026823032647371292, 0.06343121826648712], [-0.07059865444898605, -0.0424506701529026, 0.03758126497268677], [0.029012905433773994, 0.06789132207632065, -0.04265129938721657]], [[0.07249823212623596, -0.004389721900224686, -0.01065179705619812], [-0.07225910574197769, 0.05464015156030655, -0.05897871404886246], [-0.0037863359320908785, -0.08333127945661545, -0.04633580520749092]], [[0.056861989200115204, 0.02304413914680481, 0.041007064282894135], [-0.018195081502199173, -0.006396573502570391, -0.06686636805534363], [-0.026455283164978027, -0.04991620033979416, 0.051899366080760956]], [[-0.042573921382427216, 0.057878632098436356, 0.030057206749916077], [-0.05878197401762009, 0.03540932014584541, -0.0030445847660303116], [0.043761759996414185, -0.07643529027700424, -0.023907462134957314]], [[-0.03423023968935013, 0.024871157482266426, 0.04590592905879021], [-0.06389410048723221, -0.05641649290919304, -0.06156453490257263], [0.034453023225069046, 0.03466939553618431, -0.031303733587265015]], [[0.024338966235518456, -0.08222030103206635, 0.016906622797250748], [0.0696210265159607, -0.003279532305896282, -0.025557145476341248], [-0.05749491602182388, -0.06006624549627304, 0.03492424264550209]], [[-0.054930657148361206, 0.03546646237373352, 0.02638472430408001], [-0.043932657688856125, -0.038994502276182175, -0.0452890545129776], [0.026524526998400688, -0.007412157952785492, -0.042815688997507095]]], [[[-0.009558041580021381, -0.009231922216713428, -0.08179821819067001], [-0.0023819380439817905, -0.07559086382389069, 0.037644434720277786], [0.05482429265975952, 0.04854123666882515, -0.013897893019020557]], [[-0.024171268567442894, 0.023831333965063095, -0.00876301247626543], [0.06532825529575348, 0.037969209253787994, -0.02914617583155632], [-0.043535083532333374, 0.06295192986726761, 0.06919220089912415]], [[0.00793000590056181, 0.007070345338433981, -0.03301278501749039], [-0.07540914416313171, -0.02615947462618351, 0.011297996155917645], [-0.036539576947689056, 0.030304117128252983, 0.05257416516542435]], [[0.08258601278066635, -0.03493776172399521, -0.0673578530550003], [-0.07475880533456802, 0.033605583012104034, -0.0827813521027565], [-0.01987028494477272, 0.07795574516057968, -0.06091213971376419]], [[-0.04220544546842575, 0.0027332024183124304, -0.05624700337648392], [-0.004012253135442734, -0.019696079194545746, 0.016175715252757072], [-0.03664705157279968, 0.03937871754169464, -0.03529374673962593]], [[0.021308323368430138, 0.07956486940383911, 0.06434966623783112], [0.04822443798184395, 0.021728964522480965, -0.015389828942716122], [0.030862445011734962, -0.024177327752113342, -0.08140646666288376]], [[-0.030589712783694267, -0.06642205268144608, -0.07570304721593857], [0.06615501642227173, 0.030356936156749725, 0.03592284396290779], [0.043677184730768204, 0.07160945236682892, 0.019894134253263474]], [[0.0144743537530303, 0.01781725324690342, 0.03875156119465828], [-0.024971742182970047, 0.07214556634426117, -0.03412369638681412], [-0.07060733437538147, -0.010603247210383415, 0.06642264127731323]], [[-0.045420389622449875, -0.023351522162556648, -0.014287656173110008], [0.08064908534288406, 0.01699106954038143, 0.008429987356066704], [-0.0712168887257576, 0.01676543429493904, 0.06776163727045059]], [[0.037744831293821335, 0.026676204055547714, -0.02248377352952957], [0.010367108508944511, -0.06451676785945892, 0.03388267382979393], [0.0714571624994278, -0.026891525834798813, 0.07891840487718582]], [[-0.04908529296517372, 0.06303202360868454, 0.05808829888701439], [0.03164450451731682, -0.0744033083319664, 0.0598895289003849], [0.0787452682852745, 0.0031759021803736687, 0.006551539991050959]], [[-0.07907979190349579, 0.02786889672279358, -0.047556012868881226], [0.008841017261147499, 0.022219544276595116, 0.06469713151454926], [0.03590395301580429, 0.0048552751541137695, -0.00010416905570309609]], [[-0.0018719659419730306, -0.05469099059700966, 0.014616674743592739], [-0.06831268966197968, -0.05922453850507736, 0.06843766570091248], [0.060968440026044846, -0.06014833599328995, 0.060306645929813385]], [[0.026530103757977486, 0.01783199980854988, 0.004390441346913576], [0.055161379277706146, 0.04984746873378754, -0.03674469143152237], [0.021505990996956825, 0.04243292659521103, 0.07650115340948105]], [[0.05257388576865196, -0.056600186973810196, -0.05749852955341339], [-0.006236679386347532, -0.01898299530148506, -0.026024609804153442], [-0.04305005073547363, -0.046990200877189636, 0.018947696313261986]], [[0.005818235222250223, 0.024242332205176353, -0.003981056623160839], [0.06871172785758972, -0.06469663977622986, -0.025215180590748787], [0.003490665229037404, -0.049647536128759384, 0.06286256015300751]]], [[[-0.08338522911071777, 0.03248254954814911, 0.06356437504291534], [0.07298693805932999, 0.025875231251120567, 0.00019276402599643916], [0.03590816631913185, -0.007697033695876598, 0.04151516780257225]], [[0.045722752809524536, -0.008869699202477932, 0.07847784459590912], [-0.048164479434490204, 0.05013793334364891, 0.0016663211863487959], [0.04588682949542999, -0.028321344405412674, 0.05684027075767517]], [[0.01720055192708969, 0.01804756000638008, -0.06576516479253769], [-0.008144349791109562, -0.018626714125275612, 0.017857342958450317], [0.07018660753965378, 0.06487048417329788, -0.039503660053014755]], [[0.04324333742260933, 0.06469835340976715, -0.01875198259949684], [-0.0017821388319134712, -0.0209033265709877, 0.007922160439193249], [0.02027115598320961, -0.013837859965860844, -0.061225734651088715]], [[0.009291252121329308, -0.05469528213143349, -0.029413564130663872], [0.0474976971745491, 0.0025033140555024147, 0.08229397237300873], [0.07030028849840164, 0.02505318820476532, 0.023370858281850815]], [[-0.0022931459825485945, -0.06409294903278351, 0.025947406888008118], [-0.019056152552366257, 0.07795760035514832, -0.021117469295859337], [0.02695472352206707, 0.07030194997787476, -0.07639060914516449]], [[0.04519220441579819, -0.04938478395342827, 0.037491291761398315], [0.04942044988274574, -0.05300384759902954, -0.05594475194811821], [-0.016073577105998993, -0.04478440806269646, -0.07578877359628677]], [[0.023745864629745483, 0.07222121208906174, 0.005977681837975979], [0.02877369523048401, 0.03896768391132355, 0.033341530710458755], [-0.07309079170227051, -0.0031582589726895094, -0.022443393245339394]], [[-0.014504488557577133, 0.071013905107975, 0.0023024193942546844], [-0.051880642771720886, 0.05453009903430939, 0.017026366665959358], [-0.06240307539701462, 0.008023231290280819, -0.0027968024369329214]], [[-0.05169610679149628, 0.06629543751478195, -0.02354235202074051], [-0.022307682782411575, 0.06487549096345901, 0.07029148191213608], [0.07755635678768158, 0.0359308086335659, 0.04034676402807236]], [[-0.04137956723570824, -0.020615028217434883, 0.045702654868364334], [-0.04324991628527641, 0.07334741204977036, 0.06768358498811722], [-0.04237319529056549, 0.05263490229845047, -0.040526263415813446]], [[-0.07080501317977905, 0.049339376389980316, -0.07463931292295456], [-0.07167559862136841, -0.01854778826236725, 0.06102999299764633], [-0.07950964570045471, 0.06485635042190552, -0.07728295773267746]], [[-0.011888724751770496, 0.00652034766972065, 0.013878541067242622], [-0.06818393617868423, -0.07175856083631516, -0.017483115196228027], [0.003583467798307538, -0.030346756801009178, 0.04229971021413803]], [[0.07920418679714203, -0.08042167872190475, 0.05092066153883934], [-0.06210404261946678, -0.04103107005357742, 0.06864505261182785], [0.07803225517272949, 0.012120502069592476, -0.07634641975164413]], [[-0.019900206476449966, 0.014187808148562908, 0.052038319408893585], [-0.03607681021094322, 0.07767602801322937, -0.015273284167051315], [-0.05642497539520264, 0.028991099447011948, -0.07222732901573181]], [[-0.038614921271800995, -0.06976793706417084, -0.003520842408761382], [0.019760478287935257, 0.017748108133673668, 0.05624493584036827], [0.014276946894824505, 0.055404990911483765, 0.05640248954296112]]], [[[-0.05205973982810974, -0.05986056849360466, 0.08171588182449341], [-0.0783020555973053, 0.023237884044647217, -0.040081124752759933], [-0.0549909770488739, -0.0004909634590148926, -0.0678660199046135]], [[-0.018070369958877563, 0.03943241760134697, -0.019639333710074425], [0.05641242116689682, -0.015358726494014263, -0.0026502213440835476], [0.05536926910281181, 0.08107386529445648, -0.07175543904304504]], [[-0.0032741129398345947, 0.04541327804327011, -0.018870096653699875], [-0.03215121477842331, -0.0823015421628952, -0.0651845932006836], [0.0049635968171060085, -0.04327882453799248, 0.012670308351516724]], [[-0.057660721242427826, -0.036867789924144745, 0.07491537183523178], [-0.040918461978435516, -0.011758695356547832, 0.06714533269405365], [-0.017453869804739952, -0.015584389679133892, 0.00795746874064207]], [[-0.07968032360076904, -0.02339896559715271, 0.017442863434553146], [0.017171790823340416, 0.03894433379173279, 0.007758279796689749], [-0.05995306372642517, -0.017249098047614098, -0.04083438962697983]], [[0.03634914755821228, -0.013078073970973492, -0.008511116728186607], [0.02421688102185726, 0.05581921339035034, 0.02852834388613701], [0.08264531940221786, 0.01863827370107174, -0.043138884007930756]], [[0.07151313871145248, 0.054508358240127563, 0.07594054937362671], [-0.03814638778567314, 0.016739457845687866, 0.048013798892498016], [-0.03564879298210144, 0.007228126283735037, 0.03511592000722885]], [[-0.019345562905073166, 0.03217242285609245, 0.06354600191116333], [0.003946910612285137, -0.06983452290296555, -0.07571418583393097], [0.06711235642433167, 0.05055287480354309, -0.050376974046230316]], [[0.061955105513334274, 0.006389012094587088, -0.0007800956955179572], [0.04324935004115105, 0.029563268646597862, 0.0500263087451458], [0.006897678133100271, -0.0773867666721344, 0.08143364638090134]], [[0.03871580958366394, -0.04114178940653801, 0.031181424856185913], [-0.04446215555071831, 0.011201620101928711, -0.03038245439529419], [0.07927294075489044, 0.019345413893461227, -0.06660518050193787]], [[-0.034862082451581955, -0.012314091436564922, -0.05187669396400452], [0.02117365598678589, -0.024899324402213097, 0.012853394262492657], [0.05279618501663208, 0.0635889396071434, 0.07925107330083847]], [[0.01302768848836422, 0.015117466449737549, 0.02524346113204956], [0.03979109972715378, -0.08145797252655029, 0.05099403113126755], [0.04095601290464401, -0.06868519634008408, -0.05753428861498833]], [[-0.049966853111982346, 0.04280422255396843, -0.06294728815555573], [0.04734888672828674, 0.02220841310918331, 0.027411412447690964], [-0.01093524694442749, -0.00985358189791441, -0.07516177743673325]], [[-0.03973924368619919, 0.0360313355922699, -0.03456982970237732], [-0.07284805178642273, -0.027207057923078537, 0.04541141912341118], [-0.008531630039215088, -0.08020627498626709, 0.01284613274037838]], [[-0.05411544442176819, 0.02925143763422966, 0.02625383995473385], [-0.06189972162246704, -0.0820835679769516, -0.057662248611450195], [-0.009508660063147545, 0.07684870064258575, -0.07838164269924164]], [[0.04231787845492363, -0.06530524790287018, 0.05520239472389221], [0.07383584976196289, 0.05964972823858261, -0.07316942512989044], [-0.01973050832748413, 0.023440420627593994, -0.03727670758962631]]], [[[-0.06838785111904144, 0.0810895711183548, -0.06372994184494019], [-0.008650858886539936, -0.06889341026544571, -0.022238854318857193], [0.03562088683247566, 0.05948453024029732, -0.06044592335820198]], [[-0.013727874495089054, -0.04750819131731987, -0.009922347962856293], [-0.02008681558072567, 0.06486257165670395, -0.07490794360637665], [0.055347952991724014, -0.08042286336421967, -0.01380846556276083]], [[-0.037499938160181046, 0.001711426884867251, -0.015505220741033554], [-0.038574568927288055, -0.0034439205192029476, 0.02156732603907585], [0.02106061950325966, -0.031731799244880676, -0.03944767266511917]], [[0.03394877910614014, -0.0072086276486516, 0.05640259385108948], [0.029211679473519325, 0.030698290094733238, 0.05771670863032341], [-0.07787926495075226, -0.06298874318599701, 0.017455555498600006]], [[0.00284208613447845, -0.05570133402943611, -0.010745263658463955], [0.07796774804592133, -0.028475428000092506, -0.041758790612220764], [-0.07315292954444885, 0.06264413893222809, 0.03968976065516472]], [[0.014979008585214615, -0.058975521475076675, -0.045418545603752136], [0.06423556804656982, 0.025059303268790245, 0.07683280110359192], [-0.002857536543160677, 0.000824247021228075, 0.002685776213183999]], [[-0.0514318123459816, 0.05525727570056915, -0.06629621982574463], [-0.06933101266622543, 0.009432665072381496, -0.02966565266251564], [0.039529766887426376, 0.07319822907447815, -0.021064728498458862]], [[-0.013021566905081272, 0.07628235220909119, 0.05974692851305008], [0.014022278599441051, 0.058020178228616714, -0.06967005878686905], [0.07622194290161133, -0.045050106942653656, -0.012674172408878803]], [[-0.05146072059869766, 0.022719036787748337, 0.03849446773529053], [-0.02019333653151989, -0.02300400659441948, 0.021556535735726357], [0.027578797191381454, 0.0005750976852141321, 0.07340585440397263]], [[0.04624488949775696, -0.01648954302072525, 0.02036900259554386], [-0.0649280920624733, 0.008427976630628109, -0.0053712595254182816], [0.019081365317106247, -0.05543819069862366, 0.08290264010429382]], [[-0.07355640828609467, 0.047783784568309784, -0.017168983817100525], [0.012170802801847458, 0.08227217197418213, -0.07832130789756775], [0.02267020009458065, -0.07773774862289429, 0.01513697486370802]], [[0.035391777753829956, 0.05064506456255913, -0.030716609209775925], [-0.0017756124725565314, 0.030315926298499107, 0.07401718199253082], [0.0499492809176445, -0.047796547412872314, 0.04864642024040222]], [[-0.07061267644166946, 0.025622177869081497, 0.00869368202984333], [0.021820571273565292, -0.05211368575692177, -0.01759667880833149], [-0.023530898615717888, 0.020819585770368576, 0.08206115663051605]], [[0.05321728065609932, 0.016357993707060814, -0.057377975434064865], [-0.02641696110367775, -0.05869409069418907, 0.06847595423460007], [-0.020420143380761147, -0.02530043199658394, 0.0446435771882534]], [[-0.08209352940320969, 0.03205293044447899, -0.05684492737054825], [-0.01381975132972002, -0.05300135537981987, -0.07873108237981796], [-0.010094083845615387, -0.05368997901678085, -0.030784856528043747]], [[-0.06062198057770729, -0.06549175828695297, 0.023394722491502762], [-0.028903299942612648, 0.06430583447217941, -0.05514569208025932], [0.08332216739654541, 0.06972341239452362, 0.037882402539253235]]]], "encoder.6.bias": [-0.0052348836325109005, -0.02000558003783226, 0.07115311920642853, 0.03764045983552933, -0.07783889025449753, 0.004546251613646746, -0.04454239830374718, 0.03264036774635315, 0.06939592212438583, -0.04571816697716713, 0.033319141715765, 0.016988886520266533, -0.051113057881593704, 0.04096196964383125, -0.057468853890895844, -0.006837431341409683], "encoder.8.weight": [[[[0.051016759127378464, 0.06713659316301346, -0.027951182797551155], [-0.032191336154937744, -0.053105033934116364, -0.0046014306135475636], [-0.08305510133504868, 0.025159528478980064, -0.012348148971796036]], [[0.03781019523739815, 0.07547848671674728, 0.06212858855724335], [0.011728467419743538, 0.07077071070671082, -0.020511679351329803], [-0.008653678931295872, -0.07466508448123932, -0.04678507521748543]], [[-0.03603565692901611, 0.07700055092573166, 0.030222268775105476], [-0.0600409172475338, 0.01796354539692402, -0.06432400643825531], [0.050419002771377563, -0.07984395325183868, 0.005104515235871077]], [[0.004390254151076078, -0.04947863519191742, -0.07063604891300201], [0.0033568348735570908, 0.0580504946410656, -0.0036973755341023207], [0.017595279961824417, -0.013090625405311584, 0.07857415080070496]], [[0.06031249091029167, -0.016711529344320297, -0.07983584702014923], [-0.07754001021385193, 0.07655012607574463, -0.04377036541700363], [-0.02988564595580101, -0.06322019547224045, 0.046754635870456696]], [[0.004432494752109051, 0.07858466356992722, -0.030824990943074226], [-0.0760297104716301, 0.03455095365643501, -0.0814891830086708], [-0.006649824790656567, 0.003384741023182869, -0.04036174342036247]], [[0.05099216848611832, -0.07481671869754791, -0.05994783341884613], [-0.04038974270224571, 0.06326283514499664, 0.014610319398343563], [0.013139475136995316, -0.052341144531965256, 0.06397861987352371]], [[0.03404818847775459, -0.04588190093636513, -0.0469093918800354], [-0.07564143091440201, 0.06471531838178635, 0.05588501691818237], [-0.07985040545463562, -0.022015037015080452, 0.03797158598899841]], [[0.07013005018234253, 0.06475487351417542, -0.0591227225959301], [0.07846774905920029, 0.006748836953192949, -0.05739959701895714], [-0.07161381840705872, 0.02465211972594261, -0.0734400674700737]], [[0.07518310099840164, 0.07879241555929184, -0.006656447891145945], [0.045576855540275574, 0.043046124279499054, -0.040296103805303574], [-0.08273008465766907, 0.04768287017941475, -0.01121225580573082]], [[-0.05697334557771683, 0.029678791761398315, 0.004822857212275267], [-0.04032531753182411, -0.060168709605932236, -0.01893940195441246], [-0.03337373211979866, -0.009298896417021751, 0.010696332901716232]], [[0.0659824088215828, 0.019286097958683968, 0.053035955876111984], [-0.03113705851137638, 0.025127269327640533, 0.04583275690674782], [-0.049602679908275604, 0.013650796376168728, -0.005510925780981779]], [[-0.06220350041985512, -0.07807054370641708, -0.03903239965438843], [-0.06983152776956558, 0.007290617097169161, -0.045711811631917953], [0.06730742752552032, 0.03542099520564079, 0.026112550869584084]], [[0.0338820144534111, 0.004858705215156078, 0.05004706606268883], [0.039952147752046585, 0.03669405356049538, -0.07408861070871353], [-0.03129056096076965, -0.010784269310534, -0.0827191099524498]], [[0.009860674850642681, 0.007281969301402569, 0.02219352126121521], [0.0388803705573082, -0.02204573154449463, -0.07376247644424438], [-0.04918330907821655, 0.024004241451621056, -0.07439824938774109]], [[-0.07489152997732162, -0.0024016231764107943, -0.0035287432838231325], [0.08235766738653183, -0.02021801844239235, -0.08197721838951111], [-0.018822431564331055, 0.08315026760101318, 0.02082669734954834]]], [[[0.047617655247449875, 0.07569971680641174, 0.008099480532109737], [-0.03356872498989105, 0.05949406698346138, -0.0673389583826065], [0.0645107701420784, 0.012689427472651005, 0.04182059317827225]], [[-0.06388334929943085, -0.07359613478183746, 0.019718827679753304], [-0.05497017875313759, 0.02202829159796238, 0.0460471585392952], [0.0019565082620829344, -0.08200377970933914, -0.05606842786073685]], [[0.08056013286113739, 0.01761445589363575, 0.04212098941206932], [-0.04230711981654167, 0.06227312982082367, 0.05194355174899101], [0.07334314286708832, -0.050133027136325836, 0.010672223754227161]], [[-0.022189311683177948, 0.03769573196768761, 0.04856368899345398], [0.003780449740588665, -0.056041307747364044, 0.011136242188513279], [0.05862181633710861, -0.07386414706707001, -0.028218260034918785]], [[-0.07237167656421661, 0.07405517995357513, -0.020217064768075943], [0.02180563285946846, 0.03405953571200371, -0.03611971437931061], [-0.036185331642627716, 0.060442063957452774, -0.035588935017585754]], [[-0.07922075688838959, 0.008809064514935017, -0.029987003654241562], [-0.03917470574378967, -0.04643239080905914, 0.041382648050785065], [0.014943117275834084, -0.0048174685798585415, -0.027316732332110405]], [[0.057288333773612976, 0.021482113748788834, 0.05074445158243179], [-0.013545203022658825, -0.022359101101756096, 0.046917058527469635], [-0.05936636030673981, 0.050316233187913895, -0.05182338505983353]], [[0.007454223465174437, 0.06735121458768845, -0.0251491516828537], [-0.052689142525196075, 0.07503870874643326, 0.055334191769361496], [0.0415714755654335, -0.030772818252444267, -0.018568821251392365]], [[0.01929006539285183, 0.0005320845521055162, -0.01415667962282896], [-0.06823741644620895, -0.06075863540172577, 0.053478412330150604], [0.036773715168237686, 0.060761112719774246, -0.03173862397670746]], [[0.03404393792152405, -0.06572911143302917, -0.02097456529736519], [0.03697238489985466, 0.0741753950715065, -0.06018776074051857], [0.04042411595582962, 0.05664825811982155, 0.03968057036399841]], [[0.05983257293701172, -0.018773656338453293, -0.051820091903209686], [-0.009736057370901108, 0.06780345737934113, 0.030684031546115875], [-0.08074494451284409, 0.03890621289610863, -0.07085998356342316]], [[0.07732713222503662, 0.06454436480998993, 0.04626741260290146], [0.02321045473217964, 