{"encoder.0.weight": [[[[0.2927645444869995, 0.241120383143425, 0.168697789311409], [-0.07549377530813217, 0.2230398803949356, -0.08983637392520905], [-0.1242128312587738, 0.08753519505262375, 0.009516107849776745]]], [[[-0.035470642149448395, 0.26497337222099304, -0.20212134718894958], [-0.2828693687915802, 0.13529719412326813, 0.23796921968460083], [-0.08617392182350159, -0.04312409460544586, 0.238341823220253]]], [[[0.17296366393566132, -0.2494702786207199, -0.24782589077949524], [0.18211990594863892, -0.1421337127685547, -0.04964208975434303], [-0.24065206944942474, 0.2934670150279999, -0.11203497648239136]]], [[[-0.06968411803245544, 0.15480265021324158, 0.0970931351184845], [-0.03476356714963913, 0.06672035157680511, -0.2809046804904938], [-0.16209660470485687, 0.3286385238170624, 0.004870551638305187]]], [[[0.12287726253271103, 0.3170035183429718, -0.045492228120565414], [0.32130104303359985, -0.15552395582199097, 0.1850053071975708], [0.1593552678823471, -0.1128564104437828, 0.08978334814310074]]], [[[0.1464594453573227, 0.3411940336227417, -0.05059250071644783], [-0.2931927442550659, 0.18863187730312347, -0.008903300389647484], [-0.3113195598125458, -0.0032552515622228384, -0.2677322030067444]]], [[[-0.0756571963429451, 0.2154887169599533, -0.08211540430784225], [0.3316560685634613, 0.17544224858283997, 0.051624368876218796], [0.17083784937858582, 0.09444570541381836, -0.002323170891031623]]], [[[-0.3201313316822052, 0.16042397916316986, 0.15771926939487457], [0.05086468905210495, 0.1621459722518921, -0.2575335204601288], [0.031462810933589935, 0.3073861002922058, 0.32821759581565857]]]], "encoder.0.bias": [-0.039373062551021576, 0.09822296351194382, -0.2190893441438675, 0.16111618280410767, 0.10809311270713806, -0.20090606808662415, -0.1485266238451004, 0.23697800934314728], "encoder.2.weight": [[[[0.011536906473338604, -0.002114915521815419, 0.021333498880267143], [-0.10514064133167267, 0.0458366759121418, 0.07505396008491516], [0.08922114968299866, 0.10777973383665085, -0.052466098219156265]], [[-0.025252988561987877, -0.07722769677639008, 0.059893473982810974], [-0.016438912600278854, -0.057713355869054794, 0.07654853910207748], [0.11564820259809494, -0.05752281844615936, 0.10397607833147049]], [[0.0757693275809288, 0.06705144792795181, -0.1042328029870987], [0.05104328319430351, -0.12931743264198303, -0.022054854780435562], [0.10964640974998474, -0.07615404576063156, -0.0074422601610422134]], [[0.07816794514656067, 0.10081101208925247, -0.042280491441488266], [0.083252914249897, 0.05624792352318764, 0.040451228618621826], [-0.07628977298736572, 0.031557150185108185, -0.11460410058498383]], [[-0.045355573296546936, -0.00011018980148946866, 0.047842539846897125], [-0.005086056888103485, 0.08237487822771072, 0.08426547050476074], [-0.013773486018180847, -0.10703931003808975, 0.05208135023713112]], [[-0.07475431263446808, 0.08984288573265076, 0.04746970906853676], [-0.041239701211452484, 0.045416537672281265, 0.0038339595776051283], [0.10103438794612885, 0.07332950085401535, 0.015665244311094284]], [[0.08973123878240585, 0.08047959953546524, -0.035868220031261444], [-0.10628297179937363, -0.010196189396083355, 0.10309604555368423], [0.07251282036304474, -0.04859243333339691, 0.03781205415725708]], [[0.05532093346118927, -0.023362992331385612, -0.0002862685651052743], [-0.046893637627363205, 0.02362709306180477, 0.025205528363585472], [0.05985512211918831, 0.022256862372159958, 0.01038832776248455]]], [[[0.10410135984420776, -0.03666183724999428, -0.0035567833110690117], [0.03989219292998314, -0.014953702688217163, -0.009455080144107342], [-0.00397688802331686, 0.08852200955152512, -0.11718463897705078]], [[-0.049460820853710175, 0.05559343844652176, 0.008872350677847862], [0.018807552754878998, 0.0015619366895407438, 0.0668521597981453], [-0.018491951748728752, -0.07874054461717606, 0.08394996076822281]], [[0.14750933647155762, -0.09009814262390137, 0.016523223370313644], [0.06855128705501556, 0.12243855744600296, 0.051292601972818375], [0.1672189086675644, 0.1584644466638565, -0.12027459591627121]], [[0.06589541584253311, -0.04105793312191963, 0.0339377224445343], [0.06991551071405411, -0.10587755590677261, -0.025649962946772575], [-0.10439510643482208, 0.06930601596832275, 0.03350427746772766]], [[0.029966577887535095, 0.06320249289274216, -0.05484369397163391], [-0.0575297512114048, 0.04605591669678688, 0.07224196195602417], [-0.0998353362083435, -0.01678282767534256, -0.02646760083734989]], [[-0.11664219200611115, 0.1259363889694214, -0.034488849341869354], [0.07377617061138153, 0.10223884880542755, -0.11539039760828018], [0.10387612134218216, 0.016010744497179985, 0.026490142568945885]], [[-0.014712991192936897, 0.034526146948337555, 0.10180786997079849], [-0.09496568143367767, 0.11271326243877411, -0.10851001739501953], [0.07969536632299423, 0.0966581404209137, -0.09107036143541336]], [[-0.058182068169116974, 0.11599858105182648, -0.00594518193975091], [0.0023986848536878824, -0.05529150739312172, 0.05529547482728958], [0.07907038182020187, 0.07836807519197464, -0.058724839240312576]]], [[[-0.06431598216295242, 0.040427278727293015, 0.03352588042616844], [0.06442219018936157, -0.11293898522853851, 0.10351727157831192], [-0.10009045153856277, -0.09111472964286804, 0.10556429624557495]], [[-0.09394766390323639, 0.01495635136961937, 0.05142487958073616], [0.0720435231924057, -0.050833433866500854, 0.11468888819217682], [-0.10046590119600296, 0.009741423651576042, 0.0865027979016304]], [[0.017269236966967583, -0.05585294961929321, 0.004835562314838171], [-0.10809006541967392, 0.009487362578511238, 0.08125501126050949], [-0.15852056443691254, -0.08132916688919067, -0.11623689532279968]], [[0.022900409996509552, 0.04334185644984245, -0.0050017572939395905], [-0.11624698340892792, 0.07868149131536484, -0.018212217837572098], [-0.051135994493961334, 0.1402444988489151, -0.03162074461579323]], [[-0.06122850254178047, -0.07409971952438354, -0.08581923693418503], [0.032324619591236115, 0.009087830781936646, -0.019587773829698563], [-0.02752903290092945, 0.03708432987332344, 0.09669509530067444]], [[-0.06023629382252693, 0.07007189095020294, -0.05944937467575073], [-0.11310059577226639, -0.10690446943044662, -0.10847937315702438], [0.03681330382823944, 0.05116706341505051, -0.04568082466721535]], [[-0.11198779195547104, 0.08676747232675552, -0.044870272278785706], [0.07085008919239044, -0.037087708711624146, 0.04884110763669014], [-0.08835429698228836, -0.09435462951660156, -0.02963845618069172]], [[0.10337565094232559, 0.06666585057973862, 0.02324865572154522], [-0.0548144169151783, -0.057292304933071136, 0.1220199465751648], [-0.06435234844684601, 0.10424990206956863, 0.06079926714301109]]], [[[-0.012002265080809593, -0.026546567678451538, -0.03237086907029152], [0.09927777945995331, -0.11978638917207718, 0.0883968248963356], [0.08716214448213577, 0.10608786344528198, -0.09611231833696365]], [[0.03748514875769615, 0.0802210122346878, -0.03291351720690727], [-0.014529455453157425, 0.09312840551137924, -0.06762825697660446], [0.07283242791891098, -0.08691338449716568, 0.11469660699367523]], [[0.05176016688346863, 0.1535194367170334, 0.1280793994665146], [0.1711168885231018, 0.16831248998641968, -0.019992046058177948], [0.06474098563194275, -0.08390164375305176, -0.00010046268289443105]], [[0.10100018233060837, 0.001965622417628765, -0.08949652314186096], [0.01760180853307247, -0.06725599616765976, -0.08515328913927078], [-0.09348595887422562, 0.007185790222138166, -0.10997404158115387]], [[-0.05197950825095177, 0.10999391227960587, -0.03703433275222778], [-0.040763791650533676, -0.07713501155376434, 0.10004740208387375], [-0.11451609432697296, 0.09872452914714813, 0.03818358853459358]], [[0.01003243401646614, -0.07947734743356705, 0.031948838382959366], [-0.06472377479076385, 0.07642239332199097, 0.025077490136027336], [0.007478454615920782, 0.03122405707836151, -0.030244389548897743]], [[-0.09390168637037277, -0.08897577226161957, -0.0835043266415596], [-0.0010542355012148619, 0.11552160233259201, 0.0609276257455349], [-0.08402512967586517, 0.038979124277830124, 0.08048727363348007]], [[0.0011884005507454276, 0.057864606380462646, 0.11065062880516052], [-0.012717720121145248, 0.05289577692747116, -0.046326976269483566], [-0.11904144287109375, 0.02380642294883728, 0.035703420639038086]]], [[[0.07616136223077774, -0.038120001554489136, 0.07537951320409775], [0.03337201103568077, -0.008346369490027428, 0.08069165796041489], [-0.09258383512496948, 0.03159567341208458, -0.05747644230723381]], [[0.05441047623753548, -0.04448407143354416, -0.08062075823545456], [-0.04931982606649399, 0.0922938734292984, 0.03813960775732994], [0.03165265917778015, 0.048297010362148285, -0.06969869881868362]], [[-0.01509852334856987, 0.08521532267332077, -0.1113777682185173], [-0.049708910286426544, 0.018067097291350365, 0.037919171154499054], [-0.12452144175767899, 0.08240752667188644, -0.0461740717291832]], [[-0.0123252859339118, 0.08501767367124557, 0.049858737736940384], [-0.06376621872186661, -0.023937346413731575, 0.0075149331241846085], [-0.0056824469938874245, 0.09024883061647415, 0.08935725688934326]], [[0.04377776011824608, 0.11486518383026123, -0.07470471411943436], [0.11141207814216614, -0.051185619086027145, -0.06734360754489899], [0.0621185339987278, 0.003249886678531766, -0.113577701151371]], [[-0.07436031103134155, 0.06266454607248306, -0.15229152143001556], [0.06928665190935135, 0.09056588262319565, 0.07984387129545212], [-0.03459194675087929, -0.18857137858867645, 0.0660310611128807]], [[0.06567585468292236, -0.10554972290992737, 0.03713199123740196], [-0.03694308176636696, 0.015799419954419136, -0.014475615695118904], [-0.04904159530997276, -0.11990682035684586, -0.025247562676668167]], [[0.03666536509990692, 0.010181239806115627, -0.039338238537311554], [-0.08817693591117859, -0.08908214420080185, -0.11876224726438522], [0.027312951162457466, 0.10475707799196243, -0.005420528817921877]]], [[[0.09577374905347824, 0.014644009992480278, 0.01655842363834381], [-0.05932553485035896, 0.07958108931779861, -0.1010170429944992], [-0.04046809300780296, 0.06178867071866989, -0.06935176998376846]], [[-0.1097722128033638, 0.05191034451127052, 0.054392073303461075], [-0.09812041372060776, 0.0115762148052454, -0.0659622997045517], [-0.013309884816408157, 0.007899348624050617, 0.045929305255413055]], [[-0.04044168442487717, 0.003469472285360098, 0.09373889863491058], [0.04095080494880676, 0.06374501436948776, -0.11381540447473526], [-0.1093849241733551, -0.07737374305725098, -0.0077902828343212605]], [[0.0151311494410038, 0.06881231814622879, 0.09804736822843552], [-0.06329093128442764, -0.07187226414680481, -0.02771065942943096], [0.023815186694264412, 0.09028923511505127, 0.05930390954017639]], [[0.012926612980663776, -0.09198183566331863, -0.03539099544286728], [0.1082543134689331, -0.11128602176904678, 0.022986311465501785], [-0.09090184420347214, -0.10046350210905075, 0.08824244886636734]], [[0.05599658191204071, 0.05971704050898552, -0.031220056116580963], [-0.02661811001598835, 0.01707421988248825, -0.1137407198548317], [0.053236160427331924, 0.10180722177028656, -0.011705093085765839]], [[-0.04451534152030945, -0.06310001760721207, -0.12139520049095154], [-0.10309725999832153, 0.0665213018655777, 0.039059460163116455], [-0.08006990700960159, 0.10516449809074402, -0.11809945106506348]], [[0.08486445248126984, -0.06722228974103928, -0.01823239028453827], [0.10991009324789047, -0.011293154209852219, -0.08054442703723907], [0.05306646600365639, 0.003498433157801628, -0.04973846673965454]]], [[[0.0035850771237164736, 0.00022414907289203256, -0.039358265697956085], [0.07035083323717117, 0.007629705127328634, -0.05143658444285393], [-0.06916365772485733, 0.069797083735466, 0.05357784405350685]], [[0.015349590219557285, -0.12396533787250519, -0.1398550122976303], [0.0519816055893898, 0.009342019446194172, 0.06697221845388412], [-0.08582823723554611, -0.07644779980182648, 0.061909567564725876]], [[0.05261626094579697, -0.10138251632452011, 0.04803864285349846], [-0.04885241389274597, 0.13144999742507935, -0.08627992868423462], [0.02925105392932892, 0.024547815322875977, -0.07393807917833328]], [[0.024658706039190292, 0.07084769755601883, 0.13756030797958374], [-0.05240612104535103, -0.0004474114393815398, 0.021170075982809067], [-0.10427369922399521, -0.0010575794149190187, -0.07252196222543716]], [[-0.0722278505563736, -0.0471077635884285, -0.07888416200876236], [0.13772742450237274, -0.09785119444131851, 0.055914562195539474], [0.06734289228916168, -0.0651441439986229, 0.10731937736272812]], [[0.08883968740701675, 0.07891495525836945, -0.038120925426483154], [-0.15428802371025085, -0.01940830610692501, 0.16017413139343262], [0.09721168130636215, -0.010177348740398884, 0.10732413828372955]], [[-0.07906288653612137, 0.10505884140729904, -0.0672193318605423], [-0.01856451854109764, -0.10285110026597977, 0.07409930229187012], [0.1089409664273262, 0.11343535035848618, -0.0692024752497673]], [[-0.049004051834344864, -0.01617569848895073, 0.06540907919406891], [-0.06294413655996323, -0.08546879142522812, 0.0722149983048439], [-0.10317109525203705, 0.08789055794477463, -0.09440680593252182]]], [[[-0.015959789976477623, 0.003346082055941224, 0.0928124412894249], [0.10619551688432693, -0.051345665007829666, 0.07379960268735886], [0.008943833410739899, 0.11572284251451492, -0.09297969937324524]], [[0.10133693367242813, 0.02795444428920746, 0.10883638262748718], [0.09818281978368759, -0.020523929968476295, 0.07543426007032394], [0.037624992430210114, -0.08183064311742783, -0.057491715997457504]], [[0.06583164632320404, -0.06236695870757103, 0.0975177064538002], [0.10981977730989456, -0.02025357261300087, -0.022412270307540894], [0.0523676760494709, -0.04333276301622391, 0.051931604743003845]], [[-0.04062695428729057, -0.07803002744913101, -0.09361378103494644], [0.08469714224338531, 0.04717877134680748, -0.04646900296211243], [-0.0330374576151371, -0.08018499612808228, 0.09589973837137222]], [[-0.00015322024410124868, -0.012076412327587605, 0.002208725083619356], [0.030820326879620552, -0.016772812232375145, 0.0767623782157898], [0.0753091350197792, 0.06593767553567886, 0.07575582712888718]], [[0.041126687079668045, 0.0008378770435228944, 0.003096054308116436], [-0.003988759126514196, -0.09425188601016998, 0.04712560400366783], [-0.05909235030412674, 0.06252396106719971, 0.10242708027362823]], [[0.09448953717947006, -0.0512256920337677, 0.0172369796782732], [0.09967995434999466, -0.10144595801830292, 0.05531660467386246], [0.02400272712111473, 0.03413084149360657, 0.08681263029575348]], [[0.08110091835260391, 0.03079717420041561, 0.0022679478861391544], [0.09284378588199615, -0.08628872781991959, 0.03028145805001259], [-0.050150685012340546, -0.012066815048456192, 0.02139250561594963]]]], "encoder.2.bias": [-0.040343720465898514, -0.050877634435892105, -0.03430623188614845, -0.08733882009983063, 0.12346027791500092, -0.09421029686927795, -0.027628181502223015, -0.030245603993535042], "encoder.4.weight": [[[[0.07906480133533478, -0.1040649339556694, -0.04306088015437126], [-0.11219349503517151, -0.049018312245607376, -0.058243609964847565], [-0.1012694388628006, -0.033069685101509094, 0.07540513575077057]], [[-0.07401897013187408, -0.03047877922654152, 0.10623838007450104], [-0.11600321531295776, -0.06745447963476181, -0.042949128895998], [0.024941282346844673, 0.10278472304344177, 0.003301662392914295]], [[-0.0629400685429573, 0.03988416865468025, -0.18299201130867004], [0.03900400176644325, 0.03913440182805061, -0.1269608587026596], [-0.020546462386846542, 0.04231599345803261, -0.027709469199180603]], [[-0.09545481204986572, 0.10201436281204224, -0.08276072144508362], [0.08351428806781769, 0.05378926545381546, -0.030540773645043373], [0.033858317881822586, 0.1030629500746727, -0.004497133195400238]], [[-0.03852996230125427, -0.11207100003957748, 0.11248598247766495], [0.0693143829703331, -0.1169748529791832, -0.08075911551713943], [-0.0760430172085762, 0.08128542453050613, 0.12459605187177658]], [[0.08864133059978485, -0.07949040830135345, 0.03508945554494858], [-0.09827535599470139, 0.01476883701980114, -0.07572957128286362], [-0.11025385558605194, 0.017423152923583984, -0.0963347852230072]], [[-0.07993336766958237, 0.03499385714530945, 0.023304622620344162], [0.09736013412475586, -0.0997147336602211, 0.13127708435058594], [0.04332919418811798, -0.033098004758358, 0.05680777132511139]], [[0.07897178828716278, 0.01669963449239731, 0.09327811002731323], [-0.03160040080547333, -0.06828514486551285, 0.00043527421075850725], [-0.04262181371450424, -0.07659004628658295, -0.01378021389245987]]], [[[-0.0349302813410759, 0.06598129123449326, -0.001863922574557364], [-0.0701393261551857, 0.09696216136217117, -0.04355010762810707], [-0.031859271228313446, 0.03674129396677017, 0.08231798559427261]], [[-0.015620761550962925, 0.09088600426912308, 0.0818198174238205], [-0.006742563098669052, -0.11603976041078568, 0.11299748718738556], [-0.04435551539063454, -0.04211738705635071, 0.08688166737556458]], [[0.08093742281198502, -0.10506568104028702, 0.040811244398355484], [0.0046097347512841225, -0.0584956593811512, 0.03075600042939186], [-0.07720933854579926, 0.04364297166466713, 0.02390715293586254]], [[-0.0815357193350792, -0.04486772418022156, -0.09157571941614151], [-0.011240635067224503, 0.061863820999860764, 0.050592388957738876], [0.034222498536109924, 0.034713685512542725, -0.10170219093561172]], [[0.003857099451124668, -0.037813011556863785, 0.06707889586687088], [-0.0773472934961319, 0.039131660014390945, 0.0259309783577919], [-0.009881117381155491, 0.03515828773379326, 0.03205310180783272]], [[0.00548251299187541, 0.10120145976543427, 0.021748337894678116], [0.01548557635396719, -0.05741643160581589, 0.11289557069540024], [0.018643593415617943, 0.01942117139697075, -0.0550774447619915]], [[0.028952984139323235, -0.11062274873256683, -0.0038982864934951067], [-0.021837053820490837, -0.04086386039853096, -0.006826935801655054], [-0.0053732250817120075, 0.0653483122587204, 0.14888814091682434]], [[-0.07615180313587189, -0.09569749236106873, 0.1154525876045227], [0.060776613652706146, 0.025746982544660568, 0.09826153516769409], [-0.005509910639375448, -0.09013093262910843, 0.09267860651016235]]], [[[0.016991566866636276, -0.08437696844339371, -0.055282216519117355], [-0.00047359897871501744, -0.11035963892936707, 0.033205460757017136], [0.1017458513379097, 0.0282730832695961, 0.01155117992311716]], [[0.040450580418109894, -0.040395643562078476, -0.09450273215770721], [0.08114967495203018, 0.09353182464838028, 0.052125006914138794], [-0.06882639229297638, 0.11103282868862152, 0.11156599968671799]], [[0.07797503471374512, -0.0022769917268306017, 0.03880290687084198], [0.07684741169214249, -0.01762646809220314, 0.12042660266160965], [-0.08382764458656311, -0.09122297912836075, -0.010018870234489441]], [[0.0694662481546402, 0.026041598990559578, 0.019203422591090202], [0.06357750296592712, 0.0891759842634201, 0.10286685079336166], [0.04453252628445625, 0.08477862924337387, 0.0822691023349762]], [[-0.03941764310002327, -0.08561650663614273, 0.036274299025535583], [0.0440375879406929, -0.05015401542186737, 0.009111059829592705], [0.1296396255493164, 0.1019633486866951, 0.028718294575810432]], [[-0.024742858484387398, -0.07224125415086746, 0.003214792348444462], [0.037019822746515274, 0.11173433065414429, -0.07274162024259567], [-0.04335378110408783, 0.09779249131679535, 0.1011718213558197]], [[-0.09835920482873917, -0.046958185732364655, 0.048857979476451874], [-0.047745417803525925, 0.017722824588418007, 0.05069238319993019], [-0.05196200683712959, 0.07052966952323914, 0.08929198980331421]], [[0.09830685704946518, 0.10822965204715729, -0.010790824890136719], [0.049711138010025024, 0.050772178918123245, -0.002703701611608267], [-0.00041049899300560355, -0.06991246342658997, -0.10408113896846771]]], [[[0.03767117112874985, 0.02055918052792549, 0.05138606205582619], [0.08659941703081131, -0.10231279581785202, -0.04481767863035202], [-0.0849219337105751, -0.09696942567825317, -0.06843499839305878]], [[-0.10750018805265427, 0.07205173373222351, -0.0721074789762497], [0.05713549256324768, -0.056463323533535004, 0.030427897348999977], [0.06583311408758163, 9.803999273572117e-05, 0.05517572909593582]], [[0.07945703715085983, 0.16858749091625214, -0.03729209303855896], [0.12254509329795837, -0.18210634589195251, 0.002574760699644685], [-0.04186926409602165, -0.08604652434587479, 0.029122205451130867]], [[-0.057202696800231934, -0.11540253460407257, -0.013352529145777225], [0.06602063030004501, 0.10614670068025589, -0.0641138106584549], [0.07331611216068268, -0.08066175878047943, -0.10956691205501556]], [[-0.11756632477045059, 0.0890665277838707, 0.026209935545921326], [-0.09750651568174362, 0.07477240264415741, -0.06712962687015533], [-0.08763101696968079, -0.08066980540752411, 0.09500527381896973]], [[-0.1075679138302803, 0.07144956290721893, 0.04495846480131149], [0.027103664353489876, -0.012209602631628513, -0.11580377072095871], [-0.07181716710329056, 0.09822748601436615, -0.019761374220252037]], [[0.004603685345500708, -0.08650553971529007, 0.009364948607981205], [-0.15691371262073517, 0.07271857559680939, 0.08845454454421997], [-0.04215920716524124, -0.030434750020503998, -0.06950487941503525]], [[-0.07021895796060562, 0.08135382831096649, 0.01529516838490963], [0.08403042703866959, 0.003797394223511219, 0.06963401287794113], [-0.007495217956602573, -0.023069150745868683, -0.0008433812181465328]]], [[[-0.017452483996748924, -0.08073083311319351, -0.07478950172662735], [0.10544650256633759, 0.05456125736236572, 0.04244266822934151], [0.07708583772182465, 0.11171575635671616, 0.07076068967580795]], [[0.010771683417260647, 0.05059356242418289, 0.03427790477871895], [-0.06888455152511597, 0.09271202236413956, -0.0788625180721283], [0.09165901690721512, -0.03484143689274788, 0.032748252153396606]], [[0.03623145446181297, -0.015546788461506367, 0.05767173320055008], [-0.1243710070848465, -0.04312586411833763, 0.06543855369091034], [0.03826521709561348, 0.021015916019678116, -0.05477870628237724]], [[-0.07073400914669037, -0.04589587077498436, 0.04943592846393585], [0.07337145507335663, -0.11288055777549744, -0.05137438327074051], [-0.10175932943820953, -0.1166163980960846, 0.07715748250484467]], [[-0.01432755682617426, 0.09116024523973465, -0.0528738759458065], [0.05259251222014427, -0.11871170997619629, 0.10699325799942017], [0.05414588376879692, 0.06363232433795929, -0.05881521478295326]], [[0.028837891295552254, 0.09776891767978668, -0.09331335127353668], [0.06671002507209778, 0.09606529772281647, -0.045213937759399414], [0.07819453626871109, 0.0073519316501915455, 0.06206841394305229]], [[0.025521036237478256, 0.1233145222067833, -0.04431885480880737], [0.08203060179948807, -0.047280795872211456, -0.030633777379989624], [-0.05802745744585991, -0.08604458719491959, 0.0977407768368721]], [[0.07874729484319687, -0.0571407824754715, -0.00738172885030508], [-0.10300783812999725, 0.09922655671834946, -0.09979964792728424], [0.060869812965393066, 0.01149500347673893, 0.03826172649860382]]], [[[0.09218418598175049, -0.10319951921701431, -0.06356652826070786], [-0.10336890071630478, -0.07591971009969711, 0.1009790301322937], [0.07849971950054169, -0.051650457084178925, 0.09292618930339813]], [[0.03805907815694809, -0.07277114689350128, 0.10421117395162582], [-0.01944551430642605, 0.09808570891618729, 0.020237745717167854], [0.07603093236684799, 0.08866597712039948, -0.05406784638762474]], [[0.09652344882488251, -0.0006761520635336637, -0.08590524643659592], [0.1005692332983017, 0.016189459711313248, 0.08734863996505737], [-0.008646763861179352, -0.09409470856189728, 0.14837490022182465]], [[-0.0930386334657669, 0.051352500915527344, 0.09740104526281357], [0.021072207018733025, 0.10083118081092834, -0.05625077337026596], [-0.11479289084672928, -0.045665137469768524, 0.05854753032326698]], [[0.11986742913722992, -0.01585029996931553, -0.02561805211007595], [0.09641920030117035, 0.028244219720363617, 0.0553700290620327], [-0.09762518852949142, -0.10040772706270218, -0.12960441410541534]], [[-0.0064325351268053055, 0.10765568912029266, 0.04349474236369133], [0.01945660449564457, -0.10054496675729752, -0.03367839381098747], [-0.02229190245270729, -0.0401868000626564, -0.0464668944478035]], [[0.002170650055631995, 0.01969139836728573, -0.03414914384484291], [-0.10996495187282562, 0.032427828758955, -0.024602850899100304], [-0.00026719720335677266, -0.04135550186038017, 0.007169964723289013]], [[-0.048557329922914505, -0.09403577446937561, -0.022529009729623795], [0.1092199981212616, 0.007658100686967373, 0.011929478496313095], [0.00037607192643918097, -0.03438039496541023, -0.07194848358631134]]], [[[0.02346647158265114, -0.04901113733649254, -0.0941268801689148], [-0.062210727483034134, 0.01307628583163023, -0.08337689191102982], [0.05461790785193443, -0.04137628525495529, -0.09148992598056793]], [[-0.0029797644820064306, -0.04552779719233513, 0.06738527119159698], [-0.05680318921804428, 0.11620350927114487, -0.054246772080659866], [0.0786617249250412, -0.009051685221493244, 0.0834173858165741]], [[0.011853061616420746, 0.04497905448079109, 0.019293466582894325], [0.15721209347248077, -0.007712292950600386, -0.027210678905248642], [0.11902488768100739, 0.024301378056406975, -0.060036174952983856]], [[-0.035561490803956985, 0.0017135730013251305, -0.017934666946530342], [0.09826762229204178, 0.09897878766059875, -0.10479314625263214], [0.0875219777226448, 0.0922791063785553, 0.049887266010046005]], [[0.14215414226055145, 0.061913054436445236, 0.08690929412841797], [0.027252942323684692, -0.02389857918024063, -0.07630304247140884], [0.007337267976254225, 0.08957275003194809, -0.1475769430398941]], [[0.06238128989934921, -0.07370217144489288, 0.07406347990036011], [0.10721156746149063, 0.04042452201247215, -0.08723154664039612], [-0.05126335471868515, -0.060567017644643784, -0.023452529683709145]], [[-0.10941088199615479, 0.14219754934310913, 0.07208459824323654], [-0.016480758786201477, 0.03997070714831352, -0.09725664556026459], [-0.07232978940010071, 0.10928068310022354, 0.1168750748038292]], [[-0.030389849096536636, -0.004325051326304674, -0.0016629744786769152], [0.08466996252536774, -0.0739598274230957, -0.10092360526323318], [0.04812469333410263, 0.0826432928442955, -0.010649032890796661]]], [[[0.007279414217919111, 0.08992667496204376, -0.08251956850290298], [0.10322878509759903, 0.09397029131650925, 0.02952100709080696], [0.012299548834562302, -0.04315692558884621, -0.052115555852651596]], [[0.08744251728057861, 0.04106782004237175, 0.021755551919341087], [0.09388061612844467, 0.03501482307910919, 0.045705243945121765], [0.015222008340060711, 0.011514024809002876, -0.10434102267026901]], [[-0.09081252664327621, 0.09992998838424683, -0.06088868901133537], [0.037950508296489716, 0.05670865625143051, 0.10520007461309433], [-0.013628141023218632, -0.04630867391824722, 0.08421690762042999]], [[0.10665332525968552, 0.028288569301366806, -0.03259063884615898], [-0.058645687997341156, 0.10283014923334122, -0.07496065646409988], [0.07043284922838211, -0.01794266514480114, -0.09899231046438217]], [[-0.10420291870832443, -0.07230429351329803, -0.09172762930393219], [0.11153092980384827, 0.00916887167841196, -0.07989318668842316], [-0.04632992297410965, 0.10275543481111526, 0.0065286001190543175]], [[-0.05438749119639397, -0.0984475240111351, 0.05070691928267479], [-0.07455382496118546, 0.061143700033426285, -0.06961244344711304], [0.036955609917640686, -0.10086803138256073, -0.03353465348482132]], [[-0.03379619121551514, 0.09477343410253525, -0.060683321207761765], [-0.10186479985713959, -0.033865660429000854, 0.12026789784431458], [-0.009428766556084156, 0.06886420398950577, -0.02592279762029648]], [[0.040527671575546265, -0.11158204078674316, 0.04612676426768303], [-0.042986996471881866, -0.019652707502245903, 0.07140679657459259], [0.04176472872495651, 0.09211141616106033, -0.09439641237258911]]], [[[-0.014477948658168316, -0.0400918610394001, -0.03358751907944679], [0.005889929365366697, 0.01257526408880949, 0.020634951069951057], [-0.005808876361697912, -0.042901378124952316, -0.03406811133027077]], [[0.08952994644641876, 0.1012888178229332, 0.016708344221115112], [-0.10888024419546127, -0.08090893179178238, 0.03425600379705429], [0.014134019613265991, -0.08586060255765915, 0.11368004977703094]], [[-0.06211177632212639, 0.07391991466283798, 0.12077425420284271], [0.040304604917764664, 0.03271133080124855, -0.01096267718821764], [0.0029524778947234154, 0.07268740981817245, -0.12241340428590775]], [[0.07607661932706833, 0.10823150724172592, -0.0950636938214302], [-0.09969396889209747, -0.0031477229204028845, -0.09258714318275452], [0.0819125771522522, -0.05417323857545853, 0.004573810379952192]], [[-0.0032562697306275368, -0.029485823586583138, -0.04296142980456352], [-0.04389200359582901, -0.03419177979230881, -0.10398898273706436], [0.13642029464244843, 0.03768208250403404, 0.025553051382303238]], [[0.04880323261022568, -0.08617958426475525, 0.038043756037950516], [0.05649211257696152, 0.061164502054452896, -0.041087325662374496], [0.10663142055273056, 0.029667915776371956, -0.07631220668554306]], [[-0.023497963324189186, -0.0621245875954628, -0.09298989921808243], [0.11645056307315826, 0.14726464450359344, 0.026207948103547096], [-0.019390935078263283, -0.07139604538679123, 0.013711042702198029]], [[0.04436592012643814, 0.10385248064994812, -0.10799822211265564], [0.06785192340612411, 0.057600658386945724, 0.04246053099632263], [-0.022068794816732407, -0.04349767044186592, -0.03512325882911682]]], [[[-0.03361770510673523, -0.07151053100824356, 0.09503339976072311], [0.03991597145795822, 0.02861884981393814, -0.08151749521493912], [0.009125303477048874, 0.05409464240074158, 0.10390359163284302]], [[-0.07275337725877762, 0.002690910128876567, -0.08104079961776733], [0.11366956681013107, 0.058576200157403946, -0.09944286197423935], [-0.025383977219462395, -0.07143071293830872, -0.0009789069881662726]], [[0.023643823340535164, 0.020902346819639206, -0.011349248699843884], [-0.04500206559896469, 0.0676218792796135, 0.049199823290109634], [0.08619755506515503, 0.08614164590835571, -0.038056112825870514]], [[-0.04287733882665634, -0.11185798048973083, 0.11933308094739914], [-0.021955007687211037, 0.042036596685647964, 0.08544515073299408], [-0.11854235082864761, 0.0018268381245434284, 0.0949200838804245]], [[0.06712162494659424, -0.10406602174043655, -0.15803149342536926], [0.051812898367643356, -0.09777327626943588, -0.08114048093557358], [-0.003467914182692766, 0.06129202991724014, -0.029943648725748062]], [[0.08811050653457642, 0.03605051711201668, -0.04970571771264076], [-0.028476297855377197, -0.05709800869226456, 0.05173132196068764], [0.012067485600709915, -0.027483412995934486, 0.11107149720191956]], [[0.02013932541012764, -0.03409671410918236, -0.14856882393360138], [-0.01236819289624691, 0.13150718808174133, 0.09713975340127945], [-0.08178593963384628, 0.020725984126329422, -0.04594653099775314]], [[0.01758391223847866, -0.06050310656428337, 0.04394274950027466], [-0.06215689331293106, -0.0025614292826503515, -0.011539490893483162], [0.020545898005366325, -0.007948442362248898, -0.08996770530939102]]], [[[0.09040319174528122, 0.04313167929649353, 0.07301736623048782], [-0.005000584293156862, 0.004290958400815725, -0.003498250152915716], [-0.11620210111141205, 0.10271432995796204, -0.10357920825481415]], [[-0.07294907420873642, 0.023500148206949234, 0.09663190692663193], [-0.05547824129462242, -0.03561236709356308, 0.043314479291439056], [-0.028940020129084587, -0.006067120935767889, -0.1042352244257927]], [[0.09320490807294846, 0.11183413863182068, 0.020856911316514015], [0.006647835019975901, 0.10268387943506241, -0.04190901666879654], [0.15781083703041077, 0.014931833371520042, 0.027146833017468452]], [[0.11079592257738113, 0.06550272554159164, -0.06643011420965195], [0.11623825132846832, -0.005567240994423628, -0.025610974058508873], [-0.036776602268218994, 0.03778812661767006, -0.06423380225896835]], [[0.11789602786302567, -0.07610683143138885, -0.058771245181560516], [0.0924588069319725, -0.07281142473220825, -0.045387979596853256], [-0.04841721057891846, 0.04994206875562668, -0.1355091631412506]], [[-0.093875952064991, 0.06019467115402222, 0.07496234774589539], [0.09702623635530472, -0.10757962614297867, -0.04316231608390808], [0.02577490173280239, 0.047340646386146545, -0.026387851685285568]], [[-0.05043594166636467, 0.07920931279659271, 0.08175621181726456], [0.027344834059476852, 0.1115088239312172, 0.04026547819375992], [-0.12449201196432114, 0.07723522931337357, -0.039146944880485535]], [[0.08441513031721115, -0.009062513709068298, -0.03323860093951225], [0.05838143825531006, 0.019264988601207733, -0.01998206041753292], [0.09632577002048492, -0.07993490248918533, 0.10690852999687195]]], [[[0.02241227589547634, 0.04764581844210625, 0.07257447391748428], [-0.10303559899330139, -0.01693686656653881, -0.023991446942090988], [0.10535486042499542, -0.03353801742196083, -0.10457268357276917]], [[0.05937672033905983, -0.04434007406234741, 0.003966144751757383], [-0.01289517991244793, 0.04753518104553223, -0.10346194356679916], [-0.04388466104865074, -0.04191301763057709, -0.046459849923849106]], [[0.025785919278860092, -0.11343798786401749, -0.07876845449209213], [0.02782588265836239, -0.11261516064405441, 0.035123907029628754], [0.10585208982229233, 0.025813652202486992, 0.03374500200152397]], [[0.056751322001218796, -0.09022548794746399, 0.02680022642016411], [0.1003093421459198, -0.10291795432567596, -0.04347361624240875], [0.09247089922428131, -0.10689698159694672, -0.08896242827177048]], [[0.020450985059142113, -0.022881144657731056, -0.0820465236902237], [0.05516931042075157, 0.11539225280284882, 0.1169431209564209], [0.00039519695565104485, -0.11022811383008957, -0.019936835393309593]], [[0.043697573244571686, -0.10065519064664841, -0.10912968218326569], [0.05508660525083542, 0.00814677495509386, 0.0025315925013273954], [0.11047088354825974, -0.024226879701018333, 0.03899752348661423]], [[0.05040354281663895, 0.11342208832502365, 0.058318931609392166], [0.07888656854629517, -0.015232713893055916, -0.07282640784978867], [-0.09713422507047653, -0.02535613439977169, 0.061290398240089417]], [[-0.08180593699216843, -0.03868361562490463, -0.044150255620479584], [-0.02828233316540718, -0.027911806479096413, 0.07352423667907715], [-0.03350452333688736, -0.1163879856467247, -0.11051846295595169]]], [[[-0.07260699570178986, -0.11149512231349945, 0.017220016568899155], [-0.11990205943584442, 0.01992512308061123, -0.026942085474729538], [0.032319411635398865, -0.0860261619091034, -0.03619694709777832]], [[0.05084732547402382, -0.01956336945295334, 0.06102880463004112], [-0.04580993950366974, 0.06350117921829224, 0.04812077060341835], [0.04393525421619415, 0.07995522022247314, 0.0663851946592331]], [[-0.01382120419293642, 0.03287505358457565, 0.052829451858997345], [-0.09156830608844757, -0.004005673341453075, -0.1383676826953888], [-0.018738219514489174, 0.039228636771440506, -0.037660423666238785]], [[0.007056910544633865, -0.020485278218984604, -0.016681743785738945], [0.0014702719636261463, 0.05768892168998718, 0.06199997290968895], [0.08878906816244125, 0.06732850521802902, 0.08889850229024887]], [[-0.011275766417384148, -0.0709589272737503, -0.043645307421684265], [0.04950893297791481, -0.04352857545018196, 0.08970576524734497], [0.0770859345793724, 0.11607234925031662, 0.14730900526046753]], [[0.06467501819133759, 0.0895361453294754, 0.008043823763728142], [0.11245314031839371, 0.06448575854301453, -0.09573742747306824], [-0.05996408686041832, -0.055428050458431244, 0.0022947126999497414]], [[-0.025893112644553185, -0.11110113561153412, -0.12967024743556976], [0.07849694043397903, 0.11749076843261719, 0.06376020610332489], [0.06762330234050751, -0.17518045008182526, 0.06593336164951324]], [[0.0626547783613205, 0.03865419328212738, -0.06673632562160492], [0.06709528714418411, -0.013968615792691708, -0.05006749927997589], [0.032573118805885315, 0.07178409397602081, -0.011059535667300224]]], [[[0.08217453211545944, -0.08840324729681015, -0.02777499333024025], [0.09418202936649323, -0.017590316012501717, -0.11323326826095581], [-0.0346897654235363, 0.10124365240335464, 0.040579427033662796]], [[-0.06405217945575714, 0.02223665826022625, 0.0826873853802681], [0.03555505350232124, -0.042546726763248444, -0.0022140659857541323], [-0.08655326068401337, 0.11041256785392761, 0.03193145990371704]], [[-0.004799780901521444, 0.11651112139225006, 0.04285505786538124], [-0.0558893084526062, -0.12451930344104767, -0.09461232274770737], [-0.10370662808418274, -0.07559385895729065, -0.08105785399675369]], [[-0.028275975957512856, 0.09101226925849915, 0.058661721646785736], [-0.07331749051809311, 0.09145750105381012, 0.05062068626284599], [-0.08714378625154495, -0.07540588080883026, 0.009379560127854347]], [[0.05260290205478668, -0.07011710852384567, -0.08237104117870331], [0.06903071701526642, 0.023846061900258064, -0.0368180014193058], [0.0986533835530281, 0.007210973184555769, -0.05577278137207031]], [[0.12003348767757416, -0.07388074696063995, 0.09894449263811111], [-0.11738303303718567, 0.10072696954011917, 0.026742059737443924], [0.06972087919712067, -0.11942043155431747, -0.09575526416301727]], [[-0.014674115926027298, -0.1091797724366188, -0.07237997651100159], [0.04323967546224594, -0.056879691779613495, -0.01739528775215149], [0.12694288790225983, -0.08710282295942307, 0.07622390240430832]], [[-0.025453390553593636, -0.06338762491941452, -0.06580359488725662], [0.07360104471445084, 0.037381481379270554, -0.006283267866820097], [0.10178221762180328, -0.032235994935035706, -0.082066610455513]]], [[[0.0337870754301548, -0.04351349174976349, -0.014396540820598602], [0.059165310114622116, -0.05019016191363335, 0.04556000232696533], [0.11700382828712463, 0.10711012035608292, -0.05723211541771889]], [[-0.10285371541976929, 0.09178675711154938, 0.08429364114999771], [0.09178613126277924, -0.04521508142352104, 0.030367031693458557], [0.1030796691775322, -0.06001009792089462, -0.09745357930660248]], [[0.09327438473701477, -0.10445211827754974, 0.04359902814030647], [0.002150563756003976, 0.10762083530426025, -0.02354489266872406], [-0.04876349866390228, 0.04975268244743347, 0.06577122211456299]], [[-0.030274078249931335, -0.02986161969602108, -0.02581055276095867], [0.0030019169207662344, -0.10432644933462143, 0.11451631784439087], [-0.0554269477725029, -0.09539374709129333, -0.04848702624440193]], [[0.06526748836040497, 0.05339375510811806, -0.05738535150885582], [-0.14118707180023193, -0.015314635820686817, 0.0012590544065460563], [0.01889236457645893, 0.11031975597143173, 0.033703725785017014]], [[-0.02789195068180561, -0.07107394933700562, -0.014005920849740505], [-0.07626450061798096, 0.08315177261829376, 0.010994408279657364], [0.029961878433823586, 0.05768921226263046, -0.014375976286828518]], [[-0.12038695812225342, 0.02514289878308773, -0.011286063119769096], [0.008976873941719532, -0.08758758008480072, 0.1755436360836029], [-0.025060852989554405, 0.1629980504512787, 0.1098203957080841]], [[-0.03224404156208038, -0.07891257852315903, -0.011911249719560146], [-0.03859030827879906, 0.011089002713561058, -0.08029284328222275], [0.03871502727270126, 0.11328594386577606, -0.07324162125587463]]], [[[0.014901431277394295, -0.004440810531377792, -0.05359436199069023], [0.009482143446803093, 0.08390922099351883, -0.09441795200109482], [-0.10062768310308456, 0.06294035166501999, -0.10017136484384537]], [[0.06485716998577118, 0.08483409881591797, 0.03805473819375038], [0.09837691485881805, 0.0595555305480957, 0.08946795016527176], [-0.03595395386219025, -5.230408987699775e-06, -0.08469463884830475]], [[-0.03824476897716522, -0.008931179530918598, -0.02075239270925522], [-0.10856849700212479, -0.09819477051496506, 0.10586341470479965], [-0.030025091022253036, 0.03982270136475563, -0.00799200963228941]], [[-0.1117212250828743, 0.06967093795537949, -0.11205630749464035], [0.0589517280459404, 0.10334286838769913, 0.06245075911283493], [-0.011814367026090622, 0.02115144580602646, 0.06285334378480911]], [[-0.09905598312616348, 0.012989653274416924, -0.012395023368299007], [-0.05013231560587883, -0.08378366380929947, -0.03312618285417557], [-0.06556311249732971, -0.0056609706953167915, -0.08355949819087982]], [[-0.03450224921107292, -0.099491648375988, -0.0626363754272461], [0.04284322261810303, 0.029108887538313866, -0.12326563894748688], [0.06992754340171814, -0.0799957811832428, -0.10273462533950806]], [[-0.1261575073003769, 0.0301531795412302, 0.11948096007108688], [0.12538716197013855, -0.12326376140117645, 0.11428223550319672], [-0.04220200702548027, -0.00045887150918133557, 0.10400693118572235]], [[-0.06714418530464172, -0.05534086003899574, 0.10191696882247925], [-0.02861950919032097, 0.10762688517570496, 0.0014658869476988912], [-0.10119820386171341, 0.036864444613456726, 0.0844598039984703]]]], "encoder.4.bias": [-0.06793984770774841, -0.029361369088292122, -0.009372910484671593, -0.0019481683848425746, 0.022568902000784874, -0.12025754898786545, -0.08543474972248077, -0.10899875313043594, 0.07577347755432129, -0.022559503093361855, -0.055814482271671295, 0.05356111377477646, 0.08886260539293289, -0.03899358585476875, -0.060990072786808014, 0.04133984073996544], "encoder.6.weight": [[[[-0.013726949691772461, -0.03858032077550888, -0.047919861972332], [0.04988177865743637, 0.016000961884856224, -0.025569837540388107], [0.02006310224533081, 0.05769869312644005, -0.06221877783536911]], [[-0.05212629213929176, 0.08137506246566772, -0.07552812248468399], [0.015561548061668873, 0.030314017087221146, -0.031740810722112656], [-0.01797790266573429, 0.02647862397134304, -0.036950014531612396]], [[-0.022792920470237732, 0.04149969294667244, 0.07389647513628006], [0.08222915977239609, -0.07145515084266663, 0.022167479619383812], [-0.035740867257118225, -0.04664386808872223, -0.07826485484838486]], [[0.03261455148458481, 0.046531759202480316, 0.08327551931142807], [-0.07270175963640213, -0.009993233717978, -0.03177446871995926], [0.047424644231796265, -0.04582708328962326, -0.025571433827280998]], [[-0.048213403671979904, 0.003671444719657302, -0.017535267397761345], [0.02445714920759201, -0.00930817797780037, -0.0009614473092369735], [0.026084810495376587, -0.06297677755355835, -0.02187507413327694]], [[0.010865706019103527, -0.027020860463380814, 0.021154087036848068], [-0.09395363181829453, -0.029438422992825508, -0.07880899310112], [-0.05002383887767792, -0.07411297410726547, 0.02379201538860798]], [[0.02057318016886711, -0.02599143050611019, -0.018298141658306122], [0.04141708090901375, -0.12329147756099701, -0.0463971346616745], [-0.06749048084020615, -0.02122105099260807, 0.042572472244501114]], [[-0.044985897839069366, -0.01045655645430088, 0.07279083132743835], [0.032372113317251205, -0.04914655536413193, 0.02823253534734249], [0.04388490319252014, -0.01873401552438736, 0.03468994423747063]], [[-0.012557324022054672, 0.05180254206061363, -0.06517624855041504], [0.031675681471824646, -0.046897418797016144, 0.05553390085697174], [-0.033173248171806335, 0.01598496176302433, -0.06473864614963531]], [[-0.13530845940113068, 0.04766899347305298, 0.023812202736735344], [-0.11451887339353561, 0.03322276473045349, 0.12523791193962097], [-0.04415064677596092, 0.057633113116025925, -0.012400397099554539]], [[-0.002827224088832736, 0.029891517013311386, 0.06976745277643204], [-0.008089683018624783, 0.07556628435850143, 0.06249968707561493], [-0.02237546071410179, 0.07997095584869385, 0.01394821610301733]], [[0.036934029310941696, 0.0728670060634613, 0.0721210166811943], [0.004779408685863018, -0.015076041221618652, 0.08235698193311691], [-0.06710094213485718, -0.015446066856384277, 0.015383949503302574]], [[-0.003192215459421277, -0.028843391686677933, 0.04527118057012558], [-0.021220140159130096, -0.0612315759062767, -0.03872446343302727], [0.03424209728837013, 0.05206820368766785, -0.06968403607606888]], [[-0.06983563303947449, 0.02211608551442623, -0.012556117959320545], [0.020368559285998344, -0.056724149733781815, 0.00011894464842043817], [-0.03677181899547577, -0.03867223486304283, 0.03990652412176132]], [[0.0485975407063961, -0.08978863805532455, 0.055670078843832016], [0.05986443907022476, 0.08381723612546921, 0.06205834820866585], [-0.11501321196556091, 0.04903344810009003, 0.007426430471241474]], [[-0.02037046290934086, 0.05658813565969467, -0.053020574152469635], [-0.025495564565062523, 0.011163491755723953, 0.022998543456196785], [-0.04719551280140877, -0.018996015191078186, 0.03540022671222687]]], [[[0.03986504673957825, 0.0541120246052742, 0.003624787088483572], [0.058268290013074875, 0.004016268998384476, 0.06204971671104431], [-0.04901767894625664, -0.06272624433040619, -0.05138586089015007]], [[0.07014960050582886, -0.015104465186595917, 0.02248961851000786], [-0.02859182469546795, -0.07546674460172653, 0.06898843497037888], [0.04186347499489784, 0.074652761220932, -0.04193715751171112]], [[-0.02538047730922699, 0.049364905804395676, -0.0040518008172512054], [0.03290517255663872, -0.05880987271666527, -0.03683609515428543], [0.0028493311256170273, -0.056198738515377045, -0.060355741530656815]], [[0.01630689762532711, -0.016394613310694695, 0.035238441079854965], [-0.000437785784015432, 0.09088090062141418, 0.08614851534366608], [0.08387957513332367, 0.011437961831688881, -0.06056860834360123]], [[-0.036885835230350494, -0.07527037709951401, -0.03534607216715813], [-0.055004674941301346, 0.08044447004795074, 0.07704854011535645], [-0.03369465470314026, -0.028410835191607475, -0.06177089363336563]], [[0.042217884212732315, -0.17817310988903046, -0.031907834112644196], [0.0527157224714756, -0.012456954456865788, -0.03951922804117203], [-0.04112252593040466, 0.021576091647148132, 0.048574935644865036]], [[-0.04783482477068901, 0.031085845082998276, 0.1472173035144806], [0.07727155089378357, 0.14607088267803192, 0.1094370037317276], [-0.009763524867594242, 0.0811375230550766, 0.016050228849053383]], [[0.020604733377695084, -0.001643505645915866, 0.08520938456058502], [-0.08113957941532135, 0.03290357440710068, 0.07324572652578354], [0.002462255535647273, -0.025166768580675125, -0.06143895536661148]], [[-0.018010998144745827, 0.028392238542437553, -0.11949708312749863], [-0.006536395289003849, -0.02355353906750679, 0.05195072665810585], [-0.009334344416856766, 0.08516217023134232, -0.061910368502140045]], [[-0.01560241635888815, 0.07003198564052582, 0.028743965551257133], [-0.02798321098089218, 0.03404886648058891, -0.01365155354142189], [-0.04921676218509674, 0.08440474420785904, -0.03592413663864136]], [[0.05225517600774765, 0.024538496509194374, 0.0642511397600174], [-0.010911595076322556, -0.038100406527519226, 0.010701299645006657], [-0.06107495352625847, -0.0508691668510437, 0.07771492749452591]], [[-0.0356597900390625, 0.07112541794776917, -0.026187341660261154], [0.01383612584322691, -0.06081273406744003, 0.054103195667266846], [0.020764242857694626, -0.05597139522433281, 0.07005660980939865]], [[0.022808760404586792, 0.05820830911397934, -0.06680953502655029], [0.0515342615544796, 0.057879988104104996, -0.09946909546852112], [-0.058432500809431076, 0.11280647665262222, -0.10593443363904953]], [[-0.13034851849079132, -0.03687875717878342, 0.005839130841195583], [-0.021083936095237732, -0.06149854511022568, -0.008151328191161156], [0.0632440373301506, 0.08259890228509903, -0.03278481960296631]], [[-0.01987980492413044, 0.0005367337726056576, 0.06325031071901321], [-0.14167876541614532, -0.04879593476653099, 0.04303443804383278], [0.07529845088720322, -0.11804011464118958, -0.1342076063156128]], [[-0.0929921567440033, 0.034499216824769974, 0.0342099703848362], [-0.06738322228193283, 0.05378013476729393, -0.05365074798464775], [-0.04684019088745117, 0.05754222720861435, -0.043220244348049164]]], [[[-0.043626558035612106, -0.0011419943766668439, 0.06758024543523788], [-0.006129374261945486, -0.02736516110599041, 0.07748555392026901], [-0.08029117435216904, -0.07659381628036499, -0.023072224110364914]], [[-0.02180422469973564, 0.06706558912992477, 0.024418238550424576], [-0.005141277331858873, -0.03492162004113197, -0.019056495279073715], [-0.0621243454515934, 0.06716320663690567, 0.03981687128543854]], [[0.07205010205507278, 0.053645629435777664, 0.0014669648371636868], [0.013981097377836704, -0.01334595400840044, 0.006874362472444773], [-0.024611780419945717, -0.013228689320385456, 0.0226412545889616]], [[0.04111279174685478, 0.04635549709200859, -0.0728488340973854], [0.01828857511281967, -0.03502117097377777, 0.017150813713669777], [0.07212936878204346, 0.024824311956763268, -0.06524504721164703]], [[0.027845030650496483, -0.036019425839185715, 0.005517655052244663], [0.08026427030563354, 0.02949555777013302, -0.014546528458595276], [-0.03915681689977646, -0.021888907998800278, 0.009374161250889301]], [[0.13643205165863037, 0.04386152699589729, 0.03127286955714226], [0.051950305700302124, -0.06373662501573563, 0.05486480891704559], [0.10113978385925293, 0.02195875160396099, 0.01578509621322155]], [[0.10946227610111237, -0.014694181270897388, -0.15184170007705688], [0.09876386821269989, 0.11126844584941864, -0.06177198514342308], [-0.0670633539557457, 0.02492567151784897, -0.012645559385418892]], [[0.03800763934850693, 0.060759950429201126, -0.050698813050985336], [-0.036120399832725525, 0.007770796772092581, -0.0663093701004982], [-0.05164897069334984, -0.07846091687679291, 0.004011255223304033]], [[0.05910159647464752, -0.02826855145394802, 0.04619511589407921], [0.06013032793998718, -0.0016341388691216707, -0.030729787424206734], [0.011923804879188538, 0.0437748022377491, -0.0789417251944542]], [[-0.0866963118314743, -0.062426116317510605, 0.07628174126148224], [-0.011877244338393211, 0.03358231857419014, -0.09444151818752289], [0.033956244587898254, 0.07961813360452652, 0.05006733909249306]], [[0.06087832525372505, 0.005000145174562931, -0.0776759684085846], [0.0053365519270300865, -0.03303735330700874, 0.06573326885700226], [-0.01565828174352646, -0.04845725744962692, -0.06784035265445709]], [[-0.05627860873937607, -0.0007358292932622135, -0.05848461389541626], [0.07020260393619537, -0.027252506464719772, 0.053649596869945526], [-0.02548084780573845, 0.004222969524562359, 0.05293399095535278]], [[-0.06963984668254852, 0.07927938550710678, -0.08141864091157913], [-0.005807778332382441, 0.01982814073562622, -0.05393416807055473], [-0.00549060944467783, 0.04380249232053757, 0.049945708364248276]], [[0.07003066688776016, -0.007867325097322464, 0.04532885551452637], [-0.020923394709825516, -0.054094862192869186, 0.015356160700321198], [0.09586753696203232, 0.006512283813208342, -0.04522235319018364]], [[0.07577451318502426, 0.0679219588637352, -0.14047060906887054], [-0.027179261669516563, -0.07575592398643494, -0.12181805819272995], [0.01484785508364439, 0.010495916940271854, -0.04604223370552063]], [[0.06432009488344193, 0.019786104559898376, 0.016482844948768616], [-0.062025658786296844, -0.00853837002068758, 0.0003865094331558794], [0.06752000004053116, 0.01825474575161934, 0.020273253321647644]]], [[[-0.009276986122131348, 0.018971804529428482, -0.08157553523778915], [-0.021351546049118042, -0.09383469074964523, 0.0769183337688446], [0.038478754460811615, 0.0683809146285057, 0.00024373333144467324]], [[-0.013316819444298744, -0.023241674527525902, -0.07123478502035141], [0.08042974770069122, -0.00300110736861825, -0.006195078603923321], [0.07550695538520813, 0.08214802294969559, -0.01067295204848051]], [[-0.01788722351193428, -0.014571950770914555, -0.03755561634898186], [0.07662519067525864, 0.018808847293257713, -0.016529789194464684], [0.035146698355674744, 0.04538374021649361, -0.021960049867630005]], [[0.014719460159540176, 0.011391350999474525, -0.04908880218863487], [0.07087083160877228, -0.0695023387670517, 0.034542400389909744], [-0.0026871454901993275, 0.07674741744995117, -0.03411666303873062]], [[0.06497181951999664, 0.051256369799375534, 0.04864807799458504], [0.0015122145414352417, 0.0318041667342186, 0.07129411399364471], [0.020509764552116394, 0.03987386077642441, -0.05044405162334442]], [[-0.04107452556490898, 0.0528007335960865, -0.029157103970646858], [0.06318020820617676, 0.022653853520751, 0.06740719825029373], [-0.007680417038500309, 0.11403590440750122, -0.04289165511727333]], [[-0.11565645784139633, 0.11534255743026733, 0.06090523675084114], [0.07864254713058472, -0.017339611425995827, -0.012231435626745224], [0.0565069317817688, -0.014801942743360996, -0.012068201787769794]], [[-0.062323879450559616, 0.028331566601991653, 0.017475077882409096], [0.06437531113624573, -0.00215346016921103, -0.02085498534142971], [-0.048341333866119385, 0.07883201539516449, -0.051195189356803894]], [[-0.020539142191410065, 0.04867776483297348, -0.0606231614947319], [-0.0703778862953186, -0.00588354654610157, -0.01832706481218338], [-0.0026638181880116463, -0.06771191209554672, 9.667085396358743e-05]], [[0.028884368017315865, -0.06219852715730667, -0.0032132454216480255], [0.028807392343878746, 0.027230579406023026, 0.02062729373574257], [-0.0453568659722805, 0.06794080883264542, -0.040965113788843155]], [[-0.046361010521650314, -0.023047342896461487, 0.01872890070080757], [-0.08269213885068893, -0.011269594542682171, -0.0625910758972168], [-0.07338081300258636, 0.011286050081253052, 0.06099872291088104]], [[0.07562407851219177, 0.02182094380259514, -0.016376923769712448], [0.0097891790792346, 0.03532220050692558, -0.04540793225169182], [0.07241135835647583, 0.03147243708372116, -0.049413006752729416]], [[0.028362343087792397, 0.004722905810922384, -0.05111584812402725], [-0.04558652639389038, -0.055856626480817795, -0.014405841007828712], [-0.01222429983317852, 0.07506371289491653, -0.05358824133872986]], [[0.07853859663009644, -0.04957132786512375, 0.06573700159788132], [0.0646684467792511, -0.029894696548581123, 0.040054481476545334], [0.037578873336315155, 0.05315954610705376, 0.061391428112983704]], [[0.03339938819408417, 0.013702023774385452, -0.09111366420984268], [0.0884087085723877, 0.011943506076931953, -0.010632168501615524], [0.10515084117650986, -0.008657902479171753, 0.06176501139998436]], [[-0.017475826665759087, 0.007080186624079943, 0.031263768672943115], [-0.018748968839645386, 0.0753142237663269, -0.012299845926463604], [-0.05858809873461723, 0.01574554480612278, 0.05603434145450592]]], [[[0.05258680507540703, -0.012140452861785889, 0.03821604698896408], [0.07794426381587982, 0.02396201156079769, 0.08156974613666534], [0.05121464654803276, 0.06623172014951706, 0.0703163668513298]], [[-0.036198798567056656, -0.07621400058269501, -0.05378401651978493], [0.007375064771622419, -0.06757309287786484, -0.00756123848259449], [-0.03791443258523941, 0.0005534811643883586, -0.011266935616731644]], [[-0.016980750486254692, 0.068161241710186, -0.08355297148227692], [-0.05559971556067467, -0.03299429640173912, -0.055486369878053665], [0.010839738883078098, -0.042301397770643234, -0.07448077946901321]], [[0.06461771577596664, 0.051157839596271515, 0.07510823756456375], [0.033092763274908066, -0.0009189252741634846, 0.03616245090961456], [0.04128364473581314, -0.0572100505232811, -0.038236066699028015]], [[-0.07174289226531982, 0.01374833658337593, -0.010573352687060833], [0.011353444308042526, -0.020139696076512337, 0.044146351516246796], [-0.03036678582429886, 0.010281751863658428, 0.08070433884859085]], [[-0.06839846074581146, -0.006202820688486099, 0.07495902478694916], [0.020602401345968246, -0.06456603854894638, 0.052607737481594086], [0.025906188413500786, 0.03254060819745064, 0.017389118671417236]], [[0.047891415655612946, 0.16444140672683716, 0.03193100169301033], [0.08707320690155029, 0.028877433389425278, -0.0008388535352423787], [-0.11401370167732239, -0.03583116456866264, -0.010226148180663586]], [[0.020060788840055466, 0.03344438597559929, -0.040966395288705826], [0.045092374086380005, 0.04938182234764099, 0.030807014554739], [-0.056585609912872314, 0.04650964215397835, -0.0482419952750206]], [[-0.007348771672695875, -0.013232127763330936, -0.00947196502238512], [0.005507353227585554, -0.015419941395521164, -0.0018992836121469736], [0.07468709349632263, 0.08373662829399109, -0.060696106404066086]], [[0.01208249107003212, 0.022513866424560547, 0.031635068356990814], [0.011688638478517532, 0.058991689234972, -0.006106524262577295], [-0.03398594260215759, 0.009794142097234726, -0.04783328250050545]], [[-0.06848665326833725, -0.04795469716191292, -0.0778103619813919], [0.06510060280561447, -0.05232095718383789, 0.015657098963856697], [0.042541615664958954, 0.0785876214504242, 0.009404369629919529]], [[-0.01901283860206604, 0.0035319726448506117, -0.07360653579235077], [-0.06957775354385376, -0.033535342663526535, -0.019513985142111778], [0.01608167216181755, -0.062397342175245285, -0.0567106232047081]], [[0.054310210049152374, 0.012688378803431988, 0.023033440113067627], [0.06636373698711395, 0.008012371137738228, 0.006728334352374077], [-0.056571029126644135, 0.0010339724831283092, 0.005329088773578405]], [[-0.020001400262117386, -0.005964422132819891, -0.05786953866481781], [0.0013294958043843508, -0.06340552121400833, 0.030291369184851646], [0.04050338268280029, 0.0601935088634491, 0.0022930034901946783]], [[0.0005687138764187694, 0.10638217628002167, 0.033810704946517944], [0.03911556676030159, 0.031386397778987885, 0.04384484887123108], [-0.0203290656208992, 0.055619098246097565, -0.07207280397415161]], [[-0.03509936109185219, 0.02247629128396511, -0.00902879610657692], [-0.056882280856370926, 0.01758464239537716, -0.07850407809019089], [-0.045970771461725235, 0.047104302793741226, 0.04691096767783165]]], [[[-0.0013294517993927002, 0.020217295736074448, -0.05402606725692749], [0.013557225465774536, 0.08281261473894119, 0.0686454027891159], [0.013248175382614136, 0.0015539360465481877, -0.04944929480552673]], [[0.030211487784981728, 0.0029364621732383966, 0.07184670865535736], [-0.08459518849849701, 0.01873120106756687, 0.045431096106767654], [-0.0350346602499485, -0.02603396214544773, 0.010003251023590565]], [[-0.05645296722650528, -0.01855872943997383, 0.04997268319129944], [-0.020607642829418182, -0.03510122373700142, -0.04248128458857536], [0.026154235005378723, -0.006010626908391714, 0.03586670011281967]], [[-0.011339901015162468, 0.024495474994182587, -0.07903684675693512], [-0.07794641703367233, -0.06330741196870804, -0.01713651604950428], [-0.04748215153813362, 0.030595500022172928, -0.039749935269355774]], [[0.060729093849658966, 0.06549535691738129, 0.06657599657773972], [0.013070313259959221, 0.05565805733203888, 0.05895064398646355], [0.006381603889167309, 0.07131394743919373, 0.0191265270113945]], [[-0.07772871851921082, 0.03783498331904411, 0.04521619901061058], [0.023895226418972015, 0.04535293951630592, -0.018676836043596268], [-0.045338962227106094, 0.11364059895277023, -0.045873820781707764]], [[-0.03756905347108841, 0.1483396589756012, -0.07676635682582855], [-0.06782791018486023, -0.011190437711775303, 0.038958217948675156], [0.10490687936544418, -0.02904932014644146, 0.05366627871990204]], [[0.04652910679578781, 0.06238985061645508, 0.02209746651351452], [-0.06072365120053291, -0.00719292601570487, 0.016785047948360443], [-0.06544511020183563, 0.04978916421532631, 0.005461514461785555]], [[0.027005627751350403, 0.0024384891148656607, -0.04160269349813461], [-0.05670037120580673, -0.03949984163045883, -0.08204299211502075], [-0.07095202803611755, 0.06334603577852249, -0.01201565284281969]], [[-0.07117053866386414, -0.09733482450246811, 0.02242232859134674], [-0.03182404860854149, -0.04333963245153427, 0.01819605380296707], [0.02191544510424137, -0.03312324360013008, -0.025189444422721863]], [[-0.0781005322933197, 0.01647265814244747, -1.631483610253781e-05], [0.03607972711324692, 0.011451047845184803, -0.02251744270324707], [-0.01869264990091324, 0.026740632951259613, 0.023818062618374825]], [[-0.013967514038085938, -0.05248871445655823, -0.0013041000347584486], [0.06285177171230316, 0.02584722638130188, 0.018670689314603806], [-0.03463497757911682, -0.08217792212963104, -0.03147241473197937]], [[0.025562308728694916, -0.05388268455862999, 0.05923401564359665], [-0.01731192320585251, -0.03438581898808479, 0.01315629854798317], [0.009472197853028774, 0.002503031399101019, -0.05660110339522362]], [[-0.04915199801325798, 0.02176298387348652, -0.0338326059281826], [-0.05805659666657448, 0.03949562460184097, 0.03626574948430061], [0.07443052530288696, 0.010098978877067566, 0.09038335829973221]], [[0.05138241499662399, 0.10624297708272934, -0.06521452963352203], [0.08556140214204788, -0.0425264798104763, -0.036084551364183426], [-0.019123932346701622, -0.03929527848958969, 0.0924394279718399]], [[0.06912759691476822, -0.04869627580046654, -0.05970470607280731], [-0.020239850506186485, -0.018791334703564644, -0.036798350512981415], [0.021152112632989883, -0.008223680779337883, 0.021189475432038307]]], [[[0.040867727249860764, 0.06274895370006561, 0.05772221088409424], [-0.003391703125089407, -0.012065662071108818, -0.04128703474998474], [0.0167979896068573, -0.10669281333684921, -0.05340081453323364]], [[0.017156463116407394, 0.042761318385601044, 0.09632208943367004], [0.0041792867705225945, 0.025086401030421257, -0.0185552891343832], [-0.03976086154580116, -0.04990815371274948, 0.01838774047791958]], [[0.03919874131679535, 0.024995949119329453, 0.02781030163168907], [0.004152784589678049, 0.05660644918680191, 0.100945845246315], [0.0781288668513298, 0.006490760017186403, -0.04933394864201546]], [[-0.05284928157925606, -0.11834625154733658, -0.05847615376114845], [-0.024479392915964127, 0.0431956984102726, 0.07384231686592102], [0.09023379534482956, -0.012770870700478554, 0.09214210510253906]], [[-0.051907528191804886, 0.05276886001229286, -0.03408662602305412], [0.060058340430259705, -0.023998336866497993, -0.039792660623788834], [0.0067345090210437775, -2.4478305931552313e-05, -0.10160797089338303]], [[-0.008282622322440147, 0.010544034652411938, 0.0003671994199976325], [-0.028070969507098198, 0.05631624162197113, -0.04700120538473129], [0.04118259996175766, -0.09792470932006836, 0.02191493846476078]], [[-0.0344734713435173, -0.015166752971708775, 0.11214696615934372], [-0.010352060198783875, -0.06850020587444305, 0.03674003854393959], [-0.09282006323337555, -0.08928701281547546, -0.12541437149047852]], [[0.044020477682352066, -0.08454909920692444, 0.0033043986186385155], [0.07680308818817139, -0.021179990842938423, -0.012959158048033714], [-0.06961692124605179, -0.020494066178798676, -0.02511456236243248]], [[-0.011822929605841637, -0.10537999868392944, 0.019544627517461777], [0.0203249454498291, -0.028896192088723183, 0.10769196599721909], [-0.07596046477556229, 0.01297745667397976, -0.032037608325481415]], [[-0.046242278069257736, 0.10141649842262268, -0.02172194980084896], [-0.0749981626868248, 0.13710418343544006, 0.06682692468166351], [0.044070642441511154, 0.09976362437009811, 0.06334324926137924]], [[-0.007128413766622543, -0.05249789357185364, -0.003547751810401678], [-0.032741621136665344, -0.0019140827935189009, 0.01892734132707119], [0.006172490771859884, -0.04159288480877876, -0.06415221095085144]], [[-0.01868118904531002, -0.01924232766032219, -0.0038895010948181152], [0.032194070518016815, -0.06335946917533875, -0.016650229692459106], [-0.04977353662252426, -0.05483283847570419, -0.06876035034656525]], [[0.01595236361026764, -0.0469798669219017, 0.008028012700378895], [-0.025199921801686287, 0.018420470878481865, 0.018988382071256638], [0.05352300405502319, -0.08679031580686569, -0.13318794965744019]], [[0.113893523812294, 0.117040254175663, 0.0014848251594230533], [0.09816582500934601, 0.03568362444639206, -0.01189108844846487], [0.06426361203193665, -0.08274082094430923, -0.04974645376205444]], [[-0.10086977481842041, -0.013242567889392376, -0.031108293682336807], [0.09240886569023132, -0.020094597712159157, -0.025680260732769966], [0.03295283019542694, 0.10073468089103699, -0.07572931796312332]], [[0.021178822964429855, -0.008709979243576527, -0.05525011569261551], [-0.013750353828072548, 0.02600288577377796, 0.007954277098178864], [-0.05034292861819267, -0.02757372334599495, -0.0683278739452362]]], [[[-0.02064606547355652, 0.06962518393993378, -0.01092645525932312], [-0.0666031688451767, 0.0023335309233516455, 0.004457424394786358], [0.05436268448829651, 0.0855507180094719, 0.03978419303894043]], [[0.08073333650827408, -0.04609731212258339, 0.025385037064552307], [-0.008002535440027714, 0.0030811564065515995, 0.0449388213455677], [0.010387620888650417, -0.03608408942818642, 0.015467703342437744]], [[-0.042011652141809464, -0.009295069612562656, 0.06033932417631149], [-0.0050693112425506115, -0.028883447870612144, -0.07808977365493774], [0.03581109642982483, 0.020332161337137222, 0.07247494906187057]], [[0.05964282527565956, 0.05526850000023842, -0.027477260679006577], [0.02481270208954811, -0.008881590329110622, 0.010575796477496624], [-0.048082008957862854, 0.0438242182135582, 0.056842926889657974]], [[0.0749702975153923, -0.005586063954979181, 0.058438491076231], [0.04627883806824684, -0.04742550477385521, -0.06469818204641342], [-0.057597339153289795, 0.02096019871532917, 0.0444527231156826]], [[0.004136817064136267, -0.019426928833127022, 0.021922927349805832], [0.006463192868977785, 0.038923606276512146, -0.014918250031769276], [0.0356750525534153, 0.08488943427801132, -0.036799654364585876]], [[-0.04337530955672264, -0.040628641843795776, -0.03712308406829834], [0.01264647115021944, 0.07869116216897964, 0.04135654494166374], [-0.06043487414717674, 0.09134075045585632, 0.019051212817430496]], [[0.0008554067462682724, -0.019626665860414505, -0.07142370194196701], [0.05865410715341568, 0.06759846210479736, 0.04456664249300957], [-0.027256302535533905, 0.0638958215713501, 0.027507828548550606]], [[-0.007858499884605408, 0.005993271246552467, -0.07361400127410889], [0.045653052628040314, 0.004440720193088055, -0.0167156420648098], [0.08379685878753662, 0.06653197109699249, -0.04428345337510109]], [[0.005971078760921955, 0.019870761781930923, -0.07830274850130081], [0.010358963161706924, -0.10010026395320892, 0.011119035072624683], [-0.07071184366941452, -0.061169762164354324, 0.03470155596733093]], [[-0.011219540610909462, -0.04992597550153732, -0.023629028350114822], [-0.0030796618666499853, 0.044885262846946716, 0.06494131684303284], [0.002411725465208292, -0.08125851303339005, -0.03957890346646309]], [[-0.03097253106534481, 0.0389748141169548, -0.02645750902593136], [0.06463578343391418, -0.03624298423528671, -0.05378025025129318], [-0.021800439804792404, 0.020463168621063232, -0.03388841077685356]], [[-0.06311237066984177, 0.06926736980676651, 0.03932429477572441], [-0.08252616971731186, -0.005351467523723841, -0.01766783371567726], [-0.014854760840535164, 0.06264158338308334, 0.002561783418059349]], [[0.04424141347408295, -0.030217844992876053, -0.003563970560207963], [-0.0022772224619984627, -0.06617079675197601, -0.0700404942035675], [0.06572004407644272, -0.00782708264887333, 0.053716957569122314]], [[-0.016613133251667023, -0.0668601244688034, 0.04812401905655861], [0.08968100696802139, 0.002858643187209964, -0.05098904296755791], [0.08262695372104645, -0.06520749628543854, -0.05514068901538849]], [[0.01406051591038704, 0.0019354572286829352, 0.05600685626268387], [-0.034237537533044815, 0.02610340528190136, -0.05317990854382515], [-0.07611805945634842, 0.061454832553863525, 0.0396130196750164]]], [[[-0.04793761298060417, -0.06806061416864395, -0.01437273621559143], [0.04714519903063774, -0.06019851565361023, -0.06451232731342316], [-0.05871596932411194, -0.007872008718550205, -0.024300556629896164]], [[-0.03405376151204109, 0.05299133062362671, -0.035436421632766724], [-0.036134544759988785, 0.0753054991364479, -0.015057085081934929], [0.06113140285015106, 0.08511891216039658, -0.02002939209342003]], [[-0.008353658020496368, -0.03776673972606659, -0.019032564014196396], [-0.0015219204360619187, 0.028484206646680832, -0.010231315158307552], [-0.06642705947160721, 0.05023356154561043, 0.01650179736316204]], [[0.07013517618179321, -0.0037406287156045437, -0.03097500279545784], [-0.076904296875, -0.07074178010225296, 0.054874613881111145], [-0.10240330547094345, 0.07244592905044556, 0.07706555724143982]], [[-0.05817079171538353, -0.037376899272203445, 0.02502041682600975], [-0.06868326663970947, -0.0022492941934615374, -0.07139277458190918], [0.06359859555959702, -0.0306650809943676, 0.0733247697353363]], [[0.01311792153865099, 0.04153871536254883, 0.03066588193178177], [0.054710324853658676, 0.07907620072364807, -0.05683966353535652], [-0.008345745503902435, -0.061371490359306335, -0.02561117522418499]], [[-0.029661934822797775, 0.07045386731624603, -0.09092405438423157], [0.07196202874183655, 0.026133093982934952, 0.025047579780220985], [-0.027089795097708702, 0.009384904988110065, -0.06842593103647232]], [[-0.06671671569347382, 0.04357970505952835, -0.05140050873160362], [-0.08643568307161331, -0.08351434022188187, -0.06820698827505112], [0.018326571211218834, 0.009334295056760311, -0.07017950713634491]], [[0.002969250315800309, 0.0917435958981514, -0.025412384420633316], [0.09518758207559586, -0.05109785869717598, 0.08820651471614838], [0.0014276417205110192, 0.0743529200553894, -0.03721035644412041]], [[0.003371967701241374, -0.0465056486427784, -0.013733231462538242], [-0.03371577709913254, -0.0893029123544693, -0.018916236236691475], [-0.041691854596138, -0.002011686097830534, -0.012022486887872219]], [[0.06646096706390381, 0.0227162167429924, 0.073280468583107], [-0.06610243767499924, -0.010525518096983433, -0.011763185262680054], [0.05088609829545021, 0.07710481435060501, 0.018681317567825317]], [[0.014338603243231773, 0.028837263584136963, -0.00739230727776885], [-0.060444287955760956, -0.040718190371990204, 0.00036914151860401034], [-0.003452042816206813, 0.05743246525526047, 0.015612423419952393]], [[0.04954789951443672, -0.09792407602071762, -0.017774783074855804], [-0.04027348756790161, 0.08369843661785126, 0.010083743371069431], [-0.06254541873931885, 0.011268941685557365, -0.012291389517486095]], [[0.13024576008319855, 0.10312657803297043, 0.013687304221093655], [-0.09855453670024872, -0.042248230427503586, -0.03468029573559761], [-0.06363795697689056, 0.01599821075797081, 0.018219267949461937]], [[0.04712716490030289, -0.023945318534970284, -0.053210072219371796], [-0.005826822482049465, 0.03589152544736862, 0.023787828162312508], [0.027731262147426605, -0.013916091993451118, -0.008039644919335842]], [[-0.08743175864219666, 0.03226238861680031, 0.07034213095903397], [0.06035388261079788, 0.0011643265606835485, -0.055336058139801025], [0.05310872942209244, -0.014896713197231293, 0.009129724465310574]]], [[[0.04005523771047592, 0.06331092119216919, 0.02728382870554924], [-0.06997793912887573, 0.09066418558359146, -0.08139604330062866], [-0.007752200122922659, 0.03493887931108475, 0.040768057107925415]], [[0.041351068764925, -0.07206561416387558, -0.046202920377254486], [-0.018102893605828285, -0.07510432600975037, 0.050579868257045746], [0.05831475555896759, -0.019771786406636238, 0.05015931650996208]], [[-0.07763411849737167, -0.0571836493909359, 0.0776011124253273], [0.056422773748636246, 0.07869856804609299, -0.009427190758287907], [-0.0009443387389183044, -0.01923750527203083, 0.06236710026860237]], [[-0.06616310775279999, -0.0642910972237587, 0.05107555910944939], [0.08709517121315002, 0.030594468116760254, 0.013527711853384972], [0.041882727295160294, -0.03338845819234848, 0.02756620943546295]], [[0.024046480655670166, 0.01315972488373518, -0.07994335144758224], [0.027978189289569855, -0.05120830610394478, 0.042906489223241806], [0.021894577890634537, 0.04159339889883995, 0.08402227610349655]], [[-0.03479274734854698, 0.06505526602268219, -0.0306483693420887], [-0.04081728309392929, -0.06597581505775452, -0.003288119100034237], [0.04738257825374603, -0.05232156813144684, -0.004889020696282387]], [[0.01522511150687933, -0.024136334657669067, 0.029726913198828697], [0.024097124114632607, -0.07959549129009247, -0.0857451856136322], [0.0698247030377388, 0.07390487939119339, 0.024068517610430717]], [[-0.062364790588617325, -0.0033755230251699686, 0.023231901228427887], [0.004104039631783962, 0.08044987916946411, 0.058561015874147415], [-0.04612276703119278, -0.06944172084331512, -0.008858838118612766]], [[0.07480893284082413, -0.004336390178650618, -0.02064872346818447], [0.07464984804391861, -0.01792442426085472, -0.014662417583167553], [-0.019105471670627594, -0.004637709818780422, 0.07361603528261185]], [[-0.010714118368923664, 0.0639013946056366, -0.004496271256357431], [-0.027982715517282486, -0.02222142368555069, -0.0710492804646492], [0.005157690029591322, -0.027549127116799355, 0.04478072375059128]], [[-0.06203917786478996, 0.044171299785375595, -0.07953542470932007], [0.03445906937122345, 0.0527496412396431, 0.06702733784914017], [-0.04790355637669563, -0.003494643373414874, -0.03971845656633377]], [[-0.0037582814693450928, -0.0755138024687767, -0.04702982306480408], [0.06935715675354004, 0.01586521789431572, 0.0329340323805809], [-0.08046536147594452, 0.02900835871696472, -0.04651757329702377]], [[-0.032028645277023315, 0.02810662053525448, -0.07058222591876984], [0.026423810049891472, -0.03917574882507324, 0.03170079365372658], [0.03879324346780777, -0.05580831319093704, 0.062405165284872055]], [[0.04427425190806389, -0.05013769492506981, -0.054767608642578125], [0.03835730254650116, 0.03357462212443352, 0.04108891263604164], [0.08691207319498062, -0.05601402372121811, 0.03509615361690521]], [[0.013657012954354286, 0.0849628821015358, 0.02201760932803154], [0.018478037789463997, -0.06414010375738144, -0.02766047604382038], [-0.03265155851840973, -0.06370942294597626, 0.045134466141462326]], [[-0.021666916087269783, -0.029040701687335968, 0.06318553537130356], [0.025113550946116447, -0.07006457448005676, -0.05411521717905998], [0.07865887135267258, -0.06224677339196205, 0.026816125959157944]]], [[[-0.058683883398771286, 0.06432589143514633, 0.05420809984207153], [0.04032569378614426, -0.03875422105193138, -0.07216691970825195], [0.02018200419843197, 0.0202851053327322, -0.013863325119018555]], [[-0.07532477378845215, 0.020336395129561424, -0.07641086727380753], [0.06689964234828949, 0.0025805083569139242, -0.0783027708530426], [0.05539978668093681, 0.04718654975295067, 0.04397617280483246]], [[0.055733513087034225, 0.05791407823562622, -0.013224653899669647], [-0.07258517295122147, 0.04382973909378052, 0.007322079036384821], [-0.07543264329433441, -0.02454369328916073, -0.07946416735649109]], [[-0.07830943912267685, 0.02866320125758648, 0.025954734534025192], [0.03565624728798866, 0.04825662076473236, -0.04349367320537567], [-0.07175768166780472, -0.06387174129486084, 0.061814084649086]], [[-0.017584048211574554, 0.009239272214472294, 0.006155460141599178], [0.009459002874791622, -0.047695908695459366, -0.06352544575929642], [-0.033410780131816864, 0.03504430875182152, -0.04257878661155701]], [[0.03298215568065643, 0.02428467385470867, -0.03782257065176964], [0.059801410883665085, -0.039309028536081314, 0.06636364012956619], [-0.03895983472466469, 0.07358277589082718, -0.0665431022644043]], [[-0.03852572292089462, -0.0539231114089489, -0.04430964216589928], [-0.08302359282970428, -0.06662829220294952, 0.03938259929418564], [0.0468573197722435, -0.0708557665348053, 0.04614482447504997]], [[-0.07884764671325684, 0.03163214400410652, 0.029064839705824852], [0.0025294816587120295, -0.01772182248532772, -0.0419643372297287], [0.007541901431977749, -0.017051948234438896, 0.018024275079369545]], [[0.043381303548812866, -0.05117602273821831, -0.040613994002342224], [-0.04151934012770653, -0.009798749350011349, -0.07076099514961243], [0.02299456298351288, 0.07066059857606888, 0.005034919828176498]], [[-0.027775924652814865, 0.07200850546360016, -0.02286021038889885], [0.039740316569805145, 0.0005592895904555917, 0.002354532480239868], [-0.047095321118831635, -0.0829513818025589, 0.005393028259277344]], [[-0.04721827432513237, -0.03980940580368042, 0.012953915633261204], [-0.022925598546862602, 0.019978322088718414, 0.003326572710648179], [0.02329782396554947, -0.0719882994890213, -0.07541539520025253]], [[-0.04265645146369934, -0.05915331840515137, 0.053362540900707245], [-0.042663127183914185, 0.07879684865474701, -0.03630536049604416], [-0.04027554392814636, 0.01811598800122738, -0.006923357956111431]], [[-0.07998902350664139, -0.00876481644809246, 0.050467804074287415], [-0.07026118040084839, -0.06338123232126236, 0.057714298367500305], [-0.013876177370548248, 0.054449133574962616, 0.0712495669722557]], [[0.015975095331668854, 0.05009131133556366, 0.006215306464582682], [-0.080480195581913, 0.03707897663116455, 0.012971647083759308], [-0.02178250625729561, 0.061541080474853516, -0.07446198165416718]], [[0.024606268852949142, -0.03064202331006527, -0.06457266956567764], [-0.01611693762242794, -0.061427295207977295, -0.022383948788046837], [-0.06431177258491516, 0.07975228130817413, -0.027490805834531784]], [[-0.06310950219631195, 0.0028618117794394493, 0.06794830411672592], [-0.0025649855379015207, 0.05533699691295624, -0.04490891098976135], [0.0048721954226493835, 0.032056428492069244, 0.055153410881757736]]], [[[-0.05363907665014267, -0.011051294393837452, -0.027713477611541748], [0.05023207515478134, -0.03230807185173035, -0.0146877970546484], [-0.028633933514356613, -0.04002420976758003, 0.018067678436636925]], [[-0.07664046436548233, -0.0006961534381844103, -0.028061140328645706], [0.001277874456718564, 0.04315737634897232, 0.08856431394815445], [0.000517234904691577, 0.07913537323474884, 0.07798699289560318]], [[-0.07613108307123184, 0.012517760507762432, -0.07219266891479492], [-0.05437488853931427, -0.030726023018360138, 0.034457359462976456], [-0.03890475630760193, -0.029108289629220963, 0.01842002011835575]], [[-0.09163478016853333, -0.07405555248260498, -0.07820625603199005], [0.03593037277460098, -0.012784398160874844, -0.11497525870800018], [-0.08184387534856796, -0.08632392436265945, 0.02627997286617756]], [[-0.0011699931928887963, 0.021155118942260742, -0.04880663380026817], [-0.027354853227734566, 0.007008355110883713, 0.0388810858130455], [-0.045713167637586594, 0.0717231035232544, 0.038862310349941254]], [[0.06218467280268669, 0.013259262777864933, -0.017025543376803398], [-0.04823130741715431, 0.007948610931634903, -0.04925229027867317], [0.11145726591348648, -0.0891195759177208, 0.01502334326505661]], [[-0.05295148119330406, 0.03881853446364403, -0.045086126774549484], [0.015507725067436695, -0.048876091837882996, -0.053131841123104095], [-0.03149138391017914, 0.04257768765091896, 0.02595287375152111]], [[0.0730312168598175, 0.004331705626100302, 0.010069365613162518], [-0.05241326615214348, -0.0534781739115715, 0.027519090101122856], [0.02607917971909046, 0.06248914822936058, 0.06530541926622391]], [[-0.05280893296003342, -0.022300859913229942, 0.03917797654867172], [0.04196126013994217, 0.0018638871842995286, -0.05561744421720505], [-0.002710393164306879, -0.0591709166765213, -0.03194519504904747]], [[0.00897317472845316, -0.004473057109862566, -0.09782084077596664], [0.01979304663836956, -0.0587436817586422, 0.06974119693040848], [-0.0919068455696106, 0.020348500460386276, 0.08045821636915207]], [[-0.02320787124335766, -0.008262073621153831, 0.025191744789481163], [0.023076508194208145, 0.06186783313751221, -0.04285429045557976], [0.014363220892846584, -0.04727146029472351, -0.041533395648002625]], [[-0.0042366087436676025, 0.04066051170229912, -0.030109843239188194], [0.049356333911418915, -0.029006272554397583, -0.022872697561979294], [-0.07893016189336777, 0.07531328499317169, -0.05819584056735039]], [[0.015714650973677635, 0.06455006450414658, 0.04168892279267311], [-0.04272213950753212, 0.04852641746401787, 0.07163960486650467], [-0.05682828277349472, 0.04948507249355316, 0.004962827078998089]], [[0.06023658066987991, -0.09030431509017944, 0.03836694732308388], [0.07308490574359894, 0.07851087301969528, -0.07464157789945602], [0.04496436193585396, 0.06105731427669525, -0.011419124901294708]], [[-0.04560599476099014, -0.031048821285367012, -0.01776578649878502], [0.004794965498149395, 0.035461537539958954, 0.03426414728164673], [-0.05801386758685112, -0.03066941164433956, -0.009924921207129955]], [[-0.008845447562634945, -0.025926632806658745, 0.0016376386629417539], [0.050946008414030075, -0.058479055762290955, -0.036747045814991], [-0.026979433372616768, -0.06310354173183441, 0.02033281698822975]]], [[[0.08063918352127075, -0.03424089401960373, 0.04331956431269646], [-0.050452880561351776, -0.07270598411560059, -0.06291337311267853], [-0.012769242748618126, -0.013892441987991333, -0.03789755702018738]], [[-0.061226461082696915, 0.06829174607992172, -2.8111229767091572e-05], [-0.03504400700330734, -0.061482205986976624, -0.029556551948189735], [-0.059921663254499435, -0.04113803058862686, 0.014970265328884125]], [[-0.01676779054105282, 0.0633464902639389, 0.0004556003550533205], [-0.0495465025305748, -0.08084292709827423, 0.0013540922664105892], [-0.08475138992071152, 0.0006492631509900093, -0.07523887604475021]], [[0.056516390293836594, 0.07647938281297684, -0.00547003885731101], [0.06897295266389847, 0.07161666452884674, -0.044323358684778214], [-0.06496351212263107, 0.0191523227840662, -0.02694903314113617]], [[-0.028196465224027634, 0.049465350806713104, 0.02579897828400135], [-0.06736274808645248, 0.03078710474073887, -0.06356975436210632], [-0.04869123920798302, 0.006274864077568054, 0.03379667550325394]], [[-0.004413763992488384, -0.02157333493232727, 0.051225971430540085], [-0.0491081103682518, -0.06533651053905487, -0.0163612961769104], [-0.006714133080095053, -0.07717061787843704, -0.01754806749522686]], [[0.011275301687419415, -0.029211949557065964, 0.07098188996315002], [0.08314323425292969, 0.038849931210279465, 0.08315340429544449], [-0.049276113510131836, 0.01868279278278351, -0.029118290171027184]], [[0.0623452290892601, 0.033969372510910034, -0.04272074997425079], [-0.04128507152199745, 0.07406788319349289, -0.05314618721604347], [-0.02276240475475788, 0.0016780431615188718, -0.08106104284524918]], [[-0.06010374799370766, 0.04328795522451401, 0.05976901203393936], [0.08030186593532562, -0.007300719618797302, 0.01119960006326437], [0.0580119751393795, 0.007053700275719166, -0.04348015785217285]], [[0.03693470358848572, -0.0718204528093338, 0.06179799139499664], [0.06327429413795471, -0.08050817251205444, -0.009199708700180054], [0.07150258123874664, 0.009326108731329441, -0.021097831428050995]], [[-0.05816129222512245, -0.0671442449092865, 0.015707243233919144], [-0.0026876702904701233, 0.04469888284802437, -0.015431622974574566], [0.051119718700647354, -0.02562606707215309, 0.025202011689543724]], [[0.024271290749311447, -0.05174493044614792, -0.07363756000995636], [-0.00046634674072265625, 0.04164150357246399, -0.06336291879415512], [0.04027894139289856, 0.000857919454574585, 0.02178819105029106]], [[0.049012452363967896, 0.06622911244630814, -0.04071003198623657], [0.06274446099996567, 0.038116879761219025, -0.040562935173511505], [-0.06793089956045151, 0.07368295639753342, -0.07172680646181107]], [[-0.0247038584202528, 0.028220530599355698, -0.06806382536888123], [0.04153308644890785, -0.04947934299707413, 0.054757822304964066], [-0.07008061558008194, -0.0031685587018728256, 0.0329258069396019]], [[-0.05797392129898071, -0.05291672796010971, 0.01598408818244934], [0.015094876289367676, -0.014353394508361816, 0.0722728967666626], [-0.05832546204328537, -0.07050206512212753, 0.027325144037604332]], [[0.03395687788724899, -0.08270115405321121, 0.0682796910405159], [0.022209789603948593, 0.00897242035716772, -0.011448103003203869], [-0.014806795865297318, -0.010333484970033169, 0.00015731004532426596]]], [[[-0.01408800482749939, -0.03405093774199486, 0.07024511694908142], [-0.005530138965696096, -0.03817387670278549, 0.059243571013212204], [-0.04298786446452141, 0.017008205875754356, 0.016178231686353683]], [[-0.027876822277903557, 0.053101807832717896, 0.02767260931432247], [0.023281332105398178, 0.01931133307516575, 0.06783057749271393], [-0.054170895367860794, -0.0360478051006794, 0.04604355990886688]], [[0.00625249557197094, -0.062309253960847855, 0.08039460331201553], [-0.0626852959394455, 0.06077501177787781, -0.053935661911964417], [-0.033358097076416016, -0.07790075987577438, -0.05488831549882889]], [[-0.05847989767789841, 0.03583228588104248, -0.06160729378461838], [-0.006852420046925545, 0.0832672044634819, -0.07695866376161575], [0.04852680861949921, -0.04474456235766411, 0.07684316486120224]], [[0.0024079240392893553, 0.059384435415267944, 0.053644612431526184], [0.006012657191604376, 0.08193052560091019, 0.04812902957201004], [0.06151807680726051, 0.07981912046670914, -0.0038340233732014894]], [[-0.08465097844600677, -0.06406386196613312, -0.05828231945633888], [-0.07575009763240814, 0.02426370233297348, -0.028024472296237946], [-0.029531938955187798, -0.05766107887029648, 0.06184205785393715]], [[-0.05422360077500343, 0.019881373271346092, 0.09717678278684616], [0.002030789852142334, 0.09220732003450394, -0.052341029047966], [0.0033706407994031906, -0.10672831535339355, 0.0433460995554924]], [[-0.06013410538434982, 0.08371937274932861, 0.04090846702456474], [-0.03750471770763397, 0.0008384339162148535, -0.005125642754137516], [-0.041219789534807205, -0.020890017971396446, 0.03948940336704254]], [[0.007160533685237169, -0.00985445361584425, 0.00571146747097373], [-0.05086969584226608, -0.05785970762372017, -0.013579259626567364], [-0.01727030612528324, -0.054794520139694214, -0.06871125102043152]], [[-0.023580238223075867, 0.10187361389398575, 0.11190362274646759], [0.04895487427711487, 0.013911422342061996, -0.07461868226528168], [0.0582369863986969, -0.05330803990364075, -0.035404905676841736]], [[0.0444660484790802, 0.01123996265232563, -0.006843402050435543], [0.04460396245121956, 0.08436935395002365, 0.0072500864043831825], [-0.01950848661363125, -0.07051553577184677, -0.014687822200357914]], [[-0.06216537952423096, -0.032380275428295135, -0.04657533019781113], [-0.03881707787513733, 0.07287885248661041, -0.06742314994335175], [0.04341305419802666, 0.07942558825016022, -0.07695522904396057]], [[-0.06834882497787476, -0.02641613781452179, 0.011791125871241093], [0.017357932403683662, -0.035414114594459534, -0.029935741797089577], [-0.06550351530313492, 0.08093635737895966, -0.04277033358812332]], [[-0.08208324760198593, 0.044351816177368164, -0.07773183286190033], [0.04109375178813934, 0.04021713510155678, -0.07797717303037643], [0.04017724096775055, 0.045045603066682816, -0.021570565178990364]], [[0.01968468353152275, -0.10461805015802383, 0.039773792028427124], [0.010453017428517342, -0.0480005145072937, -0.03705370053648949], [0.006087352987378836, 0.0014300859766080976, -0.06398955732584]], [[0.037428345531225204, 0.05130435898900032, -0.050960130989551544], [0.05661005154252052, 0.06812109798192978, -0.0657956674695015], [-0.07193479686975479, 0.07846009731292725, 0.0056441184133291245]]], [[[-0.045357704162597656, -0.06776400655508041, -0.03440011665225029], [0.06498952209949493, -0.06968032568693161, 0.08070191740989685], [0.08228351920843124, -0.008935976773500443, -0.036903511732816696]], [[-0.07908110320568085, 0.05900339409708977, -0.009704315103590488], [-0.037394169718027115, 0.06347053498029709, 0.0013736783294007182], [0.07540998607873917, 0.00152724573854357, -0.05125347897410393]], [[-0.03293997049331665, -0.054354406893253326, -0.052077777683734894], [-0.0725417360663414, 0.0739254280924797, 0.06633923947811127], [-0.08350694924592972, 0.054426439106464386, 0.07105032354593277]], [[0.03911407291889191, 0.04064715653657913, 0.042710185050964355], [-0.04078337177634239, 0.07630284875631332, -0.07822860777378082], [-0.025502314791083336, 0.019469738006591797, 0.04086240008473396]], [[0.05996720865368843, -0.06423976272344589, -0.040212202817201614], [-0.009140927344560623, 0.00775549653917551, 0.005114404018968344], [0.06887654960155487, -0.03397568315267563, -0.08274208009243011]], [[0.022545814514160156, 0.00045670761028304696, 0.01807877980172634], [0.003521555569022894, 0.006006975192576647, 0.0791088193655014], [-0.059252459555864334, 0.07481557875871658, 0.07864484190940857]], [[-0.032572560012340546, -0.057951901108026505, -0.007669474463909864], [-0.04388058930635452, -0.005507119931280613, 0.0709007978439331], [-0.03709378093481064, 0.07297765463590622, -0.06892329454421997]], [[0.017838258296251297, -0.06936632841825485, 0.06507254391908646], [-0.06990105658769608, 0.051065947860479355, -0.030416816473007202], [-0.048907697200775146, 0.03866807371377945, 0.0627342090010643]], [[0.046779830008745193, 0.04338457062840462, -0.048029519617557526], [0.04443478584289551, 0.07483069598674774, -0.049433596432209015], [0.05911625549197197, 0.043009184300899506, -0.024183744564652443]], [[-0.10283883661031723, 0.016746466979384422, -0.07393793761730194], [-0.04755435511469841, -0.025274548679590225, -0.010205503553152084], [-0.025410762056708336, 0.04501326382160187, 0.04385179281234741]], [[0.061359044164419174, 0.07145105302333832, 0.00525427982211113], [0.03023877739906311, 0.06582478433847427, 0.07314257323741913], [0.06320718675851822, 0.03951800987124443, 0.02966359630227089]], [[0.016192108392715454, 0.04146219417452812, -0.012209763750433922], [0.029930751770734787, 0.05048924684524536, -0.06198819726705551], [0.005714744329452515, -0.02890358492732048, -0.06046728417277336]], [[0.02417750284075737, -0.06332515925168991, 0.001955924089998007], [-0.07118672877550125, 0.0483819879591465, 0.0629931315779686], [-0.05157190188765526, 0.01897142454981804, -0.02222854271531105]], [[0.052739307284355164, -0.03779072314500809, -0.00799733679741621], [-0.03561130911111832, 0.059189312160015106, 0.08549203723669052], [0.024859657511115074, 0.03933294862508774, 0.02358483336865902]], [[0.0089067742228508, 0.07036221027374268, -0.019675664603710175], [0.009640143252909184, -0.05998307093977928, -0.02739449217915535], [-0.03097555600106716, 0.00849100947380066, 0.05710718035697937]], [[-0.07946642488241196, 0.04837455227971077, 0.029711363837122917], [-0.05287056043744087, -0.07434838265180588, 0.07246776670217514], [-0.0030380175448954105, 0.004513072781264782, -0.06140371412038803]]], [[[-0.03368270397186279, 0.0004954636096954346, 0.07819575071334839], [-0.008050650358200073, -0.03454674407839775, -0.05445301532745361], [0.06109544634819031, 0.06277226656675339, 0.048838138580322266]], [[-0.04499581828713417, 0.035443492233753204, -0.025133121758699417], [0.020382799208164215, 0.019267557188868523, 0.016358507797122], [0.01143285259604454, 0.004840418230742216, -0.047256819903850555]], [[0.06725586950778961, 0.0015017192345112562, 0.01145689282566309], [0.0356333963572979, 0.04288372024893761, -0.06077464297413826], [-0.03904452919960022, 0.02763785421848297, 0.008335056714713573]], [[-0.061029717326164246, -0.014834419824182987, 0.010447247885167599], [0.018923215568065643, -0.05477296561002731, -0.03203047439455986], [0.015107971616089344, -0.053426533937454224, 0.0021527374628931284]], [[-0.013325359672307968, -0.0013660280965268612, -0.003445466747507453], [0.02034073695540428, -0.05449448525905609, 0.0706505998969078], [0.061930131167173386, 0.014400620944797993, -0.07306098937988281]], [[-0.00042133370880037546, 0.004816247615963221, -0.05196848139166832], [0.04953223094344139, 0.028454340994358063, -0.029648959636688232], [0.000588559138122946, 0.0826808512210846, -0.029700275510549545]], [[0.029358278959989548, -0.04389176890254021, -0.07109161466360092], [-0.06965324282646179, 0.0248462725430727, 0.042848020792007446], [0.004534543491899967, -0.1110905110836029, 0.07170780748128891]], [[0.0767570286989212, -0.04855742305517197, 0.005777269136160612], [-0.031985070556402206, -0.05206727236509323, -0.04522101953625679], [0.0797894150018692, -0.07415761053562164, -0.013861340470612049]], [[-0.013839839957654476, 0.03267853707075119, -0.042275186628103256], [0.07485564798116684, -0.04326922073960304, 0.04452402889728546], [0.0007886659586802125, 0.07753260433673859, 0.014002594165503979]], [[0.05475088953971863, 0.0034663432743400335, 0.01721225678920746], [-0.06380119919776917, -0.05330856516957283, -0.06721869111061096], [0.1267697662115097, 0.010158942081034184, -0.08174846321344376]], [[0.06779123097658157, -0.06128787249326706, 0.017081623896956444], [-0.011930255219340324, -0.016982652246952057, -0.0008001140085980296], [0.028554042801260948, 0.06781260669231415, -0.06417401880025864]], [[0.059271425008773804, 0.05863344669342041, 0.0583215169608593], [0.030552219599485397, 0.01743580959737301, 0.03320267051458359], [-0.05640149116516113, 0.04479817673563957, -0.04739322513341904]], [[0.00403393991291523, -0.023442912846803665, -0.03804215416312218], [0.04671644791960716, -0.04369886592030525, -0.06989137083292007], [-0.012518282979726791, 0.024950627237558365, -0.009120642207562923]], [[0.06852345913648605, 0.04306485876441002, 0.016764072701334953], [-0.0005058146198280156, 0.03798951581120491, 0.04696623608469963], [0.056058887392282486, -0.09630269557237625, 0.037457175552845]], [[0.09087113291025162, 0.027824413031339645, -0.021798150613904], [0.051657453179359436, 0.03252335637807846, -0.03948083519935608], [0.07508718967437744, 0.08557774871587753, -0.030876019969582558]], [[0.07564214617013931, 0.058327995240688324, -0.004036376252770424], [-0.06877277046442032, -0.04730279743671417, -0.0587540939450264], [0.073671855032444, 0.06337010115385056, -0.0032511167228221893]]]], "encoder.6.bias": [0.010657170787453651, 0.04408390447497368, -0.0025942306965589523, 0.030978847295045853, 0.09102680534124374, -0.027620701119303703, -0.00036478330730460584, -0.0034200558438897133, 0.10728983581066132, -0.07453438639640808, 0.021864721551537514, -0.03156566247344017, -0.05934785678982735, 0.07796558737754822, 0.0701298788189888, 0.057463303208351135], "encoder.8.weight": [[[[-0.030501512810587883, -0.06778763234615326, 0.002078237244859338], [0.09519848227500916, 0.036635980010032654, -0.03575042262673378], [0.09866238385438919, -0.02582481876015663, -0.029758699238300323]], [[-0.07084876298904419, 0.05917860567569733, -0.03964756429195404], [0.037216413766145706, 0.01225636899471283, 0.1265522986650467], [0.004264198709279299, 0.0835719183087349, 0.03915796056389809]], [[0.036817193031311035, 0.03557855635881424, -0.02278476022183895], [-0.030181676149368286, -0.020047271624207497, 0.032076992094516754], [0.09322522580623627, -0.013769183307886124, -0.042383596301078796]], [[0.016503669321537018, 0.04426319897174835, -0.06741777807474136], [0.07362965494394302, 0.07816765457391739, 0.029331926256418228], [-0.0746477022767067, 0.05346843600273132, -0.006422965321689844]], [[-0.09571783989667892, -0.01663217507302761, -0.07057546079158783], [0.016888799145817757, 0.049950312823057175, 0.1094571128487587], [-0.06085248291492462, -0.004879651591181755, 0.058202244341373444]], [[0.07853960245847702, 0.042458295822143555, -0.06431783735752106], [0.033109743148088455, -0.050555333495140076, -0.04279693216085434], [-0.05840132385492325, 0.03733906149864197, 0.048858437687158585]], [[-0.07515135407447815, -0.0003697053762152791, 0.11361745744943619], [0.08311941474676132, 0.041867129504680634, 0.054100871086120605], [-0.07103832811117172, -0.03897297754883766, -0.0026310135144740343]], [[0.045486029237508774, -0.03989412263035774, 0.09083851426839828], [0.05738944187760353, -0.015358846634626389, 0.04556931555271149], [-0.07002748548984528, -0.048567552119493484, 0.042079146951436996]], [[0.004404885694384575, -0.042329393327236176, -0.03240117058157921], [0.10719013214111328, 0.11146310716867447, -0.048129476606845856], [0.06263422220945358, -0.004050965420901775, 0.011232197284698486]], [[-0.039022743701934814, 0.054842639714479446, 0.08026517182588577], [-0.008025944232940674, -0.07304437458515167, -0.0655430257320404], [-0.009252795949578285, 0.020394381135702133, 0.07558581978082657]], [[0.03062838315963745, -0.018278714269399643, 0.017386090010404587], [-0.06970000267028809, 0.0669136643409729, 0.017388325184583664], [-0.08005493879318237, 0.05653601512312889, -0.023097943514585495]], [[-0.05578421428799629, 0.04020111635327339, -0.062302108854055405], [0.05112069472670555, 0.017096178606152534, -0.021751685068011284], [-0.075442835688591, -0.017107179388403893, -0.05330272391438484]], [[-0.04552290961146355, -0.012413760647177696, 0.008105477318167686], [-0.06946943700313568, -0.02352379821240902, -0.059421829879283905], [0.013147680088877678, -0.03950151801109314, 0.031219473108649254]], [[0.0450541190803051, 0.05204659700393677, 0.018601858988404274], [-0.014313838444650173, 0.03686203435063362, -0.057740721851587296], [-0.028267094865441322, -0.039313431829214096, -0.02028743550181389]], [[0.004259535577148199, -0.06313131004571915, 0.06381364911794662], [-0.033044662326574326, 0.02532997727394104, -0.059942107647657394], [0.003420004853978753, -0.07615853101015091, -0.031527575105428696]], [[0.03756716474890709, 0.029392775148153305, -0.0201928298920393], [-0.04955676570534706, 0.06189343333244324, 0.018562698736786842], [0.042509693652391434, -0.05833771452307701, 0.036332786083221436]]], [[[0.033361952751874924, -0.006750807166099548, -0.022997094318270683], [-0.003953357692807913, -0.07132565230131149, -0.018342185765504837], [-0.07508394122123718, 0.041830286383628845, 0.006326167844235897]], [[0.06368814408779144, -0.09285510331392288, -0.017651958391070366], [0.014338416047394276, -0.11536543071269989, -0.00757540762424469], [-0.005622376687824726, -0.1112825870513916, -0.09999241679906845]], [[0.027357496321201324, -0.017365338280797005, -0.031360480934381485], [-0.04590360075235367, 0.049424562603235245, 0.06622542440891266], [0.029892122372984886, -0.026937279850244522, 0.0048373485915362835]], [[-0.019129205495119095, 0.015607431530952454, 0.06079778075218201], [-0.07603571563959122, 0.0230157021433115, -0.051547978073358536], [-0.0073135122656822205, 0.05017898604273796, 0.05297231301665306]], [[-0.03834310919046402, 0.03611541539430618, 0.07771626114845276], [-0.06844783574342728, 0.04533042758703232, -0.0550682432949543], [-0.0854828879237175, 0.06397869437932968, -0.0883173868060112]], [[0.028906425461173058, -0.009900087490677834, -0.003167751943692565], [0.055290430784225464, 0.07462335377931595, -0.028450047597289085], [-0.055529188364744186, 0.02339901775121689, 0.08362507820129395]], [[0.028181659057736397, 0.0922975093126297, -0.031397998332977295], [-0.0417349673807621, 0.03005889058113098, 0.022394811734557152], [0.054622069001197815, 0.012555447407066822, 0.03136582300066948]], [[-0.020496966317296028, -0.060401320457458496, -0.0033744603861123323], [0.027187885716557503, 0.016957221552729607, 0.036113690584897995], [0.07141107320785522, -0.03816642612218857, -0.04641781747341156]], [[0.016820237040519714, 0.04432639852166176, 0.023675331845879555], [0.006851909216493368, -0.029077792540192604, 0.051052458584308624], [0.017695818096399307, -0.10886384546756744, 0.0668162852525711]], [[-0.019296731799840927, 0.06859222054481506, 0.0013553161406889558], [0.010427623055875301, -0.002660626545548439, 0.04766036942601204], [0.010933850891888142, -0.003201175481081009, -0.04367179423570633]], [[-0.0689864382147789, -0.017091182991862297, -0.06277468800544739], [-0.08115758746862411, 0.012691411189734936, -0.074288509786129], [-0.03197223320603371, 0.019078323617577553, 0.06778495013713837]], [[-0.03173322230577469, -0.07255251705646515, 0.053407616913318634], [0.08125059306621552, 0.0636720359325409, 0.07102701812982559], 