{"encoder.0.weight": [[[[-0.16414834558963776, 0.16693298518657684, 0.25283461809158325], [0.1496705859899521, -0.09592961519956589, 0.048555295914411545], [0.2906109690666199, 0.13677401840686798, 0.32556912302970886]]], [[[-0.049467895179986954, -0.020461875945329666, 0.04024669528007507], [-0.14327913522720337, 0.1761535257101059, -0.27550074458122253], [-0.1718926876783371, 0.19157002866268158, -0.1164999008178711]]], [[[-0.0024470738135278225, 0.03914589434862137, -0.3425655961036682], [0.02845623902976513, -0.1590867042541504, 0.3162088394165039], [0.20026622712612152, -0.07797117531299591, -0.03558146953582764]]], [[[0.1896924078464508, 0.07178444415330887, -0.012394304387271404], [0.20404362678527832, 0.046445056796073914, 0.2988485097885132], [-0.2601247727870941, -0.09951578080654144, 0.3168931305408478]]], [[[-0.30693021416664124, 0.012408925220370293, 0.30881035327911377], [-0.27537044882774353, 0.20869077742099762, 0.24242451786994934], [-0.10895056277513504, -0.27458807826042175, 0.1952124834060669]]], [[[0.10310248285531998, 0.30618053674697876, 0.13369394838809967], [-0.10193035006523132, -0.02573600597679615, -0.09447760879993439], [0.2769774794578552, 0.1960637867450714, -0.2188066989183426]]], [[[-0.11026577651500702, 0.2995288074016571, 0.19080162048339844], [0.21882376074790955, 0.31105729937553406, 0.26620161533355713], [-0.2037520557641983, -0.2083374410867691, -0.26033586263656616]]], [[[0.18210773169994354, -0.09044740349054337, -0.3028919994831085], [0.2096867710351944, 0.14572623372077942, 0.1319633275270462], [0.19740864634513855, -0.22733619809150696, 0.15219350159168243]]]], "encoder.0.bias": [0.08644023537635803, 0.32747113704681396, -0.12913945317268372, -0.35735616087913513, -0.3091227114200592, -0.227300763130188, -0.2941402196884155, 0.03870360925793648], "encoder.2.weight": [[[[-0.060992978513240814, 0.10702911019325256, 0.0781647339463234], [0.08253319561481476, -0.028479183092713356, -0.06185723841190338], [0.004390425980091095, 0.08218186348676682, -0.1011209636926651]], [[0.2873231768608093, -0.19320262968540192, 0.2930607795715332], [0.1523120254278183, -0.02293258160352707, 0.03264409676194191], [0.10991495102643967, -0.11659470945596695, -0.02723911590874195]], [[0.04675333946943283, 0.027997221797704697, -0.0733637586236], [0.014210953377187252, 0.04049788787961006, -0.13733915984630585], [-0.12390158325433731, -0.18279333412647247, 2.781351940939203e-05]], [[0.08774673193693161, 0.03192032501101494, 0.047727543860673904], [0.025809811428189278, 0.026070909574627876, 0.07605820894241333], [-0.03687046095728874, -0.10165929049253464, -0.10877130925655365]], [[-0.052252642810344696, 0.07312014698982239, 0.08110027015209198], [0.09474953263998032, 0.13185562193393707, -0.05033660680055618], [0.05900547653436661, -0.0221225805580616, -0.12941142916679382]], [[-0.1086617037653923, 0.0011012241011485457, 0.11150307953357697], [-0.013619502075016499, 0.0999700054526329, 0.03078007698059082], [0.05558980628848076, -0.004005039110779762, 0.06769411265850067]], [[0.08804230391979218, -0.009270279668271542, -0.10621605813503265], [-0.003718606662005186, 0.0572836697101593, 0.03390340507030487], [0.05998225882649422, 0.08647163212299347, -0.004874357488006353]], [[-0.03307146206498146, 0.05337822437286377, -0.004190855193883181], [-0.07397337257862091, -0.048923641443252563, 0.03063083253800869], [-0.1183285117149353, 0.08033223450183868, -0.04696362093091011]]], [[[-0.035150494426488876, -0.09691484272480011, 0.04078290984034538], [0.03797116130590439, -0.1012822836637497, 0.07512015104293823], [-0.008462667465209961, -0.07227306067943573, -0.04541079327464104]], [[-0.17229044437408447, -0.4206341505050659, -0.1355890929698944], [-0.11747810244560242, -0.21693018078804016, -0.19056464731693268], [-0.2069530189037323, -0.2503409683704376, 0.16211363673210144]], [[-0.09965919703245163, -0.04914011061191559, -0.07971569895744324], [0.06808357685804367, 0.06194961071014404, -0.10481040179729462], [0.10120631754398346, 0.0654180720448494, 0.0381254181265831]], [[-0.03107786364853382, -0.03773040324449539, 0.025342123582959175], [0.086087167263031, 0.07771338522434235, 0.07309070974588394], [0.09132116287946701, -0.023025471717119217, -0.01438201405107975]], [[-0.13720369338989258, -0.12916123867034912, -0.11672955751419067], [-0.036368049681186676, -0.13008177280426025, 0.02524314634501934], [-0.08410565555095673, -0.07359535247087479, -0.1690654456615448]], [[0.055520664900541306, 0.1171593889594078, -0.09447804093360901], [0.0025985250249505043, 0.05203332379460335, 0.09300026297569275], [-0.04149297624826431, -0.10248260200023651, -0.07390499860048294]], [[0.09493867307901382, -0.02848304994404316, 0.10213460773229599], [0.04568805545568466, 0.08937947452068329, -0.11184313148260117], [0.046937908977270126, -0.041734348982572556, 0.003211607923731208]], [[-0.005693955812603235, -0.10770294815301895, 0.11162015050649643], [-0.004304706584662199, 0.07320073246955872, 0.1084139347076416], [-0.009384599514305592, 0.014833873137831688, 0.10241519659757614]]], [[[-0.0744187980890274, 0.02150893211364746, -0.055715810507535934], [-0.04560326784849167, -0.004638625308871269, 0.09870690107345581], [-0.09036658704280853, 0.10864714533090591, -0.048791803419589996]], [[0.24740497767925262, -0.03541097417473793, 0.17778639495372772], [0.1109560951590538, -0.2882021963596344, -0.03216908499598503], [0.14161081612110138, 0.054531317204236984, 0.057508159428834915]], [[-0.18081586062908173, -0.005222045350819826, -0.04047655314207077], [0.06180531159043312, -0.06592226028442383, -0.018728164955973625], [-0.020672883838415146, 0.04949378967285156, 0.05375844985246658]], [[-0.07073953002691269, -0.0926545113325119, 0.09409680962562561], [-0.03569016978144646, -0.02371605858206749, -0.006612420082092285], [-0.04609669744968414, 0.08492118120193481, 0.12996350228786469]], [[-0.08836723864078522, -0.03505864366889, 0.15978394448757172], [0.01979777403175831, 0.0660979375243187, 0.025301503017544746], [0.1017933115363121, 0.07228218019008636, 0.11491698771715164]], [[0.07890824228525162, -0.05092454329133034, 0.03124823048710823], [0.09514770656824112, -0.1141321137547493, 0.0986568033695221], [0.007439330220222473, 0.07500864565372467, -0.043743155896663666]], [[-0.02513192407786846, -0.028949404135346413, 0.07833033800125122], [-0.015478928573429585, -0.09077130258083344, -0.072716623544693], [0.017937898635864258, -0.05007746070623398, 0.08569922298192978]], [[-0.10695623606443405, -0.0046767182648181915, 0.08670993149280548], [-0.041466496884822845, -0.03243446722626686, 0.04621396213769913], [0.004740816541016102, 0.058400627225637436, -0.008117069490253925]]], [[[-0.07949954271316528, 0.05792881175875664, 0.09254159033298492], [0.08362468332052231, 0.10162968933582306, 0.07338698208332062], [0.09980227798223495, -0.05301012098789215, -0.11828536540269852]], [[0.06042121723294258, 0.005828790366649628, 0.0061586834490299225], [0.1011882871389389, 0.049971677362918854, -0.144493967294693], [0.06203525513410568, -0.15903204679489136, -0.19079279899597168]], [[0.03271408751606941, 0.06970364600419998, 0.12487207353115082], [0.06156781688332558, 0.007471232209354639, 0.07210661470890045], [-0.05201883986592293, -0.000183823038241826, 0.09966149926185608]], [[-2.3055245037539862e-05, -0.0521845743060112, -0.0758235976099968], [-0.1083323284983635, 0.011777034029364586, -0.11439067125320435], [0.019763391464948654, 0.06830969452857971, 0.017653465270996094]], [[0.11197109520435333, 0.06333974003791809, 0.03834722191095352], [-0.0561012402176857, 0.057552654296159744, 0.02295790985226631], [0.07440987974405289, 0.05921347811818123, 0.11638616770505905]], [[-0.04777471348643303, -0.02336815744638443, 0.0693875253200531], [0.055912043899297714, 0.02723590098321438, 0.09640470892190933], [0.0125964330509305, -0.08033543825149536, 0.027568981051445007]], [[-0.006775546818971634, 0.06678210943937302, 0.082051120698452], [-0.09551355987787247, -0.08706055581569672, 0.11955443769693375], [-0.11617065966129303, 0.014739282429218292, -0.11508996784687042]], [[0.07681800425052643, 0.024411164224147797, 0.012326490134000778], [0.004159839823842049, 0.11624404042959213, -0.06482265144586563], [-0.09159018099308014, -0.03808661550283432, -0.08866500109434128]]], [[[-0.03602846339344978, 0.05796831101179123, 0.039396584033966064], [-0.005479342304170132, 0.012603764422237873, -0.05064017325639725], [0.023966077715158463, 0.021334024146199226, -0.053866077214479446]], [[-0.04707404971122742, 0.2453177571296692, 0.05416944622993469], [0.1601351797580719, 0.06554779410362244, -0.020276790484786034], [-0.16574861109256744, 0.029744410887360573, -0.04069029912352562]], [[0.16778664290905, 0.018048381432890892, 0.08577308058738708], [-0.09943029284477234, -0.09830904006958008, 0.02527230978012085], [-0.030251942574977875, 0.0714322179555893, 0.07705707103013992]], [[-0.08978284895420074, -0.09514479339122772, 0.0886772945523262], [0.03555421903729439, 0.07271038740873337, 0.0658060684800148], [0.08434542268514633, -0.019132906571030617, -0.06753357499837875]], [[-0.08359996974468231, 0.1212678849697113, -0.03552781790494919], [-0.11606098711490631, -0.008666357956826687, -0.03320987895131111], [0.059707872569561005, -0.1369495391845703, -0.025434263050556183]], [[-0.11903751641511917, -0.06646029651165009, -0.02160903811454773], [-0.06948283314704895, 0.014201989397406578, 0.10346612334251404], [0.07999974489212036, 0.12374143302440643, -0.051368869841098785]], [[-0.04799702763557434, 0.08091344684362411, -0.0299982912838459], [0.018864886835217476, -0.057054512202739716, 0.05225126072764397], [0.04630061611533165, -0.021035131067037582, 0.017573608085513115]], [[-0.010062223300337791, -0.06740705668926239, -0.10538197308778763], [0.03386915102601051, 0.026335420086979866, 0.11162790656089783], [-0.054818443953990936, 0.10268052667379379, -0.030788065865635872]]], [[[0.0125960074365139, -0.10293332487344742, 0.047361087054014206], [0.00012718037760350853, 0.11785313487052917, -0.10673893243074417], [-0.013623052276670933, -0.0281663965433836, -0.02819656953215599]], [[-0.2906841039657593, -0.32394173741340637, 0.2871865928173065], [-0.2248195856809616, -0.5611430406570435, 0.05625801905989647], [-0.005324451718479395, -0.4011419415473938, 0.027067555114626884]], [[-0.10534780472517014, 0.15690237283706665, 0.07514861226081848], [0.1208115890622139, 0.03134949505329132, 0.1704343557357788], [-0.028518181294202805, 0.0705554336309433, 0.0822397917509079]], [[-0.09655172377824783, 0.10216192901134491, -0.07450661808252335], [-0.020760955289006233, 0.06188798323273659, 0.1149076372385025], [-0.00831915158778429, -0.09224565327167511, -0.10807625204324722]], [[-0.010389324277639389, 0.106068454682827, -0.06516899913549423], [0.06915305554866791, -0.006079657468944788, 0.1830262988805771], [0.0326073132455349, 0.12717171013355255, -0.045104071497917175]], [[-0.10753638297319412, 0.06715026497840881, -0.09389584511518478], [-0.03535931557416916, 0.008508254773914814, 0.002297129947692156], [0.031294479966163635, 0.025267265737056732, 0.09339672327041626]], [[0.09736590087413788, 0.0092612374573946, -0.061871208250522614], [-0.03412887081503868, -0.08820325136184692, 0.043449100106954575], [0.07072043418884277, 0.07470379769802094, 0.020045869052410126]], [[0.07460032403469086, 0.12518905103206635, -0.10635633766651154], [-0.019857853651046753, 0.12001653760671616, 0.05205171927809715], [0.12560050189495087, -0.06417181342840195, -0.04578142240643501]]], [[[-0.04070808365941048, 0.005080004688352346, -0.06791673600673676], [0.08035897463560104, 0.10518460720777512, 0.08901584893465042], [-0.09844935685396194, 0.0754501223564148, 0.09162183851003647]], [[0.4888184666633606, 0.025741614401340485, 0.2611810266971588], [0.08131297677755356, 0.0847797617316246, -0.2643631100654602], [0.12564438581466675, 0.12835390865802765, -0.039288315922021866]], [[-0.11240097135305405, -0.06467684358358383, 0.0305341687053442], [0.07112912088632584, -0.10172612965106964, -0.027554789558053017], [0.13409020006656647, -0.03748259320855141, -0.00568365165963769]], [[-0.0701962262392044, 0.06423115730285645, 0.009568779729306698], [-0.10045548528432846, 0.06697171926498413, 0.08663691580295563], [0.08005055785179138, -0.10614339262247086, -0.04787852615118027]], [[0.06120355799794197, -0.18120260536670685, 0.048351529985666275], [-0.14695291221141815, -0.07645804435014725, -0.07486531138420105], [-0.17254765331745148, -0.11528470367193222, 0.07898306846618652]], [[-0.09848091006278992, -0.055325645953416824, 0.10334444791078568], [-0.053769972175359726, -0.060278356075286865, -0.07127369195222855], [0.04362039640545845, -0.02982191927731037, -0.07015765458345413]], [[-0.06839128583669662, -0.07802404463291168, -0.09923898428678513], [-0.050634581595659256, 0.10737483203411102, -0.03450443223118782], [-0.04669851064682007, -0.029081076383590698, -0.005835060495883226]], [[0.07740728557109833, 0.05467692017555237, -0.11290038377046585], [-0.04304921627044678, 0.0760846808552742, 0.07609949260950089], [-0.0046156104654073715, 0.11334846913814545, -0.08280965685844421]]], [[[0.013134929351508617, -0.08840353041887283, -0.08574402332305908], [0.014546956866979599, 0.044825732707977295, -0.03146768733859062], [-0.06028590351343155, 0.010877932421863079, -0.03820864483714104]], [[0.1423330456018448, 0.264991819858551, -0.27611497044563293], [-0.03629780560731888, 0.2900843620300293, -0.03779412433505058], [-0.13547106087207794, -0.0754324272274971, 0.13030791282653809]], [[-0.06248723715543747, 0.1651533991098404, -0.06227683648467064], [0.13355927169322968, -0.19402895867824554, 0.027326954528689384], [0.026879940181970596, -0.1634141057729721, -0.02201800048351288]], [[-0.040296297520399094, 0.04732131585478783, -0.08391259610652924], [-0.08466651290655136, -0.12347910553216934, -0.10926391929388046], [-0.06699008494615555, 0.13880300521850586, 0.030650611966848373]], [[0.04982829838991165, 0.10068187117576599, -0.13769422471523285], [0.12235452234745026, -0.052035219967365265, -0.10798811912536621], [0.05058128759264946, 0.10772215574979782, -0.0948319286108017]], [[0.02063334360718727, -0.017580945044755936, -0.025057164952158928], [0.10477044433355331, 0.0026389870326966047, 0.07431969046592712], [0.01884513534605503, 0.0003105807991232723, -0.08695226907730103]], [[-0.11188685148954391, 0.08926329761743546, -0.04033629968762398], [0.060048431158065796, -0.07521387189626694, 0.04257587715983391], [0.12512187659740448, 0.14711672067642212, 0.10222798585891724]], [[-0.043133050203323364, -0.015742452815175056, 0.04454479366540909], [-0.022721722722053528, -0.0996265783905983, -0.0264096911996603], [0.05886244773864746, -0.07156801968812943, 0.11632391065359116]]]], "encoder.2.bias": [-0.12471757084131241, -0.13843367993831635, 0.09343667328357697, 0.08501219004392624, -0.05043628066778183, 0.0824873298406601, -0.01058183703571558, 0.010948977433145046], "encoder.4.weight": [[[[0.021905366331338882, -0.10048001259565353, -0.034302134066820145], [-0.07966332882642746, 0.07539865374565125, -0.0031669409945607185], [-0.08540774881839752, -0.0014335713349282742, -0.04943983256816864]], [[-0.018031826242804527, 0.06422954052686691, -0.03384610638022423], [0.06510129570960999, -0.03715694695711136, 0.08478665351867676], [0.004875284153968096, -0.014662041328847408, 0.04752897843718529]], [[-0.09588083624839783, 0.07560016959905624, -0.10059104114770889], [-0.05761655792593956, -0.032709673047065735, 0.040141165256500244], [-0.02474631741642952, -0.0710315927863121, -0.0490499883890152]], [[-0.013670309446752071, 0.09593883901834488, 0.13998273015022278], [0.06699959933757782, 0.09877493232488632, 0.16807058453559875], [-0.08543739467859268, -0.06892664730548859, -0.036148883402347565]], [[0.12177282571792603, -0.07460113614797592, 0.06549756228923798], [0.007229166571050882, 0.06085675582289696, -0.11009415239095688], [0.05779910087585449, -0.03803219646215439, 0.004961514379829168]], [[-0.09918805211782455, -0.07874977588653564, -0.06489343196153641], [-0.07471330463886261, 0.07094838470220566, 0.04370683804154396], [0.08281926810741425, 0.02118530124425888, -0.21046313643455505]], [[0.04705556854605675, -0.22032380104064941, 0.07907167822122574], [-0.03097466751933098, 0.04803029075264931, 0.1393802911043167], [-0.02700972929596901, -0.0415562205016613, 0.17842698097229004]], [[-0.27613604068756104, -0.0553128644824028, 0.04701549559831619], [0.012656518258154392, 0.014021423645317554, -0.03541947901248932], [0.05869005620479584, -0.02723066508769989, -0.021596664562821388]]], [[[0.03911743685603142, -0.09614221006631851, 0.040721964091062546], [0.012386463582515717, 0.06474702805280685, 0.08155349642038345], [0.03340214863419533, -0.07674406468868256, -0.0916459783911705]], [[-0.012699234299361706, -0.05889226123690605, -6.857257540104911e-05], [0.010564911179244518, 0.07180775701999664, 0.09490396827459335], [-0.06091690808534622, -0.042568981647491455, 0.09074575453996658]], [[-0.11933254450559616, -0.011296330951154232, 0.06806520372629166], [0.08526239544153214, -0.1479317843914032, -0.017129164189100266], [0.07815367728471756, 0.1009599044919014, -0.10402888059616089]], [[-0.0740252435207367, -0.06572581082582474, 0.09929917752742767], [0.10749122500419617, -0.004457118920981884, -0.10027289390563965], [-0.08573632687330246, -0.06511706858873367, -0.002010978991165757]], [[0.11981754750013351, -0.03911760076880455, 0.13680677115917206], [-0.1392030417919159, -0.02172842249274254, 0.03804374858736992], [-0.100924052298069, -0.04396155849099159, -0.02231435291469097]], [[-0.11317020654678345, 0.07556972652673721, 0.09203796088695526], [0.09420912712812424, 0.04440611973404884, 0.05081089586019516], [-0.023383084684610367, -0.007373868953436613, -0.0029975364450365305]], [[0.15973830223083496, -0.09374631941318512, -0.15204881131649017], [-0.06988969445228577, 0.004827286582440138, 0.1405884474515915], [-0.0321512296795845, 0.06733628362417221, -0.0965145081281662]], [[0.1287137269973755, -0.0006628714618273079, -0.19064746797084808], [-0.14337889850139618, 0.10327751934528351, -0.3261106610298157], [-0.004601411521434784, -0.05334033444523811, -0.1444399654865265]]], [[[-0.09834752976894379, -0.1097135841846466, 0.04391000047326088], [-0.038118597120046616, -0.10663779824972153, -0.02728399448096752], [0.07993169128894806, 0.037660956382751465, 0.04179999232292175]], [[-0.02203676849603653, -0.07900441437959671, 0.06257720291614532], [-0.036976028233766556, 0.027636606246232986, 0.01747618429362774], [-0.020619172602891922, -0.06705770641565323, -0.011142389848828316]], [[0.08042638748884201, 0.04645977169275284, -0.07714595645666122], [0.035570334643125534, -0.1311568319797516, 0.055264003574848175], [0.1390225738286972, 0.005636988673359156, -0.11875974386930466]], [[0.12310568988323212, 0.09153643250465393, -0.05885877087712288], [-0.07784604281187057, 0.007155241444706917, -0.012989322654902935], [0.038304805755615234, 0.041204776614904404, -0.009881757199764252]], [[-0.009604712948203087, -0.13114863634109497, 0.16247884929180145], [-0.10341182351112366, 0.0685838982462883, 0.10764411091804504], [-0.005399007815867662, 0.04793103411793709, 0.06673241406679153]], [[-0.03918396309018135, -0.0727919489145279, -0.06051631644368172], [-0.06463300436735153, -0.03246217966079712, 0.11266306042671204], [-0.0931033343076706, 0.11003320664167404, -0.01600634679198265]], [[0.0948491021990776, 0.0885760560631752, -0.05599924549460411], [-0.05265534296631813, -0.00851512048393488, 0.001880717114545405], [-0.03405381739139557, 0.006503596436232328, -0.03527248650789261]], [[-0.06567255407571793, 0.018170014023780823, -0.04831111803650856], [-0.07288116961717606, 0.012198496609926224, -0.1945713460445404], [-0.1341184377670288, 0.028696607798337936, 0.13547596335411072]]], [[[0.03841047361493111, 0.09930270165205002, -0.037134185433387756], [0.0531616248190403, 0.07678178697824478, 0.08109623938798904], [0.035359323024749756, -0.007204951718449593, -0.12530477344989777]], [[-0.08109094202518463, 0.06968506425619125, -0.08334221690893173], [-0.09106454253196716, 0.0003592715656850487, -0.08344319462776184], [0.11151256412267685, -0.06854016333818436, -0.1222575232386589]], [[0.0933568999171257, -0.04582749307155609, 0.11349683254957199], [-0.00736090587452054, 0.08937998116016388, 0.05232397839426994], [-0.11783572286367416, 0.12710663676261902, 0.047984592616558075]], [[0.036441732197999954, -0.09896529465913773, 0.10462673008441925], [-0.06449277698993683, 0.06977417320013046, 0.08685749769210815], [0.05988600105047226, -0.013644051738083363, -0.09932058304548264]], [[-0.022503629326820374, -0.017259472981095314, -0.03699640557169914], [-0.045156627893447876, -0.05231616646051407, 0.08007782697677612], [0.005681810434907675, 0.0480613112449646, -0.10094799846410751]], [[-0.16019612550735474, -0.060106102377176285, -0.02010965906083584], [-0.13566765189170837, -0.13718439638614655, 0.011764295399188995], [-0.042414143681526184, -0.009498336352407932, 0.0837576687335968]], [[-0.06971729546785355, 0.0018120523309335113, 0.016981186345219612], [-0.05997128412127495, -0.054176539182662964, -0.06414225697517395], [-0.006564042530953884, 0.08584266901016235, -0.023329107090830803]], [[-0.09580166637897491, 0.1285066157579422, -0.05535179749131203], [-0.03506604954600334, 0.05433908477425575, 0.03815511241555214], [0.11456861346960068, -0.0013020389014855027, -0.07467848807573318]]], [[[-0.11518168449401855, -0.21136093139648438, -0.1196364313364029], [-0.057802457362413406, -0.03390549123287201, -0.08724155277013779], [0.041868265718221664, 0.10103261470794678, 0.09606599807739258]], [[-0.10246732085943222, -0.10746563971042633, -0.09358696639537811], [-0.0452207550406456, -0.10248414427042007, -0.04323307424783707], [-0.11691071838140488, 0.07128704339265823, -0.057077500969171524]], [[-0.04534171149134636, 0.11412204056978226, 0.1306576430797577], [-0.027053887024521828, -0.044590190052986145, 0.07086553424596786], [0.10586494207382202, 0.006683738902211189, -0.056600842624902725]], [[0.1509149819612503, -0.13980288803577423, 0.04206925258040428], [-0.13464491069316864, -0.09835206717252731, -0.023140976205468178], [-0.10175924003124237, -0.050148990005254745, -0.012178835459053516]], [[-0.09410812705755234, 0.11015944927930832, -0.06335988640785217], [-0.04373166337609291, -0.0780239924788475, 0.055238060653209686], [0.08121734857559204, -0.005747285671532154, -0.06328685581684113]], [[0.1111682802438736, 0.10153549164533615, 0.10894135385751724], [0.13182303309440613, -0.08597472310066223, 0.03764829784631729], [-0.05644522234797478, 0.0071488735266029835, -0.034564558416604996]], [[0.1289789080619812, -0.00967380404472351, 0.05408857762813568], [0.010987404733896255, -0.05209072306752205, -0.05080598220229149], [0.13568095862865448, -0.0314817950129509, 0.07028420269489288]], [[0.1331530064344406, -0.0008498799870721996, 0.06571952253580093], [0.02736438810825348, 0.11207306385040283, 0.0411582887172699], [0.00036756828194484115, -0.09141290187835693, 0.17512694001197815]]], [[[-0.11476156860589981, 0.0582929328083992, 0.07072170823812485], [-0.08564193546772003, 0.11925601214170456, -0.0031660660170018673], [0.046525340527296066, -0.10092155635356903, -0.08903690427541733]], [[0.026584014296531677, 0.10572945326566696, -0.06719904392957687], [-0.11094348877668381, 0.07697335630655289, 0.0045568374916911125], [-0.08331179618835449, -0.007936034351587296, 0.09675605595111847]], [[-0.10586374253034592, -0.043874770402908325, 0.017690250650048256], [0.030790599063038826, 0.026229020208120346, 0.08256303519010544], [0.10705412179231644, 0.06677206605672836, -0.03228852525353432]], [[-0.12709671258926392, 0.05447102710604668, -0.0005978678236715496], [0.04322582110762596, 0.014394237659871578, 0.024454113095998764], [0.06809761375188828, -0.050588253885507584, -0.09273310005664825]], [[0.02674110233783722, 0.06241907551884651, 0.027702191844582558], [-0.011057069525122643, 0.10636880248785019, -0.05313793569803238], [0.11215086281299591, 0.01530598197132349, 0.126474991440773]], [[-0.1081831157207489, 0.010654198937118053, 0.1178433895111084], [0.083836130797863, 0.023062104359269142, 0.04080510139465332], [-0.06783648580312729, 0.005159406457096338, 0.039353225380182266]], [[0.05126776546239853, -0.06812378764152527, -0.06117644160985947], [-0.06184013560414314, 0.03452667221426964, -0.09766998887062073], [0.00754142738878727, -0.010215040296316147, -0.08647729456424713]], [[0.1424109786748886, -0.007639014627784491, 0.09121812134981155], [0.041788291186094284, -0.20323102176189423, 0.05733998864889145], [-0.054327160120010376, 0.004508256446570158, -0.041124772280454636]]], [[[0.047482166439294815, -0.09493524581193924, 0.036905959248542786], [-0.06791211664676666, -0.05524861440062523, 0.06049598753452301], [0.015549000352621078, 0.07468774169683456, 0.10031495243310928]], [[0.08202479779720306, 0.06450890749692917, -0.07870283722877502], [0.04605786129832268, 0.09653500467538834, -0.1203320249915123], [0.07358206063508987, 0.042035143822431564, -0.09345605969429016]], [[-0.07037356495857239, 0.059680819511413574, 0.09682806581258774], [-0.02287217602133751, -0.072264663875103, -0.06678456813097], [-0.026397276669740677, 0.07835592329502106, -0.02484814263880253]], [[0.06237117201089859, 0.001382801216095686, -0.061630818992853165], [0.11852797865867615, -0.06460675597190857, -0.08862274140119553], [0.014611762017011642, -0.06830407679080963, -0.02592783235013485]], [[0.037034545093774796, 0.08210810273885727, 0.09553647041320801], [-0.022223487496376038, -0.08527962863445282, -0.07882384210824966], [0.017284348607063293, 0.03899587690830231, 0.03000647947192192]], [[0.08400960266590118, -0.07039941102266312, -0.051638029515743256], [-0.028043726459145546, -0.05030762404203415, 0.012087718583643436], [0.14391759037971497, 0.14549794793128967, -0.014458694495260715]], [[-0.114263616502285, 0.01927345059812069, -0.06432850658893585], [0.05636066943407059, -0.05331122502684593, -0.11066009104251862], [-0.03413953259587288, 0.13048075139522552, 0.06337796896696091]], [[-0.05675150826573372, -0.0053555225022137165, -0.1416318714618683], [0.01632639765739441, -0.07919464260339737, -0.07297690212726593], [0.15691758692264557, 0.06906471401453018, 0.034682124853134155]]], [[[0.04367056488990784, -0.12221765518188477, 0.11084211617708206], [0.10595734417438507, 0.01463264413177967, 0.0780588760972023], [-0.0738968476653099, 0.040939755737781525, -0.020835677161812782]], [[0.01344463974237442, 0.07714921981096268, 0.0674586221575737], [-0.05882775038480759, 0.07112166285514832, -0.12469444423913956], [0.05175412446260452, -0.06159985065460205, 0.12395497411489487]], [[-0.1000298336148262, -0.038810376077890396, 0.005773008335381746], [0.11593732982873917, -0.031699828803539276, -0.09938151389360428], [0.12218642234802246, 0.09394530951976776, 0.04623483866453171]], [[0.08223886042833328, -0.058920156210660934, -0.11221519112586975], [0.019286006689071655, 0.016648991033434868, 0.058211810886859894], [-0.02641311101615429, -0.10416775941848755, -0.057380709797143936]], [[-0.07147502899169922, -0.0509527288377285, -0.11958584934473038], [0.018137631937861443, 0.0849599838256836, 0.03394565358757973], [0.05969541519880295, -0.04412533715367317, 0.07868601381778717]], [[0.000564351852517575, 0.025887740775942802, -0.04667344689369202], [0.028681287541985512, 0.003931557759642601, 0.03702574968338013], [0.013769673183560371, 0.10083580762147903, 0.052127111703157425]], [[-0.016512278467416763, -0.02689853124320507, -0.01918788254261017], [-0.19519685208797455, -0.010243487544357777, -0.030062513425946236], [0.015868453308939934, -0.11614220589399338, -0.015095307491719723]], [[0.07498374581336975, -0.04504676163196564, 0.035393182188272476], [0.17259091138839722, -0.12962257862091064, -0.09514343738555908], [0.06798026710748672, -0.07812390476465225, -0.09513387084007263]]], [[[0.11299470067024231, 0.030922912061214447, -0.1103610023856163], [-0.07824236154556274, 0.0345689095556736, 0.06625480949878693], [0.006595661863684654, -0.05125921219587326, -0.12221483141183853]], [[0.08562836050987244, -0.01768808253109455, -0.11385838687419891], [0.075657419860363, 0.00911907572299242, -0.03718693181872368], [0.024952581152319908, 0.05211101472377777, 0.09635010361671448]], [[-0.11893630027770996, 0.0024945279583334923, 0.1434050053358078], [0.007785809691995382, 0.11002305150032043, -0.043687283992767334], [-0.12801256775856018, -0.0741540715098381, 0.08470941334962845]], [[-0.08704273402690887, 0.11151500046253204, 0.04527531564235687], [0.09915722906589508, 0.08341043442487717, -0.1179456040263176], [-0.07562730461359024, -0.006506134755909443, 0.0455750897526741]], [[0.05931328237056732, 0.08054088801145554, 0.1057879626750946], [0.05382184684276581, 0.13153819739818573, -0.05937035754323006], [0.06265097856521606, -0.0043120416812598705, -0.08940007537603378]], [[-0.182660773396492, -0.10967845469713211, -0.04239492118358612], [0.10527973622083664, 0.03133941441774368, -0.13353116810321808], [0.08320112526416779, -0.07571186870336533, -0.01527607161551714]], [[-0.03477824851870537, 0.1463857740163803, 0.06618986278772354], [-0.07865719497203827, 0.053020626306533813, 0.08546104282140732], [0.0007543942774645984, -0.10038640350103378, -0.010696882382035255]], [[0.033413808792829514, -0.08974848687648773, -0.054021771997213364], [0.00809822604060173, 0.08268861472606659, 0.08930841088294983], [0.0209323912858963, -0.008867212571203709, 0.13871678709983826]]], [[[-0.010101174004375935, -0.13753153383731842, -0.0026704806368798018], [-0.08271615207195282, -0.09436921775341034, -0.08557917177677155], [-0.020596081390976906, 0.10873382538557053, -0.08343449234962463]], [[-0.08073239773511887, -0.10220425575971603, -0.06647364050149918], [-0.017804428935050964, 0.053798165172338486, 0.09129210561513901], [-0.0899016484618187, 0.057345129549503326, -0.08909954130649567]], [[0.09126647561788559, 0.00016417424194514751, -0.0604245699942112], [-0.010993764735758305, 0.08737017214298248, -0.09548904001712799], [0.1456812024116516, -0.004909126088023186, 0.05366048216819763]], [[-0.02899947762489319, -0.13677990436553955, -0.06697925180196762], [0.11086203902959824, 0.13196805119514465, -0.0807773619890213], [-0.018990548327565193, 0.0726093277335167, 0.01720578223466873]], [[0.06530581414699554, 0.11179987341165543, 0.045111656188964844], [-0.04748574271798134, 0.038941625505685806, -0.05631034076213837], [-0.040888987481594086, 0.019823845475912094, 0.09672507643699646]], [[-0.01348306704312563, -0.03267120197415352, -0.10932330787181854], [0.010838678106665611, -0.03365428373217583, 0.07600099593400955], [-0.0939260944724083, 0.03775082156062126, -0.06101059168577194]], [[0.022057000547647476, 0.02773977629840374, 0.12489413470029831], [-0.06123189255595207, 0.043134018778800964, 0.054782554507255554], [-0.003606189275160432, 0.11979392170906067, -0.017289303243160248]], [[-0.04080433025956154, -0.03443032503128052, 0.27922356128692627], [-0.062287837266922, 0.09743569791316986, -0.0729605108499527], [-0.14616920053958893, -0.024109505116939545, -0.11136686056852341]]], [[[-0.09283086657524109, -0.01814722642302513, -0.00924698542803526], [0.01138254813849926, 0.09053576737642288, 0.05245349928736687], [-0.02215038239955902, 0.039911676198244095, -0.005004740785807371]], [[-0.0291349645704031, 0.12037355452775955, -0.08149334043264389], [0.07784313708543777, -0.03799711912870407, -0.13623864948749542], [-0.011498861946165562, -0.02846735157072544, -0.08233547955751419]], [[-0.15248559415340424, 0.06678394973278046, 0.11966149508953094], [0.03650859370827675, -0.03420586511492729, 0.09735718369483948], [-0.11316137760877609, -0.08844728022813797, -0.03412802144885063]], [[-0.10958760976791382, -0.022719843313097954, 0.053462643176317215], [-0.011882576160132885, -0.12496662884950638, 0.006841654889285564], [-0.0066234152764081955, 0.11364622414112091, -0.10058809816837311]], [[-0.0748266652226448, -0.013472740538418293, 0.1343747079372406], [-0.04563075304031372, -0.07956808060407639, 0.07828951627016068], [0.10835643112659454, -0.044969283044338226, -0.1004648506641388]], [[0.004647779744118452, -0.2293323278427124, -0.062208566814661026], [-0.12652410566806793, 0.029968174174427986, 0.036104269325733185], [-0.19338145852088928, -0.11980174481868744, 0.014364711008965969]], [[0.14931750297546387, 0.027763115242123604, 0.05831543356180191], [0.009570683352649212, -0.1443650722503662, 0.005714411847293377], [0.10891298204660416, 0.051079194992780685, -0.001834947383031249]], [[-0.12739482522010803, -0.08275391161441803, -0.1591615229845047], [0.10960632562637329, 0.11593174189329147, -0.09126413613557816], [-0.0250383373349905, 0.27129822969436646, 0.21164822578430176]]], [[[-0.07109972834587097, -0.05648673698306084, 0.1005941778421402], [0.11789306253194809, -0.07537957280874252, 0.11119841784238815], [-0.1002715602517128, 0.10567709058523178, 0.019056634977459908]], [[0.07459069788455963, 0.11003252118825912, 0.026374315842986107], [-0.025692785158753395, 0.056100111454725266, 0.03875191882252693], [-0.11007232964038849, -0.12520168721675873, -0.08599232137203217]], [[0.08239518105983734, -0.04248686879873276, 0.05153234675526619], [-0.11064120382070541, -0.05815357342362404, -0.019558699801564217], [-0.04035649821162224, -0.027586115524172783, 0.07529816031455994]], [[0.05462073162198067, 0.048907458782196045, 0.12565933167934418], [-0.06926412880420685, 0.07941367477178574, 0.02717474289238453], [0.05352327600121498, -0.030723145231604576, -0.06216657534241676]], [[-0.010007753036916256, 0.004132713191211224, -0.0911192074418068], [0.02859126590192318, 0.05913945659995079, -0.10298743844032288], [0.048322755843400955, -0.050968293100595474, -0.05296565964818001]], [[-0.027299555018544197, 0.0811101645231247, -0.03327413648366928], [0.06442161649465561, 0.06387779116630554, 0.00833954755216837], [0.005613190121948719, -0.035200443118810654, 0.043224744498729706]], [[-0.0184122696518898, 0.05503465235233307, -0.004821417853236198], [0.029163112863898277, 0.0001654097140999511, 0.037249673157930374], [-0.06042824685573578, -0.015189073048532009, 0.044883713126182556]], [[0.019237929955124855, -0.001409635180607438, -0.1413927674293518], [-0.0018523569451645017, -0.00021297004423104227, -0.09655044972896576], [0.04368341341614723, 0.20557263493537903, 0.003336637280881405]]], [[[0.056445665657520294, -0.009073792025446892, -0.11435925215482712], [-0.10111670196056366, -0.07717792689800262, -0.049870140850543976], [0.09030573070049286, 0.009627957828342915, -0.008907806128263474]], [[0.060896702110767365, 0.003502872306853533, 0.09586365520954132], [0.0781015008687973, -0.019670631736516953, 0.09188807755708694], [-0.06619421392679214, 0.08007130771875381, 0.10540489107370377]], [[-0.08069458603858948, -0.06469963490962982, -0.06299760937690735], [-0.017668865621089935, 0.0570523701608181, -0.034279417246580124], [0.08039072155952454, 0.03823022171854973, -0.039237841963768005]], [[-0.012692299671471119, 0.07716505229473114, -0.10710430890321732], [0.08396732062101364, 0.07456829398870468, 0.07208160310983658], [0.10097268968820572, 0.07847090065479279, -0.061154868453741074]], [[0.09803301095962524, 0.09860005974769592, 0.06321866810321808], [0.11770955473184586, 0.05097858980298042, 0.018320338800549507], [0.02147291600704193, -0.03372091054916382, -0.06880710273981094]], [[0.10577751696109772, -0.08081624656915665, -0.0005235529970377684], [-0.01941833458840847, 0.08245421200990677, 0.06786040216684341], [-0.008494704961776733, 0.001653021085076034, -0.16752175986766815]], [[-0.052937451750040054, 0.11097121238708496, 0.013477053493261337], [-0.03486669436097145, -0.1377284675836563, -0.15048442780971527], [0.11617978662252426, 0.11794033646583557, -0.06010454148054123]], [[-0.01066459808498621, -0.12409656494855881, 0.1237628310918808], [-0.14766599237918854, -0.006230554077774286, 0.08269743621349335], [-0.19741834700107574, 0.056950002908706665, 0.10114338248968124]]], [[[-0.09634440392255783, 0.10031256079673767, -0.01750151999294758], [-0.027766961604356766, 0.046473678201436996, 0.09215869754552841], [0.08198054134845734, 0.024570824578404427, -0.008138300850987434]], [[0.03881466016173363, 0.10292933136224747, -0.05795597285032272], [0.02356347069144249, -0.03393322601914406, 0.022389056161046028], [-0.07900402694940567, -0.09207472950220108, 0.06006509065628052]], [[-0.008146227337419987, 0.047555893659591675, 0.10642372816801071], [-0.09472721070051193, 0.00825168751180172, 0.04417523369193077], [0.07008685916662216, -0.055430781096220016, 0.06334636360406876]], [[0.07819710671901703, -0.024851273745298386, -0.01290722843259573], [-0.1018671840429306, -0.045670609921216965, -0.07741797715425491], [0.056173067539930344, -0.09100078046321869, 0.10612399876117706]], [[0.030970389023423195, 0.07261011749505997, 0.0695747509598732], [-0.016510779038071632, 0.08203309029340744, -0.10366305708885193], [0.08588722348213196, 0.04649399593472481, -0.023289870470762253]], [[-0.13013458251953125, -0.013270016759634018, -0.07457555830478668], [0.003970461897552013, -0.08462764322757721, -0.06062727048993111], [-0.02945856563746929, -0.1536162942647934, 0.07646672427654266]], [[-0.00956517830491066, -0.01378023624420166, 0.02490873821079731], [0.09990736842155457, 0.04506451264023781, 0.1468692570924759], [-0.003223215462639928, -0.11109328269958496, -0.10450255870819092]], [[-0.097313292324543, -0.10369305312633514, -0.07089655846357346], [0.07782506942749023, 0.24043044447898865, -0.0032637601252645254], [-0.1303119659423828, 0.06963791698217392, 0.050000131130218506]]], [[[0.07659774273633957, 0.09023427218198776, 0.0818496122956276], [-0.025052320212125778, -0.05237012356519699, 0.04152999073266983], [-0.08369682729244232, 0.08196385204792023, 0.0007554564508609474]], [[0.11007419973611832, 0.009896913543343544, 0.016966521739959717], [-0.07340150326490402, 0.09259847551584244, -0.08683978766202927], [-0.013694067485630512, 0.00412747310474515, -0.01817401498556137]], [[0.10459821671247482, 0.05594922602176666, 0.06403681635856628], [-0.005199426785111427, 0.0027695312164723873, 0.0980006530880928], [0.07242348790168762, -0.045229487121105194, 0.08738607913255692]], [[-0.014403291046619415, -0.06780543178319931, 0.03615414351224899], [0.08217446506023407, 0.09216689318418503, 0.01203986071050167], [0.06166648864746094, -0.08945616334676743, -0.020367465913295746]], [[-0.009035487659275532, 0.08076078444719315, 0.016858747228980064], [0.019918888807296753, 0.04940667375922203, -0.09379846602678299], [-0.06748754531145096, -0.08709381520748138, -0.00029956750222481787]], [[0.08832070231437683, 0.06263101100921631, 0.08502861857414246], [0.06322365999221802, 0.017581522464752197, -0.14914999902248383], [-0.1723700612783432, 0.07019603997468948, -0.023466190323233604]], [[-0.06273205578327179, -0.05361388251185417, -0.0539228618144989], [0.030259491875767708, 0.12357484549283981, 0.0797649696469307], [-0.0951625406742096, -0.020237648859620094, -0.016278289258480072]], [[-0.04214281588792801, 0.003092875936999917, 0.1743004024028778], [-0.004703857004642487, -0.1353061944246292, 0.16790659725666046], [-0.09342285990715027, 0.18026651442050934, -0.041013140231370926]]], [[[-0.05331207066774368, -0.04558275267481804, -0.011512943543493748], [0.027486877515912056, 0.006052765529602766, -0.04736514016985893], [-0.00925703626126051, 0.0769364982843399, -0.0445694699883461]], [[0.0013595309574157, -0.02078136056661606, 0.022216973826289177], [-0.03950311243534088, -0.1662643551826477, 0.01225045882165432], [-0.09588677436113358, 0.09059397131204605, -0.09537723660469055]], [[-0.18996065855026245, 0.08216160535812378, -0.026715051382780075], [-0.11379852145910263, 0.002533992752432823, -0.04855838045477867], [-0.05569801479578018, -0.10697745531797409, 0.13574209809303284]], [[0.13488127291202545, 0.013592016883194447, 0.12955905497074127], [-0.011912018992006779, -0.07149364054203033, -0.01049196720123291], [0.028060730546712875, -0.13683100044727325, -0.061646487563848495]], [[0.1296350061893463, -0.05706850439310074, 0.03175162896513939], [0.1709606945514679, -0.11253763735294342, -0.0753701776266098], [0.10338667035102844, 0.12178777158260345, -0.0296380203217268]], [[0.062134623527526855, -0.1978609412908554, -0.14102967083454132], [0.05381693318486214, -0.017088012769818306, -0.06223823130130768], [-0.0541500560939312, 0.031227057799696922, 0.10163623094558716]], [[-0.0732426643371582, -0.1356917768716812, 0.13154013454914093], [0.10836247354745865, -0.10349269956350327, 0.045462559908628464], [-0.044796206057071686, -0.008113021031022072, 0.018338406458497047]], [[0.018427295610308647, 0.0887615904211998, 0.14859391748905182], [0.09109073877334595, -0.08772898465394974, 0.20712070167064667], [0.06252812594175339, 0.14571300148963928, 0.09998945146799088]]]], "encoder.4.bias": [-0.03977859392762184, -0.026306990534067154, 0.12482375651597977, 0.005658123176544905, -0.02113598771393299, 0.032707907259464264, -0.016373153775930405, -0.15144038200378418, -0.07881710678339005, 0.056638430804014206, -0.014110520482063293, -0.04551674425601959, 0.06707500666379929, -0.11071937531232834, -0.03927722945809364, 0.07446673512458801], "encoder.6.weight": [[[[0.05031557381153107, -0.028213365003466606, -0.09065919369459152], [-0.10366810113191605, -0.055108312517404556, 0.0071170879527926445], [0.015393122099339962, 0.04502657800912857, -0.0464840903878212]], [[-0.03200068697333336, 0.03988161310553551, -0.1323704719543457], [-0.020706558600068092, -0.1549096703529358, 0.009555862285196781], [0.07263069599866867, -0.10005667060613632, 0.03357580304145813]], [[-0.003479835344478488, 0.024520544335246086, -0.03343910723924637], [-0.021559299901127815, -0.027909915894269943, 0.057003844529390335], [-0.019827747717499733, -0.02550242841243744, -0.002866137307137251]], [[-0.05735080689191818, 0.05853167921304703, 0.012580391019582748], [-0.025738026946783066, 0.004025082103908062, 0.06427023559808731], [-0.02527736686170101, 0.05303376913070679, 0.04968700930476189]], [[-0.02322983555495739, -0.021822290495038033, 0.029222968965768814], [-0.11514285206794739, -0.0664471909403801, -0.061350226402282715], [-0.11297328770160675, -0.1026875302195549, 0.03684554994106293]], [[0.005937466863542795, -0.06719376891851425, 0.03021269477903843], [0.014728562906384468, -0.023263946175575256, -0.0012719329679384828], [0.012056429870426655, -0.052908770740032196, 0.03055952861905098]], [[0.05728444829583168, -0.04759860038757324, -0.05011364817619324], [-0.07590121775865555, -0.004170342814177275, 0.01180675532668829], [-0.025731869041919708, 0.057302940636873245, -0.08846539258956909]], [[-0.030323728919029236, 0.04129732400178909, -0.009955444373190403], [-0.027398891746997833, 0.05501873791217804, -0.06721829622983932], [0.07984304428100586, -0.013628317974507809, -0.020287353545427322]], [[-0.057706061750650406, 0.05367231369018555, 0.036362987011671066], [-0.06772549450397491, 0.03653092682361603, 0.06849238276481628], [-0.033957213163375854, -0.03187044709920883, 0.03922249749302864]], [[0.08678091317415237, 0.05987159535288811, 0.08539202064275742], [-0.022696934640407562, -0.0240752175450325, 0.11983038485050201], [0.11094756424427032, -0.10314717143774033, -0.007238530553877354]], [[0.10272134095430374, 0.11640892922878265, 0.06552004814147949], [-0.014133782126009464, 0.05316314473748207, -0.14198993146419525], [0.09290899336338043, -0.05126327648758888, 0.00182685989420861]], [[0.01714291237294674, -0.008316315710544586, -0.03717033937573433], [0.08879853039979935, 0.022012386471033096, -0.034779343754053116], [-0.0474696010351181, -0.008253214880824089, -0.07339855283498764]], [[0.02289925329387188, -0.0034874361008405685, 0.06473459303379059], [0.05337204039096832, 0.053198136389255524, 0.06261970102787018], [0.048152148723602295, 0.036147307604551315, -0.06659930944442749]], [[0.061189062893390656, 0.05992574989795685, -0.00017391737492289394], [0.04288864880800247, 0.010825525037944317, -0.04713616520166397], [-0.0004133873444516212, -0.00217041140422225, 0.03451419994235039]], [[0.012507220730185509, -0.03235649690032005, -0.05598942190408707], [-0.05616290867328644, -0.06155043840408325, 0.011195839382708073], [0.0666377916932106, 0.08659455180168152, 0.05455722287297249]], [[0.06605373322963715, 0.026957370340824127, -0.10537530481815338], [-0.009368532337248325, -0.05748385190963745, 0.007231409661471844], [0.01033233292400837, -0.03244532644748688, 0.06071493774652481]]], [[[-0.03899244964122772, -0.059520214796066284, 0.035158921033144], [0.061658330261707306, 0.030527358874678612, 0.06832804530858994], [-0.04015868529677391, -0.05302221700549126, 0.09946713596582413]], [[0.051932357251644135, -0.13293036818504333, -0.010444150306284428], [0.0329265296459198, 0.011526684276759624, -0.009808139875531197], [-0.01514482032507658, 0.08836471289396286, -0.02498268336057663]], [[0.07700163125991821, 0.053527701646089554, -0.0369308665394783], [0.05768005922436714, -0.04043060168623924, 0.05080842226743698], [-0.03036612458527088, 0.09013935178518295, -0.019327238202095032]], [[-0.0638655498623848, -0.04117756709456444, -0.01981145516037941], [0.05418017506599426, 0.07361195981502533, 0.005973071325570345], [-0.05703549087047577, 0.03375044837594032, 0.03948322683572769]], [[-0.005018840543925762, 0.025219261646270752, 0.02181391231715679], [0.07179949432611465, -0.050187330693006516, -0.029987899586558342], [0.0636560246348381, 0.0590665377676487, -0.01068089995533228]], [[0.013308050110936165, -0.05579007789492607, -0.007776943035423756], [-0.06630171835422516, -0.019458815455436707, 0.04908622056245804], [-0.03902179375290871, 0.01349812000989914, 0.020349696278572083]], [[-0.0006935923593118787, -0.03813716769218445, 0.09307309985160828], [0.02992212399840355, 0.014820494689047337, 0.07823316007852554], [-0.01856064796447754, -0.005711293779313564, -0.01903180591762066]], [[0.05889304354786873, -0.08948289602994919, 0.03181931748986244], [-0.0034059621393680573, -0.061515145003795624, 0.00791524350643158], [0.014856564812362194, -0.08567706495523453, 0.04882340133190155]], [[0.06698112934827805, 0.09465371817350388, -0.053085241466760635], [-0.0932275727391243, 0.015115655958652496, -0.057942237704992294], [-0.017709707841277122, -0.060400914400815964, -0.02872728370130062]], [[-0.07334761321544647, 0.04505181312561035, -0.05546655133366585], [0.11892355978488922, -0.016652584075927734, -0.069586843252182], [0.02229451760649681, -0.016740357503294945, -0.04691234976053238]], [[-0.022822221741080284, -0.05441533774137497, 0.04474109038710594], [0.06808352470397949, -0.07622059434652328, -0.07050476223230362], [-0.07467010617256165, -0.0005427810247056186, -0.05567917600274086]], [[0.013189184479415417, 0.010968640446662903, 0.04319562762975693], [-0.0656425952911377, -0.013039246201515198, 0.03377338871359825], [0.03294707462191582, -0.005933748092502356, -0.0481606088578701]], [[-0.07001801580190659, -0.006413636729121208, -0.09113288670778275], [0.01259852759540081, -0.0038936655037105083, 0.11078111082315445], [0.04729883000254631, -0.02397473342716694, -0.0594511479139328]], [[0.01948629319667816, 0.08946312963962555, 0.058925364166498184], [-0.09477859735488892, 0.05591028183698654, -0.042530108243227005], [-0.04363654926419258, 0.04408455640077591, 0.03972470760345459]], [[-0.017652342095971107, -0.07096591591835022, 0.00901190098375082], [-0.03774288296699524, -0.03544444963335991, 0.06085367873311043], [-0.024502310901880264, -0.05399564653635025, 0.054983869194984436]], [[-0.05079477280378342, 0.11424151808023453, -0.07578736543655396], [0.04518761485815048, 0.08853098750114441, -0.06572151184082031], [0.13545744121074677, 0.11083405464887619, 0.03258039802312851]]], [[[0.03696190565824509, -0.03112780675292015, 0.15243004262447357], [-0.034185741096735, 0.005125313065946102, 0.07961124926805496], [0.2037193477153778, 0.04905352368950844, -0.05461245775222778]], [[0.14129140973091125, 0.055047329515218735, 0.05626361817121506], [0.0047834692522883415, 0.059432707726955414, -0.011773591861128807], [0.005027209408581257, 0.07761649787425995, -0.03144048899412155]], [[0.0024744586553424597, -0.0176226869225502, 0.09093926101922989], [-0.03686580806970596, 0.05260825157165527, 0.0067384084686636925], [-0.030753884464502335, 0.044674649834632874, -0.09581165015697479]], [[-0.07503677159547806, 0.0294573362916708, 0.021020377054810524], [0.06363033503293991, -0.10709164291620255, 0.011707769706845284], [-0.07884945720434189, -0.13826757669448853, 0.08002059161663055]], [[0.020762784406542778, -0.06069541350007057, 0.05403321608901024], [0.06602896749973297, 0.08294662833213806, -0.05984384939074516], [0.060492467135190964, 0.007920664735138416, -0.09678729623556137]], [[0.059736479073762894, -0.015985529869794846, 0.01784239523112774], [-0.05482916533946991, 0.049650564789772034, -0.033854641020298004], [-0.06837107986211777, -0.09732776135206223, -0.0014957410749047995]], [[0.04349036514759064, -0.03955220803618431, 0.058204155415296555], [0.00025853983242996037, -0.029114363715052605, 0.07966823130846024], [0.003979970701038837, 0.04925381764769554, 0.023827003315091133]], [[-0.1446116715669632, -0.027377691119909286, -0.18943145871162415], [0.07917006313800812, 0.08976281434297562, 0.010330023244023323], [-0.08280959725379944, 0.0069730449467897415, -0.10309890657663345]], [[-0.009058190509676933, 0.11513735353946686, -0.007882870733737946], [-0.03279442340135574, 0.05846579372882843, -0.048961441963911057], [0.10175002366304398, 0.0545755997300148, 0.04658208042383194]], [[0.04201936349272728, 0.09951399266719818, 0.075813889503479], [-0.06527882069349289, -0.006431149318814278, 0.0071135470643639565], [0.07368975877761841, 0.0369175560772419, -0.036711424589157104]], [[-0.13152113556861877, 0.16340382397174835, 0.132044717669487], [-0.10985512286424637, -0.1430359184741974, 0.001818810123950243], [-0.04386541619896889, 0.022325359284877777, -0.019614599645137787]], [[-0.03386424481868744, 0.029338235035538673, 0.07681171596050262], [-0.018964368849992752, -0.04391912743449211, 0.026568563655018806], [-0.10041937232017517, 0.023091185837984085, -0.04353013634681702]], [[0.041816145181655884, -0.041166115552186966, -0.1838732361793518], [-0.055033788084983826, -0.020604420453310013, 0.0029630567878484726], [0.016025040298700333, 0.08287235349416733, -0.0057374550960958]], [[0.02335396036505699, -0.11311447620391846, 0.026716850697994232], [-0.004120926838368177, 0.006344457622617483, -0.04302437603473663], [0.03155108168721199, -0.09240671992301941, 0.008348220959305763]], [[-0.12726770341396332, -0.04946260154247284, -0.013481583446264267], [-0.059461455792188644, 0.03168482333421707, -0.04640188813209534], [-0.02708093635737896, 0.08146098256111145, -0.035308029502630234]], [[0.11839719116687775, 0.08287213742733002, 0.04375632852315903], [0.09312666952610016, 0.11068570613861084, -0.03168417885899544], [0.08196157217025757, 0.18789063394069672, -0.11553280055522919]]], [[[-0.14940385520458221, 0.11690253764390945, -0.062439754605293274], [-0.008647375740110874, -0.02408742718398571, -0.015995066612958908], [0.082814060151577, -0.011401699855923653, 0.09514614194631577]], [[0.03373746573925018, -0.035248029977083206, -0.013781275600194931], [-0.07114691287279129, -0.08726562559604645, -0.025404805317521095], [-0.047093652188777924, -0.005906593985855579, 0.027897333726286888]], [[-0.015018152073025703, 0.0647364929318428, 0.09856875985860825], [0.051616568118333817, -0.005683905445039272, 0.05336541309952736], [-0.026656687259674072, -0.09159648418426514, 0.07025567442178726]], [[-0.023732289671897888, 0.07998118549585342, 0.1018095463514328], [0.041884902864694595, -0.08938533812761307, 0.0464605875313282], [-0.006762415636330843, 0.03653748705983162, 0.061533182859420776]], [[0.10053659975528717, -0.05858412757515907, 0.004194611683487892], [-0.04348711296916008, 0.00628078356385231, 0.0034882831387221813], [-0.08150458335876465, -0.1669035404920578, 0.015056747943162918]], [[-0.014549649320542812, -0.04715390503406525, 0.0737309679389], [-0.0896269753575325, -0.06901390105485916, 0.06702395528554916], [-0.0317632220685482, 0.031634945422410965, -0.06460493803024292]], [[-0.056091658771038055, 0.031765811145305634, 0.0858873575925827], [-0.008612522855401039, -0.04662035033106804, -0.037034448236227036], [0.060488808900117874, 0.03896727412939072, 0.06239186227321625]], [[0.07965518534183502, 0.0628993809223175, -0.05323531851172447], [0.092898890376091, -0.1403300017118454, 0.03625691682100296], [0.05914214625954628, -0.06242989003658295, 0.07141949236392975]], [[-0.016906095668673515, 0.008948012255132198, 0.09769020974636078], [-0.06803321093320847, 0.006727291736751795, 0.04502161219716072], [-0.026184482499957085, -0.03582921251654625, 0.03619926795363426]], [[-0.09207446873188019, 0.08885691314935684, -0.024767709895968437], [0.13944239914417267, 0.13612772524356842, -0.1725805550813675], [-0.034250225871801376, 0.024091897532343864, 0.0345904678106308]], [[-0.16985781490802765, -0.07899107784032822, 0.072195865213871], [-0.12139385938644409, 0.04894431680440903, -0.020451920107007027], [-0.007917609997093678, 0.1478753238916397, -0.06150560826063156]], [[-0.06924472004175186, -0.06116347759962082, 0.037916216999292374], [-0.05660472810268402, 0.01759405992925167, 0.06711634248495102], [0.018934298306703568, 0.009602435864508152, -0.00161974155344069]], [[-0.008724798448383808, 0.08408413827419281, -0.018921203911304474], [-0.05917428061366081, 0.08287296444177628, 0.005899609066545963], [-0.015389357693493366, 0.026105979457497597, -0.025950782001018524]], [[0.02874528430402279, -0.08252564817667007, -0.003101366339251399], [0.09239055961370468, -0.07201343774795532, 0.06200001761317253], [-0.02752627804875374, -0.05152316763997078, -0.08797731250524521]], [[-0.06684686988592148, 0.03136218339204788, 0.044375572353601456], [-0.07337408512830734, -0.053036682307720184, 0.020932545885443687], [-0.018132805824279785, -0.05321260169148445, -0.023435618728399277]], [[-0.06590684503316879, 0.2186998873949051, -0.13124510645866394], [-0.09171038866043091, -0.009020968340337276, -0.09090811759233475], [0.1326855570077896, 0.054661646485328674, 0.08657278120517731]]], [[[-0.06579697132110596, -0.006230023689568043, 0.08279289305210114], [-0.17854061722755432, -0.0457046702504158, -0.009795129299163818], [-0.03277922794222832, -0.14911441504955292, 0.004924213979393244]], [[0.0669000893831253, 0.05060485377907753, 0.023062435910105705], [-0.0024189443793147802, 0.011655670590698719, -0.11513572186231613], [0.04024989902973175, -0.03332266956567764, -0.03208332508802414]], [[0.09270820766687393, 0.06036011129617691, 0.03474559262394905], [-0.08669962733983994, 0.008922617882490158, -0.021977432072162628], [0.040516581386327744, 0.06277809292078018, -0.03492671996355057]], [[0.04487641528248787, 0.03236880898475647, 0.050825510174036026], [0.01614110916852951, -0.06065598130226135, 0.07805746048688889], [-0.051566485315561295, -0.07144784927368164, 0.03473825752735138]], [[-0.03212962672114372, -0.08650686591863632, -0.023218577727675438], [0.009709948673844337, -0.09709533303976059, -0.005229730159044266], [-0.02557218261063099, 0.038039322942495346, -0.018204376101493835]], [[0.10855995863676071, 0.033068183809518814, 0.044656313955783844], [0.001701694680377841, -0.07604896277189255, 0.011454393155872822], [-0.08410017192363739, -0.006958878133445978, 0.09178531914949417]], [[0.048806097358465195, 0.02236168645322323, -0.019508980214595795], [0.00794035755097866, -0.028602905571460724, -0.03914057835936546], [0.07262443751096725, -0.04069042205810547, -0.08754748851060867]], [[-0.02917412482202053, -0.013610281981527805, -0.07546330988407135], [0.029831895604729652, -0.06925582885742188, 0.010483444668352604], [-0.037587348371744156, -0.037089087069034576, -0.023086464032530785]], [[-0.05646635591983795, -0.007560485973954201, 0.047788385301828384], [0.05472240224480629, 0.0652003139257431, -0.021443916484713554], [-0.049406155943870544, 0.039179734885692596, 0.032534629106521606]], [[0.08785339444875717, 0.004299598280340433, 0.11523844301700592], [0.04505796730518341, -0.07577455043792725, 0.0743844211101532], [0.035104941576719284, -0.017709506675601006, -0.010261275805532932]], [[-0.024455476552248, 0.11627306789159775, 0.09817273169755936], [-0.0895991325378418, 0.031685903668403625, -0.15271905064582825], [-0.010850352235138416, -0.01769118942320347, 0.09869132190942764]], [[-0.001963674556463957, -0.05786517262458801, 0.04482511430978775], [0.07494174689054489, 0.06632708758115768, 0.0741383358836174], [0.033696044236421585, -0.0333012156188488, 0.05960296094417572]], [[0.0014326171949505806, 0.06741127371788025, -0.03556884825229645], [-0.05675018951296806, 0.001619301037862897, -0.024950003251433372], [-0.04137851297855377, -0.04682169482111931, -0.05681517720222473]], [[-0.07193683087825775, -0.0503556989133358, -0.024705177173018456], [-0.05268266052007675, -0.04831837862730026, -0.017602447420358658], [-0.029808461666107178, -0.06205149367451668, 0.07535327225923538]], [[0.028694579377770424, -0.003708941163495183, -0.0001742345339152962], [0.03597273677587509, -0.0546843558549881, -0.012713033705949783], [0.02860291302204132, 0.03263988345861435, 0.08502370864152908]], [[0.08865255862474442, 0.052122555673122406, 0.05160072445869446], [0.019065869972109795, 0.02259395644068718, -0.00374749512411654], [0.09419314563274384, -0.024708131328225136, -0.07309159636497498]]], [[[0.2374870330095291, -0.10740376263856888, 0.12021886557340622], [-0.1497483253479004, -0.09329963475465775, 0.028026239946484566], [-0.035562943667173386, -0.03296690061688423, -0.10910181701183319]], [[-0.02612488530576229, 0.049717552959918976, 0.14969757199287415], [-0.018756233155727386, 0.04320627823472023, -0.1899203211069107], [-0.055125776678323746, 0.03132951632142067, 0.022307099774479866]], [[-0.014348133467137814, -0.026829740032553673, -0.03597920015454292], [0.052332647144794464, -0.060667525976896286, -0.03031611628830433], [-0.019739551469683647, -0.014717566780745983, 0.021413594484329224]], [[0.004255371633917093, -0.0738343670964241, 0.0488869808614254], [-0.08076947182416916, 0.05309763178229332, 0.09028840065002441], [0.05938572809100151, 0.06591065973043442, 0.07139404118061066]], [[-0.028429683297872543, -0.03518537059426308, -0.00997255276888609], [0.02222360484302044, 0.08541349321603775, 0.05376501381397247], [0.07335061579942703, -0.007056926842778921, 0.049821801483631134]], [[-0.020004190504550934, 0.09867564588785172, 0.08633528649806976], [-0.06375769525766373, 0.04168573021888733, 0.060106780380010605], [0.047693945467472076, 0.10877461731433868, 0.1147271990776062]], [[-0.004686932545155287, -0.05447669327259064, 0.013612435199320316], [0.11040635406970978, 0.05221971124410629, -0.1799211949110031], [-0.0018233159789815545, 0.030180644243955612, -0.09162560850381851]], [[-0.10013797134160995, -0.09168106317520142, 0.02806190401315689], [0.13906557857990265, 0.10337172448635101, 0.0012837046524509788], [-0.12630361318588257, -0.0510370247066021, -0.0230031069368124]], [[-0.0003516625438351184, -0.007984146475791931, 0.01483837328851223], [-0.06680753082036972, -0.09569108486175537, 0.08527915924787521], [-0.02279123105108738, -0.039515718817710876, -0.06689894944429398]], [[-0.16683056950569153, 0.1505301147699356, -0.12360437959432602], [-0.06930716335773468, -0.019370175898075104, 0.03380616009235382], [-0.06551935523748398, 0.07269181311130524, 0.027114735916256905]], [[0.07740907371044159, -0.026964740827679634, 0.07931170612573624], [-0.07803596556186676, 0.03880530968308449, -0.04835662245750427], [-0.015103585086762905, 0.050430651754140854, -0.05086640268564224]], [[-0.03579398989677429, -0.049423228949308395, -0.0159454308450222], [0.025443434715270996, 0.04607285559177399, -0.04434449225664139], [-0.011975787580013275, -0.014606964774429798, 0.024229785427451134]], [[-0.053169332444667816, -0.020537231117486954, 0.024324042722582817], [0.018585143610835075, 0.06411223113536835, -0.051265899091959], [-0.013263501226902008, -0.04515703767538071, 0.09490863233804703]], [[-0.06780711561441422, -0.07677070051431656, 0.06095487251877785], [0.049999117851257324, -0.04899229109287262, 0.09908800572156906], [-0.04773546755313873, 0.011893500573933125, -0.03531072288751602]], [[-0.14327801764011383, 0.016326021403074265, -0.048804134130477905], [-0.017179662361741066, -0.08067026734352112, 0.035967107862234116], [-0.10184609889984131, 0.015022584237158298, 0.0011849476723000407]], [[0.0847415179014206, -0.04077297821640968, -0.0028072642162442207], [0.1267395317554474, 0.039410270750522614, 0.023600541055202484], [-0.07276543974876404, 0.13343416154384613, 0.12331554293632507]]], [[[0.1428547501564026, -0.053739529103040695, 0.02484161965548992], [0.13728369772434235, -0.18476127088069916, 0.03287483751773834], [-0.27459800243377686, -0.08208920061588287, -5.942953430349007e-05]], [[-0.03654465079307556, -0.026199299842119217, 0.0275502260774374], [0.08187859505414963, 0.25023436546325684, 0.05698026716709137], [-0.0032809374388307333, -0.09149178862571716, -0.14998379349708557]], [[0.021093720570206642, 0.049814123660326004, 0.018489167094230652], [0.01683088205754757, 0.050119366496801376, 0.0579066164791584], [0.01909470558166504, -0.08328074961900711, 0.017136288806796074]], [[-0.0002731357526499778, 0.016655445098876953, 0.00286606652662158], [0.05368125066161156, -0.08332113176584244, 0.052307698875665665], [0.005583891179412603, -0.08192242681980133, -0.06370999664068222]], [[-0.2522876262664795, -0.09828073531389236, -0.030164023861289024], [0.07616608589887619, -0.026952847838401794, -0.07068692147731781], [0.0368095301091671, 0.051819369196891785, 0.09610841423273087]], [[0.07062473148107529, -0.011985983699560165, 0.05815707519650459], [-0.09956450015306473, 0.008633113466203213, 0.06032510846853256], [0.03845934197306633, -0.05396030470728874, 0.12265212833881378]], [[0.02591298148036003, -0.005130737088620663, -0.0033767856657505035], [0.04846774414181709, -0.051144473254680634, 0.04217766970396042], [0.015006110072135925, -0.05755173787474632, 0.02949562668800354]], [[-0.010674936696887016, -0.026998938992619514, -0.05604371801018715], [0.07925218343734741, -0.033190980553627014, 0.02223236858844757], [-0.07893305271863937, 0.08525557070970535, 0.07809086889028549]], [[0.04640864580869675, 0.10634991526603699, 0.1690569818019867], [0.0681907907128334, -0.1257340908050537, 0.006355131510645151], [-0.08280894160270691, -0.011066880077123642, 0.008264206349849701]], [[-0.01269671879708767, 0.04537000134587288, 0.00526807177811861], [0.08964341878890991, -0.06156805157661438, 0.05549882724881172], [-0.145854651927948, 0.017037857323884964, 0.0011298226891085505]], [[-0.10405485332012177, -0.09708662331104279, 0.09229881316423416], [0.029240678995847702, 0.11390242725610733, 0.04337496683001518], [0.09863020479679108, 0.008052771911025047, -0.09566044807434082]], [[0.11285428702831268, 0.04262765124440193, -0.03907116875052452], [-0.08673275262117386, -0.01773417554795742, -0.023356828838586807], [-0.07382877171039581, -0.04206299036741257, -0.006365194916725159]], [[-0.07820741087198257, -0.044781848788261414, -0.07159862667322159], [-0.050493672490119934, -0.015078304335474968, -0.0034784164745360613], [-0.04876101016998291, 0.09961243718862534, 0.06456854194402695]], [[-0.04300288110971451, 0.005063479766249657, 0.022677239030599594], [-0.057629186660051346, -0.040211018174886703, 0.011150368489325047], [0.042038798332214355, 0.011534151621162891, -0.05782591551542282]], [[0.07296773791313171, -0.008410819806158543, -0.07753860205411911], [-0.0822155624628067, -0.09355766326189041, -0.05430544540286064], [0.1045045256614685, -0.009619898162782192, 0.016228897497057915]], [[0.13716436922550201, -0.0900263637304306, -0.13912667334079742], [-0.053504060953855515, -0.044683896005153656, 0.09393072128295898], [-0.16739922761917114, 0.01789894327521324, 0.011825831606984138]]], [[[-0.03882770985364914, -0.06054528430104256, 0.11922436207532883], [0.011983164586126804, 0.020600708201527596, -0.04783403128385544], [0.05038829147815704, 0.11271972209215164, -0.04185069352388382]], [[0.06381510198116302, -0.021936368197202682, 0.02283964864909649], [0.0706108883023262, 0.04236523061990738, 0.0014343771617859602], [0.05270731449127197, -0.035048019140958786, 0.057927750051021576]], [[-0.0400264598429203, -0.058581095188856125, -0.011757039465010166], [0.10587543249130249, 0.03825119510293007, 0.02840415947139263], [-0.030422627925872803, -0.005831442307680845, -0.04962802678346634]], [[0.014536906965076923, 0.03643295168876648, 0.05462397634983063], [0.03667132556438446, 0.013749205507338047, -0.03023364394903183], [0.04110981896519661, 0.023426562547683716, -0.0900765210390091]], [[-0.04201794043183327, -0.08590070903301239, 0.03365021571516991], [-0.0350981242954731, 0.06635823845863342, 0.05960569903254509], [0.03046494908630848, -0.06696050614118576, 0.04264627397060394]], [[-0.03184230625629425, 0.09940288960933685, -0.06541977822780609], [-0.03858121857047081, 0.05816800519824028, 0.11748703569173813], [-0.05147188901901245, -0.10839381068944931, 0.011332179419696331]], [[-0.0025201679673045874, 0.040506914258003235, 0.0582478791475296], [-0.03826311603188515, -0.007300287950783968, -0.02823680453002453], [-0.07617079466581345, -0.07185593992471695, -0.030657146126031876]], [[-0.016024718061089516, 0.02578688971698284, 0.07448555529117584], [-0.0038679223507642746, -0.0678272396326065, -0.04357735812664032], [0.013960548676550388, -0.002375376643612981, 0.0300722848623991]], [[-0.0021971322130411863, 0.002103192964568734, -0.02043084055185318], [0.07077687233686447, -0.06628160923719406, 0.004054962191730738], [0.041743695735931396, 0.031279969960451126, -0.023757053539156914]], [[-0.02725100703537464, -0.07459693402051926, -0.07569565623998642], [0.030609948560595512, 0.024023819714784622, -0.0009744397248141468], [-0.013845187611877918, 0.050504233688116074, -0.08903661370277405]], [[-0.015309912152588367, -0.008805984631180763, 0.10301891714334488], [-0.07331452518701553, 0.010685019195079803, -0.08017910271883011], [-0.010045638307929039, 0.002105901949107647, -0.003596540540456772]], [[0.0796111673116684, 0.0707576647400856, -0.05069670081138611], [0.07055387645959854, -0.060072533786296844, -0.08242920786142349], [-0.07366437464952469, -0.054452307522296906, 0.08061154186725616]], [[0.03183390945196152, -0.01960303820669651, -0.05229431390762329], [0.03905719146132469, -0.03271741420030594, -0.07301715016365051], [-0.025981638580560684, -0.047188371419906616, 0.06022351235151291]], [[0.05750017240643501, -0.007262206170707941, -0.019032642245292664], [-0.005306396633386612, 0.06883266568183899, 0.06621953099966049], [-0.059063151478767395, -0.05377166345715523, 0.07456079870462418]], [[0.049732036888599396, -0.026320185512304306, 0.007365363650023937], [-0.028695106506347656, -0.08448845148086548, 0.06670388579368591], [0.040450964123010635, -0.024638308212161064, 0.07552330940961838]], [[-0.009604600258171558, -0.0347718819975853, -0.06951781362295151], [0.004964823368936777, -0.022195084020495415, 0.03157414123415947], [0.00022518080368172377, 0.1252058893442154, -0.08160273730754852]]], [[[-0.022906268015503883, -0.043088074773550034, 0.10915974527597427], [0.04712598770856857, -0.005972935352474451, -0.016642073169350624], [0.04233647510409355, -0.059184953570365906, -0.012671401724219322]], [[0.01941797323524952, 0.029387520626187325, 0.018390068784356117], [-0.06781795620918274, 0.018634120002388954, 0.0018886947073042393], [0.03705159202218056, 0.05648327246308327, -0.04644828289747238]], [[0.07603057473897934, 0.0648772194981575, 0.004192324820905924], [0.035041097551584244, -0.06544402241706848, 0.06481625139713287], [0.07411501556634903, -0.06441250443458557, 0.08513534069061279]], [[0.035114068537950516, -0.06934206187725067, 0.007596792187541723], [-0.05754248425364494, 0.025978852063417435, 0.022714463993906975], [-0.05845898389816284, 0.04962090402841568, 0.03042573854327202]], [[-0.08283670991659164, -0.06399422883987427, 0.0020815865136682987], [0.047718364745378494, 0.03539285808801651, 0.024173762649297714], [-0.061570845544338226, 0.06727668642997742, 0.011735198087990284]], [[0.03731091693043709, 0.07339415699243546, -0.04386472329497337], [0.033406101167201996, 0.06782156974077225, 0.025830373167991638], [0.035713355988264084, 0.03972183167934418, -0.0819108709692955]], [[-0.044296421110630035, 0.0847158133983612, -0.0031737820245325565], [-0.009269597008824348, 0.0690070167183876, -0.07536041736602783], [0.07252472639083862, -0.0752907320857048, -0.02215154841542244]], [[-0.010213375091552734, 0.049604859203100204, 0.011814321391284466], [0.019155217334628105, 0.010176016017794609, -0.04043152183294296], [-0.06702961027622223, -0.05492010712623596, -0.07529459148645401]], [[0.08338527381420135, 0.025856316089630127, -0.03306951746344566], [0.08056008070707321, 0.04176909103989601, -0.0809914693236351], [0.08914772421121597, -0.024597439914941788, 0.08013039082288742]], [[-0.14427520334720612, -0.06386705487966537, 0.05582654848694801], [0.04653433337807655, 0.07158885896205902, 0.03287576138973236], [-0.1769949346780777, -0.05044467747211456, 0.023935463279485703]], [[-0.021453890949487686, 0.07130643725395203, -0.007248200476169586], [-0.04441727697849274, 0.013676637783646584, -0.05552500858902931], [0.12969276309013367, -0.049128640443086624, 0.09439444541931152]], [[-0.03610347956418991, -0.05014830082654953, -0.003534771269187331], [0.06358437985181808, -0.0016533378511667252, -0.019811009988188744], [0.0025804166216403246, 0.078255794942379, 0.01974588632583618]], [[0.07965698838233948, -0.07204010337591171, -0.022078612819314003], [-0.025040553882718086, -0.0935623049736023, 0.051284775137901306], [0.06197291985154152, -0.0758897140622139, -0.06546609103679657]], [[-0.036194056272506714, -0.04390936344861984, -0.03559655696153641], [-0.06464415043592453, -0.04422692954540253, 0.05265968292951584], [-0.05804746225476265, -0.04820254445075989, 0.037211064249277115]], [[0.039113689213991165, -0.0652601346373558, 0.013913795351982117], [0.0578729473054409, 0.03850502893328667, -0.03325201943516731], [-0.08341376483440399, 0.01468662079423666, 0.07714059203863144]], [[0.129280686378479, 0.02239314094185829, 0.1566029042005539], [-0.007136505097150803, -0.09158783406019211, 0.11032076179981232], [0.05148058012127876, 0.02190469577908516, -0.14440718293190002]]], [[[-0.16468380391597748, -0.024799859151244164, -0.01703794114291668], [0.11545097082853317, 0.10194380581378937, -0.11581753939390182], [0.0340161994099617, 0.03637329116463661, -0.0033466375898569822]], [[-0.21894940733909607, -0.020256036892533302, -0.017458494752645493], [-0.09010113775730133, -0.026185300201177597, -0.03422822430729866], [-0.005418707150965929, 0.011320608668029308, 0.11428756266832352]], [[-0.08283762633800507, 0.018549155443906784, 0.07271593809127808], [0.04034716263413429, -0.036853399127721786, -0.0651484802365303], [0.019035041332244873, 0.06812826544046402, -0.013546369969844818]], [[-0.007116242777556181, 0.05900988727807999, 0.04893174767494202], [-0.0435626395046711, -0.04303443059325218, -0.04675257205963135], [0.0018733027391135693, 0.05520113185048103, -0.03294963762164116]], [[0.055977821350097656, -0.022529125213623047, -0.0750381126999855], [0.07361552119255066, 0.031214026734232903, 0.05064539238810539], [-0.003848280059173703, -0.06348367780447006, 0.05465127155184746]], [[0.06912772357463837, 0.0915939211845398, 0.013856852427124977], [0.018900424242019653, 0.0617622435092926, -0.016310101374983788], [-0.056180618703365326, 0.0012003489537164569, 0.02358483523130417]], [[-0.030705174431204796, -0.05092006176710129, -0.03467315807938576], [0.0017433766042813659, -0.020079422742128372, -0.048562560230493546], [0.057308074086904526, 0.07833336293697357, 0.040608592331409454]], [[-0.025685511529445648, -0.04838347062468529, 0.0019470201805233955], [0.02591531351208687, 0.0667702853679657, 0.03911740332841873], [0.007862091064453125, 0.0465075820684433, 0.066388800740242]], [[-0.0194430872797966, -0.07322396337985992, -0.004366634879261255], [0.03569697588682175, 0.011209674179553986, 0.034644510596990585], [0.012520793825387955, -0.04262937605381012, 0.010202126577496529]], [[0.10896912217140198, -0.04707768186926842, -0.007080498617142439], [0.015203636139631271, 0.06317585706710815, 0.08917294442653656], [0.07254469394683838, -0.007298357784748077, -0.02974182367324829]], [[-0.0323948971927166, 0.08301512151956558, -0.012087657116353512], [-0.03322470933198929, -0.08470895886421204, 0.03620211407542229], [0.01765352115035057, -0.08399982750415802, 0.04568161815404892]], [[-0.0766032338142395, -0.06353934109210968, -0.01390089001506567], [-0.05312037467956543, 0.04937734827399254, -0.019455116242170334], [0.0741441398859024, 0.07359348237514496, -0.0058923703618347645]], [[0.0684879943728447, 0.04339750483632088, -0.01334892027080059], [0.06829757988452911, 0.023474618792533875, 0.02592608332633972], [-0.02530914731323719, 0.05011478811502457, 0.02228153496980667]], [[-0.021855348721146584, -0.0644286647439003, 0.02232571691274643], [0.021652456372976303, -0.08843211084604263, 0.06719651818275452], [0.06135999783873558, -0.07597223669290543, 0.04724026471376419]], [[-0.07814670354127884, 0.0551658533513546, 0.04162663593888283], [-0.039980243891477585, -0.05901508778333664, 0.06289541721343994], [-0.047378525137901306, 0.012482976540923119, -0.06204310804605484]], [[0.09167689085006714, -0.20477332174777985, -0.042184680700302124], [0.02156342752277851, 0.012948937714099884, -0.06890543550252914], [-0.07275046408176422, -0.006439924705773592, -0.2206030637025833]]], [[[0.11007899045944214, -0.018690727651119232, 0.014940015971660614], [-0.07043503224849701, 0.10842517018318176, 0.0841517373919487], [0.03010731376707554, 0.007651733700186014, 0.011215904727578163]], [[-0.029536902904510498, 0.12349199503660202, -0.020803049206733704], [-0.007343927398324013, 0.07327540218830109, 0.046195562928915024], [-0.033627964556217194, 0.03200654685497284, -0.0013494932791218162]], [[0.1538504660129547, -0.031846415251493454, -0.025298437103629112], [0.018245631828904152, 0.050540775060653687, -0.010996809229254723], [-0.017266949638724327, 0.06513664871454239, 0.06877736002206802]], [[0.03114015981554985, -0.04078235477209091, 0.05765579640865326], [-0.0015729778679087758, -0.05538637563586235, -0.023197103291749954], [0.012919112108647823, -0.0012345759896561503, 0.04857882484793663]], [[0.01167371217161417, -0.024617929011583328, 0.0652138963341713], [0.01170622929930687, -0.07070353627204895, 0.05548563599586487], [-0.015542622655630112, -0.03708258271217346, -0.0433238185942173]], [[0.06518928706645966, 0.050653502345085144, 0.038504645228385925], [0.025374852120876312, -0.06190093979239464, 0.01284028124064207], [0.08491116017103195, -0.06121665611863136, 0.03988243639469147]], [[-0.10833477973937988, -0.03640751168131828, -0.027449995279312134], [-0.04198020324110985, 0.0075032212771475315, 0.03249609097838402], [0.05501456558704376, -0.022321976721286774, -0.04269074276089668]], [[0.03138044476509094, 0.03396143019199371, -0.00022744937450625002], [-0.01115796621888876, 0.039298128336668015, 0.008619606494903564], [0.01668456569314003, 0.041181858628988266, -0.04173551872372627]], [[0.03615574166178703, -0.016275594010949135, 0.0063497889786958694], [0.05296482890844345, -0.035298336297273636, 0.05638124793767929], [0.05165119469165802, 0.0376635380089283, -0.05954666808247566]], [[0.034568313509225845, -0.042927078902721405, 0.038313280791044235], [-0.1136443018913269, 0.06236030161380768, -0.0950046256184578], [0.02250564843416214, -0.012047059834003448, 0.06446494907140732]], [[-0.11109364777803421, 0.10412215441465378, 0.112124003469944], [0.0814487487077713, 0.08304406702518463, 0.008271785452961922], [0.07266386598348618, 0.046887073665857315, -0.005894999019801617]], [[-0.023419193923473358, 0.047167085111141205, 0.03089078702032566], [-0.06792483478784561, -0.05238907039165497, -0.09978434443473816], [-0.09885980188846588, 0.09525053203105927, 0.07829418778419495]], [[-0.00890402216464281, 0.05649601295590401, 0.007929951883852482], [-0.04601015895605087, -0.06766503304243088, 0.06795161217451096], [-0.09298886358737946, 0.008252497762441635, -0.03206544369459152]], [[-0.0859239399433136, -0.046120867133140564, 0.02263127826154232], [0.04342563450336456, 0.041772957891225815, -0.01975785195827484], [0.005792314186692238, -0.0006500874296762049, 0.03994537517428398]], [[0.013064959086477757, 0.03696265444159508, -0.043298933655023575], [-0.04413075000047684, 0.055505283176898956, -0.04377943277359009], [0.013561507686972618, -0.05362698808312416, -0.043240226805210114]], [[-0.10120368003845215, -0.023221183568239212, -0.08532121032476425], [-0.015173248946666718, 0.12413430958986282, 0.13106316328048706], [-0.04684073105454445, 0.06016283854842186, 0.010481603443622589]]], [[[0.024257684126496315, 0.0462346151471138, -0.046104975044727325], [0.025568533688783646, -0.008907540701329708, 0.09247155487537384], [0.004035580437630415, 0.09350968897342682, -0.060558661818504333]], [[-0.016722621396183968, -0.0021162645425647497, 0.03824034705758095], [-0.008964813314378262, 0.015626298263669014, -0.021721865981817245], [0.0318463034927845, 0.018288010731339455, 0.03263479471206665]], [[-0.07124718278646469, -0.02706070803105831, -0.04777901619672775], [0.06752219796180725, 0.031069979071617126, -0.02164490707218647], [-0.056243620812892914, 0.044604234397411346, 0.0952199324965477]], [[-0.028319109231233597, 0.02023998089134693, 0.0016608643345534801], [-0.04765532910823822, -0.04102620854973793, 0.030506258830428123], [0.027422241866588593, 0.043579716235399246, -0.004919016733765602]], [[0.06083774194121361, 0.03239239379763603, 0.02987075410783291], [0.07549092173576355, -0.0027278531342744827, -0.026449834927916527], [-0.13970442116260529, -0.0729505717754364, 0.021279271692037582]], [[0.02126150205731392, 0.10442730039358139, 0.0630280077457428], [0.036582205444574356, 0.01425196323543787, 0.046112142503261566], [0.06906865537166595, -0.01000644639134407, 0.0032035682816058397]], [[-0.04040707275271416, -0.04840165749192238, 0.056147899478673935], [0.027097100391983986, 0.051381032913923264, -0.002870885655283928], [-0.015649940818548203, 0.060262877494096756, -0.025616737082600594]], [[0.061229556798934937, 0.04518325626850128, -0.01817995309829712], [0.09877679497003555, -0.003892409149557352, -0.03555465489625931], [0.0754803717136383, -0.0693322941660881, -0.011402065865695477]], [[-0.07381065934896469, 0.05453009903430939, 0.021799981594085693], [-0.017328331246972084, -0.09698788821697235, -0.028088564053177834], [0.07127583026885986, -0.09384162724018097, 0.030158940702676773]], [[-0.1090310737490654, -0.09936084598302841, 0.026847699657082558], [-0.01737326942384243, -0.025076812133193016, 0.07914365082979202], [0.0814710408449173, -0.0014193515526130795, -0.04101192206144333]], [[0.007899005897343159, -0.05216897279024124, 0.056314725428819656], [0.044571153819561005, 0.005134246777743101, -0.0003851186775136739], [-0.055247511714696884, 0.0769505426287651, 0.0018027379410341382]], [[0.0500459186732769, 0.042369354516267776, 0.0797353982925415], [0.09127041697502136, -0.056601498275995255, -0.06444133818149567], [0.003927914891391993, 0.03470597043633461, 0.06832472234964371]], [[0.0015642371727153659, -0.05753275007009506, -0.013957240618765354], [0.04699072614312172, 0.033951498568058014, 0.04469161853194237], [0.0373937264084816, 0.02099713124334812, 0.03367563709616661]], [[0.047999050468206406, -0.0005647947546094656, 0.04856514185667038], [0.04014824703335762, 0.07453733682632446, 0.024964332580566406], [-0.050620343536138535, -0.03163613751530647, -0.03215496987104416]], [[0.0329938568174839, 0.032963093370199203, -0.022614261135458946], [-0.08224918693304062, 0.0015540097374469042, 0.016192227602005005], [0.05623098090291023, 0.02090015448629856, 0.05738209933042526]], [[0.0006764439167454839, -0.008815711364150047, -0.05577927082777023], [-0.06103578209877014, -0.13468565046787262, 0.02061191387474537], [-0.0029826329555362463, 0.041825275868177414, -0.007202271372079849]]], [[[0.03930069878697395, 0.042465418577194214, 0.0022399607114493847], [0.08426785469055176, -0.008194563910365105, -0.017427772283554077], [-0.09314374625682831, 0.025499286130070686, -0.10540922731161118]], [[-0.05551374331116676, -0.14096185564994812, -0.11933993548154831], [0.0868302509188652, -0.0189138762652874, -0.03671210631728172], [-0.0919986218214035, 0.03906850144267082, -0.007198335602879524]], [[-0.024604205042123795, 0.03905521705746651, 0.04978736862540245], [0.06086912751197815, 0.021891867741942406, -0.06360259652137756], [0.10867031663656235, -0.09825315326452255, 0.043671417981386185]], [[-0.05596771463751793, 0.03601725399494171, 0.07747264951467514], [-0.0877092108130455, -0.0070353164337575436, 0.01606551930308342], [-0.09062430262565613, 0.08164158463478088, -0.0030769850127398968]], [[0.02145211398601532, -0.08224111795425415, 0.0373876616358757], [0.12762939929962158, 0.020843178033828735, -0.10016147047281265], [-0.03228605166077614, 0.05299569293856621, 0.06933073699474335]], [[0.013172206468880177, -0.06541820615530014, 0.03495418652892113], [-0.139891117811203, -0.06739883124828339, -0.005391416139900684], [0.05547330528497696, 0.009860271587967873, 0.0818386971950531]], [[0.011871185153722763, 0.05161553621292114, 0.05776601284742355], [0.02385212853550911, 0.001595709123648703, 0.02913203462958336], [-0.07579454779624939, 0.029376864433288574, -0.029651500284671783]], [[0.06989916414022446, 0.021717529743909836, -0.11351903527975082], [-0.0640050545334816, -0.06561588495969772, 0.023289063945412636], [0.04047182947397232, 0.05905143916606903, -0.004309964831918478]], [[-0.05308515951037407, 0.013503276742994785, 0.03953423351049423], [0.039213523268699646, 0.05589935556054115, 0.06174368038773537], [0.04788203164935112, 0.012405142188072205, -0.0029213307425379753]], [[-0.016383206471800804, 0.12373662739992142, 0.0691346526145935], [0.08010566979646683, 0.04996883124113083, 0.03672170266509056], [-0.06831222772598267, -0.024060020223259926, 0.08142375200986862]], [[-0.09197016060352325, -0.038920946419239044, -0.0057054609060287476], [0.10746481269598007, -0.09797096997499466, -0.0487053282558918], [-0.0586748942732811, -0.14990442991256714, 0.023222370073199272]], [[-0.027308804914355278, 0.021864546462893486, -0.014440611004829407], [-0.05415663123130798, -0.03445626422762871, -0.039488498121500015], [0.04336415231227875, -0.0007840274483896792, -0.07420581579208374]], [[-0.05716874822974205, 0.034534405916929245, 0.000510747660882771], [-0.031339868903160095, 0.052253518253564835, -0.07501471787691116], [0.05531475320458412, 0.08414137363433838, -0.037913791835308075]], [[0.005174889229238033, 0.029728129506111145, 0.055351998656988144], [-0.04407054930925369, -0.03964058309793472, 0.050791800022125244], [-0.05176553502678871, 0.07256080210208893, 0.04103986173868179]], [[-0.06025933474302292, -0.053358662873506546, -0.034139234572649], [-0.03190610930323601, -0.07402388751506805, -0.04147723317146301], [-0.05910976231098175, 0.07300359755754471, 0.03719352185726166]], [[0.005801380146294832, 0.06391630321741104, -0.04709116742014885], [-0.0237608402967453, 0.005473270546644926, 0.06367402523756027], [-0.007283911108970642, 0.0330703929066658, -0.0025699473917484283]]], [[[-0.004819715395569801, 0.09228067100048065, 0.14930836856365204], [0.005119051318615675, 0.03431639447808266, 0.14936809241771698], [-0.08412625640630722, 0.03292675316333771, 0.06461108475923538]], [[0.012082086876034737, 0.0009438875131309032, 0.06276995688676834], [0.00825481303036213, -0.0005150284850969911, 0.06019306555390358], [0.010846864432096481, 0.02395331859588623, 0.08990289270877838]], [[0.0252989549189806, -0.036322545260190964, -0.04777141287922859], [0.01952001452445984, -0.007420969661325216, 0.040807172656059265], [0.14788663387298584, -0.08008718490600586, -0.015452656894922256]], [[-0.06440020352602005, 0.039986852556467056, 0.09505215287208557], [-0.03777191787958145, 0.018734358251094818, 0.01109384372830391], [-0.03496783226728439, 0.03154818341135979, -0.011058084666728973]], [[0.004084756597876549, 0.0480806864798069, -0.029081234708428383], [0.1205192506313324, -0.05515274405479431, -0.013513827696442604], [0.025264400988817215, -0.06279651075601578, 0.06829558312892914]], [[-0.11524929851293564, 0.014048957265913486, -0.01046684104949236], [-0.06419312953948975, -0.007906194776296616, 0.01277508307248354], [0.026817429810762405, -0.05203719437122345, 0.051920607686042786]], [[-0.003988032229244709, -0.009476629085838795, 0.04767994210124016], [-0.029420161619782448, 0.05517023429274559, 0.045753754675388336], [-0.06403499096632004, 0.04637476056814194, 0.06618466973304749]], [[0.07300061732530594, -0.01957671530544758, -0.043249309062957764], [0.03440650552511215, 0.00724445516243577, 0.07731412351131439], [-0.05435128137469292, 0.034520164132118225, -0.03326075151562691]], [[0.002656064461916685, -0.06086117774248123, 0.06320571899414062], [0.05493520200252533, 0.008791472762823105, 0.08971688896417618], [-0.03502669930458069, -0.03034423291683197, 0.028043320402503014]], [[-0.10256434231996536, -0.12152019143104553, -0.05367869883775711], [0.006214932072907686, -0.03991576284170151, -0.0656522586941719], [0.02695463038980961, -0.0026201896835118532, 0.1227610632777214]], [[-0.055827438831329346, -0.017588555812835693, 0.06153760105371475], [-0.0585554763674736, 0.09302691370248795, 0.05483217537403107], [-0.10169936716556549, 0.12091787904500961, 0.003426122246310115]], [[-0.019925707951188087, -0.05209246650338173, -0.07036489993333817], [0.024771926924586296, -0.03245635703206062, -0.040478505194187164], [0.00708509236574173, -0.040701303631067276, 0.033480264246463776]], [[-0.010559933260083199, -0.054087378084659576, 0.03028111718595028], [0.05536532402038574, -0.02435082569718361, -0.06771905720233917], [-0.0022723705042153597, 0.06399798393249512, -0.0193024855107069]], [[0.07793769240379333, -0.06605593115091324, 0.01255753356963396], [-0.04514184594154358, -0.03051234781742096, 0.06977333873510361], [-0.025690004229545593, 0.05147330090403557, -0.0695994421839714]], [[0.05374518781900406, -0.003765328321605921, -0.0020718432497233152], [0.051706209778785706, 0.001639290596358478, -0.011056321673095226], [0.02829999476671219, 0.0032542520202696323, -0.006572933867573738]], [[-0.03756048530340195, 0.011163150891661644, -0.16710391640663147], [0.06128256022930145, -0.10155577957630157, -0.10950914770364761], [-7.30571656504253e-08, -0.04347975552082062, -0.0031684122513979673]]], [[[-0.008606758899986744, -0.03539865091443062, 0.0962560623884201], [-0.11150021106004715, 0.0690644234418869, 0.0834537222981453], [-0.05482414737343788, 0.00016294307715725154, -0.08752124756574631]], [[-0.1405980885028839, -0.05158545449376106, 0.07185286283493042], [0.07488500326871872, -0.0009986709337681532, 0.011937790550291538], [-0.002570776268839836, 0.040999885648489, 0.02808362804353237]], [[-0.02104826830327511, -0.17438673973083496, -0.013321839272975922], [-0.10071070492267609, 0.0808177962899208, -0.04985043406486511], [-0.014582348987460136, 0.017083195969462395, -0.024804385378956795]], [[0.05087468773126602, 0.009166296571493149, -0.08673061430454254], [-0.051487382501363754, -0.07471761852502823, 0.07186003029346466], [0.04332825914025307, 0.10651472955942154, 0.0018802012782543898]], [[-0.023063495755195618, 0.020639225840568542, 0.12110348045825958], [0.05551334470510483, 0.04583078995347023, 0.03115820698440075], [-0.07378268241882324, 0.10082545876502991, 0.012014619074761868]], [[-0.035674165934324265, -0.10806730389595032, 0.06715153902769089], [-0.10297444462776184, 0.10061831772327423, 0.012926284223794937], [-0.01408163458108902, -0.02793407440185547, -0.03822370246052742]], [[0.1129465401172638, 0.07456325739622116, -0.062377963215112686], [-0.007280655670911074, -0.04780237749218941, -0.04986763000488281], [-0.07762772589921951, -0.017793850973248482, 0.01351182721555233]], [[0.034054234623909, 0.0798250213265419, 0.04172210395336151], [0.02304689772427082, -0.09302103519439697, 0.04946914687752724], [0.06861625611782074, 0.001966235227882862, 0.07680384814739227]], [[0.03806616738438606, -0.04163658991456032, 0.09454094618558884], [0.05664954334497452, -0.07827982306480408, -0.08560454100370407], [0.07349322736263275, -0.052106961607933044, -0.004946291912347078]], [[-0.2434169501066208, 0.02716219238936901, -0.018589753657579422], [0.08429854363203049, 0.05722389742732048, -0.03671351447701454], [-0.041302964091300964, 0.09893781691789627, 0.07597382366657257]], [[0.10358285158872604, -0.0908321961760521, 0.004516302142292261], [0.012871302664279938, -0.056187864392995834, -0.09862023591995239], [0.10185685008764267, 0.0006878332933411002, 0.006594306323677301]], [[0.010488883592188358, -0.0447695255279541, 0.048205211758613586], [-0.09778574854135513, -0.09028774499893188, -0.03143657371401787], [-0.01868039183318615, 0.08696911484003067, -0.049920789897441864]], [[-0.0802961066365242, -0.04645480960607529, -0.03376446291804314], [0.0601312629878521, 0.023610081523656845, -0.07115770876407623], [0.01644722744822502, 0.037953995168209076, 0.024370530620217323]], [[-0.06654484570026398, 0.04681999608874321, 0.06773573160171509], [0.021518418565392494, 0.02761380933225155, 0.05931874364614487], [0.08729001134634018, -0.06968871504068375, 0.013205884024500847]], [[0.04321249574422836, 0.04343215376138687, -0.013778572902083397], [-0.09002767503261566, -0.09027149528265, -0.09472763538360596], [0.010974164120852947, -0.002043128712102771, -0.048846129328012466]], [[-0.09517524391412735, -0.12095832079648972, 0.006345001049339771], [-0.029662173241376877, 0.06486190855503082, 0.016128133982419968], [0.1863168478012085, 0.004931367933750153, 0.040429677814245224]]], [[[0.12005841732025146, 0.05830373615026474, 0.012016653083264828], [0.036196354776620865, 0.05745045095682144, 0.07485873252153397], [0.04791451245546341, -0.06107785180211067, 0.0668066069483757]], [[0.008707728236913681, 0.06692087650299072, -0.11426224559545517], [-0.037644658237695694, 0.08280108124017715, 0.06731614470481873], [-0.017451129853725433, -0.128299742937088, 0.05377053841948509]], [[-0.04539855197072029, -0.007067190017551184, -0.06476203352212906], [-0.0075667258352041245, -0.07202321290969849, 0.0458819717168808], [0.12782035768032074, -0.009305027313530445, -0.07089868932962418]], [[0.09586537629365921, 0.009575149975717068, -0.004231179133057594], [-0.07801719754934311, -0.0022747130133211613, -0.03238255903124809], [-0.08816967904567719, 0.013960842974483967, -0.027682146057486534]], [[-0.1381121724843979, 0.0006029595388099551, -0.02374962903559208], [0.07200051844120026, -0.17090052366256714, -0.01341610960662365], [-0.1618371158838272, 0.057900238782167435, 0.05975525081157684]], [[0.08121005445718765, 0.013587549328804016, 0.09386201202869415], [0.05140170454978943, -0.0020759867038577795, 0.10403918474912643], [0.038660626858472824, -0.03689013421535492, -0.027551058679819107]], [[0.032690390944480896, 0.05532583221793175, -0.005695707630366087], [-0.0708918571472168, 0.026615172624588013, -0.038773804903030396], [0.11835809797048569, -0.005038839299231768, 0.03056093491613865]], [[-0.046950314193964005, -0.06304607540369034, -0.007947449572384357], [0.016312221065163612, -0.03050328604876995, 0.07611390948295593], [0.0356132909655571, 0.04615022614598274, -0.03302593529224396]], [[0.07700552046298981, 0.07665079832077026, -0.003981432877480984], [-0.026292534545063972, 0.036634303629398346, -0.022312864661216736], [-0.0405220091342926, 0.0007665814482606947, -0.06947476416826248]], [[0.04080057516694069, 0.0008623876492492855, -0.015150737948715687], [-0.0780380368232727, 0.03515896573662758, -0.03781534731388092], [0.013826792128384113, 0.08447118103504181, -0.01184164173901081]], [[-0.06254797428846359, 0.12653516232967377, 0.061178047209978104], [0.058748144656419754, 0.17650480568408966, 0.03666969761252403], [-0.08167598396539688, -0.030069410800933838, 0.02287636324763298]], [[0.06436055898666382, 0.0851094126701355, -0.0709562599658966], [0.06813934445381165, 2.875257450796198e-05, -0.07067806273698807], [-0.02240850031375885, -0.10637803375720978, -0.022174719721078873]], [[0.05383593589067459, 0.005221858620643616, -0.060731008648872375], [-0.01897766999900341, 0.04770345240831375, -0.028202641755342484], [-0.08527746051549911, 0.004849973600357771, -0.06779756397008896]], [[-0.06908635795116425, -0.021338054910302162, -0.05306113883852959], [0.0505221001803875, 0.01803640089929104, -0.0033426685258746147], [0.011669117026031017, -0.07780735194683075, -0.02416345104575157]], [[0.026088619604706764, 0.08091765642166138, -0.059813905507326126], [0.03087526187300682, 0.05434974655508995, 0.01955418474972248], [-0.07084272056818008, 0.027214834466576576, -0.0644187182188034]], [[0.021553536877036095, 0.02099313959479332, -0.05894071236252785], [-0.016039500012993813, 0.023152032867074013, 0.07551077008247375], [0.014445926062762737, 0.1803906410932541, 0.11190472543239594]]]], "encoder.6.bias": [0.014148933812975883, -0.04343658685684204, 0.06610644608736038, -0.08133217692375183, 0.04753149300813675, -0.12859822809696198, 0.029473960399627686, 0.038732901215553284, -0.04124976694583893, -0.04360370337963104, 0.12305156886577606, -0.1067735031247139, 0.016477880999445915, -0.05500759556889534, 0.044892407953739166, 0.0649312362074852], "encoder.8.weight": [[[[-0.01664833351969719, -0.0001924129028338939, 0.006498434115201235], [-0.02946511283516884, -0.027370642870664597, 0.04496028646826744], [0.050491802394390106, 0.04078108072280884, -0.010545155964791775]], [[0.037456948310136795, 0.029152847826480865, -0.04833419993519783], [0.007352711632847786, -0.013631257228553295, -0.008604380302131176], [-0.05079325661063194, 0.043516963720321655, 0.03576916828751564]], [[-0.03410547226667404, 0.046261947602033615, 0.05384151265025139], [-0.039349790662527084, -0.021060040220618248, 0.005146171431988478], [0.05254356190562248, -0.022740652784705162, -0.03192329779267311]], [[-0.06987742334604263, -0.01785237155854702, 0.04123653098940849], [-0.060408011078834534, -0.005826624110341072, 0.03127153217792511], [-0.030888285487890244, 0.018050311133265495, -0.10134141147136688]], [[0.046667564660310745, -0.04653327167034149, 0.04517476633191109], [0.06005467474460602, 0.0504833348095417, -0.0032446752302348614], [0.05188492313027382, -0.043968986719846725, 0.040446773171424866]], [[-0.004836404696106911, 0.031064098700881004, 0.0022915364243090153], [-0.06647677719593048, 0.04822654649615288, -0.10978055745363235], [0.007099346723407507, -0.005282582715153694, 0.06966324895620346]], [[-0.043973904103040695, 0.04558751732110977, 0.010240621864795685], [-0.0590796172618866, -0.06156935542821884, -0.07405688613653183], [0.03955206274986267, -0.050417929887771606, 0.040745556354522705]], [[0.02387124113738537, -0.0009681608062237501, 0.02344847284257412], [0.07658050209283829, 0.01853695698082447, -0.04701297730207443], [-0.01773614063858986, -0.01228246558457613, -0.004791576415300369]], [[0.011271539144217968, 0.06086576730012894, 0.03070790134370327], [-0.04868268966674805, -0.05519045516848564, 0.08075990527868271], [-0.018990788608789444, 0.0483522042632103, 0.03338802605867386]], [[0.025100158527493477, 0.013919294811785221, 0.08610980957746506], [-0.036734726279973984, 0.04430684447288513, -0.04862441122531891], [0.0012465547770261765, 0.05788654461503029, -0.005703783594071865]], [[-0.07986797392368317, -0.09031837433576584, -0.04324223846197128], [-0.02149953506886959, -0.004307507537305355, 0.06773187965154648], [0.04204241558909416, -0.0956600084900856, 0.046355508267879486]], [[-0.008353471755981445, 0.011880339123308659, -0.011234120465815067], [-0.03560426086187363, 0.06474392116069794, -0.009188706055283546], [0.0107909319922328, 0.05884992703795433, -0.058650050312280655]], [[-0.03113011084496975, 0.004633188247680664, -0.059161923825740814], [0.08367101848125458, 0.09668941795825958, -0.04479850456118584], [0.02591511979699135, -0.0367746539413929, -0.053890127688646317]], [[-0.0702478364109993, -0.013848726637661457, -0.032807983458042145], [0.0380154512822628, 0.03168220445513725, 0.07183755189180374], [-0.018934089690446854, 0.05356574058532715, -0.04472857341170311]], [[0.016232049092650414, 0.061121802777051926, 0.07439438998699188], [0.006944388151168823, 0.006609032396227121, -0.013672524131834507], [-0.007608512416481972, 0.12186659127473831, 0.04511279612779617]], [[-0.04800897091627121, 0.001537399715743959, -0.07539872080087662], [0.037798620760440826, 0.00031168642453849316, -0.09366744011640549], [-0.049923356622457504, -0.018404172733426094, -0.12216085940599442]]], [[[-0.018359163776040077, 0.06891533732414246, -0.06808947026729584], [0.05278873071074486, 0.04609495773911476, -0.08436200767755508], [0.06972334533929825, 0.09683381021022797, -0.0978255644440651]], [[0.009757074527442455, -0.11177078634500504, 0.09414935857057571], [-0.1003924310207367, 0.020093973726034164, 0.046584516763687134], [-0.011140959337353706, 0.010284988209605217, 0.03372866287827492]], [[0.07215967029333115, 0.031738076359033585, 0.025172501802444458], [-0.13933171331882477, 0.04579632356762886, -0.09433723986148834], [0.05079962685704231, -0.04898194596171379, 0.10046948492527008]], [[0.0023408669512718916, -0.0013299876591190696, -0.0877724438905716], [-0.02937155030667782, -0.002528141951188445, 0.036170098930597305], [-0.032490700483322144, -0.017772071063518524, -0.012385571375489235]], [[0.021833183243870735, 0.10935450345277786, 0.04440714046359062], [-0.002225221134722233, 0.028677519410848618, -0.004193272907286882], [0.0032738519366830587, -0.05147506669163704, 0.10667849332094193]], [[-0.09977620095014572, -0.023373721167445183, 0.05931328609585762], [-0.016219232231378555, -0.08894432336091995, 0.08418445289134979], [0.0637289434671402, -0.032120250165462494, -0.010617115534842014]], [[0.047267358750104904, 0.06969480961561203, 0.05872880294919014], [0.09548882395029068, -0.05297097936272621, 0.06305761635303497], [-0.0947149321436882, -0.10547555238008499, 0.01793142408132553]], [[0.06033043563365936, 0.056329965591430664, 0.08770060539245605], [0.03816431015729904, 0.05600622668862343, 0.0066390689462423325], [-0.03968372568488121, 0.05704516917467117, -0.008702599443495274]], [[0.028154170140624046, -0.0384676568210125, -0.00027999075246043503], [0.0499945767223835, -0.005982138216495514, -0.02662563882768154], [0.05445194989442825, 0.09029020369052887, -0.0034730418119579554]], [[-0.02293793484568596, -0.04585010185837746, -0.09840665012598038], [-0.06680087745189667, 0.032239511609077454, 0.039619751274585724], [0.10761512070894241, 0.005762750282883644, 0.01870635896921158]], [[-0.014362801797688007, -0.026301853358745575, 0.07714348286390305], [0.0455850325524807, -0.009088359773159027, 0.017821239307522774], [0.02617419883608818, 0.040971990674734116, 0.06232317537069321]], [[-0.009090667590498924, 0.08386390656232834, -0.07463931292295456], [-0.011392977088689804, -0.056539732962846756, -0.05963130667805672], [-0.058542054146528244, -0.07436775416135788, -0.059252094477415085]], [[0.049806807190179825, -0.0021630222909152508, 0.06967149674892426], 