{"encoder.0.weight": [[[[0.11873213946819305, -0.18639056384563446, -0.0022840898018330336], [0.1303090751171112, 0.08842655271291733, -0.172744482755661], [-0.24531397223472595, -0.2461453676223755, -0.10213534533977509]]], [[[-0.12486951053142548, -0.0013617266668006778, -0.20026223361492157], [0.11723391711711884, 0.10856787860393524, -0.2545919418334961], [0.17575711011886597, -0.06620045751333237, -0.22786220908164978]]], [[[-0.02042342536151409, -0.25956952571868896, -0.03860752284526825], [-0.16690891981124878, 0.275348961353302, 0.19807887077331543], [0.18380534648895264, 0.25349879264831543, 0.13584622740745544]]], [[[0.228422611951828, -0.2260943502187729, 0.3305140435695648], [0.06977944076061249, 0.26655328273773193, -0.1506112962961197], [0.1132090613245964, 0.1738266795873642, -0.24569319188594818]]], [[[-0.2476520836353302, 0.03167013078927994, -0.1262056529521942], [-0.28407490253448486, 0.07434014976024628, 0.07069835811853409], [0.04787491634488106, 0.09111145883798599, -0.1684626340866089]]], [[[-0.3192969262599945, 0.059250038117170334, -0.04736384004354477], [-0.23512554168701172, -0.2025948017835617, 0.07477907836437225], [-0.2674379050731659, 0.11911316961050034, -0.2937139868736267]]], [[[-0.2612977623939514, 0.1499556601047516, 0.2652951180934906], [0.19614894688129425, 0.3235098421573639, 0.044301025569438934], [-0.15128155052661896, 0.15865767002105713, 0.10938086360692978]]], [[[-0.14695510268211365, 0.13649970293045044, 0.07784111797809601], [0.28067079186439514, 0.022630665451288223, -0.06783968955278397], [0.003400807036086917, -0.14187410473823547, -0.05009910836815834]]]], "encoder.0.bias": [-0.16225647926330566, -0.30330580472946167, -0.17322885990142822, 0.09189807623624802, -0.1888745278120041, -0.13471512496471405, 0.06999007612466812, -0.16013652086257935], "encoder.2.weight": [[[[0.09940775483846664, 0.07309474796056747, 0.052604157477617264], [-0.09292250871658325, 0.09720209985971451, -0.08340379595756531], [-0.057798124849796295, 0.035736214369535446, -0.09370449930429459]], [[-0.010954147204756737, 0.0061222221702337265, 0.08875304460525513], [-0.06493730843067169, -0.04962953180074692, 0.04674966633319855], [-0.10767032206058502, -0.02075626514852047, -0.009259992279112339]], [[-0.09880466759204865, -0.06573015451431274, 0.0531763918697834], [0.023018643260002136, 0.02511156164109707, -0.00875791348516941], [-0.05353289097547531, -0.10808634012937546, 0.0774039775133133]], [[-0.07020276039838791, 0.027421023696660995, -0.05561158433556557], [-0.007534989155828953, 0.07888484001159668, -0.00430822791531682], [0.08191604167222977, -0.09853208065032959, -0.1194392591714859]], [[0.08126235008239746, 0.09853403270244598, 0.05590543895959854], [-0.0793241560459137, -0.005999192129820585, -0.0712367370724678], [-6.0926307924091816e-05, -0.11419139802455902, -0.012288806028664112]], [[0.09542874246835709, 0.018890216946601868, -0.03645681217312813], [-0.016301093623042107, -0.017638202756643295, 0.06310442835092545], [-0.06782585382461548, 0.031250961124897, -0.012086212635040283]], [[0.0922321155667305, -0.011639502830803394, -0.01539432629942894], [0.07940421998500824, 0.10357709228992462, -0.051207929849624634], [-0.03732737526297569, -0.008983510546386242, 0.11152636259794235]], [[0.0843428298830986, -0.05213169381022453, 0.0890028178691864], [0.026439860463142395, 0.04772369936108589, 0.08374577015638351], [0.05173845961689949, 0.012507397681474686, -0.078011654317379]]], [[[0.0570431612432003, 0.039049770683050156, -0.013719628565013409], [-0.11214655637741089, 0.023231778293848038, 0.07895535230636597], [-0.0005786340916529298, 0.09860262274742126, 0.11490624397993088]], [[0.05028942972421646, 0.06481033563613892, 0.013012592680752277], [-0.09928328543901443, -0.00659466115757823, -0.10838831216096878], [0.05466959998011589, 0.0030024347361177206, 0.04964106157422066]], [[0.10190141946077347, 0.06731083244085312, 0.09326861053705215], [-0.12310966849327087, 0.08024151623249054, 0.021015658974647522], [0.03698249161243439, 0.04756377637386322, -0.018159080296754837]], [[-0.0014486339641734958, -0.03321821987628937, -0.008317830972373486], [0.07099401950836182, 0.029648806899785995, -0.1019178181886673], [-0.06378470361232758, -0.020662358030676842, 0.024918198585510254]], [[0.055143773555755615, -0.0308818481862545, 0.046483222395181656], [0.05367482826113701, -0.09872962534427643, 0.03935832902789116], [0.03784376010298729, -0.002354845404624939, -0.02937174029648304]], [[0.03586449474096298, -0.10306183248758316, -0.09311898052692413], [0.017131682485342026, 0.023366395384073257, -0.0780516117811203], [-0.06330889463424683, 0.0058685410767793655, -0.026261350139975548]], [[-0.03771997615695, 0.011224858462810516, 0.009843498468399048], [-0.052406586706638336, -0.08947234600782394, 0.06567128747701645], [0.007712788414210081, 0.005842593498528004, -0.011075257323682308]], [[0.07838846743106842, -0.11839333176612854, 0.05324685201048851], [0.10666932165622711, -0.002923891879618168, 0.01069943793118], [0.0006654125172644854, -0.023905636742711067, 0.09737168997526169]]], [[[0.09334582835435867, -0.0518830232322216, -0.01803167164325714], [-0.08810348063707352, 0.10879246890544891, 0.03389463573694229], [-0.1108001172542572, 0.0469895638525486, -0.06730636954307556]], [[-0.03377484530210495, -0.0815712958574295, 0.04049275442957878], [0.06916964799165726, 0.018216809257864952, -0.009114930406212807], [-0.04351310804486275, -0.029295504093170166, -0.06209283694624901]], [[-0.04275266081094742, 0.061956726014614105, 0.061648957431316376], [0.06503557413816452, -0.006934019271284342, 0.06822925060987473], [-0.12003426253795624, -0.05137190595269203, 0.0369124598801136]], [[-0.07235582172870636, 0.10879694670438766, -0.03822698816657066], [-0.09003335982561111, -0.10918046534061432, 0.09212946146726608], [-0.03667164221405983, 0.0222593042999506, -0.04872326925396919]], [[-0.05866345390677452, -0.0984572246670723, -0.09548231959342957], [-0.03980669379234314, 0.08142402023077011, -0.09598898887634277], [-0.07679889351129532, -0.04134233668446541, 0.041508354246616364]], [[-0.06662527471780777, 0.02493775635957718, -0.0910654067993164], [-0.10372267663478851, -0.003496362129226327, -0.055800799280405045], [0.06515110284090042, 0.07437940686941147, 0.10128403455018997]], [[0.09876610338687897, -0.09817527234554291, 0.02920323796570301], [0.023086274042725563, -0.0948767364025116, 0.047477904707193375], [0.011334885843098164, -0.048261214047670364, 0.053892578929662704]], [[-0.02016099914908409, -0.016828475520014763, 0.025068804621696472], [-0.0035730614326894283, 0.047439124435186386, -0.057269833981990814], [0.02441822923719883, 0.09383383393287659, 0.011306773871183395]]], [[[-0.08474887162446976, 0.044461242854595184, 0.024142613634467125], [0.09072639048099518, -0.050456464290618896, -0.031214658170938492], [-0.025977827608585358, 0.10514236986637115, 0.042481184005737305]], [[-0.047914210706949234, -0.011828133836388588, 0.07590241730213165], [0.08836359530687332, -0.062067024409770966, 0.0024624576326459646], [-0.055343013256788254, 0.07171916961669922, 0.11433953791856766]], [[-0.07821878045797348, 0.10834326595067978, -0.01468032319098711], [0.10820838063955307, -0.0027793317567557096, 0.05826378986239433], [-0.019136566668748856, 0.09863549470901489, -0.10594058781862259]], [[-0.0776325985789299, -0.01301355566829443, -0.05599033087491989], [0.0008970816270448267, -0.08006761968135834, -0.026286553591489792], [-0.08170496672391891, 0.0033708629198372364, 0.05684637650847435]], [[0.10990119725465775, 0.06270492821931839, 0.0432589091360569], [0.08187808096408844, 0.08252193033695221, -0.07472321391105652], [-0.016555268317461014, -0.006763473618775606, 0.0394987054169178]], [[-0.00036230834666639566, 0.0575207956135273, 0.0662112832069397], [0.013275835663080215, 0.02418440952897072, 0.027765557169914246], [0.05962687358260155, 0.028699588030576706, 0.040040068328380585]], [[-0.029143324121832848, -0.0838080421090126, 0.03876468911767006], [-0.10704383254051208, -0.060339607298374176, -0.009000740945339203], [-0.11683060228824615, -0.004828202538192272, -0.0739826112985611]], [[0.06130669265985489, -0.01430903747677803, -0.031711120158433914], [0.04484193027019501, -0.0018498533172532916, 0.017678987234830856], [-0.019023289903998375, 0.11161814630031586, 0.02950507029891014]]], [[[0.0785064548254013, -0.0042596133425831795, 0.000116676528705284], [0.0600675605237484, 0.10530032217502594, 0.04162212088704109], [0.051959943026304245, 0.04118981957435608, -0.1007676050066948]], [[0.12776896357536316, -0.044934459030628204, -0.03255212679505348], [0.11302212625741959, -0.0771203562617302, 0.04482061043381691], [0.0481027327477932, 0.03946521133184433, -0.13878986239433289]], [[-0.04100600630044937, 0.1168886125087738, 0.043762147426605225], [0.10088367760181427, 0.07772590219974518, 0.11725796014070511], [-0.09324042499065399, 0.05342506617307663, -0.0330476276576519]], [[-0.024251053109765053, -0.0018801420228555799, 0.11671673506498337], [-0.08913536369800568, -0.1135759949684143, 0.07469721883535385], [-0.07348381727933884, 0.08052924275398254, 0.02679666131734848]], [[0.08223645389080048, 0.08604592829942703, 0.11396661400794983], [-0.013658837415277958, -0.07746057957410812, -0.07445035129785538], [0.041515424847602844, -0.11620817333459854, -0.008542663417756557]], [[-0.09234484285116196, -0.10944211483001709, -0.09272921830415726], [0.0015385004226118326, -0.11397815495729446, -0.028227584436535835], [0.09129541367292404, -0.0034478651359677315, 0.05462529510259628]], [[-0.07703991234302521, -0.005847938824445009, 0.11478791385889053], [0.11243470013141632, 0.04011166840791702, 0.0343562476336956], [0.11181773245334625, -0.09918014705181122, -0.05944798141717911]], [[0.043314218521118164, 0.05432428792119026, -0.05867456644773483], [-0.05994733050465584, -0.011943547055125237, 0.08189493417739868], [0.08519710600376129, 0.01031795796006918, 0.11476162075996399]]], [[[-0.024287458509206772, 0.003255127463489771, 0.052697863429784775], [0.0056533957831561565, -0.04281456768512726, -0.11693776398897171], [-0.012948818504810333, 0.1042124405503273, -0.02640504203736782]], [[-0.01647467538714409, -0.019830934703350067, 0.02829138934612274], [0.04027978703379631, 0.01013786718249321, -0.04270433261990547], [-0.07318597286939621, -0.007715280167758465, 0.057677917182445526]], [[-0.06064043939113617, 0.04300256446003914, -0.08025949448347092], [-0.05837755650281906, -0.11389712244272232, -0.0640924870967865], [-0.08409429341554642, -0.08533075451850891, -0.021307995542883873]], [[-0.0160128902643919, 0.053218238055706024, -0.014066847041249275], [-0.11705976724624634, -0.09805067628622055, -0.08073458820581436], [0.035533688962459564, -0.056981947273015976, -0.049012381583452225]], [[-0.06677675247192383, 0.07394296675920486, 0.03639925643801689], [-0.08688746392726898, -0.03763724863529205, -0.04807192459702492], [-0.09015330672264099, -0.004920224193483591, -0.07017666846513748]], [[-0.08411379903554916, 0.03735063597559929, -0.10816377401351929], [-0.06327701359987259, -0.056735195219516754, -0.11569749563932419], [0.010411830618977547, -0.10436305403709412, 0.0024370853789150715]], [[0.10576070100069046, 0.09125710278749466, 0.09332948178052902], [-0.04925799369812012, 0.04166918992996216, 0.025298379361629486], [0.027655066922307014, 0.024813733994960785, -0.014084837399423122]], [[0.11276822537183762, -0.01678607426583767, -0.08544205874204636], [-0.08581721782684326, 0.053625307977199554, -0.09718751907348633], [0.028257785364985466, 0.011834969744086266, -0.10396312177181244]]], [[[0.043709639459848404, -0.06110065057873726, -0.06918516010046005], [-0.11691388487815857, -0.07675338536500931, 0.10060281306505203], [0.029846923425793648, 0.04191634804010391, -0.05170772224664688]], [[0.050258807837963104, 0.046972788870334625, -0.05414830148220062], [0.005636280868202448, -0.007786586880683899, -0.09488186240196228], [-0.05026780813932419, -0.013243000954389572, -0.020502902567386627]], [[-0.007229990791529417, 0.037134379148483276, -0.05969874560832977], [0.07846318930387497, 0.019460685551166534, 0.06728961318731308], [0.1161268949508667, 0.11604409664869308, 0.0769997090101242]], [[-0.09281744062900543, -0.10305774211883545, -0.10655625909566879], [-0.021157942712306976, -0.07959670573472977, -0.04899076372385025], [0.09720330685377121, 0.089040607213974, -0.11064103990793228]], [[0.051532063633203506, -0.03760382533073425, -0.03669412061572075], [0.04155554249882698, 0.08030258119106293, -0.0636536255478859], [0.0898531898856163, 0.0005640039453282952, -0.03980473428964615]], [[-0.019421562552452087, 0.050840843468904495, -0.021645426750183105], [-0.07830844074487686, -0.02091110311448574, 0.05658811330795288], [0.07499760389328003, 0.007932852022349834, -0.01808081567287445]], [[-0.00958024337887764, -0.08323285728693008, -0.04042655602097511], [-0.026559941470623016, -0.03432291001081467, 0.04868493601679802], [0.07191326469182968, -0.07491540908813477, 0.016514599323272705]], [[0.1172279641032219, 0.058809034526348114, 0.046179186552762985], [0.027512596920132637, 0.09553766250610352, 0.006669961381703615], [0.09535814821720123, -0.06469567865133286, 0.09232284873723984]]], [[[-0.09792672842741013, -0.06448789685964584, 0.11353280395269394], [0.03766804188489914, -0.11562269926071167, 0.05144244804978371], [0.023103609681129456, 0.014608912169933319, -0.004745412152260542]], [[-0.04844001680612564, 0.11307009309530258, 0.00990061741322279], [-0.04905666783452034, -0.0917939692735672, 0.11268805712461472], [0.03254237398505211, 0.06660223007202148, 0.10206282883882523]], [[-0.08470859378576279, 0.04988890513777733, -0.0895986333489418], [-0.11346734315156937, 0.002354069845750928, -0.08580244332551956], [-0.09728089720010757, 0.04369877651333809, 0.06164875999093056]], [[0.05525830388069153, -0.09433997422456741, 0.10429579019546509], [-0.05098038539290428, -0.09448721259832382, 0.0490456186234951], [0.09702737629413605, 0.06808312982320786, 0.008305750787258148]], [[-0.06257770955562592, 0.04011718928813934, -0.1117311418056488], [-0.023456621915102005, 0.06542453169822693, 0.035988230258226395], [0.03632986545562744, 0.09168872982263565, 0.058018915355205536]], [[0.07310087233781815, 0.034600794315338135, -0.06778976321220398], [-0.00043008048669435084, -0.10136790573596954, 0.10380467027425766], [0.11724977940320969, 0.048329103738069534, 0.06308220326900482]], [[-0.006920089013874531, 0.07847613096237183, 0.11493445187807083], [-0.11153429001569748, -0.040252115577459335, 0.06888692826032639], [-0.01138941291719675, 0.019456008449196815, -0.023409921675920486]], [[-0.09500093758106232, -0.023566732183098793, -0.025371428579092026], [0.06975512951612473, 0.10657555609941483, -0.016164610162377357], [-0.027788180857896805, 0.06666236370801926, 0.09402650594711304]]]], "encoder.2.bias": [-0.009877453558146954, 0.032402437180280685, -0.006913629826158285, 0.03724589943885803, 0.0651855319738388, -0.07302708923816681, 0.023321550339460373, -0.05478323996067047], "encoder.4.weight": [[[[0.008403236977756023, 0.07272186130285263, -0.05825480818748474], [0.10457295179367065, 0.07093536853790283, 0.05809403955936432], [0.03335649520158768, -0.028047526255249977, 0.10230492800474167]], [[-0.059289004653692245, 0.005833060946315527, 0.09590814262628555], [-0.012662776745855808, -0.09613662958145142, 0.02013210393488407], [-0.03467848524451256, -0.07535756379365921, -0.052607811987400055]], [[0.03921450674533844, 0.01038270816206932, 0.056236885488033295], [0.08703561872243881, 0.07543453574180603, 0.01812760718166828], [-0.04588615521788597, 0.027870966121554375, 0.11005964875221252]], [[-0.03762194886803627, 0.00491651427000761, 0.07487446814775467], [-0.113156758248806, 0.06252976506948471, 0.07919635623693466], [-0.01954003795981407, 0.11070354282855988, -0.018259545788168907]], [[-0.12262401729822159, -0.1033787801861763, 0.04447142034769058], [-0.02547723427414894, -0.11530400067567825, -0.09219292551279068], [0.05434039235115051, 0.11116483062505722, -0.08012286573648453]], [[-0.038418762385845184, -0.10130887478590012, 0.02020488865673542], [0.07535775005817413, 0.017334681004285812, 0.00896403007209301], [0.0648830384016037, 0.10311309248209, 0.04025072231888771]], [[-0.0041659618727862835, 0.003632359206676483, 0.10723402351140976], [0.009220163337886333, -0.07047589123249054, 0.0500526987016201], [0.057438481599092484, -0.05673913285136223, -0.07880447804927826]], [[-0.04045967757701874, 0.024779098108410835, -0.08993688970804214], [-0.038152068853378296, -0.09502968937158585, -0.08407179266214371], [0.06701481342315674, 0.09571860730648041, -0.04927912726998329]]], [[[-0.055385198444128036, -0.09276195615530014, 0.06428417563438416], [-0.010140570811927319, -0.10878907144069672, 0.08944132924079895], [-0.04735250771045685, -0.05186956003308296, 0.010769053362309933]], [[0.017100319266319275, -0.044669706374406815, 0.10420459508895874], [-0.07459714263677597, -0.010495811700820923, 0.10598161071538925], [-0.001318897120654583, 0.033413879573345184, -0.09959873557090759]], [[-0.0003592675784602761, -0.07350888103246689, -0.047182150185108185], [-0.038734592497348785, -0.020129846408963203, -0.017976395785808563], [-0.043502774089574814, -0.12969180941581726, 0.17579476535320282]], [[0.08173146098852158, -0.09265376627445221, -0.07887902110815048], [0.0014032652834430337, 0.06717497855424881, 0.11469238251447678], [-0.009679107926785946, 0.03414012864232063, -0.06810780614614487]], [[0.03806494548916817, -0.028564047068357468, -0.11174757778644562], [-0.038581401109695435, -0.11312175542116165, 0.12259568274021149], [0.09455564618110657, -0.06187056377530098, 0.11566894501447678]], [[-0.14736393094062805, 0.06315731257200241, -0.04234076291322708], [0.024549102410674095, 0.032760944217443466, -0.08417702466249466], [-0.025566276162862778, 0.05157741159200668, 0.013614959083497524]], [[-0.008855977095663548, 0.04732002690434456, 0.04718679562211037], [-0.07179783284664154, 0.006298439111560583, -0.09094296395778656], [0.06289465725421906, 0.05718998610973358, -0.06747833639383316]], [[-0.011931395158171654, -0.06711655855178833, -0.10446401685476303], [-0.06332278251647949, -0.08235248178243637, 0.04474756866693497], [0.07407855987548828, 0.05380673706531525, 0.06221478804945946]]], [[[-0.023174546658992767, -0.060861311852931976, -0.09530159085988998], [-0.1175312027335167, 0.0603916272521019, -0.11816252022981644], [0.1050628200173378, 0.10224009305238724, 0.03439652547240257]], [[0.01880442164838314, -0.046429991722106934, 0.042374033480882645], [0.05298697575926781, -0.11731898784637451, -0.07513601332902908], [-0.020023895427584648, 0.10291103273630142, 0.09766171127557755]], [[0.06779766082763672, -0.1257275640964508, 0.12490620464086533], [-0.12524309754371643, -0.02941351756453514, 0.06327084451913834], [0.03838995099067688, 0.04752329736948013, 0.01485126931220293]], [[0.10286826640367508, -0.0007311635417863727, 0.05345400422811508], [0.08917843550443649, 0.11694875359535217, 0.0016813642578199506], [-0.016267279163002968, 0.04812080040574074, -0.08057653158903122]], [[-0.07443297654390335, -0.048831820487976074, 0.10507208108901978], [0.12260285019874573, 0.08599571138620377, -0.0999278649687767], [0.09395071119070053, -0.11330641061067581, -0.07395114004611969]], [[-0.165618896484375, 0.07587500661611557, -0.07274872809648514], [-0.17176540195941925, -0.09830529987812042, -0.04315759241580963], [0.07736392319202423, -0.16006290912628174, -0.06796454638242722]], [[-0.11314184218645096, -0.028537258505821228, -0.12965862452983856], [-0.09653819352388382, 0.06981762498617172, 0.09799667447805405], [-0.022687625139951706, -0.005929763428866863, 0.060454051941633224]], [[0.006851701065897942, 0.15630672872066498, -0.03548553213477135], [-0.020748892799019814, -0.05856865644454956, 0.1389167159795761], [-0.09807489812374115, 0.1226012110710144, 0.11386919021606445]]], [[[0.10177053511142731, 0.06546303629875183, -0.0117013119161129], [0.04149647429585457, -0.017953896895051003, 0.08481207489967346], [-0.07302193343639374, -0.04445790499448776, -0.023206228390336037]], [[-0.06692471355199814, -0.020643940195441246, -0.07212477922439575], [0.07389575242996216, -0.08525572717189789, 0.036466509103775024], [0.10789680480957031, -0.0517105795443058, 0.046004775911569595]], [[0.0256813894957304, -0.1013936996459961, -0.08745624125003815], [0.02634432166814804, 0.0796404704451561, 0.03818230703473091], [0.030118906870484352, 0.013974620029330254, -0.017953816801309586]], [[0.057362016290426254, 0.07668669521808624, 0.030966272577643394], [0.04161813110113144, 0.10117749869823456, -0.0706600770354271], [0.045063115656375885, 0.008810531347990036, 0.006475722882896662]], [[0.06110954284667969, -0.08453726023435593, -0.02417772263288498], [0.02298724092543125, -0.05814557150006294, 0.04960570111870766], [0.04217219352722168, 0.04530807211995125, -0.03056717850267887]], [[-0.10366199165582657, -0.0492006316781044, -0.04024964198470116], [-0.023797528818249702, 0.06219089403748512, 0.1274641901254654], [0.06895044445991516, -0.03369942307472229, 0.024197587743401527]], [[-0.004898235201835632, 0.016605276614427567, -0.11654624342918396], [-0.087107814848423, -0.06463079154491425, 0.001968884840607643], [-0.07105277478694916, 0.06820514798164368, 0.020084822550415993]], [[-0.08379989117383957, 0.0029588411562144756, -0.03606449067592621], [0.07755758613348007, -0.08542060106992722, -0.10794340074062347], [-0.045392099767923355, -0.07166967540979385, 0.009700522758066654]]], [[[-0.014273055829107761, 0.10224195569753647, 0.0814383402466774], [0.02155989035964012, 0.007392614148557186, -0.09026869386434555], [0.01860194094479084, -0.03966905176639557, -0.0871659591794014]], [[0.0564577579498291, 0.11865494400262833, 0.07796034961938858], [0.0589393712580204, -0.07443713396787643, 0.0727119967341423], [-0.0003268398286309093, -0.09304986149072647, -0.016613705083727837]], [[0.10954498499631882, 0.005841162987053394, -0.04688027501106262], [0.05259430781006813, -0.025888245552778244, -0.019995110109448433], [-0.10368826240301132, 0.00936194323003292, -0.04840207099914551]], [[-0.1172010749578476, 0.003936740569770336, -0.09112612158060074], [-0.052634235471487045, -0.0498473159968853, -0.10827846080064774], [-0.10371364653110504, 0.06990029662847519, -0.1073962152004242]], [[0.06610050797462463, 0.006964293774217367, 0.08766698837280273], [-0.10960609465837479, -0.061382491141557693, 0.09608998894691467], [-0.031210295855998993, 0.037845395505428314, -0.08534622192382812]], [[-0.06691659986972809, 0.05309009924530983, -0.10683479905128479], [0.09029392898082733, -0.07442279160022736, -0.0074403551407158375], [-0.04797857254743576, 0.005947905592620373, -0.035771388560533524]], [[-0.0731353908777237, -0.12704136967658997, 0.053680453449487686], [-0.038415711373090744, 0.08192235231399536, -0.07789062708616257], [-0.0751715674996376, 0.06671811640262604, -0.12902112305164337]], [[0.09050799906253815, -0.01583109237253666, 0.13158895075321198], [-0.07173920422792435, -0.013313320465385914, -0.0009019328863359988], [0.03916088491678238, -0.062169164419174194, -0.010222277604043484]]], [[[-0.09995433688163757, -0.04982995614409447, 0.041115324944257736], [-0.1106785386800766, 0.037181366235017776, 0.007606200408190489], [-0.023731498047709465, -0.048512883484363556, 0.05263127386569977]], [[0.028714513406157494, 0.10236037522554398, -0.006380544975399971], [-0.07175818085670471, -0.07848075032234192, -0.06409737467765808], [0.06854096055030823, 0.013394542969763279, -0.03903930261731148]], [[0.05531745404005051, 0.05491015315055847, -0.07368206232786179], [-0.011855797842144966, -0.07044070959091187, -0.034387119114398956], [-0.024839019402861595, 0.010820748284459114, -0.10107507556676865]], [[0.03623460233211517, -0.07437261193990707, 0.10788014531135559], [0.0644066333770752, -0.08356252312660217, 0.08025556802749634], [0.10941147804260254, 0.09245766699314117, 0.06426746398210526]], [[-0.030488338321447372, 0.09230419248342514, 0.009064705111086369], [-0.001099075423553586, -0.10581685602664948, -0.11874089390039444], [0.06308470666408539, -0.07671669125556946, -0.06684882193803787]], [[-0.030638059601187706, 0.04902869462966919, -0.0822719931602478], [-0.046354398131370544, -0.03356547653675079, 0.04368758946657181], [-0.08765291422605515, -0.009098378010094166, -0.10600191354751587]], [[-0.05508105084300041, 0.061041757464408875, -0.0004307749622967094], [0.0926925465464592, 0.08609149605035782, 0.08812874555587769], [0.005432405509054661, 0.10105793923139572, 0.11227297782897949]], [[-0.0028879547026008368, 0.02703198418021202, 0.07311226427555084], [-0.09405562281608582, 0.014231779612600803, 0.02663598768413067], [0.12369053810834885, -0.004443331155925989, 0.03951083496212959]]], [[[0.04757311940193176, -0.09123469144105911, -0.08170385658740997], [-0.09980379045009613, -0.0738569051027298, -0.08800621330738068], [0.10767598450183868, -0.10398241132497787, 0.011587110348045826]], [[-0.008162252604961395, 0.09993479400873184, 0.040214527398347855], [-0.00448448583483696, 0.01901068538427353, 0.007409840822219849], [0.032434020191431046, -0.07192306965589523, -0.03264579176902771]], [[-0.0007424114737659693, -0.009758916683495045, 0.01938122697174549], [-0.12531177699565887, -0.09062721580266953, -0.03463543578982353], [-0.08005529642105103, -0.10871785134077072, -0.11226829141378403]], [[0.08387204259634018, 0.031730830669403076, -0.07793080061674118], [-0.04087703302502632, 0.0795748382806778, 0.05710092931985855], [-0.08430889993906021, 0.003857096889987588, -0.07836999744176865]], [[0.05902302637696266, 0.06565830111503601, -0.01981155388057232], [-0.10821013152599335, 0.04455496370792389, -0.09410174936056137], [0.005669869016855955, -0.002995213260874152, 0.10194757580757141]], [[-0.03904465585947037, 0.014155369251966476, -0.02893718145787716], [-0.1113637313246727, -0.05716313421726227, -0.016658179461956024], [-0.06460461765527725, -0.07064114511013031, 0.12713244557380676]], [[0.02291456051170826, -0.05152921751141548, 0.07979746162891388], [0.1148127019405365, -0.07087089866399765, -0.002304386580362916], [0.11224599182605743, -0.017311610281467438, 0.10127697139978409]], [[-0.09298508614301682, 0.00671724509447813, -0.04404754564166069], [0.0138320904225111, -0.06056440249085426, -0.10113096237182617], [0.06579213589429855, -0.014895386062562466, -0.006609013304114342]]], [[[0.04001295566558838, -0.02429942414164543, 0.04494885355234146], [0.0003188213740941137, 0.031890738755464554, -0.024492813274264336], [0.010942990891635418, 0.04862651228904724, 0.09852088987827301]], [[-0.03519429266452789, 0.07611685246229172, 0.00028161838417872787], [0.08418942987918854, -0.06584619730710983, 0.10202100872993469], [-0.02236797846853733, 0.0023292968980968, 0.0012029201025143266]], [[0.07725849747657776, 0.07044501602649689, -0.01944315992295742], [0.029209766536951065, 0.0623462088406086, -0.02916233241558075], [0.09244167059659958, -0.08091620355844498, -0.009569775313138962]], [[0.08297108858823776, -0.10926563292741776, -0.06576500087976456], [-0.0070245591923594475, 0.02326168864965439, -0.06461881846189499], [-0.07785489410161972, -0.05284477397799492, -0.06821579486131668]], [[-0.10247726738452911, 0.0479687824845314, 0.021439239382743835], [-0.07685860246419907, -0.07298703491687775, -0.065904401242733], [0.10856946557760239, -0.02575058676302433, -0.08874913305044174]], [[-0.02566072717308998, 0.06824873387813568, 0.05544678494334221], [0.021333934739232063, -0.01480109617114067, -0.05216249078512192], [-0.12040191143751144, 0.08174355328083038, 0.026039233431220055]], [[-0.08488880097866058, 0.005674060899764299, 0.0012123518390581012], [-0.05076717957854271, -0.05711517855525017, -0.0711362287402153], [0.0015651697758585215, 0.07458286732435226, 0.03681354969739914]], [[0.125382199883461, -0.10391867905855179, 0.002823455724865198], [0.07958769053220749, -0.003846875624731183, -0.11513826996088028], [0.13352185487747192, 0.0035951046738773584, -0.11525759845972061]]], [[[0.06062524765729904, 0.02677469328045845, -0.04277973622083664], [-0.09069313108921051, -0.07380479574203491, -0.12812328338623047], [-0.1163950264453888, 0.0503435954451561, -0.07655619829893112]], [[-0.06748583912849426, 0.0736817717552185, 0.07624363899230957], [-0.019263042137026787, -0.11417533457279205, -0.11359170824289322], [0.04463052749633789, -0.007702372968196869, 0.026465581730008125]], [[-0.023023715242743492, -0.07646156847476959, -0.026502732187509537], [-0.034707456827163696, 0.021245194599032402, -0.12570209801197052], [0.05652419850230217, -0.029719630256295204, -0.059897128492593765]], [[-0.06729951500892639, -0.08619540184736252, 0.03372006490826607], [-0.08586055040359497, 0.10531105101108551, -0.05066598951816559], [-0.0349564403295517, 0.10245883464813232, 0.1072070300579071]], [[-0.12725961208343506, 0.014354799874126911, -0.0366152822971344], [0.07914000004529953, 0.0030842937994748354, 0.07773593813180923], [-0.004704239312559366, -0.12617884576320648, 0.023553723469376564]], [[-0.07788274437189102, 0.0553082711994648, -0.08088768273591995], [-0.053416572511196136, -0.04738788306713104, -0.012879802845418453], [-0.06206702068448067, 0.01816226728260517, 0.09232627600431442]], [[0.047397639602422714, -0.09233831614255905, 0.016874128952622414], [-0.024967476725578308, 0.037225931882858276, 0.00970022939145565], [-0.09703920036554337, 0.08373992890119553, -0.05899780988693237]], [[0.027664052322506905, -0.06385946273803711, -0.03330351039767265], [-0.023359982296824455, -0.10944052040576935, -0.05185151845216751], [0.0015344383427873254, -0.0347607284784317, -0.0327099934220314]]], [[[0.05713970214128494, -0.08941318094730377, -0.02934260480105877], [0.11086901277303696, -0.06267695128917694, 0.03229241073131561], [-0.11768436431884766, 0.08665595948696136, 0.07115694135427475]], [[0.04702485725283623, 0.08570563048124313, 0.08878084272146225], [0.08059387654066086, -0.09487082064151764, -0.08457043766975403], [0.05214744433760643, -0.12180755287408829, -0.05216607451438904]], [[-0.0015733862528577447, 0.09636423736810684, 0.09798823297023773], [-0.059072867035865784, 0.024886207655072212, -0.06011154502630234], [-0.033622387796640396, -0.040098197758197784, 0.03267120197415352]], [[-0.0819404274225235, 0.08797773718833923, 0.07226529717445374], [0.00942138023674488, 0.11248375475406647, -0.0835321769118309], [-0.02074677310883999, 0.07002206146717072, 0.01651836186647415]], [[-0.0056593879126012325, 0.052222318947315216, 0.03879509121179581], [0.04979267343878746, 0.015293856151401997, -0.03768908604979515], [-0.06511367857456207, -0.1060100868344307, -0.006589848082512617]], [[0.02918095514178276, 0.07679980248212814, -0.0810917392373085], [0.04239921644330025, -0.04423503205180168, -0.04799877852201462], [-0.013582008890807629, -0.040513794869184494, -0.1272556036710739]], [[0.016113806515932083, -0.053970418870449066, -0.11723457276821136], [-0.026169881224632263, 0.07620848715305328, -0.05766148865222931], [-0.03901565447449684, -0.07036092132329941, -0.04759154096245766]], [[0.04290702939033508, 0.04201245680451393, -0.017786851152777672], [-0.12332846224308014, -0.05523953586816788, -0.10776448249816895], [-0.07114756107330322, 0.03613514453172684, -0.025743752717971802]]], [[[0.04940943047404289, 0.03955208137631416, 0.020196784287691116], [0.06371871381998062, 0.10651872307062149, -0.052535757422447205], [-0.07081806659698486, 0.015329730696976185, 0.06922383606433868]], [[-0.016933368518948555, 0.11514465510845184, 0.0121552599593997], [-0.06931232661008835, 0.10367739200592041, 0.014255992136895657], [0.0436207614839077, -0.09889926016330719, 0.04037177190184593]], [[-0.016259972006082535, 0.007559546735137701, 0.06565769761800766], [-0.024831444025039673, -0.08747723698616028, 0.08474497497081757], [-0.03738908842206001, -0.0018900417489930987, 0.012025774456560612]], [[-0.07922223955392838, -0.06323912739753723, 0.03919399902224541], [-0.08039271086454391, 0.08658301830291748, 0.05960553511977196], [-0.03375386446714401, -0.04924127459526062, 0.00904012005776167]], [[-0.0313207283616066, 0.014753957279026508, 0.052374545484781265], [0.05992591753602028, 0.08343431353569031, -0.043863460421562195], [-0.10784631222486496, -0.05920012295246124, -0.041825536638498306]], [[0.05649757757782936, -0.09923840314149857, -0.06681690365076065], [-0.027010871097445488, -0.013999080285429955, -0.10680849850177765], [0.11463359743356705, -0.02358938567340374, -0.07224113494157791]], [[-0.007680726703256369, -0.053461115807294846, 0.052627310156822205], [0.029162272810935974, 0.026737157255411148, 0.009903017431497574], [-0.03402167186141014, -0.06824012845754623, 0.08014193922281265]], [[0.06516365706920624, -0.03435982018709183, -0.007227655034512281], [-0.003658916102722287, 0.037997953593730927, -0.04555821046233177], [0.0668250247836113, -0.02835622988641262, -0.018480023369193077]]], [[[-0.013699937611818314, -0.08390504121780396, 0.07675336301326752], [-0.034524232149124146, -0.03505217656493187, -0.05136629939079285], [-0.009396545588970184, 0.10686013102531433, -0.12750186026096344]], [[-0.08228041231632233, -0.005695762112736702, -0.041387252509593964], [-0.01820198819041252, 0.09360095113515854, 0.041168779134750366], [-0.12311633676290512, -0.11572340875864029, -0.0529826395213604]], [[0.058746788650751114, -0.08195344358682632, 0.05536544695496559], [-0.028888924047350883, 0.04829786345362663, 0.0867396891117096], [0.0557597316801548, -0.0021813225466758013, 0.060952331870794296]], [[0.07146286219358444, 0.10226685553789139, -0.08045691251754761], [-0.07265371084213257, 0.008187179453670979, 0.003793244482949376], [0.05835208669304848, -0.10095643997192383, -0.05973691865801811]], [[-0.005720948334783316, -0.0009170281118713319, 0.015923352912068367], [0.0262954980134964, -0.041538991034030914, -0.026975469663739204], [0.04910702630877495, -0.0062855565920472145, 0.05721557140350342]], [[0.00797569751739502, 0.10563968867063522, 0.03842422366142273], [0.011612203903496265, -0.09653611481189728, 0.020076796412467957], [0.030450133606791496, 0.08614467829465866, -0.035994112491607666]], [[-0.0712721049785614, -0.06707758456468582, 0.07475452125072479], [0.07867134362459183, -0.0032308786176145077, -0.08593578636646271], [-0.08589209616184235, -0.020493926480412483, 0.027928069233894348]], [[-0.04230687394738197, 0.049366552382707596, 0.0314335897564888], [0.13247130811214447, -0.12694202363491058, 0.12237947434186935], [-0.09312280267477036, 0.01507551223039627, 0.08921124786138535]]], [[[-0.005255861673504114, 0.0022401318419724703, -0.11237823963165283], [0.011135685257613659, -0.0155923031270504, 0.04882108047604561], [-0.06117257475852966, 0.0873914584517479, 0.04246741905808449]], [[-0.07889784872531891, 0.0516011007130146, 0.08776196837425232], [-0.009672794491052628, -0.07367725670337677, -0.11753728240728378], [0.12327432632446289, 0.021715214475989342, -0.03157775476574898]], [[0.09041830897331238, 0.038047872483730316, 0.0014448141446337104], [0.01661917380988598, 0.06608036905527115, 0.013162919320166111], [-0.0041205924935638905, 0.014836059883236885, -0.015661343932151794]], [[-0.05464329198002815, -0.06600943952798843, 0.04843904823064804], [-0.11697162687778473, 0.07027727365493774, -0.005484077613800764], [0.02275872230529785, 0.006534363143146038, -0.060421187430620193]], [[0.13914652168750763, 0.011199578642845154, -0.05056477710604668], [-0.051959481090307236, -0.09045960009098053, -0.011631789617240429], [0.0693298876285553, -0.00443152105435729, -0.11555180698633194]], [[-0.09311946481466293, 0.07152616232633591, 0.06085747107863426], [0.07565955817699432, -0.062038734555244446, -0.043888844549655914], [-0.046848442405462265, 0.08948998153209686, 0.1315673440694809]], [[-0.04875542223453522, 0.04537160322070122, 0.06395389884710312], [-0.09448134899139404, 0.03921312466263771, -0.02542003244161606], [-0.03115250915288925, 0.08732836693525314, -0.0036271032877266407]], [[-0.0013218329986557364, 0.10324899107217789, 0.05551658943295479], [0.08419474959373474, -0.060235098004341125, 0.03847244381904602], [-0.06769630312919617, 0.05864441767334938, 0.1252068132162094]]], [[[-0.04462641105055809, -0.006699821911752224, -0.10160954296588898], [0.07209427654743195, 0.0715925544500351, -0.054187823086977005], [0.06103701889514923, -0.025484075769782066, -0.08868319541215897]], [[0.06759127974510193, 0.026584943756461143, -0.11549270898103714], [0.050725050270557404, -0.07847707718610764, 0.10869595408439636], [0.046207111328840256, -0.005038412753492594, -0.0657348558306694]], [[-0.09272105991840363, 0.06259094923734665, 0.10677587985992432], [0.018681202083826065, -0.09958389401435852, 0.07648701220750809], [0.037622008472681046, 0.043464720249176025, 0.04716164991259575]], [[-0.01138651929795742, 0.04154067859053612, 0.04513750597834587], [0.0019571310840547085, -0.1105179563164711, 0.00569453090429306], [0.09968581050634384, 0.03219866007566452, -0.08722858130931854]], [[0.06568598002195358, 0.01659756526350975, 0.039602529257535934], [-0.047447822988033295, 0.008077390491962433, 0.024544857442378998], [-0.022529656067490578, 0.012208236381411552, 0.023569677025079727]], [[-0.06132708489894867, -0.07798750698566437, -0.11079932749271393], [0.08037912845611572, -0.07233228534460068, 0.01715914160013199], [0.10653042793273926, -0.05502711236476898, 0.05190059170126915]], [[-0.025416085496544838, 0.009424050338566303, 0.001968010561540723], [0.0801866203546524, 0.08726370334625244, 0.09187449514865875], [-0.058149661868810654, -0.01700602099299431, 0.0750170648097992]], [[0.05991955101490021, -0.011703308671712875, -0.12230964004993439], [0.042938437312841415, -0.01125255972146988, -0.09629391133785248], [0.1224760189652443, -0.08778218924999237, 0.1052791178226471]]], [[[0.061049267649650574, -0.03319687768816948, -0.05242364853620529], [-0.011702205054461956, 0.07580121606588364, 0.03121403604745865], [-0.04489593580365181, -0.04288184642791748, -0.010666671209037304]], [[-0.020932629704475403, -0.05055271461606026, 0.09942271560430527], [0.037948474287986755, -0.11477607488632202, 0.102314792573452], [0.025644082576036453, 0.08304845541715622, -0.07020249217748642]], [[0.07807930558919907, -0.10156778246164322, -0.028752334415912628], [0.027510574087500572, 0.09267568588256836, 0.011306330561637878], [-0.0054184854961931705, 0.04479304328560829, -0.05394350737333298]], [[0.07245878875255585, 0.09377796202898026, 0.01330234669148922], [0.013379334472119808, -0.0022548844572156668, 0.025983687490224838], [0.011230673640966415, 0.07006294280290604, -0.06854254752397537]], [[-0.1159360483288765, 0.032246969640254974, -0.0504906065762043], [0.04921187460422516, -0.0738302692770958, 0.09758905321359634], [-0.030366074293851852, 0.05135774984955788, -0.10104911029338837]], [[0.05243374779820442, 0.05582936480641365, -0.057835567742586136], [0.09845622628927231, 0.10273778438568115, 0.019370874390006065], [-0.08273608982563019, 0.004324772860854864, -0.06072262302041054]], [[-0.05240562930703163, 0.08341339975595474, -0.10805778950452805], [0.0594690702855587, -0.10769998282194138, -0.0858219712972641], [0.09740910679101944, -0.11565997451543808, 0.04671734198927879]], [[-0.051583025604486465, -0.030367886647582054, 0.08435583114624023], [0.05575491860508919, 0.02515473961830139, -0.052375681698322296], [0.1038619726896286, -0.11071987450122833, 0.06972303241491318]]], [[[-0.08752681314945221, -0.01979471556842327, 0.07888402044773102], [-0.07895537465810776, 0.10299555957317352, -0.04042857512831688], [-0.0594315305352211, 0.026590386405587196, -0.03547243773937225]], [[-0.0960867777466774, -0.008466305211186409, 0.0541817806661129], [-0.10801640897989273, 0.04078860580921173, -0.011657273396849632], [-0.11672818660736084, 0.04002537950873375, -0.04551360756158829]], [[-0.09897211939096451, 0.06485893577337265, 0.006794338580220938], [-0.02839290350675583, 0.049475185573101044, -0.04685431718826294], [-0.12019281834363937, -0.01624598540365696, 0.09266134351491928]], [[-0.003341851755976677, 0.07846130430698395, 0.06938871741294861], [-0.027169067412614822, -0.05229326710104942, -0.08069334179162979], [-0.050182271748781204, -0.038485873490571976, -0.015803705900907516]], [[-0.04811149090528488, 0.07539291679859161, -0.0021208995021879673], [-0.057632073760032654, 0.09956168383359909, -0.055540941655635834], [0.04257826879620552, -0.03407888114452362, -0.03637983277440071]], [[-0.036023881286382675, -0.00904653687030077, -0.09544266015291214], [-6.341761036310345e-05, -0.05177919939160347, -0.043522365391254425], [-0.023463772609829903, 0.13091924786567688, 0.007893134839832783]], [[0.06790890544652939, -0.03999006375670433, 0.059141457080841064], [0.07109944522380829, 0.07804446667432785, -0.09239717572927475], [0.0726553425192833, 0.1172197088599205, 0.024963613599538803]], [[0.03101775422692299, -0.07579417526721954, -0.060705989599227905], [-0.001508489134721458, -0.11659146100282669, 0.0886000320315361], [0.08207529038190842, 0.04900995269417763, 0.06667163968086243]]]], "encoder.4.bias": [0.0505063496530056, -0.02647232450544834, -0.05034638196229935, 0.0818936750292778, 0.05720081925392151, -0.035070110112428665, -0.08053423464298248, -0.07671689242124557, -0.06857294589281082, -0.08860433846712112, 0.1424701064825058, -0.06009046360850334, 0.020132577046751976, 0.017048723995685577, -0.03599884733557701, -0.12116428464651108], "encoder.6.weight": [[[[0.03353959694504738, -0.0584394596517086, -0.059982847422361374], [0.05867896229028702, 0.0005689571262337267, -0.009099168702960014], [-0.04581324756145477, -0.0002752097207121551, 0.011780236847698689]], [[0.059554535895586014, 0.046309247612953186, -0.045712199062108994], [-0.028722763061523438, 0.08011715859174728, -0.002317335456609726], [0.009908126667141914, 0.08144636452198029, 0.08399050682783127]], [[0.07873977720737457, 0.03156265988945961, 0.07676155865192413], [0.06747801601886749, 0.028568847104907036, 0.06370008736848831], [0.050511520355939865, 0.03304356709122658, -0.0004198627430014312]], [[0.06898606568574905, 0.034608788788318634, 0.05826990678906441], [-0.008633853867650032, -0.030189428478479385, -0.021772243082523346], [-0.03414136916399002, -0.008960907347500324, -0.07820674777030945]], [[0.027869876474142075, -0.00042758576455526054, 0.05896589532494545], [0.05944417789578438, -0.011755879037082195, -0.033089280128479004], [-0.048307616263628006, 0.06786240637302399, 0.08079174160957336]], [[-0.0038941751699894667, 0.05852777510881424, 0.03737368434667587], [-0.07773169130086899, 0.03251931071281433, 0.047070883214473724], [-0.029891852289438248, -0.0837966650724411, -0.07162537425756454]], [[-0.06336880475282669, -0.07289820164442062, -0.027076110243797302], [-0.05598193407058716, 0.002647461835294962, -0.009967250749468803], [0.03506448119878769, -0.11251138895750046, -0.03125573694705963]], [[-0.04601319506764412, 0.07427911460399628, 0.06397274136543274], [-0.059591274708509445, -0.0014021032257005572, 0.0717516541481018], [0.03690819814801216, -0.03765254095196724, -0.014439186081290245]], [[-0.05811731517314911, 0.012089219875633717, 0.07706940919160843], [0.016328299418091774, -0.0024281293153762817, 0.06363135576248169], [0.00847255066037178, 0.0476946160197258, -0.02261483296751976]], [[-0.009648045524954796, 0.07616784423589706, 0.02581608109176159], [-0.02765699476003647, -0.009871327318251133, 0.0650777518749237], [0.02646346390247345, 0.08705119788646698, 0.030913880094885826]], [[-0.04751870408654213, -0.06469748914241791, -0.05887633562088013], [-0.027986058965325356, 0.047644633799791336, 0.02548951841890812], [-0.05016307160258293, 0.018857721239328384, 0.03125664219260216]], [[-0.0146187050268054, 0.11170284450054169, 0.08622326701879501], [-0.02830258198082447, 0.11412839591503143, 0.05092469975352287], [0.035062842071056366, 0.04778148978948593, 0.008770493790507317]], [[-0.04669324681162834, -0.028507234528660774, -0.05492768436670303], [0.018590588122606277, -0.08907450735569, -0.05399154871702194], [-0.01721513457596302, 0.051651570945978165, 0.06209103390574455]], [[0.03629625588655472, -0.03099018521606922, -0.03707841783761978], [0.0811217725276947, 0.06749088317155838, -0.04340362921357155], [0.02448725886642933, -0.05646722763776779, 0.003152361372485757]], [[0.010668117552995682, -0.08467649668455124, 0.04188505560159683], [-0.0763266459107399, 0.06919707357883453, 0.07394228130578995], [0.06047608703374863, 0.07804417610168457, 0.02761119045317173]], [[0.08619455993175507, 0.06847964227199554, 0.02683064714074135], [-0.027338925749063492, 0.050338421016931534, -0.027305684983730316], [0.057868797332048416, 0.06904686987400055, -0.06450098752975464]]], [[[-0.0006470860680565238, 0.01627439260482788, 0.03647669032216072], [0.0349971279501915, -0.08264616876840591, -0.041435256600379944], [0.02413662150502205, 0.04650982469320297, -0.03274716064333916]], [[0.04379650205373764, 0.013443001545965672, 0.09657445549964905], [0.04782963916659355, 0.07029446959495544, -0.048792604357004166], [0.04911504313349724, -0.047531355172395706, 0.043171774595975876]], [[-0.011737225577235222, 0.004762028343975544, 0.08787306398153305], [0.07038161903619766, 0.011450285091996193, 0.09700221568346024], [0.0625394880771637, -0.05231326073408127, -0.0651869997382164]], [[0.07517993450164795, 0.0718156099319458, 0.0642353817820549], [0.019113514572381973, 0.06051185727119446, 0.03687700629234314], [-0.07611027359962463, 0.023569811135530472, -0.050722669810056686]], [[-0.07487255334854126, -0.05964575707912445, -0.032888900488615036], [-0.08943380415439606, -0.057697951793670654, 0.06570066511631012], [0.014368876814842224, -0.06700161099433899, -0.0015392177738249302]], [[-0.04819830134510994, 0.08096586912870407, -0.024008136242628098], [0.04769991710782051, 0.09373848885297775, -0.0010471323039382696], [-0.04200315847992897, -0.11524666845798492, -0.04157990217208862]], [[-0.10917112976312637, -0.055980879813432693, -0.01710328832268715], [0.06770863384008408, 0.10548867285251617, 0.040068525820970535], [-0.02094026654958725, -0.00834521185606718, 0.014255542308092117]], [[0.001270741573534906, 0.047722142189741135, 0.01404908113181591], [-0.01066698506474495, 0.039492856711149216, 0.0032620548736304045], [0.01578702963888645, 0.007092445623129606, 0.06255020946264267]], [[0.04208065941929817, -0.05667479336261749, -0.048194944858551025], [0.05418109521269798, 0.05008694902062416, -0.0496978759765625], [0.0015045766485854983, -0.06374503672122955, 0.019155306741595268]], [[0.05234896391630173, -0.026634113863110542, 0.004697565920650959], [-0.0556427501142025, -0.08068523555994034, -0.05552637577056885], [-0.011956517584621906, -0.06383585929870605, -0.028961675241589546]], [[0.017135927453637123, -0.07282429188489914, -0.05854431912302971], [0.00610642833635211, -0.08166878670454025, -0.024757996201515198], [-0.07380131632089615, 0.007754835765808821, 0.06938613206148148]], [[-0.0491265207529068, 0.00421046232804656, -0.01712983101606369], [-0.001750960131175816, -0.09471595287322998, 0.04473463445901871], [0.008135481737554073, 0.006788813509047031, -0.1271376758813858]], [[-0.013783145695924759, -0.03335922956466675, 0.052546001970767975], [0.0995318666100502, 0.05397956818342209, -0.003591278800740838], [0.09917100518941879, -0.051895398646593094, 0.0952846109867096]], [[0.048359211534261703, 0.07603360712528229, -0.05636622756719589], [0.03738180920481682, -0.08171575516462326, -0.06665214151144028], [-0.025840921327471733, -0.029157178476452827, 0.07205317914485931]], [[-0.05676661431789398, 0.054844386875629425, -0.0796901062130928], [-0.03712958097457886, -0.10094783455133438, 0.02251763641834259], [0.04574912413954735, -0.054365020245313644, -0.014939653687179089]], [[-0.08507540822029114, 0.001142021268606186, 0.0039315978065133095], [0.05230164900422096, -0.027089344337582588, 0.019344987347722054], [-0.07575345039367676, -0.04173105210065842, 0.0690268874168396]]], [[[0.07191234081983566, -0.030502259731292725, -0.037512313574552536], [0.020715299993753433, 0.05315370112657547, -0.022241558879613876], [0.06168370693922043, 0.03389297053217888, 0.06803271174430847]], [[-0.02710491418838501, 0.06040140241384506, 0.0010717309778556228], [0.04246269911527634, -0.07487908750772476, 0.0025199688971042633], [0.056663766503334045, 0.024437323212623596, 0.023265233263373375]], [[0.04972875863313675, 0.06480567157268524, 0.005677452776581049], [0.036162372678518295, 0.03399420902132988, -0.025025513023138046], [-0.002471868647262454, 0.07190897315740585, -0.061703912913799286]], [[-0.0263796579092741, 0.03515049070119858, -0.07215005904436111], [-0.05186792090535164, -0.0024483087472617626, 0.02729032002389431], [0.052383605390787125, -0.056231945753097534, 0.02597944438457489]], [[-0.06986790150403976, -0.05734729766845703, 0.0653097927570343], [0.039454951882362366, -0.0215299054980278, -0.09238523244857788], [0.05376625061035156, -0.05391092598438263, -0.08530279248952866]], [[0.03382149338722229, -0.009544461965560913, -0.07390488684177399], [-0.026380149647593498, -0.04262775927782059, -0.053675565868616104], [-0.043397821485996246, 0.036507878452539444, 0.11336232721805573]], [[-0.009448743425309658, 0.07721306383609772, 0.017601976171135902], [0.058774907141923904, -0.07909626513719559, 0.029132599011063576], [0.021313609555363655, -0.01884208247065544, -0.03275264427065849]], [[0.05911655351519585, -0.0007615748909302056, -0.055423345416784286], [-0.0743614211678505, 0.06912187486886978, 0.01743556186556816], [0.061509743332862854, 0.07573019713163376, 0.061958037316799164]], [[-0.041321076452732086, -0.005988586228340864, -0.004940155427902937], [-0.05065377056598663, -0.0607907772064209, 0.04273427650332451], [-0.05729752779006958, 0.06250442564487457, -0.06597249954938889]], [[-0.0850515142083168, -0.01238058041781187, -0.06896774470806122], [0.0239410363137722, -0.0048525468446314335, 0.0723465159535408], [-0.04626982659101486, 0.0019629846792668104, 0.03341824561357498]], [[-0.07048919796943665, 0.0722152590751648, -0.013898412697017193], [0.06280407309532166, -0.07447340339422226, 0.018385576084256172], [-0.010478503070771694, -0.03330940380692482, -0.07697805762290955]], [[-0.06287246942520142, -0.0065486840903759, 0.1008971557021141], [0.0020000876393169165, 0.0749417170882225, 0.077115997672081], [0.057657431811094284, 0.0831749439239502, -0.06318721175193787]], [[-0.12432774901390076, 0.018953394144773483, -0.0562102235853672], [-0.06668177992105484, 0.005978137720376253, -0.007065804209560156], [0.036833472549915314, -0.02220015972852707, -0.08041571080684662]], [[0.042353782802820206, 0.04060543701052666, 0.07201545685529709], [0.05495283007621765, -0.04704543575644493, -0.03086972050368786], [0.04956208914518356, -0.0804993212223053, 0.014769728295505047]], [[0.01837698370218277, -0.012290633283555508, -0.09177635610103607], [0.08423551917076111, 0.054486487060785294, 0.048716336488723755], [-0.0227288119494915, -0.07853804528713226, 0.032140087336301804]], [[-0.07270216196775436, -0.059787265956401825, 0.0329764224588871], [-0.07505971193313599, 0.053062934428453445, -0.026554467156529427], [0.04096293821930885, 0.025806479156017303, -0.05824708938598633]]], [[[-0.0748584195971489, 0.0787312462925911, -0.005405079573392868], [0.05152018740773201, -0.1033741906285286, 0.007743289694190025], [0.04677623510360718, 0.06654582917690277, 0.07732740789651871]], [[-0.01708715222775936, 0.08474459499120712, -0.008425414562225342], [0.03807723894715309, -0.007089910563081503, -0.016136646270751953], [-0.11185041069984436, 0.0038222114089876413, 0.01499396562576294]], [[-0.006720511242747307, -0.011602960526943207, 0.034519780427217484], [0.09377404302358627, 0.02988400124013424, -0.11119431257247925], [0.09744008630514145, 0.02335389144718647, -0.027100495994091034]], [[0.11364776641130447, 0.04297306761145592, 0.07962621748447418], [0.08797066658735275, 0.048517800867557526, -0.04506900906562805], [0.02115153707563877, 0.04652072861790657, 0.019487595185637474]], [[0.0266868993639946, -0.05692455917596817, 0.011859630234539509], [-0.07073799520730972, -0.07824990153312683, -0.057170767337083817], [-0.0058909449726343155, 0.024248972535133362, 0.037039849907159805]], [[-0.021866584196686745, -0.08236079663038254, 0.02560630440711975], [-0.0508912168443203, -0.03687391057610512, -0.05147431790828705], [-0.004862427245825529, -0.0032535528298467398, -0.07559915632009506]], [[0.06291680783033371, 0.03812017664313316, -0.022704144939780235], [-0.05090562254190445, -0.06505274772644043, 0.008220827206969261], [-0.09959553927183151, 0.011879481375217438, 0.05393267050385475]], [[-0.0859769880771637, -0.025991620495915413, -0.0665603056550026], [-0.07020388543605804, 0.020937694236636162, 0.017426136881113052], [-0.0045022848062217236, 0.018653629347682, -0.09361088275909424]], [[-0.010624426417052746, -0.012196319177746773, 0.07542102783918381], [-0.02103591524064541, -0.02050710655748844, -0.05100797861814499], [-0.010075067169964314, 0.07260337471961975, 0.05728298798203468]], [[0.038605254143476486, -0.035921648144721985, -0.02380865439772606], [0.06923236697912216, 0.04938682168722153, -0.07930977642536163], [0.0398130901157856, 0.07025876641273499, 0.08740051835775375]], [[-0.011196362785995007, 0.03892005234956741, 0.02113080583512783], [-0.04341639205813408, -0.007373355794698, -0.024278542026877403], [-0.01980702579021454, 0.003150652162730694, -0.028320783749222755]], [[0.04312971606850624, -0.0753413513302803, -0.001811458496376872], [0.0032340821344405413, 0.10216749459505081, 0.06278715282678604], [-0.0005315995658747852, -0.0024718400090932846, -0.09780710935592651]], [[0.00925775058567524, 0.030482636764645576, -0.041290849447250366], [0.06410379707813263, 0.07500911504030228, -0.016740480437874794], [0.02551841549575329, 0.05649080500006676, 0.00420558312907815]], [[-0.02049538679420948, -0.04787370562553406, -0.035604048520326614], [-0.020050201565027237, 0.025657400488853455, -0.04714193195104599], [-0.038526855409145355, -0.03459345921874046, 0.003144501708447933]], [[0.07885033637285233, -0.02566380426287651, -0.05033719912171364], [0.02488837204873562, 0.00050386629300192, 0.005432918202131987], [-0.045998554676771164, -0.07998385280370712, -0.10395146161317825]], [[-0.0054742866195738316, -0.0846969336271286, -0.08929158747196198], [-0.10790077596902847, 0.03210330754518509, 0.051091596484184265], [-0.05112243816256523, -0.05032698065042496, -0.02513827383518219]]], [[[-0.015329666435718536, 0.058581262826919556, -0.01759284734725952], [-0.01823561266064644, -0.05881788581609726, -0.025988077744841576], [0.018482716754078865, -0.029952162876725197, 0.05241943523287773]], [[-0.018438562750816345, 0.00738297076895833, 0.05694974213838577], [-0.07162747532129288, 0.06387386471033096, -0.005651754792779684], [0.07718788832426071, -0.06390846520662308, 0.03406809642910957]], [[0.018378589302301407, 0.04058719798922539, 0.02893173322081566], [-0.06575137376785278, 0.06251779943704605, -0.0742950588464737], [-0.04047299921512604, 0.052490975707769394, -0.025724606588482857]], [[-0.030873263254761696, -0.016599874943494797, 0.046587664633989334], [0.005270071793347597, 0.03498390316963196, -0.04131484404206276], [-0.04824645444750786, 0.04343147948384285, 0.042030803859233856]], [[0.042963918298482895, 0.011751040816307068, -0.053051576018333435], [-0.01473382581025362, 0.002121545374393463, 0.02013441175222397], [-0.049701616168022156, -0.042183347046375275, 0.05739794671535492]], [[-0.056492410600185394, -0.07149408012628555, -0.07001220434904099], [-0.01898115500807762, 0.027991460636258125, 0.05850830674171448], [-0.08701135218143463, -0.08233410865068436, -0.0032864445820450783]], [[0.02465156279504299, 0.08441600948572159, 0.03665877878665924], [0.025966543704271317, 0.03158104419708252, -0.028631212189793587], [-0.0009060574811883271, 0.01786074787378311, 0.10922021418809891]], [[-0.029526306316256523, 0.059209998697042465, 0.05283217132091522], [-0.04723535105586052, -0.033860281109809875, -0.07187040895223618], [-0.005172781180590391, 0.028871208429336548, -0.08227398991584778]], [[0.06934566795825958, -0.00040949563845060766, 0.034106720238924026], [0.05489873141050339, 0.0031604368705302477, 0.012698144651949406], [0.04566005617380142, -0.03259648382663727, 0.07298360764980316]], [[0.02102731354534626, 0.002831457881256938, 0.015292941592633724], [-0.0014781224308535457, 0.06371822953224182, 0.012155246920883656], [-0.05053695663809776, -0.038257986307144165, 0.031905706971883774]], [[0.04934323951601982, 0.07562925666570663, -0.0170506052672863], [-0.014375843107700348, -0.016164446249604225, -0.06235131993889809], [0.008555575273931026, 0.059866879135370255, 0.036248933523893356]], [[-0.059778809547424316, 0.0489933043718338, 0.05181377753615379], [-0.053975798189640045, -0.0431809201836586, -0.003191573778167367], [0.04363393411040306, 0.01562325656414032, -0.0378815196454525]], [[-0.05810294300317764, 0.061200279742479324, -0.05950077995657921], [-0.005189217627048492, -0.07728079706430435, 0.0611569844186306], [-0.06074126064777374, 0.001518371282145381, -0.07315673679113388]], [[0.027554955333471298, 0.052220411598682404, -0.03631694242358208], [0.023816851899027824, 0.05102412402629852, -0.02669648826122284], [0.013473965227603912, 0.07570161670446396, -0.050481852144002914]], [[0.07681237161159515, -0.024111689999699593, -0.07087194919586182], [0.05429026484489441, 0.019617456942796707, 0.006806331221014261], [-0.06372087448835373, 0.04147753864526749, -0.045161232352256775]], [[-0.018126094713807106, 0.01802949421107769, 0.05793795734643936], [0.058164194226264954, -0.03946893662214279, 0.02952805534005165], [0.0746547058224678, 0.04356688633561134, -0.07467059046030045]]], [[[0.021708069369196892, -0.005397113971412182, -0.007641932927072048], [0.0012954678386449814, -0.0709862932562828, -0.03785170614719391], [-0.11650529503822327, -0.0203214380890131, -0.06983473151922226]], [[-0.033598240464925766, -0.019280090928077698, -0.10437405109405518], [-0.04283672943711281, 0.010851120576262474, 0.029024286195635796], [0.06790115684270859, 0.04910745099186897, -0.07969494163990021]], [[0.003033470595255494, 0.07664436101913452, -0.009211253374814987], [-0.06607420742511749, -0.03217563033103943, -0.04817711189389229], [0.015730397775769234, -0.006743627600371838, -0.10212645679712296]], [[0.0406845286488533, -0.0559622198343277, -0.0681735947728157], [0.038572441786527634, 0.000374198512872681, -0.04615255072712898], [0.11303979903459549, -0.04148995876312256, 0.06357278674840927]], [[-0.021872831508517265, 0.018433276563882828, -0.04654897749423981], [-0.028285052627325058, -0.08148449659347534, -0.10220436751842499], [0.06687068939208984, 0.02217823639512062, -0.0066628302447497845]], [[-0.012743614614009857, 0.02141650952398777, 0.09775109589099884], [0.013648482039570808, 0.07433297485113144, 0.10989822447299957], [0.1116531491279602, 0.04286300018429756, 0.04650329425930977]], [[0.026521537452936172, -0.06751494854688644, -0.0033471521455794573], [-0.016003122553229332, 0.017797483131289482, 0.057317089289426804], [0.046719711273908615, 0.02541918121278286, 0.08059189468622208]], [[-0.11338628083467484, -0.044842127710580826, 0.14398498833179474], [-0.08354385197162628, -0.05619732663035393, -0.0036470992490649223], [0.10529051721096039, -0.012475508265197277, 0.023589594289660454]], [[-0.020683540031313896, 0.07759305834770203, -0.019088711589574814], [-0.05435745790600777, -0.012614218518137932, 0.006907278206199408], [-0.05474625527858734, -0.03273196890950203, 0.009670163504779339]], [[0.021024491637945175, -0.05057697743177414, 0.08889605849981308], [-0.041530583053827286, 0.02476395107805729, -0.08341798186302185], [0.030683225020766258, -0.08774291723966599, -0.06046663224697113]], [[-0.09708660840988159, -0.03809111565351486, 0.007440001703798771], [-0.04314731806516647, -0.029200315475463867, 0.021410543471574783], [-0.09465976059436798, -0.02861638180911541, -0.0701371505856514]], [[-0.04709753394126892, -0.0779276043176651, 0.062441155314445496], [-0.08545611798763275, -0.01390609797090292, -0.07246634364128113], [-0.019074678421020508, -0.06113346666097641, 0.02146214433014393]], [[0.06368732452392578, 0.07793378829956055, -0.06771555542945862], [0.026951776817440987, 0.000832440156955272, 0.030683917924761772], [-0.0017565492307767272, 0.1078357920050621, -0.008204289712011814]], [[-0.037039462476968765, 0.04242417961359024, -0.05481203272938728], [0.015503213740885258, 0.00487652188166976, 0.01718589849770069], [0.02038724720478058, -0.07956597954034805, -0.0732598826289177]], [[-0.04831342771649361, 0.07569561898708344, 0.020279865711927414], [0.05783841758966446, 0.0028999128844588995, -0.05364103615283966], [0.05818638578057289, 0.04587048292160034, 0.03334388509392738]], [[0.014283329248428345, 0.05971261486411095, -0.058478113263845444], [-0.0011394363828003407, 0.06019771844148636, 0.015350673347711563], [0.01923276111483574, 0.08783680945634842, 0.024670645594596863]]], [[[0.008649635128676891, 0.021680139005184174, 0.026505593210458755], [-0.059769172221422195, -0.06383871287107468, -0.038569122552871704], [0.03735002875328064, -0.03718272224068642, -0.03833136335015297]], [[0.004156269133090973, 0.030582206323742867, -0.0328112430870533], [-0.0375652052462101, -0.05285751819610596, 0.05301408842206001], [-0.0444437675178051, -0.13759839534759521, -0.039957184344530106]], [[-0.03182648494839668, -0.03906967490911484, -0.061202868819236755], [-0.011733170598745346, -0.06423570960760117, -0.04456319287419319], [0.012774334289133549, -0.023730263113975525, 0.049809496849775314]], [[-0.0526169016957283, 0.051027562469244, 0.021172039210796356], [3.2647156331222504e-05, -0.010095098055899143, 0.064723901450634], [0.06217994913458824, 0.08333412557840347, 0.08802711963653564]], [[0.05804106220602989, 0.03015933185815811, 0.0033287026453763247], [0.06389566510915756, 0.028627170249819756, 0.05085464194417], [0.04338737577199936, 0.03530281037092209, 0.03416347876191139]], [[-0.041079331189394, 0.0071467068046331406, -0.019290339201688766], [0.04424291476607323, 0.034057628363370895, 0.09400442242622375], [-0.01830793172121048, -0.05181455239653587, -0.003500231308862567]], [[-0.01096526812762022, 0.07415438443422318, 0.07066177576780319], [-0.044210195541381836, -0.06955575197935104, 0.08180668205022812], [-0.03302492946386337, 0.07887464016675949, -0.002087991451844573]], [[0.063012033700943, -0.027084384113550186, -0.023881886154413223], [0.061793725937604904, -0.07445649802684784, 0.03170498088002205], [0.05615059658885002, 0.04347411170601845, 0.08984194695949554]], [[0.03454338014125824, -0.04287578910589218, 0.04166550561785698], [0.007725734729319811, 0.09061206877231598, -0.007419544272124767], [0.05275893583893776, -0.080551877617836, 0.024816906079649925]], [[0.03939110413193703, -0.05402936786413193, -0.08509151637554169], [-0.08706070482730865, -0.005311573389917612, -0.0173614714294672], [0.023008432239294052, 0.03850710019469261, 0.04843457415699959]], [[-0.02502497285604477, -0.04062413424253464, -0.059844810515642166], [-0.08627156913280487, 0.02115815319120884, -0.015990033745765686], [-0.026880105957388878, -0.01518457941710949, 0.06532473862171173]], [[0.06557125598192215, 0.050346486270427704, 0.033661819994449615], [0.02906634286046028, -0.06224261224269867, 0.08058477193117142], [-0.03907373175024986, -0.036859143525362015, 0.061069708317518234]], [[-0.05650563910603523, 0.09053684771060944, -0.0443761833012104], [-0.07321062684059143, 0.07415634393692017, 0.06545856595039368], [0.05164828896522522, -0.05691524222493172, 0.07145192474126816]], [[-0.020133497193455696, -0.03379293531179428, 0.04037225991487503], [-0.004143599886447191, 0.03271303325891495, -0.017266778275370598], [0.08595474064350128, 0.07197851687669754, 0.06591193377971649]], [[0.01807563006877899, -0.020608054473996162, -0.07855675369501114], [-0.004061289597302675, 0.02386290952563286, -0.01667778380215168], [0.05229761078953743, -0.01766308955848217, 0.021896883845329285]], [[-0.017287680879235268, 0.03649236634373665, 0.02464059740304947], [-0.08639314025640488, -0.01944286748766899, 0.02502954751253128], [0.02899053692817688, 0.051609598100185394, -0.0626353919506073]]], [[[-0.05746809020638466, -0.045280326157808304, 0.013753661885857582], [0.06774584203958511, 0.08775608241558075, 0.06603512912988663], [0.007525468245148659, -0.03370453044772148, 0.027166012674570084]], [[0.03978167474269867, -0.05331636965274811, -0.08017632365226746], [0.07652436941862106, -0.0603095181286335, 0.00455504423007369], [0.03333606198430061, -0.10553941875696182, -0.08973906189203262]], [[0.024232976138591766, -0.05079301446676254, 0.013672241009771824], [0.0767456442117691, -0.006201476790010929, -0.005809132941067219], [-0.02398287132382393, -0.04658319801092148, -0.03122808039188385]], [[0.0673847571015358, 0.06237023323774338, -0.0757293775677681], [-0.06010410934686661, -0.031511273235082626, -0.010541110299527645], [0.029039977118372917, 0.06983029097318649, -0.010553914122283459]], [[0.0038877062033861876, 0.03774082288146019, -0.03444042056798935], [-0.07765726000070572, -0.025393513962626457, -0.029909638687968254], [-0.015172269195318222, 0.01950668916106224, 0.010138961486518383]], [[-0.06083894520998001, -0.008845374919474125, -0.0870136097073555], [-0.06610167026519775, 0.06875785440206528, -0.06359954923391342], [-0.06380363553762436, 0.05244406312704086, -0.03555035963654518]], [[-0.06993074715137482, 0.0703454539179802, 0.04509967565536499], [0.031229928135871887, -0.04729357361793518, 0.08593208342790604], [-0.0035528524313122034, 0.05099479481577873, 0.03805047646164894]], [[0.08689147979021072, 0.06004044786095619, -0.06080592796206474], [-0.054056692868471146, -0.020244158804416656, -0.028819913044571877], [-0.0640866681933403, 0.03526851162314415, 0.02423020824790001]], [[0.0444655567407608, -0.039257731288671494, 0.0686124861240387], [-0.03173869103193283, -0.040069203823804855, 0.0373101681470871], [-0.04037436842918396, 0.05139634385704994, -0.04509766772389412]], [[0.038377128541469574, 0.04844238981604576, -0.04825115576386452], [-0.07525791972875595, 0.052055809646844864, 0.05587128922343254], [-0.07261689007282257, -0.07353310286998749, -0.07259748131036758]], [[0.01162747759371996, 0.011480065993964672, -0.0037370885256677866], [0.002671253401786089, 0.05797416344285011, 0.01008665282279253], [-0.05401550605893135, 0.08676345646381378, -0.06812820583581924]], [[-0.038297317922115326, -0.07795149832963943, -0.09830858558416367], [0.018045127391815186, -0.0981953963637352, -0.05186788737773895], [-0.07350102066993713, -0.08641180396080017, 0.03886912018060684]], [[0.05844389274716377, -0.04221026226878166, 0.0968443974852562], [0.03363150730729103, 0.1286931335926056, 0.0605953224003315], [0.05950479954481125, 0.11093393713235855, 0.08478913456201553]], [[0.03200089558959007, -0.027186650782823563, 0.08045687526464462], [-0.028084641322493553, 0.06408945471048355, 0.06549596786499023], [0.07832980155944824, -0.0365426205098629, 0.08576474338769913]], [[-0.04868631064891815, -0.018114222213625908, 0.07233235239982605], [-0.06978623569011688, -0.003990504425019026, -0.03236569091677666], [0.03818503022193909, -0.10161605477333069, -0.0804893746972084]], [[0.040893763303756714, -0.05033436790108681, 0.053982216864824295], [-0.014896598644554615, 0.025751782581210136, -0.020239371806383133], [-0.051063522696495056, -0.060981445014476776, 0.0023869220167398453]]], [[[0.0057525672018527985, -0.022608501836657524, -0.017765890806913376], [0.037125516682863235, -0.06811726093292236, -0.02152852900326252], [-0.02289985492825508, -0.0326511412858963, 0.05721190944314003]], [[-0.03299048915505409, 0.024742262437939644, -0.004484208300709724], [0.004553965292870998, -0.005773302633315325, 0.037158358842134476], [0.026826946064829826, -0.005839384626597166, 0.06494546681642532]], [[-0.0014289208920672536, -0.07366448640823364, -0.08482047915458679], [0.009550792165100574, -0.08253031224012375, -0.029124952852725983], [0.011658817529678345, -0.011871777474880219, 0.03144417703151703]], [[0.04264146089553833, 0.03568977862596512, 0.009875627234578133], [-0.0739951953291893, -0.048503804951906204, -0.03989539295434952], [-0.050361353904008865, 0.04954047501087189, -0.008142821490764618]], [[0.01382968295365572, 0.02125050127506256, 0.03690098226070404], [0.08061006665229797, 0.0067079574801027775, 0.02045619860291481], [-0.04226446524262428, -0.02024700678884983, 0.05572216585278511]], [[-0.003628325182944536, -0.030544975772500038, 0.11451520770788193], [0.05372194945812225, 0.028038199990987778, 0.03763217106461525], [0.07180119305849075, -0.04241858795285225, 0.061517588794231415]], [[-0.06768067926168442, 0.03870454430580139, 0.03957764804363251], [-0.0528438426554203, -0.03985828533768654, 0.024311065673828125], [0.03621148690581322, 0.06239961460232735, 0.0843997597694397]], [[-0.056940957903862, -0.010424509644508362, -0.05968962982296944], [-0.022032758221030235, 0.036394745111465454, -0.028282873332500458], [-0.017730046063661575, 0.0256065521389246, 0.0015493956161662936]], [[0.0493193194270134, 0.07308740168809891, 0.06412167102098465], [0.022081507369875908, -0.08829150348901749, -0.031375546008348465], [0.04813073202967644, -0.05637636408209801, 0.09551074355840683]], [[0.04568260908126831, -0.04406941682100296, 0.033791884779930115], [0.06439279019832611, -0.0578300841152668, -0.046014223247766495], [-0.05485692247748375, -0.04273402690887451, 0.06619060784578323]], [[-0.05841226875782013, 0.07523342221975327, 0.025631435215473175], [0.011674131266772747, -0.0480235256254673, -0.046583257615566254], [-0.08503613620996475, -0.01625363714993, 0.006387177389115095]], [[-0.09821941703557968, -0.0013595219934359193, 0.022192668169736862], [-0.04019662365317345, -0.10201995074748993, -0.032897740602493286], [-0.09746313095092773, 0.035545989871025085, 0.03791068494319916]], [[-0.1016816794872284, -0.05250069499015808, -0.0734240785241127], [0.041658543050289154, -0.05772780254483223, -0.04556619003415108], [-0.05128660798072815, 0.04566746950149536, -0.07853295654058456]], [[0.010251296684145927, 0.03831632062792778, -0.07617146521806717], [-0.02667754516005516, 0.0335596539080143, 0.05240277573466301], [0.05908863991498947, 0.05981650948524475, -0.08507166057825089]], [[0.012180492281913757, 0.00257891439832747, 0.08470240980386734], [0.07202081382274628, -0.030021216720342636, -0.06345002353191376], [0.06879857182502747, 0.08054754137992859, -0.0565897598862648]], [[0.038366589695215225, 0.023052234202623367, 0.009155381470918655], [-0.037112995982170105, 0.005280602257698774, -0.05840367451310158], [0.060801468789577484, 0.02272021397948265, -0.02692197822034359]]], [[[0.035286806523799896, 0.0644899383187294, -0.005149677861481905], [-0.01020791381597519, 0.003069401951506734, 0.012192382477223873], [0.010690413415431976, 0.050411660224199295, -0.016495302319526672]], [[-0.05180015042424202, -0.07004125416278839, -0.01815754733979702], [0.006659186445176601, -0.08952521532773972, 0.05349694564938545], [-0.03770769014954567, -0.067849300801754, -0.049573320895433426]], [[0.010185889899730682, 0.0809808075428009, 0.06677339226007462], [-0.038737501949071884, 0.07161173969507217, 0.08311250060796738], [-0.015875525772571564, 0.011406785808503628, 0.038360897451639175]], [[0.0030195023864507675, -0.013126070611178875, 0.04489525035023689], [-0.045141175389289856, -0.04178737848997116, 0.0562061108648777], [0.03734404966235161, 0.01656811311841011, -0.018261652439832687]], [[0.009531618095934391, 0.012543432414531708, -0.05581069365143776], [-0.05602383613586426, 0.08281754702329636, -0.022685149684548378], [-0.06199324503540993, 0.006698973476886749, 0.04544934630393982]], [[-0.006433566566556692, -0.06452645361423492, -0.09983284771442413], [-0.004493227228522301, -0.10974696278572083, -0.12939244508743286], [0.004728653933852911, -0.021171268075704575, -0.016118280589580536]], [[0.009646300226449966, 0.015295470133423805, -0.07206561416387558], [0.06365645676851273, 0.015924032777547836, -0.04209010303020477], [-0.08984583616256714, -0.06137939170002937, -0.043031368404626846]], [[0.03512650728225708, 0.013748587109148502, 0.004939882550388575], [-0.00914021022617817, 0.01287039928138256, 0.05876752361655235], [0.0038560295943170786, -0.010750127024948597, -0.051218073815107346]], [[-0.07835198193788528, -0.07268045097589493, -0.020469268783926964], [0.012139636091887951, -0.02247549593448639, -0.04285769909620285], [0.07348741590976715, -0.025223208591341972, 0.03908282518386841]], [[-0.05352046340703964, 0.07244128733873367, 0.05298735946416855], [-0.039931975305080414, 0.01641121506690979, -0.03227706998586655], [0.0901026800274849, 0.020235491916537285, 0.0595567561686039]], [[-0.011721715331077576, 0.052767131477594376, 0.037402693182229996], [0.013468044809997082, -0.06793288141489029, -0.0022829174995422363], [0.015612039715051651, 0.07848138362169266, 0.03493088111281395]], [[0.00965974573045969, -0.056977834552526474, 0.04307034611701965], [0.03180008381605148, 0.007949793711304665, 0.10665729641914368], [0.002158595249056816, -0.024248043075203896, 0.05670591816306114]], [[-0.09073416143655777, 0.01411564089357853, 0.02513488195836544], [-0.06869196891784668, 0.05742843449115753, 0.030166123062372208], [-0.03227486461400986, 0.06961806118488312, 0.06225346028804779]], [[-0.061173927038908005, 0.0028189553413540125, 0.05526639521121979], [-0.0046499669551849365, -0.023776840418577194, 0.038708046078681946], [0.0009090058738365769, -0.06374668329954147, 0.05725691467523575]], [[-0.07972602546215057, -0.031723055988550186, 0.08064872771501541], [-0.07237202674150467, 0.049934372305870056, 0.10793355107307434], [-0.04374561086297035, 0.0038061728700995445, 0.04168148338794708]], [[-0.007367345038801432, -0.04671788588166237, -0.04595635458827019], [-0.021455561742186546, 0.025051262229681015, 0.07469061762094498], [0.011200823821127415, -0.08237389475107193, -0.014622274786233902]]], [[[0.020514708012342453, 0.04914651811122894, -0.047742195427417755], [-0.08051963150501251, 0.029137372970581055, 0.06697073578834534], [0.009946593083441257, 0.003851174144074321, -0.0316808819770813]], [[-0.07360409200191498, 0.027895333245396614, 0.014705087058246136], [-0.07335413247346878, -0.01185852475464344, -0.009369853883981705], [-0.05170004069805145, 0.048891372978687286, -0.07715331017971039]], [[0.0230658371001482, -0.03816878795623779, 0.07568372040987015], [0.04862050339579582, 0.06398632377386093, 0.03745751455426216], [0.013960842974483967, -0.09760440140962601, 0.07969234138727188]], [[0.07501593977212906, -0.011794157326221466, -0.0824458971619606], [-0.03933064639568329, 0.07161835581064224, 0.03697452321648598], [0.047648441046476364, -0.046933528035879135, -0.023380806669592857]], [[0.05515027791261673, 0.02316971868276596, 0.03646932542324066], [0.06000378727912903, 0.05640766769647598, -0.09575062990188599], [0.0037717653904110193, -0.0773356631398201, 0.02271489053964615]], [[-0.020221278071403503, -0.01166248694062233, -0.0014783275546506047], [-0.0625222697854042, 0.05480843782424927, -0.022317226976156235], [-0.05114208906888962, 0.0029482750687748194, 0.04024038836359978]], [[-0.03134896233677864, 0.03312973305583, -0.043469857424497604], [-0.07310866564512253, 0.04336925968527794, -0.009884597733616829], [-0.03679550439119339, 0.032552946358919144, -0.008994880132377148]], [[-0.061957571655511856, 0.059103384613990784, 0.05689476430416107], [0.036352142691612244, 0.047272197902202606, -0.04618721455335617], [0.06853232532739639, 0.03798166289925575, -0.020526954904198647]], [[0.03863348439335823, -0.09064003825187683, 0.056063778698444366], [-0.07340087741613388, 0.07583637535572052, 0.05491606146097183], [0.05468223989009857, -0.008136645890772343, -0.06876211613416672]], [[-0.034899257123470306, 3.0119370421743952e-05, -0.03696424514055252], [0.019441593438386917, 0.03491242602467537, -0.07187964022159576], [-0.02034236304461956, 0.053470347076654434, 0.041034337133169174]], [[-0.07434000074863434, -0.089272141456604, 0.01793631725013256], [-0.06568130850791931, 0.04277148097753525, -0.07670310884714127], [-0.07734222710132599, -0.06087757274508476, -0.04769636318087578]], [[-0.023624194785952568, -0.035848211497068405, -0.0400271862745285], [-0.02192915789783001, 0.018227599561214447, -0.06559037417173386], [-0.0648016408085823, 0.021893881261348724, -0.02182583510875702]], [[0.03507975861430168, -0.020377816632390022, -0.029964212328195572], [-0.0011044699931517243, -0.0483887605369091, 0.11224433034658432], [0.03216312825679779, -0.029808901250362396, 0.06414394825696945]], [[-0.07344473898410797, 0.02900843694806099, -0.027481984347105026], [0.008110469207167625, 0.02125694788992405, 0.05078335851430893], [0.044639088213443756, -0.025393186137080193, 0.004541603848338127]], [[-0.04205504432320595, -0.04950850084424019, -0.0835585966706276], [-0.015140327624976635, -0.00400871317833662, -0.043130844831466675], [-0.06900991499423981, 0.06407056003808975, 0.04712714999914169]], [[-0.06582531332969666, 0.020727137103676796, -0.0865154042840004], [0.06816742569208145, -0.018137648701667786, 0.029718438163399696], [0.018582550808787346, 0.06946749985218048, -0.03833924978971481]]], [[[0.04622975364327431, 0.04866601526737213, -0.06050776690244675], [-0.04111890122294426, -0.05027400702238083, 0.04986901208758354], [-0.010882592760026455, -0.08113877475261688, -0.019220316782593727]], [[-0.007104146759957075, -0.05484413355588913, 0.0004385148349683732], [-0.08247102051973343, 0.008963210508227348, 0.08145061880350113], [-0.10459666699171066, 0.0893697738647461, 0.014583846554160118]], [[0.06222717463970184, -0.049226678907871246, -0.04785449802875519], [-0.11740423738956451, 0.032449282705783844, 0.015296870842576027], [-0.035957541316747665, -0.0201877448707819, -0.02639121375977993]], [[-0.049936432391405106, 0.019452370703220367, 0.011271825060248375], [-0.005377840716391802, 0.0067465598694980145, 0.0024798568338155746], [0.05886604264378548, -0.004977439064532518, -0.06638702005147934]], [[-0.023682115599513054, 0.058956343680620193, 0.06003818288445473], [-0.027774782851338387, 0.06931427121162415, 0.06406301259994507], [0.03903787210583687, 0.06998753547668457, -0.007824604399502277]], [[-0.09450575709342957, 0.024541866034269333, -0.03831171616911888], [0.002049995819106698, -0.11893565207719803, 0.060227807611227036], [0.050558533519506454, -0.030036095529794693, 0.04434267058968544]], [[-0.017574531957507133, 0.06101877614855766, 0.0014516632072627544], [-0.008733388967812061, -0.08674326539039612, 0.04583503305912018], [0.06473210453987122, 0.017201440408825874, 0.08117926120758057]], [[0.040552541613578796, 0.06730514019727707, 0.03876731917262077], [0.033831264823675156, 0.03657650947570801, 0.009725823998451233], [-0.012547927908599377, 0.03187189996242523, -0.06964557617902756]], [[-0.07129780203104019, -0.030282074585556984, 0.01114612352102995], [-0.06282051652669907, -0.08600329607725143, 0.010638974606990814], [-0.03528457134962082, -0.04995633289217949, 0.03574687987565994]], [[0.06403015553951263, 0.015710795298218727, 0.005874150432646275], [-0.000890161725692451, 0.08504088968038559, 0.07679672539234161], [0.03158991411328316, -0.0010038131149485707, 0.05416134372353554]], [[-0.01915617100894451, 0.08785442262887955, -0.034490253776311874], [0.010392855852842331, -0.07339545339345932, 0.06247315928339958], [0.05159861221909523, -0.07662352174520493, 0.015701735392212868]], [[-0.038635481148958206, -0.014391228556632996, -0.060183651745319366], [0.02272685430943966, 0.06961829215288162, 0.04721052572131157], [-0.0028233889024704695, 0.021977068856358528, 0.014854323118925095]], [[-0.10776123404502869, -0.04849434271454811, -0.06737200170755386], [-0.0763358399271965, -0.01456127967685461, -0.005862972233444452], [-0.03177196905016899, -0.053445275872945786, -0.03770396113395691]], [[0.07061751186847687, -0.036133237183094025, -0.021237622946500778], [-0.06425531953573227, 0.016211049631237984, 0.03513242304325104], [-0.020496580749750137, -0.0009253900498151779, -0.07463911920785904]], [[0.008187557570636272, 0.0014696699799969792, 0.018779758363962173], [-0.059987545013427734, -0.016602814197540283, -0.04402641952037811], [-0.0009542456245981157, -0.07146327197551727, 0.0076570515520870686]], [[0.06081089749932289, 0.07108616828918457, -0.06284576654434204], [-0.028873126953840256, -0.05116060748696327, -0.07501941174268723], [-0.07018345594406128, 0.030695531517267227, -0.08457811921834946]]], [[[0.05789780244231224, -0.0020864559337496758, 0.07301872968673706], [0.06996423751115799, -0.07117301970720291, 0.01712098903954029], [-0.01466971542686224, -0.08881992101669312, -0.06056361645460129]], [[-0.08429022133350372, 0.01438971422612667, -0.009055751375854015], [0.09749927371740341, -0.039137788116931915, -0.06841326504945755], [-0.025502456352114677, 0.07533759623765945, 0.015780732035636902]], [[-0.054060861468315125, 0.055173423141241074, 0.08042705059051514], [0.05648691579699516, 0.032303337007761, 0.07907611131668091], [0.0396701954305172, -0.09635847061872482, -0.04184927046298981]], [[0.028889959678053856, -0.07124066352844238, 0.039602458477020264], [0.03366674855351448, 0.05436576157808304, 0.00738809909671545], [0.05205033719539642, -0.06788009405136108, 0.07765383273363113]], [[0.03312854841351509, -0.005792723502963781, -0.08544842153787613], [0.042839471250772476, 0.07140392810106277, -0.01682755909860134], [0.008898400701582432, -0.012163946405053139, 0.05967394635081291]], [[-0.07134077697992325, -0.027772119268774986, 0.035593196749687195], [0.009025693871080875, 0.015003405511379242, -0.05429863929748535], [0.03807832673192024, -0.11743009090423584, 0.03439716622233391]], [[0.02966092899441719, -0.04071623831987381, 0.05619244650006294], [0.04042728245258331, 0.004334339406341314, -0.01908300258219242], [0.028306450694799423, 0.02113868109881878, 0.0515720508992672]], [[-0.02370588667690754, -0.08537692576646805, 0.02560863271355629], [0.016121799126267433, 0.056778308004140854, 0.034716688096523285], [0.07029953598976135, 0.07105386257171631, 0.06595728546380997]], [[0.039205897599458694, 0.08666203916072845, 0.07202962040901184], [0.03102579154074192, -0.0647234097123146, 0.059332869946956635], [0.006309452001005411, 0.09940245747566223, 0.04622691497206688]], [[-0.04463411495089531, 0.028829071670770645, -0.010079998522996902], [0.05118291452527046, -0.01731720007956028, 0.031753234565258026], [0.046002961695194244, -0.03228946402668953, 0.0639035627245903]], [[-0.06039030849933624, 0.030032167211174965, -0.02689153142273426], [-0.002274429192766547, -0.06763210892677307, -0.08415955305099487], [0.023283032700419426, 0.013365468010306358, 0.02663036808371544]], [[-0.026530489325523376, 0.06730978190898895, 0.011768756434321404], [0.09527404606342316, -0.02751580998301506, -0.061017222702503204], [-0.016645273193717003, 0.09210990369319916, -0.01737905666232109]], [[0.06376872211694717, 0.013756861910223961, 0.04000423848628998], [0.02216409146785736, 0.04628896713256836, 0.07595320045948029], [0.05834722891449928, -0.032842498272657394, 0.02763453498482704]], [[0.029956605285406113, -0.026054121553897858, 0.0022758173290640116], [0.005535692907869816, -0.029086684808135033, -0.08654129505157471], [-0.03782430291175842, 0.004120623227208853, 0.008241209201514721]], [[-0.03776713088154793, -0.04650580883026123, 0.03665730357170105], [0.002734559588134289, -0.05428231507539749, -0.02956576645374298], [-0.028774801641702652, -0.040368955582380295, -0.04983104392886162]], [[0.03668559715151787, -0.054136935621500015, 0.050925370305776596], [-0.04912852123379707, 0.021665852516889572, -0.018216034397482872], [-0.0397770069539547, -0.03737228736281395, 0.038704872131347656]]], [[[0.023721281439065933, 0.07465515285730362, -0.008711514063179493], [0.04563654214143753, -0.02244313433766365, 0.09682025015354156], [-0.01606631837785244, -0.013312502764165401, 0.07692420482635498]], [[0.012243683449923992, 0.037267524749040604, 0.018893830478191376], [0.05782061070203781, 0.06696183979511261, -0.002486239653080702], [0.03620245307683945, 0.02193685993552208, 0.05509897321462631]], [[0.04971420019865036, 0.06359172612428665, 0.08979993313550949], [0.06476762890815735, -0.001871587010100484, 0.036410532891750336], [-0.0013486255193129182, -0.004392990376800299, 0.008248920552432537]], [[-0.04854021593928337, -0.09609688073396683, -0.019253579899668694], [-0.017245670780539513, -0.06340719014406204, -0.03311712294816971], [0.004111892078071833, -0.0855942964553833, -0.01783118210732937]], [[0.07453345507383347, 0.01166627649217844, -0.051039863377809525], [-0.0485973097383976, 0.059228748083114624, -0.03588219732046127], [0.03274597227573395, 0.09361999481916428, 0.057429663836956024]], [[0.039322126656770706, -0.052474454045295715, -0.09443915635347366], [0.05364777520298958, -0.01845303550362587, -0.00915742851793766], [0.03771952912211418, 0.050068583339452744, -0.05164138600230217]], [[-0.015297695063054562, 0.0005309983971528709, -0.015228544361889362], [-0.03968784585595131, -0.06795533001422882, -0.007877999916672707], [0.019442223012447357, -0.059353142976760864, 0.013174002058804035]], [[-0.055462632328271866, 0.08322989195585251, -0.07291820645332336], [-0.0023942403495311737, 0.007936251349747181, -0.03944220021367073], [0.0610349178314209, -0.0703556165099144, -0.02537318877875805]], [[-0.06581305712461472, -0.0015765230637043715, 0.01019313931465149], [-0.009682527743279934, 0.017383836209774017, 0.052768755704164505], [-0.027294039726257324, -0.08243928849697113, -0.02181597426533699]], [[-0.05434190109372139, -0.07782350480556488, -0.08110196888446808], [-0.07884513586759567, 0.051914237439632416, -0.057762183248996735], [-0.08198633790016174, 0.006493549793958664, -0.06861039251089096]], [[0.06888747215270996, -0.0021745827980339527, 0.017477065324783325], [-0.05020946264266968, 0.06417333334684372, 0.02460029534995556], [0.013321965001523495, 0.023283634334802628, 0.015972211956977844]], [[0.00030844577122479677, 0.019271690398454666, 0.05695364996790886], [-0.01912752166390419, 0.014071931131184101, 0.04712684080004692], [0.1084875613451004, 0.006323028355836868, 0.08257279545068741]], [[-0.05488184094429016, 0.09659138321876526, -0.032655008137226105], [0.02145599015057087, 0.0005760272615589201, 0.008713766932487488], [-0.0575069822371006, -0.03463706001639366, 0.05250022932887077]], [[0.033079374581575394, -0.07543417811393738, -0.06772352755069733], [-0.08192121237516403, 0.04282281547784805, -0.06956808269023895], [-0.07716386765241623, -0.031767990440130234, -0.03892756253480911]], [[0.0594392828643322, 0.09116421639919281, 0.030191199854016304], [-0.07348717749118805, -0.045695461332798004, 0.07363145798444748], [0.010864214040338993, 0.052705127745866776, 0.051650695502758026]], [[0.02135721780359745, 0.0032642546575516462, -0.024083929136395454], [-0.039458487182855606, 0.007531404960900545, 0.06824233382940292], [-0.05134890228509903, 0.03827722370624542, 0.042155660688877106]]], [[[-0.03493846580386162, 0.03144019842147827, -0.012992745265364647], [0.0725439116358757, 0.04312543570995331, 0.024608496576547623], [0.06232113763689995, 0.03999759629368782, -0.07729318737983704]], [[0.00013846180809196085, -0.022396588698029518, -0.021260742098093033], [-0.026844486594200134, -0.06217855587601662, -0.09924732893705368], [-0.05256513133645058, -0.12747855484485626, -0.1113840714097023]], [[0.030922846868634224, 0.08301857858896255, 0.014191074296832085], [0.06332502514123917, -0.0715232640504837, -0.09556268900632858], [-0.03483877703547478, -0.05492429807782173, -0.013151261024177074]], [[0.013842005282640457, -0.016074851155281067, -0.0851261243224144], [-0.07674068212509155, 0.0158713236451149, -0.018710989505052567], [-0.041132453829050064, -0.03448107838630676, -0.00010843007476069033]], [[0.08459185808897018, -0.010682458057999611, 0.06288609653711319], [-0.024165157228708267, -0.0542156919836998, 0.03898034244775772], [0.05145014822483063, 0.003756303107365966, 0.05574703589081764]], [[0.016983332112431526, -0.12255662679672241, -0.053754884749650955], [0.015994569286704063, 0.007126917131245136, -0.11134912073612213], [0.0820050910115242, 0.03383764997124672, 0.06489566713571548]], [[0.08758465945720673, 0.10407699644565582, -0.004234862979501486], [0.09113428741693497, 0.06885943561792374, 0.07499322295188904], [-0.021488815546035767, -0.015557573176920414, 0.11524491757154465]], [[-0.01388627104461193, 0.010406345129013062, 0.023974038660526276], [-0.0626145526766777, -0.07849325239658356, -0.04403756931424141], [-0.03522242605686188, 0.04487723112106323, -0.087320476770401]], [[0.09708067774772644, -0.06725791096687317, -0.060333095490932465], [-0.09784864634275436, 0.05017026886343956, 0.012479542754590511], [-0.022902468219399452, 0.10852068662643433, 0.015475071035325527]], [[-0.02174510434269905, 0.07600182294845581, 0.00935819186270237], [0.028824133798480034, 0.06850044429302216, 0.05343315750360489], [-0.02253822609782219, -0.10376660525798798, -0.043630026280879974]], [[-0.028700917959213257, -0.005618231371045113, -0.08000997453927994], [0.040430210530757904, 0.021118879318237305, -0.000606885296292603], [-0.018448419868946075, -0.06002257391810417, -0.08808264136314392]], [[0.06018928810954094, 0.03086382895708084, -0.03698023781180382], [-0.04549548029899597, 0.013448137789964676, 0.06609168648719788], [-0.03434116765856743, -0.022338803857564926, -0.06521860510110855]], [[-0.019195249304175377, -0.03648882731795311, -0.09408989548683167], [0.012582854367792606, -0.12508511543273926, -0.056248702108860016], [-0.041537318378686905, 0.0015451702056452632, 0.019916610792279243]], [[-0.0015960264718160033, -0.06026962399482727, -0.008504447527229786], [-0.0003239267389290035, 0.052202414721250534, 0.008601764217019081], [0.02032974362373352, 0.015811629593372345, 0.0020514202769845724]], [[-0.11217230558395386, 0.029109327122569084, -0.024420857429504395], [-0.0072153545916080475, 0.03658252954483032, 0.022281447425484657], [0.012853673659265041, 0.04393841698765755, 0.038272298872470856]], [[0.08738371729850769, 0.061529796570539474, -0.023031288757920265], [-0.02290002629160881, 0.009348428808152676, -0.053351424634456635], [0.03593236953020096, 0.046003926545381546, -0.01806991919875145]]], [[[0.03663656860589981, 0.02131560444831848, -0.07959996908903122], [0.07101363688707352, 0.0327397882938385, -0.026752933859825134], [-0.02765602245926857, 0.005636314395815134, 0.07114266604185104]], [[0.051775138825178146, -0.0700426697731018, -0.013688412494957447], [-0.04901806265115738, 0.022662268951535225, 0.03489265963435173], [-0.029892127960920334, 0.11033494025468826, 0.04327130690217018]], [[0.029003700241446495, 0.07489986717700958, -0.11302606761455536], [0.040859825909137726, 0.0328984372317791, 0.015425844117999077], [-0.09560024738311768, -0.04495922103524208, -0.06565075367689133]], [[-0.017892975360155106, 0.06588879972696304, 0.07200115919113159], [-0.05722169205546379, -0.07394358515739441, -0.05625985935330391], [0.03074279986321926, 0.01647014543414116, 0.011794321238994598]], [[-0.08192513138055801, -0.09204237163066864, -0.05813029035925865], [0.008589777164161205, -0.04623548686504364, -0.0876520499587059], [0.06722323596477509, 0.0072477119974792, 0.04411264881491661]], [[-0.05024803429841995, 0.034434445202350616, 0.054662641137838364], [0.011377842165529728, 0.04604832082986832, 0.03708409145474434], [0.03758380934596062, -0.09576226025819778, -0.1003560870885849]], [[0.038087617605924606, 0.06237433850765228, -0.03375919163227081], [-0.0485379695892334, 0.050236258655786514, -0.05172518268227577], [0.0030206197407096624, 0.002309043426066637, 0.03196650370955467]], [[-0.055607955902814865, 0.05726088955998421, 0.016102507710456848], [0.025457285344600677, -0.03147902339696884, -0.044082820415496826], [0.007520426530390978, -0.0367288738489151, -0.013498502783477306]], [[0.03870730847120285, 0.04413514584302902, 0.01177170779556036], [-0.036559831351041794, -0.05729799345135689, -0.0776747390627861], [-0.038696642965078354, -0.04208153113722801, 0.04301374405622482]], [[0.02606678009033203, 0.02771017886698246, -0.0673934742808342], [-0.0033821824472397566, 0.05955524370074272, -0.0007708501070737839], [0.033298932015895844, -0.024117227643728256, 0.07497604936361313]], [[-0.06413699686527252, 0.0331546813249588, -0.04267764091491699], [0.03272834047675133, -0.06517013907432556, -0.03993109613656998], [-0.028016308322548866, 0.02483207918703556, 0.003098953515291214]], [[-0.12125761061906815, 0.01904444396495819, -0.07721085846424103], [0.057253383100032806, 0.020912542939186096, -0.10184419900178909], [-0.07024556398391724, -0.10746366530656815, -0.003872590372338891]], [[0.03718847781419754, 0.02508210577070713, -0.07485385239124298], [0.023533053696155548, -0.06862392276525497, -0.09689407050609589], [-0.05210334435105324, -0.08772771060466766, -0.014613996259868145]], [[-0.02449481002986431, 0.010400070808827877, 0.03206060081720352], [0.06700743734836578, -0.007444833870977163, -0.04169275239109993], [-0.04957851395010948, 0.044632747769355774, 0.00852393452078104]], [[-0.021384159103035927, 0.035964805632829666, -0.04430461302399635], [-0.03624958172440529, -0.012055592611432076, -0.025592107325792313], [0.1065724566578865, 0.02188420481979847, 0.031048987060785294]], [[-0.019073300063610077, 0.01694604940712452, -0.039290204644203186], [0.045662201941013336, -0.034384552389383316, -0.07795395702123642], [-0.04724246263504028, -0.022101271897554398, -0.0582331120967865]]]], "encoder.6.bias": [0.03830534964799881, 0.042212143540382385, 0.013315688818693161, -0.05508459731936455, -0.005156500265002251, -0.03966758772730827, -0.03222610056400299, 0.0024524973705410957, -0.010181384161114693, -0.07035283744335175, -0.014344118535518646, 0.08525777608156204, 0.0789712443947792, -0.038011107593774796, -0.07260069996118546, 0.05368911847472191], "encoder.8.weight": [[[[-0.043916746973991394, -0.06612920016050339, 0.08711983263492584], [-0.029851829633116722, 0.06783744692802429, 0.05939944460988045], [-0.0016204077983275056, 0.02941913902759552, 0.07442092150449753]], [[0.01989397034049034, -0.08468589931726456, 0.06842605769634247], [-0.03576960042119026, -0.025608792901039124, 0.0317666120827198], [0.02777392789721489, -0.03697085380554199, 0.007637001108378172]], [[-0.02574804052710533, 0.011799430474638939, 0.016484033316373825], [0.11199347674846649, -0.0166294127702713, 0.006752034183591604], [0.013549246825277805, 0.038127485662698746, -0.005855998024344444]], [[-0.07748162001371384, -0.09847520291805267, -0.057339735329151154], [-0.056732356548309326, 0.02477855421602726, 0.014688000082969666], [-0.014886496588587761, 0.02490069530904293, -0.06034904345870018]], [[0.022613007575273514, -0.04957159608602524, 0.06776057928800583], [-0.05154955014586449, 0.08386290818452835, -0.036295607686042786], [-0.03514254838228226, 0.0798797681927681, 0.042526066303253174]], [[-0.0646161139011383, -0.05611850321292877, -0.08048226684331894], [0.054792728275060654, 0.022848978638648987, 0.04943794012069702], [0.032369986176490784, 0.08122187107801437, -0.011419752612709999]], [[-0.009138776920735836, -0.043969862163066864, 0.04941654950380325], [-0.007417518645524979, -0.040788207203149796, 0.015244034118950367], [0.0158226415514946, -0.013526145368814468, -0.05330720916390419]], [[-0.06322647631168365, -0.06440611928701401, 0.00040020307642407715], [-0.04803727939724922, -0.02940487116575241, -0.04088174179196358], [-0.015085260383784771, -0.0740145891904831, 0.08914446830749512]], [[-0.01564924418926239, -0.03615426644682884, -0.027556955814361572], [-0.08365865796804428, 0.025649895891547203, 0.06141031160950661], [0.07162469625473022, -0.0036132431123405695, -0.023750372231006622]], [[0.012029252015054226, -0.0427008792757988, 0.011818025261163712], [-0.04737919569015503, 0.015268029645085335, -0.016315320506691933], [-0.037240419536828995, 0.029840383678674698, -0.049743711948394775]], [[0.005799937527626753, -0.025003474205732346, -0.04507511854171753], [0.06539294868707657, -0.03842184692621231, -0.03235190361738205], [-0.057281263172626495, 0.09264165163040161, 0.06443889439105988]], [[0.04026350751519203, -0.05400267243385315, 0.09547103941440582], [-0.013545767404139042, 0.04133680835366249, 0.007759101688861847], [0.05420485511422157, 0.03213399648666382, 0.0806245282292366]], [[0.055317819118499756, -0.022329162806272507, 0.05855490267276764], [0.09220462292432785, 0.09243585914373398, 0.0851578563451767], [-0.042565152049064636, -0.006021001376211643, -0.05843110382556915]], [[0.10166885703802109, 0.005399542860686779, -0.0636148676276207], [-0.06884045898914337, 0.019442573189735413, -0.07112163305282593], [0.025867128744721413, 0.008003869093954563, 0.03692317008972168]], [[-0.08620837330818176, -0.05659329891204834, 0.05354151874780655], [0.06857531517744064, -0.04884806647896767, -0.006880910601466894], [-0.039578720927238464, 0.00648613553494215, -0.09167122840881348]], [[-0.035850055515766144, 0.0008093487122096121, -0.0344526432454586], [-0.056237827986478806, 0.020317643880844116, 0.04330262169241905], [-0.037550438195466995, -0.017536958679556847, 0.010450849309563637]]], [[[0.05644894763827324, 0.07511746883392334, 0.06043534353375435], [0.0033010903280228376, -0.056025728583335876, -0.004359539598226547], [-0.05679468438029289, -0.05190274119377136, 0.012621448375284672]], [[-0.015480665490031242, -0.044942907989025116, 0.0003405790776014328], [-0.04920476675033569, 0.0002968199842143804, 0.039102256298065186], [0.010048003867268562, -0.015892300754785538, -0.08563760668039322]], [[-0.038677867501974106, 0.04708186909556389, -0.08829984813928604], [0.0786762535572052, -0.05314477160573006, -0.05967733636498451], [0.03398391604423523, -0.07076029479503632, 0.05153759941458702]], [[-0.07638333737850189, -0.012292400002479553, 0.09394003450870514], [0.09295375645160675, 0.0843605101108551, 0.060551539063453674], [-0.010633992031216621, -0.000690943852532655, 0.125351682305336]], [[0.029067274183034897, 0.0043476480059325695, 0.018628325313329697], [-0.030055582523345947, -0.02690930850803852, 0.0713680312037468], [-0.009012111462652683, -0.06422317773103714, -0.05595206096768379]], [[0.062167003750801086, 0.003277143696323037, -0.0602043941617012], [-0.07878201454877853, 0.0739690512418747, -0.03419024869799614], [-0.04934973642230034, -0.023856665939092636, -0.0010338095016777515]], [[0.06415008753538132, -0.002929071430116892, -0.026204634457826614], [-0.0043564424850046635, -0.0654023215174675, -0.07315678894519806], [0.07718707621097565, 0.022837184369564056, -0.06223224103450775]], [[-0.021965105086565018, -0.05175286903977394, 0.08304698020219803], [0.08351847529411316, -0.027548814192414284, -0.07169373333454132], [0.07977096736431122, -0.08641582727432251, -0.06851537525653839]], [[0.06068827211856842, 0.02670750580728054, -0.06889078766107559], [-0.025280987843871117, 0.057137712836265564, -0.02419338747859001], [-0.02355964668095112, -0.022507820278406143, -0.023792153224349022]], [[0.054108139127492905, 0.05183849856257439, 0.09221715480089188], [0.11742274463176727, -0.043553855270147324, -0.05424956977367401], [0.04763835296034813, -0.00900335144251585, -0.06476923078298569]], [[-0.03302239254117012, 0.01037595421075821, 0.0051928735338151455], [0.006390585098415613, 0.057119276374578476, -0.021996984258294106], [-0.06588554382324219, 0.08274412155151367, -0.06276880949735641]], [[0.03857802599668503, 